{"learner":{"attributes":{"best_iteration":"167","best_ntree_limit":"168","best_score":"0.8512386278875911"},"feature_names":[],"feature_types":[],"gradient_booster":{"model":{"gbtree_model_param":{"num_parallel_tree":"1","num_trees":"178","size_leaf_vector":"0"},"tree_info":[0,0,0,0,0,0,0,0,0,0,0,0,0,0,0,0,0,0,0,0,0,0,0,0,0,0,0,0,0,0,0,0,0,0,0,0,0,0,0,0,0,0,0,0,0,0,0,0,0,0,0,0,0,0,0,0,0,0,0,0,0,0,0,0,0,0,0,0,0,0,0,0,0,0,0,0,0,0,0,0,0,0,0,0,0,0,0,0,0,0,0,0,0,0,0,0,0,0,0,0,0,0,0,0,0,0,0,0,0,0,0,0,0,0,0,0,0,0,0,0,0,0,0,0,0,0,0,0,0,0,0,0,0,0,0,0,0,0,0,0,0,0,0,0,0,0,0,0,0,0,0,0,0,0,0,0,0,0,0,0,0,0,0,0,0,0,0,0,0,0,0,0,0,0,0,0,0,0],"trees":[{"base_weights":[-2.9302025E-1,8.831435E-3,-4.969524E-1,-4.6505797E-1,1.3055712E-1,-8.5086507E-1,-2.5357246E-1,1.8826135E-2,-1.0943124E0,5.293906E-1,1.5925543E-2,-4.5330802E-1,-1.0504309E0,4.5484325E-1,-3.8435638E-1,-3.576751E-1,2.4231783E-1,-7.160194E-1,-1.6309315E0,7.464503E-1,2.788906E-1,-1.6275243E-1,4.161927E-1,-7.27043E-1,3.7008873E-1,-1.1601765E0,-5.033113E-1,-4.239766E-2,1.3350582E0,1.8882257E-1,-4.928161E-1,-7.5242716E-1,2.5855514E-1,8.4656084E-1,1.1949685E-1,-1.0658915E0,-1.2179487E-1,-1.1282052E0,-5.603175E-1,2.2560975E-1,8.900433E-1,-1.5416667E-1,5.328467E-1,-3.457676E-1,1.4200239E-1,8.3975154E-1,2.5868374E-1,2.1454546E-1,-1.0098468E0,1.0203046E0,-2.706767E-1,-6.436597E-1,-1.3205742E0,6.514658E-2,-7.34748E-1,-1.5089821E0,1.593361E-1,1.4986149E0,-8.727273E-1,-8.2758623E-1,5.5982274E-1,6.9296375E-2,-6.267785E-1,-1.046595E0,-1.1678832E-1,4.5188284E-1,-1.3571428E0,-4.5714286E-1,1.1265823E0,-2.3529412E-1,4.9892473E-1,-1.199115E0,-8.82353E-2,8.333333E-1,-4.7413793E-1,-1.3139535E0,1.4814815E-1,3.672131E-1,-1.3333334E0,-2.8846154E-1,1.0047393E0,-6.454545E-1,2.5E-1,9.195402E-2,7.292035E-1,-8.9955024E-2,-5.784897E-1,4.0318626E-1,-3.4129694E-1,3.066202E-1,1.1226053E0,5.323887E-1,3.156146E-2,-8.4018266E-1,9.074627E-1,-1.2068199E0,-4.4720498E-1,4.021739E-1,1.5233645E0,5.8598727E-1,-8.211382E-1,-9.089184E-1,7.8571427E-1,-3.7818182E-1,-1.3886486E0,-4.4843048E-1,1.3863636E0,-2.7553445E-1,-1.2937685E0,1.0909092E-1,-1.6125E0,8.125E-1,-1.0735123E-1,-8.510638E-2,1.6023564E0,-1.3617021E0,3.5E-1,-1.4539007E0,-0E0,8.3490163E-1,-1.1428572E0,3.916591E-1,-3.8610038E-1,-6.432045E-1,1.451613E0,-4.5354334E-1,-1.8846154E-1,2.1176472E-1,-1.8E-1,4.3333337E-2,3.8095242E-1,-4.7500002E-1,-0E0,-3.652174E-1,1.875E-1,3.7350994E-1,-2.1818183E-1,-1.1639724E-1,2.3437501E-1,2.1567568E-1,-9.69697E-2,-4.9891308E-1,-2.5808823E-1,2.0487806E-1,-3.483871E-1,-5.6250002E-2,4.1785717E-1,-2.4277458E-1,1.3333334E-1,-5.393259E-1,-2.2068967E-1,3.2000002E-1,-1.875E-1,-2.3333335E-1,1.8352942E-1,-4.6956524E-1,-0E0,-2.278481E-1,2.8965518E-1,3.829091E-1,2.0982319E-1,-1.1214953E-2,-3.48718E-1,-3.508772E-2,2.7216497E-1,-7.292818E-2,2.5E-1,1.195946E-1,3.2087916E-1,1.966581E-2,-1.8975501E-1,-1.9101451E-1,1.3109244E-1,2.1409397E-1,7.2776284E-3,1.341615E-1,-1.5540168E-1,3.1176472E-1,-2.5396826E-2,3.8735893E-1,4.3373495E-2,1.8762216E-1,-2.028169E-1,4.9052846E-2,-1.8146342E-1,-4.6730772E-1,-5.0420173E-2,3.6363637E-1,-3.857143E-1,-3.935E-1,-1.0196079E-1,1.273585E-1,-3.3600003E-1,-1.4025974E-1,3.0270272E-1,5.258065E-1,-0E0,-4.6875E-2,3.216495E-1,3.1111112E-1,-3.1210765E-1,5.7894737E-2,-3.1207627E-1,-1.0909092E-1,4.487805E-1,-3.2352942E-1,6.7796614E-3,-4.9191922E-1,-3.4557754E-1,2.0454547E-1,-2.1639344E-1,-2.1818183E-1,4.888889E-1,-2.7486035E-1,5.6097563E-2,1.6551724E-1,-4.365385E-1,-5.50376E-1,-1.1612903E-1,3.0688524E-1,-1.4117648E-1,-1.9948052E-1,1.0210085E-1,2.6086956E-1,-2.7857143E-1,2.6500002E-1,5.222025E-1,-0E0,-4.95E-1,8.0000006E-2,-4.6051663E-1,3.3684212E-1,-1.14814825E-1,-4.52381E-2,3.3094463E-1,2.526316E-1,-4.0344828E-1,-2.2429907E-1,1.542E-1,-1.650838E-1,4.246154E-1,-2.5584066E-1,-1.5432455E-1,-0E0,5.192308E-1],"categories":[],"categories_nodes":[],"categories_segments":[],"categories_sizes":[],"default_left":[0,0,0,0,0,0,0,0,0,0,0,0,0,0,0,0,0,0,0,0,0,0,0,0,0,0,0,0,0,0,0,0,0,0,0,0,0,0,0,0,0,0,0,0,0,0,0,0,0,0,0,0,0,0,0,0,0,0,0,0,0,0,0,0,0,0,0,0,0,0,0,0,0,0,0,0,0,0,0,0,0,0,0,0,0,0,0,0,0,0,0,0,0,0,0,0,0,0,0,0,0,0,0,0,0,0,0,0,0,0,0,0,0,0,0,0,0,0,0,0,0,0,0,0,0,0,0,0,0,0,0,0,0,0,0,0,0,0,0,0,0,0,0,0,0,0,0,0,0,0,0,0,0,0,0,0,0,0,0,0,0,0,0,0,0,0,0,0,0,0,0,0,0,0,0,0,0,0,0,0,0,0,0,0,0,0,0,0,0,0,0,0,0,0,0,0,0,0,0,0,0,0,0,0,0,0,0,0,0,0,0,0,0,0,0,0,0,0,0,0,0,0,0,0,0,0,0,0,0,0,0,0,0,0,0,0,0,0,0,0,0,0,0,0,0],"id":0,"left_children":[1,3,5,7,9,11,13,15,17,19,21,23,25,27,29,31,33,35,37,39,41,43,45,47,49,51,53,55,57,59,61,63,65,67,69,71,73,75,-1,77,79,81,83,85,87,89,91,93,95,97,99,101,103,105,107,109,111,113,115,117,119,121,123,125,127,129,131,133,135,137,139,141,143,145,147,149,151,153,155,157,159,161,163,165,167,169,171,173,175,177,179,181,183,185,187,189,191,193,195,197,199,201,203,205,207,209,211,213,215,-1,217,219,221,223,225,227,-1,229,231,233,235,237,239,241,243,-1,-1,-1,-1,-1,-1,-1,-1,-1,-1,-1,-1,-1,-1,-1,-1,-1,-1,-1,-1,-1,-1,-1,-1,-1,-1,-1,-1,-1,-1,-1,-1,-1,-1,-1,-1,-1,-1,-1,-1,-1,-1,-1,-1,-1,-1,-1,-1,-1,-1,-1,-1,-1,-1,-1,-1,-1,-1,-1,-1,-1,-1,-1,-1,-1,-1,-1,-1,-1,-1,-1,-1,-1,-1,-1,-1,-1,-1,-1,-1,-1,-1,-1,-1,-1,-1,-1,-1,-1,-1,-1,-1,-1,-1,-1,-1,-1,-1,-1,-1,-1,-1,-1,-1,-1,-1,-1,-1,-1,-1,-1,-1,-1,-1,-1,-1,-1,-1,-1,-1],"loss_changes":[5.966614E2,2.25238E2,4.9737378E2,2.4346223E2,1.4189326E2,1.8563477E2,3.178343E2,3.8020412E1,6.815021E1,3.697354E1,1.7309146E2,1.7845123E2,9.264319E1,2.345329E2,1.8026462E2,4.1248035E1,2.0548162E1,4.210427E1,1.3328674E1,2.6894638E1,3.5959198E1,9.336453E1,4.908583E1,1.5865439E2,8.28324E1,1.0613953E2,3.5147926E1,1.02099236E2,7.1403046E1,1.7407263E2,1.8375769E2,1.8555485E1,2.0698256E1,1.8099049E1,3.2355507E1,1.6052368E1,2.6465076E1,1.2335239E1,0E0,1.8108187E1,3.9678253E1,2.4186552E1,1.7312977E1,6.1855743E1,7.9283195E1,2.9289322E1,3.3705196E1,1.01286476E2,4.9280396E1,2.905381E1,4.763692E1,1.1888219E2,6.2279297E1,5.316912E1,4.7248665E1,9.304024E0,5.2914696E1,3.055072E1,1.53978405E1,6.461103E1,1.5934389E2,6.9004585E1,6.771661E1,1.1556511E1,1.3985788E1,1.4134879E1,2.1488094E0,8.255668E0,9.838188E0,1.9237709E1,2.1456333E1,1.5069946E1,1.5099747E1,1.2858632E1,1.8396015E1,9.441849E0,5.681019E0,2.1743523E1,2.086957E0,1.5987564E1,1.9993439E1,1.6645117E1,1.6418558E1,1.6705643E1,1.4732758E1,4.2532303E1,3.267552E1,4.761164E1,3.0885939E1,2.1132198E1,2.0613129E1,2.81622E1,2.5155273E1,2.5278473E1,5.748088E1,2.9383392E1,7.1642815E1,2.5019827E1,1.868988E1,1.4789207E1,2.6132587E1,3.875786E1,4.1108467E1,1.9846735E1,5.169458E1,1.7706152E1,1.2948231E1,3.1724154E1,2.6343185E1,0E0,9.064819E0,2.4519943E1,5.387038E1,1.0298434E1,1.4032745E1,5.437767E0,0E0,1.08875885E1,2.389701E1,7.791632E1,2.0326553E1,3.870309E1,5.7798836E1,5.161035E1,6.281021E0,0E0,0E0,0E0,0E0,0E0,0E0,0E0,0E0,0E0,0E0,0E0,0E0,0E0,0E0,0E0,0E0,0E0,0E0,0E0,0E0,0E0,0E0,0E0,0E0,0E0,0E0,0E0,0E0,0E0,0E0,0E0,0E0,0E0,0E0,0E0,0E0,0E0,0E0,0E0,0E0,0E0,0E0,0E0,0E0,0E0,0E0,0E0,0E0,0E0,0E0,0E0,0E0,0E0,0E0,0E0,0E0,0E0,0E0,0E0,0E0,0E0,0E0,0E0,0E0,0E0,0E0,0E0,0E0,0E0,0E0,0E0,0E0,0E0,0E0,0E0,0E0,0E0,0E0,0E0,0E0,0E0,0E0,0E0,0E0,0E0,0E0,0E0,0E0,0E0,0E0,0E0,0E0,0E0,0E0,0E0,0E0,0E0,0E0,0E0,0E0,0E0,0E0,0E0,0E0,0E0,0E0,0E0,0E0,0E0,0E0,0E0,0E0,0E0,0E0,0E0,0E0,0E0,0E0,0E0,0E0],"parents":[2147483647,0,0,1,1,2,2,3,3,4,4,5,5,6,6,7,7,8,8,9,9,10,10,11,11,12,12,13,13,14,14,15,15,16,16,17,17,18,18,19,19,20,20,21,21,22,22,23,23,24,24,25,25,26,26,27,27,28,28,29,29,30,30,31,31,32,32,33,33,34,34,35,35,36,36,37,37,39,39,40,40,41,41,42,42,43,43,44,44,45,45,46,46,47,47,48,48,49,49,50,50,51,51,52,52,53,53,54,54,55,55,56,56,57,57,58,58,59,59,60,60,61,61,62,62,63,63,64,64,65,65,66,66,67,67,68,68,69,69,70,70,71,71,72,72,73,73,74,74,75,75,76,76,77,77,78,78,79,79,80,80,81,81,82,82,83,83,84,84,85,85,86,86,87,87,88,88,89,89,90,90,91,91,92,92,93,93,94,94,95,95,96,96,97,97,98,98,99,99,100,100,101,101,102,102,103,103,104,104,105,105,106,106,107,107,108,108,110,110,111,111,112,112,113,113,114,114,115,115,117,117,118,118,119,119,120,120,121,121,122,122,123,123,124,124],"right_children":[2,4,6,8,10,12,14,16,18,20,22,24,26,28,30,32,34,36,38,40,42,44,46,48,50,52,54,56,58,60,62,64,66,68,70,72,74,76,-1,78,80,82,84,86,88,90,92,94,96,98,100,102,104,106,108,110,112,114,116,118,120,122,124,126,128,130,132,134,136,138,140,142,144,146,148,150,152,154,156,158,160,162,164,166,168,170,172,174,176,178,180,182,184,186,188,190,192,194,196,198,200,202,204,206,208,210,212,214,216,-1,218,220,222,224,226,228,-1,230,232,234,236,238,240,242,244,-1,-1,-1,-1,-1,-1,-1,-1,-1,-1,-1,-1,-1,-1,-1,-1,-1,-1,-1,-1,-1,-1,-1,-1,-1,-1,-1,-1,-1,-1,-1,-1,-1,-1,-1,-1,-1,-1,-1,-1,-1,-1,-1,-1,-1,-1,-1,-1,-1,-1,-1,-1,-1,-1,-1,-1,-1,-1,-1,-1,-1,-1,-1,-1,-1,-1,-1,-1,-1,-1,-1,-1,-1,-1,-1,-1,-1,-1,-1,-1,-1,-1,-1,-1,-1,-1,-1,-1,-1,-1,-1,-1,-1,-1,-1,-1,-1,-1,-1,-1,-1,-1,-1,-1,-1,-1,-1,-1,-1,-1,-1,-1,-1,-1,-1,-1,-1,-1,-1,-1],"split_conditions":[-1.0552083E1,2E0,-8.7544334E1,-1.0992333E1,-1.5125E1,-1.01875E1,-8.850657E1,-1.75125E1,-9.479167E0,-9.14875E1,-1.025E1,-7.57875E1,-8.344417E1,-7.6875E0,-1.1369833E1,-8.778125E1,-1.534375E1,-1.865625E1,-1.1175E1,-1.04875E2,-1.5844E1,-9.297115E1,-1.2729167E1,-9.7205284E1,-1.1735666E1,-8.446875E1,-1.1747857E1,-1.0125E2,-1.2502143E1,-1.1864667E1,-1.125E1,-1.659659E1,-1.0607429E1,-1.7533653E1,-8.73E1,-7.6416664E1,-1.523125E1,-1.7854166E1,-5.603175E-1,-1.05625E1,-1.0153384E2,-1.4494792E1,-1.8E1,-1.3075E1,-7.9173615E1,-1.3083333E1,-1.6885416E1,-9.30065E1,-1.0989667E1,-7.672517E1,-8.85025E1,-7.8492165E1,-8.691875E1,-1.0594E1,-1.0752666E1,-1.2645833E1,-9.56875E1,-8.275E1,-1.0597667E1,-7.745757E1,-6.9837166E1,-9.084375E1,-5.475E0,-9.949733E1,-9.97125E1,-1.01625E1,-7.45E1,-1.2350333E1,-7.175E1,-7.084E1,1E0,-1.8375E1,-1.1697115E1,2E0,-1.015E1,-9.23125E1,-1.018E2,-1.6583334E1,5E0,-9.42565E1,-9.9425E1,-9.01125E1,-8.171875E1,-7.6325E1,-1.63125E1,-9.53125E1,-8.5791664E1,-8.6425E1,-1.9183666E1,-1.18671665E1,1E0,-6.375E1,-7.7296875E1,-1.6677084E1,-9.302333E1,-1.3315166E1,-8.248558E1,-8.23125E1,-7.91705E1,-1.8102833E1,-9.2275E1,-1.0279967E2,-8.489583E0,-9.07875E1,-7.992414E1,-1.5442E1,-1.2970717E2,-7.598528E1,-1.25963335E1,1.0909092E-1,-9.817789E1,-6.7365E1,-7.7974E1,-1.01E1,-1.1868286E1,-8.6125E0,3.5E-1,-1.828125E1,-8.090625E1,-8.100767E1,-1.2525714E1,2E0,-6.703125E0,2E0,-1.8802084E1,-4.5354334E-1,-1.8846154E-1,2.1176472E-1,-1.8E-1,4.3333337E-2,3.8095242E-1,-4.7500002E-1,-0E0,-3.652174E-1,1.875E-1,3.7350994E-1,-2.1818183E-1,-1.1639724E-1,2.3437501E-1,2.1567568E-1,-9.69697E-2,-4.9891308E-1,-2.5808823E-1,2.0487806E-1,-3.483871E-1,-5.6250002E-2,4.1785717E-1,-2.4277458E-1,1.3333334E-1,-5.393259E-1,-2.2068967E-1,3.2000002E-1,-1.875E-1,-2.3333335E-1,1.8352942E-1,-4.6956524E-1,-0E0,-2.278481E-1,2.8965518E-1,3.829091E-1,2.0982319E-1,-1.1214953E-2,-3.48718E-1,-3.508772E-2,2.7216497E-1,-7.292818E-2,2.5E-1,1.195946E-1,3.2087916E-1,1.966581E-2,-1.8975501E-1,-1.9101451E-1,1.3109244E-1,2.1409397E-1,7.2776284E-3,1.341615E-1,-1.5540168E-1,3.1176472E-1,-2.5396826E-2,3.8735893E-1,4.3373495E-2,1.8762216E-1,-2.028169E-1,4.9052846E-2,-1.8146342E-1,-4.6730772E-1,-5.0420173E-2,3.6363637E-1,-3.857143E-1,-3.935E-1,-1.0196079E-1,1.273585E-1,-3.3600003E-1,-1.4025974E-1,3.0270272E-1,5.258065E-1,-0E0,-4.6875E-2,3.216495E-1,3.1111112E-1,-3.1210765E-1,5.7894737E-2,-3.1207627E-1,-1.0909092E-1,4.487805E-1,-3.2352942E-1,6.7796614E-3,-4.9191922E-1,-3.4557754E-1,2.0454547E-1,-2.1639344E-1,-2.1818183E-1,4.888889E-1,-2.7486035E-1,5.6097563E-2,1.6551724E-1,-4.365385E-1,-5.50376E-1,-1.1612903E-1,3.0688524E-1,-1.4117648E-1,-1.9948052E-1,1.0210085E-1,2.6086956E-1,-2.7857143E-1,2.6500002E-1,5.222025E-1,-0E0,-4.95E-1,8.0000006E-2,-4.6051663E-1,3.3684212E-1,-1.14814825E-1,-4.52381E-2,3.3094463E-1,2.526316E-1,-4.0344828E-1,-2.2429907E-1,1.542E-1,-1.650838E-1,4.246154E-1,-2.5584066E-1,-1.5432455E-1,-0E0,5.192308E-1],"split_indices":[313,295,318,319,313,9,28,315,315,8,233,136,286,281,317,250,313,315,267,186,159,298,313,12,189,312,13,314,47,61,25,235,205,153,264,264,313,267,0,89,316,265,251,313,104,297,139,316,253,76,46,188,152,253,237,233,40,296,173,172,204,58,313,174,26,249,8,189,24,46,305,91,201,167,265,154,280,153,71,140,170,90,74,40,155,312,264,232,47,157,305,216,312,91,14,239,312,282,316,143,298,316,217,298,188,13,254,316,77,0,216,312,300,153,237,105,0,89,296,252,13,39,265,295,59,0,0,0,0,0,0,0,0,0,0,0,0,0,0,0,0,0,0,0,0,0,0,0,0,0,0,0,0,0,0,0,0,0,0,0,0,0,0,0,0,0,0,0,0,0,0,0,0,0,0,0,0,0,0,0,0,0,0,0,0,0,0,0,0,0,0,0,0,0,0,0,0,0,0,0,0,0,0,0,0,0,0,0,0,0,0,0,0,0,0,0,0,0,0,0,0,0,0,0,0,0,0,0,0,0,0,0,0,0,0,0,0,0,0,0,0,0,0,0,0],"split_type":[0,0,0,0,0,0,0,0,0,0,0,0,0,0,0,0,0,0,0,0,0,0,0,0,0,0,0,0,0,0,0,0,0,0,0,0,0,0,0,0,0,0,0,0,0,0,0,0,0,0,0,0,0,0,0,0,0,0,0,0,0,0,0,0,0,0,0,0,0,0,0,0,0,0,0,0,0,0,0,0,0,0,0,0,0,0,0,0,0,0,0,0,0,0,0,0,0,0,0,0,0,0,0,0,0,0,0,0,0,0,0,0,0,0,0,0,0,0,0,0,0,0,0,0,0,0,0,0,0,0,0,0,0,0,0,0,0,0,0,0,0,0,0,0,0,0,0,0,0,0,0,0,0,0,0,0,0,0,0,0,0,0,0,0,0,0,0,0,0,0,0,0,0,0,0,0,0,0,0,0,0,0,0,0,0,0,0,0,0,0,0,0,0,0,0,0,0,0,0,0,0,0,0,0,0,0,0,0,0,0,0,0,0,0,0,0,0,0,0,0,0,0,0,0,0,0,0,0,0,0,0,0,0,0,0,0,0,0,0,0,0,0,0,0,0],"sum_hessian":[9.68775E3,3.9055E3,5.78225E3,7.9675E2,3.10875E3,2.35425E3,3.428E3,4.505E2,3.4625E2,6.9225E2,2.4165E3,7.8875E2,1.5655E3,5.3325E2,2.89475E3,1.6675E2,2.8375E2,2.05E2,1.4125E2,3.6875E2,3.235E2,1.67025E3,7.4625E2,5.925E2,1.9625E2,1.30225E3,2.6325E2,3.41E2,1.9225E2,4.5975E2,2.435E3,1.02E2,6.475E1,4.625E1,2.375E2,1.28E2,7.7E1,4.775E1,9.35E1,8.1E1,2.8775E2,1.19E2,2.045E2,1.0445E3,6.2575E2,2.0025E2,5.46E2,1.365E2,4.56E2,9.75E1,9.875E1,3.105E2,9.9175E2,7.575E1,1.875E2,4.075E1,3.0025E2,1.795E2,1.275E1,1.2225E2,3.375E2,4.68E2,1.967E3,6.875E1,3.325E1,5.875E1,6E0,7.75E0,3.85E1,1.2225E2,1.1525E2,1.12E2,1.6E1,2E1,5.7E1,4.2E1,5.75E0,7.525E1,5.75E0,2.5E1,2.6275E2,5.4E1,6.5E1,6.425E1,1.4025E2,4.9925E2,5.4525E2,4.07E2,2.1875E2,7.075E1,1.295E2,2.46E2,3E2,5.375E1,8.275E1,3.3625E2,1.1975E2,4.5E1,5.25E1,3.825E1,6.05E1,2.625E2,4.8E1,6.775E1,9.24E2,5.475E1,2.1E1,1.0425E2,8.325E1,1.75E0,3.9E1,8.7E1,2.1325E2,1.075E1,1.6875E2,1.075E1,2E0,6.95E1,5.275E1,2.9125E2,4.625E1,2.7475E2,1.9325E2,1.9525E3,1.45E1,3.075E1,3.8E1,1.175E1,2.15E1,4.4E1,1.475E1,5E0,1E0,4.75E0,3E0,3.675E1,1.75E0,1.0725E2,1.5E1,9.15E1,2.375E1,4.5E1,6.7E1,9.25E0,6.75E0,7E0,1.3E1,4.225E1,1.475E1,2.125E1,2.075E1,2.75E0,3E0,1.25E1,6.275E1,4.75E0,1E0,1.875E1,6.25E0,1.365E2,1.2625E2,2.575E1,2.825E1,4.175E1,2.325E1,4.425E1,2E1,7.3E1,6.725E1,3.88E2,1.1125E2,5.165E2,2.875E1,2.225E2,1.845E2,3.925E1,1.795E2,2.45E1,4.625E1,1.0975E2,1.975E1,2.2925E2,1.675E1,2.4975E2,5.025E1,2.5E1,2.875E1,7.325E1,9.5E0,2.99E2,3.725E1,5.2E1,6.775E1,1.825E1,2.675E1,4.55E1,7E0,1.5E1,2.325E1,5.75E0,5.475E1,2.75E1,2.35E2,1.825E1,2.975E1,2.45E1,4.325E1,4.445E2,4.795E2,1E1,4.475E1,1.75E0,1.925E1,4.375E1,6.05E1,6.25E0,7.7E1,3.225E1,6.75E0,7.525E1,1.175E1,9.525E1,1.18E2,4.75E0,6E0,2.9E1,1.3975E2,1.75E0,9E0,2.75E0,6.675E1,1.325E1,3.95E1,6.2E1,2.2925E2,3.75E0,4.25E1,2.575E1,2.49E2,1.78E2,1.525E1,7.395E2,1.213E3,2.5E0,1.2E1],"tree_param":{"num_deleted":"0","num_feature":"320","num_nodes":"245","size_leaf_vector":"0"}},{"base_weights":[-2.1015073E-1,-5.275598E-1,-8.3932236E-2,-6.234155E-1,1.3713983E-1,1.9873022E-1,-2.3563558E-1,-7.811832E-1,-3.6190346E-1,-2.5147212E-1,6.5468085E-1,8.449739E-2,5.3262585E-1,-3.951213E-1,1.8625171E-1,-5.311226E-1,-9.8121154E-1,-5.3037666E-2,-6.199401E-1,3.07236E-1,-4.371545E-1,1.1115799E0,2.5780746E-1,1.4015E-1,-6.117722E-1,6.759314E-1,-1.0236495E-1,-4.2205068E-1,8.1864315E-1,9.1848385E-1,-1.1304098E-2,-8.930946E-1,1.1818757E-1,9.0929884E-1,-1.0713884E0,-4.5091456E-1,2.8989825E-1,-6.766767E-1,6.055904E-1,-1.4828502E-1,1.1214042E0,-1.5770296E-2,-7.0594263E-1,6.190659E-2,1.2398505E0,9.3387353E-1,-2.1790999E-1,4.2354026E-1,2.5669292E-2,-7.791644E-1,1.2244861E-1,8.3559054E-1,3.1713626E-1,6.436325E-1,-6.043213E-1,-1.01192184E-1,-5.194814E-1,1.2471925E0,-9.6011627E-1,3.1162828E-1,1.1401405E0,3.6627528E-1,-2.6726785E-1,2.5948024E-1,-1.0110977E0,-7.6786715E-1,5.711277E-1,1.9769363E-2,1.6919173E0,8.093837E-1,-1.1083953E0,-5.087575E-1,1.151167E0,1.076629E0,1.0864393E-1,8.197094E-1,-7.143488E-1,1.400576E0,-9.767944E-1,4.7364476E-1,-6.4956146E-1,1.4236053E0,-2.964512E-1,-4.690309E-1,5.763016E-1,-8.9579433E-1,-2.4987377E-2,-3.5321814E-1,5.3554803E-1,-3.3582397E-2,1.3025775E0,5.9833475E-3,1.4652472E0,7.953542E-1,-5.033325E-1,5.620354E-1,7.670763E-2,-1.7588076E-1,3.038686E-1,-8.665195E-1,8.3386576E-1,7.710554E-1,-5.594285E-1,5.358791E-1,1.2018366E0,1.0223741E-1,9.132319E-1,-8.7516063E-1,1.1152138E0,-1.0713325E0,-1.3253921E-1,-3.271299E-1,5.211586E-1,-7.6431745E-1,-3.6384058E-1,-8.4306546E-2,1.549663E0,2.085587E-1,-1.3039191E0,1.3536384E0,-3.7682073E-3,7.855526E-1,1.4894142E0,-3.52907E-2,8.418423E-1,-1.0989144E0,-1.4669101E-1,-3.083758E-1,1.6899079E-1,-3.4652406E-1,-1.2929031E-1,4.8820134E-2,-2.9871073E-1,2.9457903E-1,-8.706923E-2,2.9010028E-1,-2.094117E-1,5.37559E-1,1.0049828E-1,4.1975245E-1,-1.3404432E-1,8.7152585E-2,-3.46183E-1,2.3537515E-1,-1.6819218E-1,-0E0,4.5664042E-1,-2.6447788E-1,3.713521E-1,2.8468722E-1,-3.4194183E-2,-1.0910433E-1,4.6141675E-1,-1.2959056E-1,-2.622643E-1,-0E0,5.1949537E-1,8.335111E-2,-4.2053276E-1,-2.1507923E-1,3.1347862E-1,3.1113796E-2,-3.1713945E-1,4.174232E-2,4.9501607E-1,1.0838338E-1,-2.8925303E-1,-2.873518E-1,1.609361E-1,3.199653E-1,-9.185043E-2,2.3694342E-1,-2.9507732E-1,2.661562E-1,-1.5455055E-1,-1.21826395E-1,2.7625853E-1,4.328477E-1,1.4811257E-1,-1.7950217E-1,3.1662297E-1,-3.4723207E-2,4.8459533E-1,4.4559264E-1,-2.6715675E-1,4.5589294E-2,-2.573393E-1,1.0721836E-2,1.9709091E-1,-1.5710859E-1,1.264631E-1,-1.3714229E-1,1.6348334E-2,-1.8566266E-2,1.3439104E-1,-3.2599127E-1,-6.743354E-2,4.1737777E-1,-1.2768257E-1,-1.18559554E-1,3.3482337E-1,2.0582616E-1,-3.92031E-1,1.1153038E-1,3.478967E-1,2.3510794E-1,4.6066642E-1,1.5268156E-1,-8.660868E-2,3.5853812E-1,-4.658787E-2,2.828922E-1,-3.9411226E-1,4.0902027E-1,2.3409896E-2,9.4694726E-2,-3.7023443E-1,-2.7237716E-1,6.9734335E-2,1.3795393E-2,-2.06663E-1,3.3296174E-1,-2.1033308E-2,-2.4417217E-1,2.7936578E-1,-1.0953994E-2,-1.939023E-1,3.043107E-1,-2.8284925E-1,4.9286178E-1,-0E0,-1.3330905E-1,2.7519456E-1,-4.5821062E-1,2.1112483E-2,-2.3983885E-3,4.7772706E-1,3.025654E-1,-8.0478184E-2,-1.5498908E-1,2.703636E-1,4.6216157E-1,-1.766872E-1,-8.510311E-2,2.6166672E-1,-1.2475293E-1,2.9122242E-1,1.6739617E-1,-3.8521436E-1,1.4362758E-2,-2.6239228E-1],"categories":[],"categories_nodes":[],"categories_segments":[],"categories_sizes":[],"default_left":[0,0,0,0,0,0,0,0,0,0,0,0,0,0,0,0,0,0,0,0,0,0,0,0,0,0,0,0,0,0,0,0,0,0,0,0,0,0,0,0,0,0,0,0,0,0,0,0,0,0,0,0,0,0,0,0,0,0,0,0,0,0,0,0,0,0,0,0,0,0,0,0,0,0,0,0,0,0,0,0,0,0,0,0,0,0,0,0,0,0,0,0,0,0,0,0,0,0,0,0,0,0,0,0,0,0,0,0,0,0,0,0,0,0,0,0,0,0,0,0,0,0,0,0,0,0,0,0,0,0,0,0,0,0,0,0,0,0,0,0,0,0,0,0,0,0,0,0,0,0,0,0,0,0,0,0,0,0,0,0,0,0,0,0,0,0,0,0,0,0,0,0,0,0,0,0,0,0,0,0,0,0,0,0,0,0,0,0,0,0,0,0,0,0,0,0,0,0,0,0,0,0,0,0,0,0,0,0,0,0,0,0,0,0,0,0,0,0,0,0,0,0,0,0,0,0,0,0,0,0,0,0,0,0,0,0,0,0,0,0,0,0,0,0,0,0,0,0,0,0,0],"id":1,"left_children":[1,3,5,7,9,11,13,15,17,19,21,23,25,27,29,31,33,35,37,39,41,43,45,47,49,51,53,55,57,59,61,63,65,67,69,71,73,75,77,79,81,83,85,87,89,91,93,95,97,99,101,103,105,107,109,111,113,115,117,119,121,123,125,127,129,131,133,135,137,139,141,143,145,147,149,151,153,155,157,159,161,163,165,167,169,171,173,-1,175,-1,177,179,181,183,185,187,189,191,193,195,197,199,201,203,205,207,209,211,213,215,217,219,221,223,225,227,229,231,233,235,237,239,241,243,245,247,249,-1,-1,-1,-1,-1,-1,-1,-1,-1,-1,-1,-1,-1,-1,-1,-1,-1,-1,-1,-1,-1,-1,-1,-1,-1,-1,-1,-1,-1,-1,-1,-1,-1,-1,-1,-1,-1,-1,-1,-1,-1,-1,-1,-1,-1,-1,-1,-1,-1,-1,-1,-1,-1,-1,-1,-1,-1,-1,-1,-1,-1,-1,-1,-1,-1,-1,-1,-1,-1,-1,-1,-1,-1,-1,-1,-1,-1,-1,-1,-1,-1,-1,-1,-1,-1,-1,-1,-1,-1,-1,-1,-1,-1,-1,-1,-1,-1,-1,-1,-1,-1,-1,-1,-1,-1,-1,-1,-1,-1,-1,-1,-1,-1,-1,-1,-1,-1,-1,-1,-1,-1,-1,-1,-1],"loss_changes":[3.8072568E2,1.7267633E2,2.919966E2,9.671655E1,6.896509E1,9.031309E1,2.9837686E2,7.239935E1,7.079535E1,2.0426445E1,2.5703339E1,6.856971E1,5.5377014E1,1.05306885E2,1.7630847E2,1.5512204E2,1.4017737E2,5.5936745E1,3.4204422E1,1.8658855E1,1.6325783E1,8.359825E0,2.6487312E1,5.3089577E1,1.6497135E1,2.746225E1,4.2142776E1,9.806421E1,5.4524525E1,3.3735367E1,9.26132E1,5.8173462E1,9.5004036E1,2.5176495E1,5.5309265E1,1.7883175E1,3.055954E1,2.673999E1,2.87779E1,1.0253975E1,8.667734E0,1.6093536E1,1.1057156E1,5.4907174E0,5.8005066E0,1.5979017E1,1.4047589E1,2.2291458E1,6.5891685E1,1.5842766E1,1.1412703E1,3.5847183E1,1.9219938E1,3.3293976E1,1.4150787E1,1.0353747E2,9.113544E1,2.3772896E1,6.3981533E0,2.4088436E1,2.1051071E1,7.426039E1,5.659236E1,1.58713455E1,3.0812561E1,1.7507004E1,5.61967E1,1.3615937E1,9.954109E-1,1.2482474E1,4.952704E1,1.2707947E1,3.1734562E0,1.4033085E1,3.417094E1,1.0970318E1,1.9479446E1,6.1160946E0,5.008315E0,1.060241E1,6.2280293E0,3.3091602E0,2.2690225E0,1.7699932E1,1.1792124E1,1.1114544E1,9.6893E0,0E0,3.303635E0,0E0,4.837059E0,9.546902E0,5.9714813E0,1.3815405E1,9.358391E0,1.6410225E1,2.848679E1,4.427578E1,2.6269436E1,1.35746155E1,5.092173E0,6.192996E0,1.255497E1,1.8226055E1,1.8794266E1,1.8616343E1,1.2831768E1,1.0163139E1,8.180943E0,8.366974E0,1.0539806E1,7.337804E1,6.8744965E1,7.939099E1,1.3637975E2,1.1458949E1,7.389412E0,2.3505466E0,4.2742825E0,6.3065414E0,1.470861E1,1.5179291E1,1.1284912E1,4.728817E1,2.947216E1,2.3095947E1,7.147147E1,0E0,0E0,0E0,0E0,0E0,0E0,0E0,0E0,0E0,0E0,0E0,0E0,0E0,0E0,0E0,0E0,0E0,0E0,0E0,0E0,0E0,0E0,0E0,0E0,0E0,0E0,0E0,0E0,0E0,0E0,0E0,0E0,0E0,0E0,0E0,0E0,0E0,0E0,0E0,0E0,0E0,0E0,0E0,0E0,0E0,0E0,0E0,0E0,0E0,0E0,0E0,0E0,0E0,0E0,0E0,0E0,0E0,0E0,0E0,0E0,0E0,0E0,0E0,0E0,0E0,0E0,0E0,0E0,0E0,0E0,0E0,0E0,0E0,0E0,0E0,0E0,0E0,0E0,0E0,0E0,0E0,0E0,0E0,0E0,0E0,0E0,0E0,0E0,0E0,0E0,0E0,0E0,0E0,0E0,0E0,0E0,0E0,0E0,0E0,0E0,0E0,0E0,0E0,0E0,0E0,0E0,0E0,0E0,0E0,0E0,0E0,0E0,0E0,0E0,0E0,0E0,0E0,0E0,0E0,0E0,0E0,0E0,0E0,0E0],"parents":[2147483647,0,0,1,1,2,2,3,3,4,4,5,5,6,6,7,7,8,8,9,9,10,10,11,11,12,12,13,13,14,14,15,15,16,16,17,17,18,18,19,19,20,20,21,21,22,22,23,23,24,24,25,25,26,26,27,27,28,28,29,29,30,30,31,31,32,32,33,33,34,34,35,35,36,36,37,37,38,38,39,39,40,40,41,41,42,42,43,43,44,44,45,45,46,46,47,47,48,48,49,49,50,50,51,51,52,52,53,53,54,54,55,55,56,56,57,57,58,58,59,59,60,60,61,61,62,62,63,63,64,64,65,65,66,66,67,67,68,68,69,69,70,70,71,71,72,72,73,73,74,74,75,75,76,76,77,77,78,78,79,79,80,80,81,81,82,82,83,83,84,84,85,85,86,86,88,88,90,90,91,91,92,92,93,93,94,94,95,95,96,96,97,97,98,98,99,99,100,100,101,101,102,102,103,103,104,104,105,105,106,106,107,107,108,108,109,109,110,110,111,111,112,112,113,113,114,114,115,115,116,116,117,117,118,118,119,119,120,120,121,121,122,122,123,123,124,124,125,125,126,126],"right_children":[2,4,6,8,10,12,14,16,18,20,22,24,26,28,30,32,34,36,38,40,42,44,46,48,50,52,54,56,58,60,62,64,66,68,70,72,74,76,78,80,82,84,86,88,90,92,94,96,98,100,102,104,106,108,110,112,114,116,118,120,122,124,126,128,130,132,134,136,138,140,142,144,146,148,150,152,154,156,158,160,162,164,166,168,170,172,174,-1,176,-1,178,180,182,184,186,188,190,192,194,196,198,200,202,204,206,208,210,212,214,216,218,220,222,224,226,228,230,232,234,236,238,240,242,244,246,248,250,-1,-1,-1,-1,-1,-1,-1,-1,-1,-1,-1,-1,-1,-1,-1,-1,-1,-1,-1,-1,-1,-1,-1,-1,-1,-1,-1,-1,-1,-1,-1,-1,-1,-1,-1,-1,-1,-1,-1,-1,-1,-1,-1,-1,-1,-1,-1,-1,-1,-1,-1,-1,-1,-1,-1,-1,-1,-1,-1,-1,-1,-1,-1,-1,-1,-1,-1,-1,-1,-1,-1,-1,-1,-1,-1,-1,-1,-1,-1,-1,-1,-1,-1,-1,-1,-1,-1,-1,-1,-1,-1,-1,-1,-1,-1,-1,-1,-1,-1,-1,-1,-1,-1,-1,-1,-1,-1,-1,-1,-1,-1,-1,-1,-1,-1,-1,-1,-1,-1,-1,-1,-1,-1,-1],"split_conditions":[2E0,4E0,-1.1583333E1,2E0,-8.5925E1,-1.0275E1,-8.31125E1,-1.0715571E1,-8.37375E1,-9.549479E1,-9.232143E1,5E0,1E0,-6.36875E0,-8.658173E1,-8.72695E1,-8.248033E1,-9.283594E1,-6.1875E0,-9.51875E1,-9.261567E1,-1.2854167E1,-1.181875E1,-1.5453125E1,-9.875E0,-8.5833336E1,-8.26375E1,-9.8125E1,-7.3697915E0,-7.734233E1,-9.146E1,-1.4119792E1,-1.1244286E1,-6.96745E1,-1.1889334E1,-7.905E1,-9.2E1,-9.9662834E1,-6.615625E1,-1.1803572E1,-9.423214E1,-9.40975E1,-8.7458336E1,-1.6598215E1,-2.0770834E1,1E0,-1.92655E1,-8.7833336E1,-1.5234375E1,-7.6229164E1,-8.3021E1,-8.26125E1,-1.0116072E1,4E0,-1.73E1,-9.37E1,-7.9468834E1,-1.06548E1,-7.828125E1,-1.0235667E2,-8.15E0,3E0,-8.26375E1,-1.00994835E2,-7.386057E1,-1.4108286E1,2E0,-1.18075E1,-6.05E1,-1.647E1,-1.2208667E1,-2.5723833E1,-9.17875E1,-1.0661979E2,-2.0375E1,-8.8175E1,-9.118055E0,-7.218083E1,-7.846117E1,-1.42995E1,-1.0825E1,-1.6912834E1,-9.62875E1,-7.975916E1,-8.375E1,-2.8211E1,-8.6895836E1,-3.5321814E-1,-9.924343E1,-3.3582397E-2,-8.3E0,-6.7775E1,-9.586979E1,-7.180357E1,-8.43625E1,-1.6375E1,-8.9619316E1,-1.6875E1,-9.78165E1,-1.4E1,5E0,-1.004998E2,-9.8916664E1,-8.990385E0,-7.5619316E1,-8.315E1,1E0,-8.94375E1,-1.3324333E1,-9.316267E1,2E0,-1.0640625E1,-9.5875E1,-6.909375E1,-8.0875E1,-9.4875E0,-6.417969E1,-6.8645835E0,3E0,-1.035665E2,-1.0178686E2,-2.19375E1,-6.45E1,-6.9625E0,-2.5518167E1,-8.7625E1,-6.65E1,-3.083758E-1,1.6899079E-1,-3.4652406E-1,-1.2929031E-1,4.8820134E-2,-2.9871073E-1,2.9457903E-1,-8.706923E-2,2.9010028E-1,-2.094117E-1,5.37559E-1,1.0049828E-1,4.1975245E-1,-1.3404432E-1,8.7152585E-2,-3.46183E-1,2.3537515E-1,-1.6819218E-1,-0E0,4.5664042E-1,-2.6447788E-1,3.713521E-1,2.8468722E-1,-3.4194183E-2,-1.0910433E-1,4.6141675E-1,-1.2959056E-1,-2.622643E-1,-0E0,5.1949537E-1,8.335111E-2,-4.2053276E-1,-2.1507923E-1,3.1347862E-1,3.1113796E-2,-3.1713945E-1,4.174232E-2,4.9501607E-1,1.0838338E-1,-2.8925303E-1,-2.873518E-1,1.609361E-1,3.199653E-1,-9.185043E-2,2.3694342E-1,-2.9507732E-1,2.661562E-1,-1.5455055E-1,-1.21826395E-1,2.7625853E-1,4.328477E-1,1.4811257E-1,-1.7950217E-1,3.1662297E-1,-3.4723207E-2,4.8459533E-1,4.4559264E-1,-2.6715675E-1,4.5589294E-2,-2.573393E-1,1.0721836E-2,1.9709091E-1,-1.5710859E-1,1.264631E-1,-1.3714229E-1,1.6348334E-2,-1.8566266E-2,1.3439104E-1,-3.2599127E-1,-6.743354E-2,4.1737777E-1,-1.2768257E-1,-1.18559554E-1,3.3482337E-1,2.0582616E-1,-3.92031E-1,1.1153038E-1,3.478967E-1,2.3510794E-1,4.6066642E-1,1.5268156E-1,-8.660868E-2,3.5853812E-1,-4.658787E-2,2.828922E-1,-3.9411226E-1,4.0902027E-1,2.3409896E-2,9.4694726E-2,-3.7023443E-1,-2.7237716E-1,6.9734335E-2,1.3795393E-2,-2.06663E-1,3.3296174E-1,-2.1033308E-2,-2.4417217E-1,2.7936578E-1,-1.0953994E-2,-1.939023E-1,3.043107E-1,-2.8284925E-1,4.9286178E-1,-0E0,-1.3330905E-1,2.7519456E-1,-4.5821062E-1,2.1112483E-2,-2.3983885E-3,4.7772706E-1,3.025654E-1,-8.0478184E-2,-1.5498908E-1,2.703636E-1,4.6216157E-1,-1.766872E-1,-8.510311E-2,2.6166672E-1,-1.2475293E-1,2.9122242E-1,1.6739617E-1,-3.8521436E-1,1.4362758E-2,-2.6239228E-1],"split_indices":[311,199,313,263,298,217,314,221,24,56,46,55,305,281,186,318,316,298,297,298,158,313,217,313,169,312,136,58,9,316,30,169,29,76,317,104,200,316,216,249,90,318,266,217,203,311,15,88,315,58,254,216,297,311,91,314,108,285,312,62,313,23,136,60,300,109,87,77,168,95,29,191,234,266,219,74,41,316,60,221,313,111,74,28,120,111,200,0,126,0,121,296,266,220,170,73,154,75,126,315,71,286,106,249,56,154,304,200,95,28,231,9,170,248,312,73,104,185,279,142,30,203,88,297,223,218,88,0,0,0,0,0,0,0,0,0,0,0,0,0,0,0,0,0,0,0,0,0,0,0,0,0,0,0,0,0,0,0,0,0,0,0,0,0,0,0,0,0,0,0,0,0,0,0,0,0,0,0,0,0,0,0,0,0,0,0,0,0,0,0,0,0,0,0,0,0,0,0,0,0,0,0,0,0,0,0,0,0,0,0,0,0,0,0,0,0,0,0,0,0,0,0,0,0,0,0,0,0,0,0,0,0,0,0,0,0,0,0,0,0,0,0,0,0,0,0,0,0,0,0,0],"split_type":[0,0,0,0,0,0,0,0,0,0,0,0,0,0,0,0,0,0,0,0,0,0,0,0,0,0,0,0,0,0,0,0,0,0,0,0,0,0,0,0,0,0,0,0,0,0,0,0,0,0,0,0,0,0,0,0,0,0,0,0,0,0,0,0,0,0,0,0,0,0,0,0,0,0,0,0,0,0,0,0,0,0,0,0,0,0,0,0,0,0,0,0,0,0,0,0,0,0,0,0,0,0,0,0,0,0,0,0,0,0,0,0,0,0,0,0,0,0,0,0,0,0,0,0,0,0,0,0,0,0,0,0,0,0,0,0,0,0,0,0,0,0,0,0,0,0,0,0,0,0,0,0,0,0,0,0,0,0,0,0,0,0,0,0,0,0,0,0,0,0,0,0,0,0,0,0,0,0,0,0,0,0,0,0,0,0,0,0,0,0,0,0,0,0,0,0,0,0,0,0,0,0,0,0,0,0,0,0,0,0,0,0,0,0,0,0,0,0,0,0,0,0,0,0,0,0,0,0,0,0,0,0,0,0,0,0,0,0,0,0,0,0,0,0,0,0,0,0,0,0,0],"sum_hessian":[9.510936E3,2.7039678E3,6.806968E3,2.3638882E3,3.4007974E2,2.3760913E3,4.430877E3,1.4719662E3,8.9192194E2,1.939753E2,1.4610446E2,1.7724491E3,6.036421E2,3.216278E3,1.2145985E3,6.569061E2,8.1506E2,4.0740628E2,4.8451566E2,4.7550636E1,1.4642467E2,6.649344E1,7.9611015E1,1.642668E3,1.2978111E2,4.93085E2,1.1055712E2,3.1475098E3,6.876847E1,2.5783307E2,9.567655E2,4.2203064E2,2.3487549E2,3.644211E1,7.786179E2,1.8912506E2,2.1828123E2,4.638952E2,2.0620438E1,3.0621746E1,1.6928892E1,5.816195E1,8.826271E1,7.8266277E0,5.866681E1,3.2917812E1,4.6693207E1,4.7061676E2,1.1720513E3,1.0619086E2,2.3590263E1,3.3935434E2,1.5373065E2,4.395449E1,6.660263E1,7.3480927E2,2.4127004E3,5.5884403E1,1.2884068E1,7.022672E1,1.8760634E2,3.8558856E2,5.7117694E2,3.8690624E1,3.8334003E2,7.884242E1,1.5603305E2,1.7834938E1,1.860717E1,1.4361327E1,7.642566E2,1.8349455E2,5.6305094E0,3.943143E1,1.788498E2,1.055623E1,4.5333896E2,1.4011816E1,6.608622E0,1.3245645E1,1.73761E1,1.4241957E1,2.6869347E0,3.3538704E1,2.4623245E1,6.819895E1,2.0063765E1,1.4613824E0,6.365246E0,2.2133188E0,5.6453487E1,1.2697508E1,2.0220304E1,9.484473E0,3.7208733E1,3.3484595E2,1.3577081E2,6.788256E2,4.9322565E2,1.01468506E2,4.7223463E0,1.2398859E1,1.1191403E1,1.8873473E2,1.506196E2,1.14472435E2,3.9258224E1,9.960206E0,3.3994286E1,3.2299313E1,3.4303314E1,5.400336E2,1.947756E2,9.3490045E2,1.4778E3,1.0172494E1,4.571191E1,2.6875255E0,1.0196542E1,1.5920815E1,5.430591E1,9.5417595E1,9.2188736E1,2.0899165E2,1.765969E2,7.0773705E1,5.0040326E2,6.618172E0,3.207245E1,3.0563223E2,7.7707794E1,1.5130904E1,6.371152E1,1.0594558E2,5.0087475E1,7.839377E0,9.995562E0,1.6688913E1,1.9182564E0,9.966307E0,4.39502E0,2.3583591E1,7.40673E2,6.160727E0,1.7733383E2,1.4683787E0,4.162131E0,2.423482E0,3.700795E1,3.7245842E1,1.4160396E2,3.9110007E0,6.6452293E0,1.6634433E2,2.8699466E2,3.1518507E0,1.0859965E1,1.4620545E0,5.1465673E0,3.92845E0,9.317195E0,5.9317484E0,1.1444352E1,2.707407E0,1.153455E1,1.2075725E0,1.4793622E0,2.293412E1,1.0604583E1,1.6059504E1,8.563742E0,2.6985602E0,6.550039E1,6.373471E0,1.3690294E1,1.4558519E0,4.909394E0,4.691678E1,9.536711E0,8.027927E0,4.669581E0,1.4839435E0,1.8736362E1,7.0250025E0,2.4594707E0,1.2767069E1,2.4441664E1,5.2185204E1,2.8266074E2,4.881285E1,8.695796E1,3.061904E2,3.7263522E2,1.3858139E2,3.5464426E2,7.44572E1,2.7011309E1,3.4762514E0,1.246095E0,2.4665966E0,9.932262E0,3.9767296E0,7.214674E0,1.5132086E2,3.7413876E1,6.900457E1,8.161503E1,5.658365E1,5.7888783E1,3.1339724E1,7.9185023E0,1.4905025E0,8.469703E0,2.6787663E1,7.206623E0,2.9713516E0,2.9327963E1,1.0941457E1,2.3361858E1,2.655891E2,2.7444452E2,9.758298E1,9.7192635E1,9.0912585E2,2.5774563E1,6.8592834E2,7.9187164E2,4.1270638E0,6.0454307E0,4.32996E1,2.4123104E0,1.2258354E0,1.4616901E0,8.987657E0,1.2088847E0,2.2071998E0,1.3713615E1,1.0275156E1,4.403075E1,7.1481566E0,8.826944E1,9.046286E1,1.7258812E0,1.6505458E2,4.393707E1,1.5849191E1,1.6074771E2,6.639249E0,6.413446E1,3.9505902E2,1.0534423E2],"tree_param":{"num_deleted":"0","num_feature":"320","num_nodes":"251","size_leaf_vector":"0"}},{"base_weights":[-1.5192154E-1,-3.036315E-3,-3.016476E-1,-6.9902726E-2,4.6006715E-1,-5.282277E-1,-1.2061779E-1,1.2346415E-1,-1.667174E-1,7.895199E-1,1.2697488E-1,-1.2034548E-2,-6.254835E-1,-2.3733771E-1,3.27775E-1,1.8780686E-1,-5.621024E-1,-3.4012684E-1,1.042706E-2,5.867034E-1,1.3301148E0,2.9020792E-1,-6.887982E-1,-2.793051E-1,8.174605E-1,-3.6387244E-1,-7.527474E-1,1.6260159E-1,-3.2887912E-1,1.0154873E0,2.4604296E-2,-2.0995703E-2,3.4398422E-1,3.111259E-1,-8.769184E-1,-5.724793E-1,-1.8308029E-1,-2.1681345E-1,2.493697E-1,-3.4975767E-2,8.075859E-1,3.021245E-1,1.4882882E0,4.182165E-1,-7.0365447E-1,7.983865E-1,-1.1753914E0,1.8987358E-1,-7.596589E-1,1.0990382E0,-1.0471797E-1,4.6462387E-1,-4.8573232E-1,-9.66276E-1,-5.714222E-1,-4.2511472E-1,3.6837727E-1,2.6151797E-2,-4.1129747E-1,1.1129237E0,-1.7390896E-1,8.10172E-1,-1.9094501E-1,-8.955676E-2,7.042656E-1,5.6007683E-1,1.7187682E-1,6.623895E-1,-5.7051134E-1,-3.824579E-1,-1.2305683E0,1.1960567E-1,-6.8214315E-1,-3.0500245E-1,1.8500614E-1,2.0864388E-1,-4.1265526E-1,-1.3369044E-2,4.7045907E-1,1.277959E0,-4.4953316E-1,1.2869737E0,5.5221367E-1,6.126009E-1,-2.8562385E-1,2.6130378E-1,1.5723921E0,-8.1723854E-2,7.048448E-1,9.4849366E-1,-1.0322077E0,1.343095E0,-6.9995123E-1,6.111978E-1,-1.3942248E0,4.8811787E-1,-8.6478335E-1,-8.9900064E-1,4.5851377E-1,2.0206462E-1,1.3375207E0,-9.7762626E-1,8.6638683E-1,-4.252838E-1,9.7446644E-1,-5.585584E-1,8.3680004E-1,-4.6133178E-1,-1.1234667E0,4.2298883E-1,-7.6706076E-1,4.2381135E-1,-9.490176E-1,7.2573304E-1,-2.243359E-1,3.6978632E-1,-3.8253894E-1,-1.05224766E-1,-5.506219E-1,-3.0184788E-1,1.1612101E0,1.1965241E0,-9.9712145E-1,1.2713718E0,2.248013E-1,1.1995195E0,-3.239581E-1,4.9903665E-2,-1.20648704E-1,-0E0,3.2699096E-1,2.0699805E-4,2.1363784E-1,-8.006658E-2,1.0707844E-1,2.8330028E-1,-1.8688996E-1,-2.7729926E-1,1.6124336E-1,-3.7371284E-1,-1.0291848E-2,-0E0,-3.8035107E-1,-1.461174E-1,1.9450197E-1,-2.2372914E-2,-2.3772766E-1,-5.8753457E-2,-2.9207107E-1,1.07769884E-1,-2.256417E-1,3.4621274E-1,1.9520726E-2,1.23063184E-1,-1.5437955E-1,-1.07673354E-1,1.0996318E-1,3.90053E-1,8.841319E-2,-8.329626E-2,4.9432653E-1,-3.2971996E-1,7.662708E-2,1.13470994E-1,4.8270512E-1,2.2606152E-1,-5.3022493E-2,3.6506125E-1,-2.8020019E-2,2.8449494E-1,-2.1305406E-1,2.099689E-2,4.7956008E-1,1.12689495E-1,-1.3910504E-1,-6.115997E-2,2.8935522E-1,3.5877883E-1,-0E0,9.7001255E-2,-4.127328E-1,-0E0,4.7206387E-1,-3.0257607E-1,-0E0,-4.6650644E-2,3.2435873E-1,-0E0,-4.5254397E-1,3.02229E-1,-6.1216217E-2,1.67893E-1,-3.316159E-1,-3.3647767E-1,-6.731474E-3,3.382123E-1,-1.8646206E-1,1.6366757E-1,-3.9977318E-1,4.6326753E-1,1.3788532E-1,-3.85104E-1,1.2202599E-1,3.7101313E-1,-2.0237194E-1,-2.4206685E-1,1.7947176E-1,-1.2425553E-1,3.4879747E-1,-1.8621598E-1,1.8284622E-1,4.5667475E-1,-2.0386884E-1,-1.7952723E-2,-3.266197E-1,1.4731397E-1,-3.5153952E-1,1.262679E-2,4.072201E-1,-1.6743068E-1,-3.311905E-1,2.5601017E-1,-2.4486439E-1,-3.2027096E-1,1.6506E-1,4.3824323E-2,3.0088347E-1,1.0025018E-1,-2.1076077E-1,-7.903202E-3,2.2595909E-1,2.257797E-2,-2.5642705E-1,7.3842324E-2,-1.395718E-1,1.3471483E-2,-1.9449492E-1,8.566215E-3,3.7157035E-1,4.6678445E-1,-0E0,-0E0,-3.7189102E-1,7.6665975E-2,5.0436634E-1,2.6821882E-1,-1.9991894E-1,-0E0,4.900718E-1,-2.3373173E-1,-2.3449464E-2],"categories":[],"categories_nodes":[],"categories_segments":[],"categories_sizes":[],"default_left":[0,0,0,0,0,0,0,0,0,0,0,0,0,0,0,0,0,0,0,0,0,0,0,0,0,0,0,0,0,0,0,0,0,0,0,0,0,0,0,0,0,0,0,0,0,0,0,0,0,0,0,0,0,0,0,0,0,0,0,0,0,0,0,0,0,0,0,0,0,0,0,0,0,0,0,0,0,0,0,0,0,0,0,0,0,0,0,0,0,0,0,0,0,0,0,0,0,0,0,0,0,0,0,0,0,0,0,0,0,0,0,0,0,0,0,0,0,0,0,0,0,0,0,0,0,0,0,0,0,0,0,0,0,0,0,0,0,0,0,0,0,0,0,0,0,0,0,0,0,0,0,0,0,0,0,0,0,0,0,0,0,0,0,0,0,0,0,0,0,0,0,0,0,0,0,0,0,0,0,0,0,0,0,0,0,0,0,0,0,0,0,0,0,0,0,0,0,0,0,0,0,0,0,0,0,0,0,0,0,0,0,0,0,0,0,0,0,0,0,0,0,0,0,0,0,0,0,0,0,0,0,0,0,0,0,0,0,0,0,0,0,0,0,0,0,0,0,0,0,0,0],"id":2,"left_children":[1,3,5,7,9,11,13,15,17,19,21,23,25,27,29,31,33,35,37,39,41,43,45,47,49,51,53,55,57,59,61,63,65,67,69,71,73,75,77,79,81,83,85,87,89,91,93,95,97,99,101,103,105,107,109,111,113,115,117,119,121,123,125,127,129,131,133,135,137,139,141,143,145,147,149,151,153,155,157,159,161,163,165,167,-1,169,171,173,175,177,179,181,183,185,187,189,191,193,195,197,199,201,203,205,207,209,211,213,215,217,219,221,223,225,227,229,231,233,235,-1,237,239,241,243,245,247,249,-1,-1,-1,-1,-1,-1,-1,-1,-1,-1,-1,-1,-1,-1,-1,-1,-1,-1,-1,-1,-1,-1,-1,-1,-1,-1,-1,-1,-1,-1,-1,-1,-1,-1,-1,-1,-1,-1,-1,-1,-1,-1,-1,-1,-1,-1,-1,-1,-1,-1,-1,-1,-1,-1,-1,-1,-1,-1,-1,-1,-1,-1,-1,-1,-1,-1,-1,-1,-1,-1,-1,-1,-1,-1,-1,-1,-1,-1,-1,-1,-1,-1,-1,-1,-1,-1,-1,-1,-1,-1,-1,-1,-1,-1,-1,-1,-1,-1,-1,-1,-1,-1,-1,-1,-1,-1,-1,-1,-1,-1,-1,-1,-1,-1,-1,-1,-1,-1,-1,-1,-1,-1,-1,-1],"loss_changes":[2.0630693E2,1.4372209E2,1.8895352E2,7.608768E1,6.3686966E1,1.0251904E2,1.3445805E2,5.9649746E1,8.3384476E1,3.0428238E1,3.902478E1,7.237041E1,5.6532104E1,7.480303E1,1.09964874E2,4.05839E1,3.2380814E1,4.9522827E1,7.2807526E1,3.0048431E1,1.1432083E1,3.1373505E1,3.6331665E1,5.6372272E1,2.1227654E1,5.7489624E1,4.347174E1,4.6025642E1,4.8804184E1,1.9395706E1,6.3013805E1,2.6104567E1,2.5960068E1,1.002228E1,1.3721626E1,4.2176437E1,3.693666E1,5.735379E1,3.82555E1,3.1151701E1,1.7940773E1,5.1465125E0,5.630066E0,3.1677002E1,1.61814E1,1.13293495E1,1.5831791E1,3.9818436E1,2.1575066E1,1.207782E1,1.7066946E1,3.367395E1,4.8041443E1,4.064218E1,1.2293091E2,4.4363243E1,6.0198826E1,4.4054863E1,5.7149094E1,1.6586716E1,1.5438402E1,2.0624577E1,5.3618195E1,3.903475E1,1.2341766E1,2.6285828E1,3.2471973E1,9.0956955E0,4.2036524E0,1.0679756E1,2.193283E0,2.4640865E1,3.1424286E1,4.4304596E1,3.334027E1,2.8650574E1,3.976989E1,3.9383278E1,5.0804268E1,8.986181E0,2.0989304E1,1.4239212E1,1.6085602E1,5.227722E0,0E0,4.7342E0,1.5092468E0,1.4171851E1,3.3519432E1,8.761301E-1,1.2161289E1,2.2163315E0,7.196851E-1,2.2588584E0,5.678299E0,3.6233818E1,1.0396509E1,2.1142708E1,1.0314639E1,7.9760942E0,6.9670105E0,5.5293427E0,6.41423E0,1.1062098E1,1.31073265E1,3.4545074E1,2.837293E1,3.1585728E1,3.2255524E1,3.6146156E1,3.5628998E1,2.0861721E1,1.1764404E1,2.7696991E1,2.8837433E1,2.6363832E1,3.1296627E1,5.3909885E1,5.419388E1,0E0,1.2235748E1,2.1725206E0,2.6499834E0,1.6995071E1,2.2805332E1,1.3244324E1,2.9263258E1,0E0,0E0,0E0,0E0,0E0,0E0,0E0,0E0,0E0,0E0,0E0,0E0,0E0,0E0,0E0,0E0,0E0,0E0,0E0,0E0,0E0,0E0,0E0,0E0,0E0,0E0,0E0,0E0,0E0,0E0,0E0,0E0,0E0,0E0,0E0,0E0,0E0,0E0,0E0,0E0,0E0,0E0,0E0,0E0,0E0,0E0,0E0,0E0,0E0,0E0,0E0,0E0,0E0,0E0,0E0,0E0,0E0,0E0,0E0,0E0,0E0,0E0,0E0,0E0,0E0,0E0,0E0,0E0,0E0,0E0,0E0,0E0,0E0,0E0,0E0,0E0,0E0,0E0,0E0,0E0,0E0,0E0,0E0,0E0,0E0,0E0,0E0,0E0,0E0,0E0,0E0,0E0,0E0,0E0,0E0,0E0,0E0,0E0,0E0,0E0,0E0,0E0,0E0,0E0,0E0,0E0,0E0,0E0,0E0,0E0,0E0,0E0,0E0,0E0,0E0,0E0,0E0,0E0,0E0,0E0,0E0,0E0,0E0,0E0],"parents":[2147483647,0,0,1,1,2,2,3,3,4,4,5,5,6,6,7,7,8,8,9,9,10,10,11,11,12,12,13,13,14,14,15,15,16,16,17,17,18,18,19,19,20,20,21,21,22,22,23,23,24,24,25,25,26,26,27,27,28,28,29,29,30,30,31,31,32,32,33,33,34,34,35,35,36,36,37,37,38,38,39,39,40,40,41,41,42,42,43,43,44,44,45,45,46,46,47,47,48,48,49,49,50,50,51,51,52,52,53,53,54,54,55,55,56,56,57,57,58,58,59,59,60,60,61,61,62,62,63,63,64,64,65,65,66,66,67,67,68,68,69,69,70,70,71,71,72,72,73,73,74,74,75,75,76,76,77,77,78,78,79,79,80,80,81,81,82,82,83,83,85,85,86,86,87,87,88,88,89,89,90,90,91,91,92,92,93,93,94,94,95,95,96,96,97,97,98,98,99,99,100,100,101,101,102,102,103,103,104,104,105,105,106,106,107,107,108,108,109,109,110,110,111,111,112,112,113,113,114,114,115,115,116,116,117,117,118,118,120,120,121,121,122,122,123,123,124,124,125,125,126,126],"right_children":[2,4,6,8,10,12,14,16,18,20,22,24,26,28,30,32,34,36,38,40,42,44,46,48,50,52,54,56,58,60,62,64,66,68,70,72,74,76,78,80,82,84,86,88,90,92,94,96,98,100,102,104,106,108,110,112,114,116,118,120,122,124,126,128,130,132,134,136,138,140,142,144,146,148,150,152,154,156,158,160,162,164,166,168,-1,170,172,174,176,178,180,182,184,186,188,190,192,194,196,198,200,202,204,206,208,210,212,214,216,218,220,222,224,226,228,230,232,234,236,-1,238,240,242,244,246,248,250,-1,-1,-1,-1,-1,-1,-1,-1,-1,-1,-1,-1,-1,-1,-1,-1,-1,-1,-1,-1,-1,-1,-1,-1,-1,-1,-1,-1,-1,-1,-1,-1,-1,-1,-1,-1,-1,-1,-1,-1,-1,-1,-1,-1,-1,-1,-1,-1,-1,-1,-1,-1,-1,-1,-1,-1,-1,-1,-1,-1,-1,-1,-1,-1,-1,-1,-1,-1,-1,-1,-1,-1,-1,-1,-1,-1,-1,-1,-1,-1,-1,-1,-1,-1,-1,-1,-1,-1,-1,-1,-1,-1,-1,-1,-1,-1,-1,-1,-1,-1,-1,-1,-1,-1,-1,-1,-1,-1,-1,-1,-1,-1,-1,-1,-1,-1,-1,-1,-1,-1,-1,-1,-1,-1],"split_conditions":[-9.8E0,-8.930555E0,-8.46525E1,-1.3831731E1,-8.48E1,-1.4919167E1,-7.03125E0,-7.18125E1,-8.89375E1,-7.208929E1,1E0,-1.0858E1,-9.732586E1,-1.109375E1,-9.307292E0,-1.6990385E1,-8.484634E1,3E0,3E0,-1.2169167E1,-8.6425E1,1E0,-7.84115E1,-1.1175E1,-8.38645E1,-1.14E1,-7.996083E1,-8.38375E1,-2.0375E1,-6.5625E1,-1.1747666E1,-1.2805E1,-9.9229164E1,-1.48062E1,-1.4464286E1,-1.51445E1,-9.309375E1,-8.5725E1,-1.1884334E1,-9.953767E1,-1.1866E1,-6.2675E1,-1.4569E1,-7.63E1,-1.8387833E1,-6.5010414E1,-1.0022117E2,-7.666683E1,-1.07095E1,-9.1875E0,-9.15625E0,-9.825986E1,-6.6436E1,-1.1145833E1,-8.5819145E1,-9.7541664E1,-8.3734375E1,-8.6875E0,-7.0181E1,-9.3575E1,-7.0125E1,-7.549333E1,-8.7075E1,-9.16375E1,-1.2611111E1,-9.805914E1,-9.6125E1,-8.05119E1,-9.15E1,-1.6229166E1,-1.963475E1,-9.94E1,-1.02458336E2,-9.1125E1,-7.49E1,-1.016875E2,-8.736058E1,-8.0580666E1,-1.4152333E1,-1.4973286E1,-8.725E1,-1.4107833E1,-8.51875E1,-7.7708335E0,-2.8562385E-1,-8.2188835E1,-1.3708333E1,-1.1426143E1,-1.33205E1,-7.167184E1,-1.18125E1,-8.8609375E1,-1.2441334E1,-8.369792E0,-1.1905E1,-1.4578167E1,-1.06755165E2,-7.831917E1,-1.8904833E1,-5.64375E1,-8.45028E1,-7.35625E1,-7.44875E1,-1.4713285E1,-1.4653846E1,-6.365E0,-7.2399574E1,-8.99906E1,-9.73E1,-1.0618428E1,-7.196083E1,-1.225E1,-1.1361111E1,-7.765625E1,-8.372517E1,-8.1875E0,-7.00375E1,-1.0625E1,-2.02375E1,-3.0184788E-1,-2.7134E1,-6.3020835E0,-7.3325E1,-1.08645E1,-1.0888166E1,-8.1925E1,-6.929417E1,4.9903665E-2,-1.20648704E-1,-0E0,3.2699096E-1,2.0699805E-4,2.1363784E-1,-8.006658E-2,1.0707844E-1,2.8330028E-1,-1.8688996E-1,-2.7729926E-1,1.6124336E-1,-3.7371284E-1,-1.0291848E-2,-0E0,-3.8035107E-1,-1.461174E-1,1.9450197E-1,-2.2372914E-2,-2.3772766E-1,-5.8753457E-2,-2.9207107E-1,1.07769884E-1,-2.256417E-1,3.4621274E-1,1.9520726E-2,1.23063184E-1,-1.5437955E-1,-1.07673354E-1,1.0996318E-1,3.90053E-1,8.841319E-2,-8.329626E-2,4.9432653E-1,-3.2971996E-1,7.662708E-2,1.13470994E-1,4.8270512E-1,2.2606152E-1,-5.3022493E-2,3.6506125E-1,-2.8020019E-2,2.8449494E-1,-2.1305406E-1,2.099689E-2,4.7956008E-1,1.12689495E-1,-1.3910504E-1,-6.115997E-2,2.8935522E-1,3.5877883E-1,-0E0,9.7001255E-2,-4.127328E-1,-0E0,4.7206387E-1,-3.0257607E-1,-0E0,-4.6650644E-2,3.2435873E-1,-0E0,-4.5254397E-1,3.02229E-1,-6.1216217E-2,1.67893E-1,-3.316159E-1,-3.3647767E-1,-6.731474E-3,3.382123E-1,-1.8646206E-1,1.6366757E-1,-3.9977318E-1,4.6326753E-1,1.3788532E-1,-3.85104E-1,1.2202599E-1,3.7101313E-1,-2.0237194E-1,-2.4206685E-1,1.7947176E-1,-1.2425553E-1,3.4879747E-1,-1.8621598E-1,1.8284622E-1,4.5667475E-1,-2.0386884E-1,-1.7952723E-2,-3.266197E-1,1.4731397E-1,-3.5153952E-1,1.262679E-2,4.072201E-1,-1.6743068E-1,-3.311905E-1,2.5601017E-1,-2.4486439E-1,-3.2027096E-1,1.6506E-1,4.3824323E-2,3.0088347E-1,1.0025018E-1,-2.1076077E-1,-7.903202E-3,2.2595909E-1,2.257797E-2,-2.5642705E-1,7.3842324E-2,-1.395718E-1,1.3471483E-2,-1.9449492E-1,8.566215E-3,3.7157035E-1,4.6678445E-1,-0E0,-0E0,-3.7189102E-1,7.6665975E-2,5.0436634E-1,2.6821882E-1,-1.9991894E-1,-0E0,4.900718E-1,-2.3373173E-1,-2.3449464E-2],"split_indices":[313,249,318,313,312,13,281,314,280,72,305,221,30,217,41,139,124,295,7,253,232,304,268,25,46,41,124,312,219,136,319,297,312,287,251,253,314,8,29,188,13,72,189,264,95,216,44,204,269,217,89,254,316,201,316,40,218,25,236,264,312,44,152,8,201,204,314,88,312,105,95,282,312,312,56,170,312,300,317,125,152,125,170,41,0,156,121,317,77,236,73,250,221,121,73,45,110,124,271,312,14,26,312,207,137,153,60,190,312,93,76,219,217,312,14,249,184,319,155,0,239,313,248,253,317,280,300,0,0,0,0,0,0,0,0,0,0,0,0,0,0,0,0,0,0,0,0,0,0,0,0,0,0,0,0,0,0,0,0,0,0,0,0,0,0,0,0,0,0,0,0,0,0,0,0,0,0,0,0,0,0,0,0,0,0,0,0,0,0,0,0,0,0,0,0,0,0,0,0,0,0,0,0,0,0,0,0,0,0,0,0,0,0,0,0,0,0,0,0,0,0,0,0,0,0,0,0,0,0,0,0,0,0,0,0,0,0,0,0,0,0,0,0,0,0,0,0,0,0,0,0],"split_type":[0,0,0,0,0,0,0,0,0,0,0,0,0,0,0,0,0,0,0,0,0,0,0,0,0,0,0,0,0,0,0,0,0,0,0,0,0,0,0,0,0,0,0,0,0,0,0,0,0,0,0,0,0,0,0,0,0,0,0,0,0,0,0,0,0,0,0,0,0,0,0,0,0,0,0,0,0,0,0,0,0,0,0,0,0,0,0,0,0,0,0,0,0,0,0,0,0,0,0,0,0,0,0,0,0,0,0,0,0,0,0,0,0,0,0,0,0,0,0,0,0,0,0,0,0,0,0,0,0,0,0,0,0,0,0,0,0,0,0,0,0,0,0,0,0,0,0,0,0,0,0,0,0,0,0,0,0,0,0,0,0,0,0,0,0,0,0,0,0,0,0,0,0,0,0,0,0,0,0,0,0,0,0,0,0,0,0,0,0,0,0,0,0,0,0,0,0,0,0,0,0,0,0,0,0,0,0,0,0,0,0,0,0,0,0,0,0,0,0,0,0,0,0,0,0,0,0,0,0,0,0,0,0,0,0,0,0,0,0,0,0,0,0,0,0,0,0,0,0,0,0],"sum_hessian":[9.260628E3,4.645538E3,4.61509E3,4.0610947E3,5.844431E2,2.0475991E3,2.5674905E3,1.3531077E3,2.707987E3,2.9238324E2,2.9205988E2,3.2561838E2,1.7219808E3,2.0384523E3,5.290382E2,1.2383407E3,1.1476704E2,1.3693811E3,1.338606E3,2.1480461E2,7.7578636E1,2.4441129E2,4.7648582E1,2.4722604E2,7.8392334E1,5.660873E2,1.1558936E3,3.785128E2,1.6599396E3,1.6064114E2,3.683971E2,5.288947E2,7.09446E2,2.9993994E1,8.477304E1,5.4992737E2,8.194538E2,6.8507874E2,6.535272E2,5.5939514E1,1.588651E2,1.115459E1,6.642405E1,2.1748207E2,2.6929207E1,1.1335463E1,3.6313118E1,1.24847176E2,1.2237887E2,6.032356E1,1.8068777E1,7.170003E1,4.9438727E2,5.275566E2,6.283369E2,9.7252884E1,2.812599E2,3.117293E2,1.3482102E3,1.489257E2,1.1715443E1,7.922462E1,2.8917245E2,4.846457E2,4.4249043E1,3.1224347E2,3.9720248E2,2.2031837E1,7.9621577E0,3.680663E1,4.796641E1,7.458347E1,4.7534387E2,6.167094E2,2.0274442E2,2.1512064E2,4.699581E2,2.9803073E2,3.5549646E2,1.2634927E1,4.3304585E1,5.313045E1,1.0573465E2,9.6708145E0,1.4837755E0,4.9057956E0,6.1518253E1,7.887604E1,1.3860603E2,3.9015172E0,2.302769E1,8.633967E0,2.7014952E0,3.5175402E0,3.2795578E1,9.8113205E1,2.673397E1,1.1042075E2,1.1958116E1,1.349824E1,4.6825317E1,9.783094E0,8.285683E0,2.5819098E1,4.588093E1,4.6949023E2,2.4897053E1,1.26931114E2,4.0062546E2,1.0268443E2,5.256525E2,3.6822617E1,6.0430264E1,1.75854E2,1.054059E2,1.7005914E2,1.4167017E2,4.234046E2,9.248056E2,2.6452363E0,1.4628046E2,3.998361E0,7.7170815E0,4.317891E1,3.604571E1,2.421907E1,2.649534E2,2.6587003E2,2.1877567E2,1.5969722E1,2.8279322E1,6.765069E1,2.445928E2,1.1689491E2,2.803076E2,1.8605093E1,3.426744E0,6.502659E0,1.459499E0,9.424389E0,2.7382242E1,1.4719689E0,4.6494442E1,3.4328503E1,4.025497E1,7.3980576E1,4.013633E2,5.319055E2,8.480386E1,1.7193062E2,3.0813805E1,2.6975348E1,1.881453E2,5.093028E1,4.1902783E2,1.5679364E2,1.4123709E2,6.0522713E1,2.9497375E2,2.2148473E0,1.0420079E1,2.2616446E1,2.068814E1,1.4877216E1,3.8253235E1,8.336334E1,2.2371304E1,5.202539E0,4.4682755E0,3.1890748E0,1.716721E0,1.4420958E0,6.0076157E1,3.530711E1,4.356893E1,3.0424923E1,1.08181114E2,2.6956775E0,1.2058395E0,4.3739347E0,1.8653755E1,1.7201113E0,6.913856E0,1.4902148E0,1.2112803E0,1.1868155E0,2.3307247E0,2.43021E0,3.036537E1,5.620871E1,4.1904495E1,3.37125E0,2.336272E1,8.738144E1,2.3039316E1,7.64365E0,4.3144655E0,1.1822387E1,1.6758536E0,3.6826015E1,9.999303E0,8.367213E0,1.4158809E0,7.101068E0,1.1846144E0,1.9317144E1,6.501953E0,5.0153513E0,4.086558E1,4.4661853E2,2.2871675E1,1.737073E1,7.526323E0,7.855447E1,4.8376648E1,1.1077513E1,3.8954794E2,7.40707E1,2.8613728E1,3.2698737E2,1.9866515E2,2.7879831E1,8.942786E0,5.657774E1,3.8525243E0,5.796965E1,1.17884346E2,4.8277206E1,5.712869E1,8.345879E1,8.660035E1,7.182252E1,6.984765E1,2.1373332E2,2.096713E2,1.2968604E2,7.9511957E2,9.852654E0,1.3642781E2,2.8532104E0,1.1451505E0,1.3526254E0,6.364456E0,1.3230463E1,2.9948446E1,2.0904741E1,1.5140971E1,6.658226E0,1.7560844E1,9.143487E1,1.7351854E2],"tree_param":{"num_deleted":"0","num_feature":"320","num_nodes":"251","size_leaf_vector":"0"}},{"base_weights":[-1.1091149E-1,-3.3216682E-1,-2.6554978E-2,-4.002394E-1,1.2093126E-1,-1.7910463E-1,1.1900578E-1,-2.3975544E-1,-5.6934106E-1,-1.5058294E-1,4.713837E-1,-2.0876582E-1,7.024356E-1,4.1503412E-1,4.6850055E-2,-4.4703215E-1,6.189963E-2,6.0725474E-1,-6.597793E-1,1.7152418E-1,-3.981992E-1,-3.1145109E-2,7.3691666E-1,-8.114619E-2,-3.8223207E-1,-5.5975884E-1,9.27595E-1,4.9488747E-1,-2.4522658E-1,-1.8687852E-2,3.7321335E-1,2.7618796E-1,-5.6848675E-1,6.010136E-1,-1.6091682E-1,-3.845905E-1,1.203597E0,4.9921903E-1,-7.047251E-1,-9.761715E-2,8.1186306E-1,6.780494E-1,-5.425713E-1,8.10502E-1,-2.2053178E-1,1.0513959E0,1.0059792E-1,-1.2126033E-2,-5.721086E-1,-6.216193E-1,-2.69216E-1,6.913841E-1,-1.0133227E0,1.1335574E0,-5.9283984E-1,5.7386595E-1,-2.534135E-1,7.11419E-1,-5.529741E-1,1.5800802E-1,-2.0169075E-1,1.0954111E0,2.9902345E-1,-8.366469E-1,4.9892756E-1,-6.990284E-1,1.1527242E-1,1.3437426E0,2.7035022E-1,2.7961293E-1,-4.644302E-1,-7.94781E-1,8.226611E-1,1.3073101E0,-1.9143316E-1,-4.5480627E-1,1.0178748E0,-1.139286E0,-5.7872695E-1,-9.867264E-1,4.3981187E-2,-2.4802448E-1,9.890269E-1,-2.91659E-1,1.2402303E0,-7.400289E-2,-8.2582396E-1,-1.1246513E-1,1.1949912E0,-8.5412455E-1,1.997856E-1,9.500526E-2,1.2707303E0,8.4784365E-1,-6.805521E-1,-5.6197703E-2,5.937713E-1,-8.5704273E-1,-1.22265555E-1,-7.919521E-1,-1.1152138E-2,-8.1325686E-1,-1.5521836E-1,-1.0678038E-1,3.8421515E-1,-1.2770772E0,1.9074188E-1,1.309527E0,3.1381848E-1,2.7855745E-1,-9.307018E-1,-6.346727E-2,6.8278193E-1,5.353844E-1,-6.357242E-1,-1.3933748E-1,1.2451158E0,-8.1547666E-1,2.2690488E-1,9.255108E-2,5.023193E-1,1.5524845E-1,-3.301582E-1,-6.371152E-1,1.256937E0,2.3239854E-1,1.0852354E0,-3.610671E-1,2.3205273E-1,2.5207588E-1,-2.2103379E-2,-1.0466907E-1,-2.6218522E-1,4.3157443E-1,-4.8273165E-2,1.16703115E-1,4.884084E-1,-3.8368147E-4,3.373034E-1,2.2346024E-1,-8.699416E-2,6.5959306E-3,-2.0391269E-1,1.2220322E-1,-3.188062E-1,-1.5325305E-1,3.834897E-1,2.3315543E-2,4.2877224E-1,2.5441515E-1,-2.2652222E-1,-1.9858347E-1,3.6703986E-1,-1.2377657E-3,-3.8683912E-1,-1.3919872E-1,-2.5767884E-1,-3.958044E-1,-0E0,2.9735237E-1,-6.0849134E-2,3.7360004E-1,-9.3901984E-2,5.0385433E-1,-0E0,-1.3128008E-1,2.3227616E-1,1.1433897E-1,-2.7978647E-1,-0E0,4.311897E-1,-4.0125385E-1,2.4122568E-2,2.378171E-1,-1.6908482E-1,2.7200216E-1,-2.722982E-1,4.072048E-1,-0E0,3.108819E-1,-1.6588598E-1,-3.611751E-1,7.529066E-2,-3.5238255E-2,1.207093E-1,2.1903498E-2,2.6950285E-1,1.8496087E-2,-3.3257872E-1,1.3559021E-1,-1.5226631E-1,-1.09126225E-1,-2.7739468E-1,-9.983116E-2,2.3510806E-1,-1.1112333E-1,-3.0910295E-1,1.1967576E-1,-1.025182E-1,-8.223701E-3,-4.128599E-1,1.0402585E-1,4.3525898E-1,-1.2592806E-1,3.631599E-1,7.3230445E-2,-3.5968637E-1,1.7278169E-1,-1.7641392E-1,2.6085156E-1,1.159964E-1,2.9405063E-1,-7.254099E-2,-3.2224804E-1,3.7035435E-2,1.568153E-1,-2.0658019E-1,3.868187E-2,4.4666338E-1,1.1570072E-1,-2.928102E-1,-7.273648E-2,3.6358038E-1,5.9324417E-2,-4.598449E-2,-4.6103388E-2,2.4804896E-1,1.3134955E-1,-6.661896E-2,-1.6824436E-1,-3.578471E-2,-3.9120924E-1,7.1425594E-2,4.1158035E-1,-1.19043685E-1,1.0404398E-1,-1.4022258E-1,3.6239153E-1,-2.4943636E-1],"categories":[],"categories_nodes":[],"categories_segments":[],"categories_sizes":[],"default_left":[0,0,0,0,0,0,0,0,0,0,0,0,0,0,0,0,0,0,0,0,0,0,0,0,0,0,0,0,0,0,0,0,0,0,0,0,0,0,0,0,0,0,0,0,0,0,0,0,0,0,0,0,0,0,0,0,0,0,0,0,0,0,0,0,0,0,0,0,0,0,0,0,0,0,0,0,0,0,0,0,0,0,0,0,0,0,0,0,0,0,0,0,0,0,0,0,0,0,0,0,0,0,0,0,0,0,0,0,0,0,0,0,0,0,0,0,0,0,0,0,0,0,0,0,0,0,0,0,0,0,0,0,0,0,0,0,0,0,0,0,0,0,0,0,0,0,0,0,0,0,0,0,0,0,0,0,0,0,0,0,0,0,0,0,0,0,0,0,0,0,0,0,0,0,0,0,0,0,0,0,0,0,0,0,0,0,0,0,0,0,0,0,0,0,0,0,0,0,0,0,0,0,0,0,0,0,0,0,0,0,0,0,0,0,0,0,0,0,0,0,0,0,0,0,0,0,0,0,0,0,0,0,0,0,0,0,0,0,0],"id":3,"left_children":[1,3,5,7,9,11,13,15,17,19,21,23,25,27,29,31,33,35,37,39,41,43,45,47,49,51,53,55,57,59,61,63,65,67,69,71,73,75,77,79,81,83,85,87,89,91,93,95,97,99,101,103,105,107,109,111,113,115,117,119,121,123,125,127,129,131,133,135,137,139,141,143,145,147,-1,149,151,153,155,157,159,-1,161,-1,163,165,167,-1,169,171,173,175,177,179,181,183,185,187,189,191,193,195,197,-1,-1,199,-1,201,203,-1,205,207,209,211,213,215,217,219,221,223,225,227,229,231,233,235,237,-1,-1,-1,-1,-1,-1,-1,-1,-1,-1,-1,-1,-1,-1,-1,-1,-1,-1,-1,-1,-1,-1,-1,-1,-1,-1,-1,-1,-1,-1,-1,-1,-1,-1,-1,-1,-1,-1,-1,-1,-1,-1,-1,-1,-1,-1,-1,-1,-1,-1,-1,-1,-1,-1,-1,-1,-1,-1,-1,-1,-1,-1,-1,-1,-1,-1,-1,-1,-1,-1,-1,-1,-1,-1,-1,-1,-1,-1,-1,-1,-1,-1,-1,-1,-1,-1,-1,-1,-1,-1,-1,-1,-1,-1,-1,-1,-1,-1,-1,-1,-1,-1,-1,-1,-1,-1,-1,-1,-1,-1,-1,-1],"loss_changes":[1.6754034E2,7.6642975E1,1.4458047E2,5.797473E1,3.1020575E1,8.305343E1,7.087056E1,6.959571E1,1.11909515E2,1.4719769E1,1.9364119E1,6.7876495E1,3.0032211E1,3.4571815E1,5.7497974E1,5.8167206E1,5.458723E1,4.517841E1,5.1180237E1,1.4058778E1,1.6495874E1,7.7745833E0,1.8087688E1,5.9891792E1,3.4631607E1,9.8902E0,2.859069E1,3.4690216E1,2.099211E1,7.219949E1,2.3055561E1,2.3747522E1,5.0799637E1,3.1490425E1,4.2981926E1,1.4787655E1,1.0210716E1,1.8816399E1,4.985431E1,7.564315E0,7.8800726E0,1.2809639E1,1.18149185E1,4.878915E0,1.1598178E1,1.2231705E1,1.9721746E1,4.140088E1,2.734999E1,4.280461E1,5.4469833E1,3.7168941E0,6.5157194E0,1.0085083E1,6.4680824E0,3.6947144E1,1.7167551E1,8.507407E0,1.155452E1,2.5220448E1,5.048016E1,1.2546619E1,2.0542515E1,1.0486168E1,1.607937E1,2.818399E1,3.4060158E1,9.28257E0,2.2307243E1,3.500213E1,2.0281021E1,7.8915243E0,5.549731E0,5.9418716E0,0E0,5.763428E0,9.485701E0,3.497177E1,2.2417023E1,3.033266E0,1.1997629E1,0E0,8.342131E0,0E0,6.1610336E0,1.150586E1,7.993553E0,0E0,2.2795763E0,8.545606E0,1.20562E1,1.1482562E1,6.0390244E0,5.4238186E0,8.673069E0,4.078565E1,1.6109425E1,3.1241951E1,1.9370596E1,1.7445236E1,2.3635262E1,1.3613274E1,7.620081E1,0E0,0E0,6.556511E-1,0E0,7.2686615E0,1.1212098E1,0E0,3.823123E0,2.6234581E1,2.3972519E1,6.9243417E0,1.3374627E1,3.0409017E0,1.9900188E0,8.611887E0,7.2172313E0,2.4763931E1,3.8728207E1,3.1147167E1,3.892491E1,3.1108277E0,8.254898E0,3.048193E1,8.517551E0,0E0,0E0,0E0,0E0,0E0,0E0,0E0,0E0,0E0,0E0,0E0,0E0,0E0,0E0,0E0,0E0,0E0,0E0,0E0,0E0,0E0,0E0,0E0,0E0,0E0,0E0,0E0,0E0,0E0,0E0,0E0,0E0,0E0,0E0,0E0,0E0,0E0,0E0,0E0,0E0,0E0,0E0,0E0,0E0,0E0,0E0,0E0,0E0,0E0,0E0,0E0,0E0,0E0,0E0,0E0,0E0,0E0,0E0,0E0,0E0,0E0,0E0,0E0,0E0,0E0,0E0,0E0,0E0,0E0,0E0,0E0,0E0,0E0,0E0,0E0,0E0,0E0,0E0,0E0,0E0,0E0,0E0,0E0,0E0,0E0,0E0,0E0,0E0,0E0,0E0,0E0,0E0,0E0,0E0,0E0,0E0,0E0,0E0,0E0,0E0,0E0,0E0,0E0,0E0,0E0,0E0,0E0,0E0,0E0,0E0,0E0,0E0],"parents":[2147483647,0,0,1,1,2,2,3,3,4,4,5,5,6,6,7,7,8,8,9,9,10,10,11,11,12,12,13,13,14,14,15,15,16,16,17,17,18,18,19,19,20,20,21,21,22,22,23,23,24,24,25,25,26,26,27,27,28,28,29,29,30,30,31,31,32,32,33,33,34,34,35,35,36,36,37,37,38,38,39,39,40,40,41,41,42,42,43,43,44,44,45,45,46,46,47,47,48,48,49,49,50,50,51,51,52,52,53,53,54,54,55,55,56,56,57,57,58,58,59,59,60,60,61,61,62,62,63,63,64,64,65,65,66,66,67,67,68,68,69,69,70,70,71,71,72,72,73,73,75,75,76,76,77,77,78,78,79,79,80,80,82,82,84,84,85,85,86,86,88,88,89,89,90,90,91,91,92,92,93,93,94,94,95,95,96,96,97,97,98,98,99,99,100,100,101,101,102,102,105,105,107,107,108,108,110,110,111,111,112,112,113,113,114,114,115,115,116,116,117,117,118,118,119,119,120,120,121,121,122,122,123,123,124,124,125,125,126,126],"right_children":[2,4,6,8,10,12,14,16,18,20,22,24,26,28,30,32,34,36,38,40,42,44,46,48,50,52,54,56,58,60,62,64,66,68,70,72,74,76,78,80,82,84,86,88,90,92,94,96,98,100,102,104,106,108,110,112,114,116,118,120,122,124,126,128,130,132,134,136,138,140,142,144,146,148,-1,150,152,154,156,158,160,-1,162,-1,164,166,168,-1,170,172,174,176,178,180,182,184,186,188,190,192,194,196,198,-1,-1,200,-1,202,204,-1,206,208,210,212,214,216,218,220,222,224,226,228,230,232,234,236,238,-1,-1,-1,-1,-1,-1,-1,-1,-1,-1,-1,-1,-1,-1,-1,-1,-1,-1,-1,-1,-1,-1,-1,-1,-1,-1,-1,-1,-1,-1,-1,-1,-1,-1,-1,-1,-1,-1,-1,-1,-1,-1,-1,-1,-1,-1,-1,-1,-1,-1,-1,-1,-1,-1,-1,-1,-1,-1,-1,-1,-1,-1,-1,-1,-1,-1,-1,-1,-1,-1,-1,-1,-1,-1,-1,-1,-1,-1,-1,-1,-1,-1,-1,-1,-1,-1,-1,-1,-1,-1,-1,-1,-1,-1,-1,-1,-1,-1,-1,-1,-1,-1,-1,-1,-1,-1,-1,-1,-1,-1,-1,-1],"split_conditions":[2E0,4E0,-1.66875E1,-1.0715571E1,-8.5925E1,-6.36875E0,-1.84375E1,-7.7988335E1,-1.2583333E1,-9.42375E1,-8.7116E1,-9.635417E0,-7.9287834E1,1E0,-8.145E1,-1.41875E1,-9.762371E1,-7.65E0,-8.3673E1,-8.671875E1,-2.39578E1,-9.302866E1,-8.265625E1,5E0,-7.965117E1,-8.08125E1,-6.67E1,1E0,-9.9231E1,-1.1625E1,-9.7919334E1,-1.0102571E2,-7.819657E1,-1.19725E1,-9.0281166E1,-7.530289E1,-7.7422E1,-7.807166E1,-1.6648E1,-1.07770836E2,-2.14125E1,-7.9819E1,-9.2401E1,-1.40105E1,-8.001583E1,-9.50625E1,-7.192414E1,-7.6923075E0,-8.0125E1,-1.0919167E1,-1.9496E1,-9.4615E1,-7E1,-6.4375E0,-1.36275E1,-1.9292833E1,-9.002679E1,-1.8229166E1,6E0,-9.489583E0,-1.7125E1,-9.38625E1,-6.7E0,-1.4925E1,-1.296875E1,-1.075E1,-2.6336E1,-7.503125E1,-1.0623667E1,2E0,-1.2665334E1,-2.4872715E1,-2.463E1,-1.0649834E1,-1.9143316E-1,-1.39311E2,-9.2791664E1,-1.1181E1,-9.479167E0,-1.371875E1,-1.026875E2,-2.4802448E-1,-8.480729E1,-2.91659E-1,-1.2229167E1,-8.825E1,-9.63045E1,-1.1246513E-1,-1.9025E1,-1.1871715E1,-9.002617E1,-1.0171875E1,-8.160714E0,1E0,-6.81875E1,-7.23375E1,-1.5611714E1,-9.82125E1,-7.5442665E1,-1.0046314E2,-7.2468834E1,2E0,-8.017983E1,-1.0678038E-1,3.8421515E-1,-2.105E1,1.9074188E-1,2E0,3E0,2.7855745E-1,-7.6778846E0,-8.6336E1,-1.6541666E1,-1.6520834E1,-8.4375E0,-1.15E1,-1.0504417E2,-1.007955E2,-7.5087166E1,-1.096875E1,-1.4011E1,-9.3125E0,3E0,-1.2540334E1,-9.201417E1,-7.482143E0,1E0,-3.610671E-1,2.3205273E-1,2.5207588E-1,-2.2103379E-2,-1.0466907E-1,-2.6218522E-1,4.3157443E-1,-4.8273165E-2,1.16703115E-1,4.884084E-1,-3.8368147E-4,3.373034E-1,2.2346024E-1,-8.699416E-2,6.5959306E-3,-2.0391269E-1,1.2220322E-1,-3.188062E-1,-1.5325305E-1,3.834897E-1,2.3315543E-2,4.2877224E-1,2.5441515E-1,-2.2652222E-1,-1.9858347E-1,3.6703986E-1,-1.2377657E-3,-3.8683912E-1,-1.3919872E-1,-2.5767884E-1,-3.958044E-1,-0E0,2.9735237E-1,-6.0849134E-2,3.7360004E-1,-9.3901984E-2,5.0385433E-1,-0E0,-1.3128008E-1,2.3227616E-1,1.1433897E-1,-2.7978647E-1,-0E0,4.311897E-1,-4.0125385E-1,2.4122568E-2,2.378171E-1,-1.6908482E-1,2.7200216E-1,-2.722982E-1,4.072048E-1,-0E0,3.108819E-1,-1.6588598E-1,-3.611751E-1,7.529066E-2,-3.5238255E-2,1.207093E-1,2.1903498E-2,2.6950285E-1,1.8496087E-2,-3.3257872E-1,1.3559021E-1,-1.5226631E-1,-1.09126225E-1,-2.7739468E-1,-9.983116E-2,2.3510806E-1,-1.1112333E-1,-3.0910295E-1,1.1967576E-1,-1.025182E-1,-8.223701E-3,-4.128599E-1,1.0402585E-1,4.3525898E-1,-1.2592806E-1,3.631599E-1,7.3230445E-2,-3.5968637E-1,1.7278169E-1,-1.7641392E-1,2.6085156E-1,1.159964E-1,2.9405063E-1,-7.254099E-2,-3.2224804E-1,3.7035435E-2,1.568153E-1,-2.0658019E-1,3.868187E-2,4.4666338E-1,1.1570072E-1,-2.928102E-1,-7.273648E-2,3.6358038E-1,5.9324417E-2,-4.598449E-2,-4.6103388E-2,2.4804896E-1,1.3134955E-1,-6.661896E-2,-1.6824436E-1,-3.578471E-2,-3.9120924E-1,7.1425594E-2,4.1158035E-1,-1.19043685E-1,1.0404398E-1,-1.4022258E-1,3.6239153E-1,-2.4943636E-1],"split_indices":[311,183,315,221,298,313,235,284,13,184,318,9,316,305,314,233,14,217,316,296,15,268,186,103,60,56,136,304,94,313,44,188,172,221,206,120,12,188,63,138,27,44,190,93,316,122,220,249,184,253,319,296,200,185,269,319,24,59,311,185,171,296,297,139,57,313,15,280,77,39,221,271,255,221,0,238,26,301,315,251,312,0,136,0,189,266,316,0,11,45,62,9,169,145,216,120,159,90,188,94,316,87,14,0,0,43,0,247,71,0,137,44,267,139,185,13,110,62,236,89,285,313,55,127,28,249,304,0,0,0,0,0,0,0,0,0,0,0,0,0,0,0,0,0,0,0,0,0,0,0,0,0,0,0,0,0,0,0,0,0,0,0,0,0,0,0,0,0,0,0,0,0,0,0,0,0,0,0,0,0,0,0,0,0,0,0,0,0,0,0,0,0,0,0,0,0,0,0,0,0,0,0,0,0,0,0,0,0,0,0,0,0,0,0,0,0,0,0,0,0,0,0,0,0,0,0,0,0,0,0,0,0,0,0,0,0,0,0,0],"split_type":[0,0,0,0,0,0,0,0,0,0,0,0,0,0,0,0,0,0,0,0,0,0,0,0,0,0,0,0,0,0,0,0,0,0,0,0,0,0,0,0,0,0,0,0,0,0,0,0,0,0,0,0,0,0,0,0,0,0,0,0,0,0,0,0,0,0,0,0,0,0,0,0,0,0,0,0,0,0,0,0,0,0,0,0,0,0,0,0,0,0,0,0,0,0,0,0,0,0,0,0,0,0,0,0,0,0,0,0,0,0,0,0,0,0,0,0,0,0,0,0,0,0,0,0,0,0,0,0,0,0,0,0,0,0,0,0,0,0,0,0,0,0,0,0,0,0,0,0,0,0,0,0,0,0,0,0,0,0,0,0,0,0,0,0,0,0,0,0,0,0,0,0,0,0,0,0,0,0,0,0,0,0,0,0,0,0,0,0,0,0,0,0,0,0,0,0,0,0,0,0,0,0,0,0,0,0,0,0,0,0,0,0,0,0,0,0,0,0,0,0,0,0,0,0,0,0,0,0,0,0,0,0,0,0,0,0,0,0,0],"sum_hessian":[8.985581E3,2.477798E3,6.507783E3,2.155222E3,3.2257626E2,3.179172E3,3.3286113E3,1.1085447E3,1.0466771E3,1.812758E2,1.4130045E2,3.0769717E3,1.0220051E2,6.5004297E2,2.6785684E3,6.577557E2,4.507891E2,7.390714E1,9.7277E2,7.804301E1,1.03232796E2,4.8504322E1,9.279613E1,1.7752588E3,1.3017129E3,1.4910242E1,8.729026E1,5.8080664E2,6.9236275E1,2.2301387E3,4.4842957E2,9.380263E1,5.63953E2,1.3198715E2,3.1880194E2,2.7569609E1,4.6337536E1,3.55229E1,9.3724713E2,5.4994812E1,2.3048195E1,1.1363285E1,9.186951E1,7.8222036E0,4.0682117E1,6.11411E1,3.1655025E1,1.5582421E3,2.1701665E2,4.1459848E2,8.8711444E2,3.5342886E0,1.1375954E1,7.739008E1,9.900179E0,5.2617365E2,5.4633038E1,1.6137087E1,5.309919E1,1.1333007E3,1.0968381E3,3.986467E1,4.085649E2,1.4809848E1,7.899278E1,4.7414023E2,8.981279E1,3.924962E1,9.273753E1,1.2940723E2,1.8939471E2,2.1141977E1,6.4276314E0,4.4398926E1,1.9386113E0,1.2214463E1,2.3308437E1,2.0796754E2,7.292796E2,7.2203274E0,4.7774487E1,1.615686E0,2.1432508E1,2.4761071E0,8.887178E0,3.5752575E1,5.6116936E1,1.6034133E0,6.21879E0,1.628753E1,2.4394587E1,1.2098648E1,4.9042454E1,1.6462118E1,1.5192907E1,1.4541992E3,1.0404286E2,1.3162662E2,8.539003E1,3.2328033E2,9.131817E1,1.5185994E2,7.3525446E2,1.1097484E0,2.4245403E0,1.0263284E1,1.1126698E0,6.271904E1,1.4671042E1,1.2124565E0,8.687723E0,7.6186554E1,4.499871E2,1.7277405E1,3.735563E1,6.144426E0,9.992661E0,4.0172764E1,1.2926428E1,9.545519E2,1.787487E2,2.8920334E2,8.0763477E2,2.8846033E0,3.6980064E1,3.7842786E2,3.0137053E1,1.2519948E1,2.2898996E0,4.9745617E1,2.9247166E1,1.599103E2,3.1422995E2,1.509377E1,7.471902E1,9.952553E0,2.9297066E1,7.067198E1,2.206555E1,7.154117E1,5.7866055E1,5.7668827E1,1.3172589E2,3.418042E0,1.7723934E1,1.3265944E0,5.101037E0,4.523223E0,3.98757E1,1.6342005E0,1.0580262E1,2.034388E0,2.127405E1,2.4807781E1,1.8315976E2,5.205687E2,2.0871085E2,5.340523E0,1.8798047E0,9.67076E0,3.8103725E1,1.8264656E1,3.1678529E0,6.5756683E0,2.3115096E0,2.5777046E1,9.975529E0,3.9724536E0,5.214448E1,1.1253321E0,5.093458E0,1.080332E1,5.48421E0,1.407726E1,1.0317327E1,7.0146346E0,5.084013E0,4.6137142E1,2.9053116E0,1.5054249E1,1.4078691E0,9.884018E0,5.30889E0,1.284435E3,1.6976419E2,3.945819E1,6.458467E1,2.8029043E1,1.0359758E2,3.369715E1,5.1692883E1,7.8258385E1,2.4502194E2,6.587398E1,2.5444191E1,5.160261E1,1.0025734E2,1.8418927E2,5.510652E2,1.2187661E0,9.0445175E0,8.923532E0,5.379551E1,8.055417E0,6.615626E0,1.2852284E0,7.4024944E0,3.3861694E1,4.232486E1,2.7374945E2,1.7623763E2,1.1231686E1,6.04572E0,2.3834522E1,1.3521108E1,2.3952844E0,3.7491412E0,2.4328568E0,7.559805E0,4.204235E0,3.596853E1,8.921606E0,4.004822E0,6.7005206E2,2.8449982E2,5.8823277E1,1.1992543E2,1.660253E2,1.2317804E2,3.8380154E2,4.2383322E2,1.6832558E0,1.2013476E0,3.5017773E1,1.9622931E0,3.2629868E2,5.2129192E1,2.8916025E1,1.2210273E0],"tree_param":{"num_deleted":"0","num_feature":"320","num_nodes":"239","size_leaf_vector":"0"}},{"base_weights":[-8.13239E-2,-2.6542413E-1,-1.6233983E-2,-1.4610384E-1,-5.2023077E-1,-3.157802E-1,2.7414426E-2,-2.5514272E-1,1.4432783E-1,-4.171685E-1,-9.3825334E-1,4.2439198E-1,-5.4151857E-1,5.811639E-3,4.671836E-1,-4.5479873E-1,-9.452915E-2,6.678527E-1,-2.7281326E-1,-4.909364E-1,6.53602E-1,2.1839145E-1,-1.0844151E0,8.1432444E-1,-1.7295444E-1,-7.2139114E-1,-1.9149347E-1,7.045677E-2,-1.8060994E-1,9.7472686E-1,2.3623748E-1,4.4161897E-2,-6.6654366E-1,6.4167553E-1,-2.1303056E-1,-0E0,9.130559E-1,-6.616686E-1,4.6149697E-2,-6.002613E-1,6.0657028E-2,-8.843577E-1,9.565418E-1,9.0519786E-1,-6.0285294E-1,-1.1684375E0,6.021153E-1,1.02987E0,-0E0,-1.1444169E0,7.315557E-1,-8.2234025E-1,-1.6710271E-1,-8.492321E-3,-7.9830134E-1,1.591372E-2,4.2111367E-1,-2.494433E-1,1.9470719E-1,3.419643E-1,1.1483021E0,5.139003E-1,-1.7052487E-1,-8.086837E-1,3.0964413E-1,-8.672177E-1,-3.3456263E-1,-7.4662817E-1,1.0350974E0,-3.5212997E-1,7.63083E-2,4.1191643E-1,-8.6171156E-1,-3.0579445E-1,9.974424E-1,-3.621489E-1,-1.1308966E0,-1.8519479E-1,8.642569E-1,-6.2946063E-1,7.7522135E-1,-3.7941256E-1,6.605569E-1,1.860926E-2,-3.8943568E-1,1.3361338E0,1.2458724E-1,1.428804E0,-0E0,2.2104177E-1,-1.1473212E0,5.6874577E-2,-1.2377845E0,-9.058092E-2,1.1603628E0,-1.3281347E-1,1.1177173E0,-6.105227E-1,7.892989E-1,-1.3862047E0,3.219434E-1,-3.540781E-1,1.0625234E0,-6.5598994E-1,-1.2365797E0,2.769872E-1,-6.6482437E-1,-4.8814404E-1,2.837639E-1,1.2593573E-1,-1.0519143E0,-2.9075347E-2,3.2440862E-1,5.092547E-1,-2.8019848E-1,1.1700779E-1,-3.1979612E-1,7.9525983E-1,-1.8577449E-1,1.1233343E0,-4.8404548E-1,3.1624687E-1,1.288327E0,-0E0,9.638398E-1,3.7928846E-1,-7.590114E-1,-3.6751172E-1,-8.032141E-2,1.795403E-1,-2.1139075E-1,-1.0376232E-2,-2.8738093E-1,-2.9948908E-1,-5.483978E-2,2.6560977E-1,-3.4436744E-1,3.837261E-1,2.0167748E-2,-1.23504475E-1,2.075618E-1,1.1804592E-1,-9.747053E-2,2.3949192E-1,-1.2155933E-1,-3.446695E-1,1.2669119E-1,3.6206788E-1,8.389549E-2,-2.3233457E-1,9.976531E-2,7.110295E-2,-3.7409884E-1,2.2761151E-1,-1.2657428E-1,-9.0536624E-2,4.0414348E-1,-2.352119E-1,-1.216517E-1,-2.0935257E-1,4.0401003E-1,6.1559524E-2,-2.0013337E-1,3.2457322E-1,-5.824818E-2,4.9467438E-1,1.4199107E-2,1.9481064E-1,-2.9891E-1,4.772139E-1,4.185942E-2,2.4185562E-1,-2.2985634E-1,-1.4545866E-2,-3.854533E-1,2.8787103E-1,-3.1764862E-1,-1.1314774E-1,-3.968676E-1,-0E0,4.55129E-1,-3.371672E-1,1.6477805E-1,-8.357681E-2,3.5934955E-1,-2.9023674E-1,6.863402E-2,-1.6096207E-1,3.2181105E-1,3.5547193E-2,-4.3788427E-1,-2.617725E-1,3.2827055E-1,1.5927544E-1,-3.0729687E-1,-0E0,4.1654155E-1,-2.9425603E-1,-1.1317489E-1,-3.775818E-1,3.275391E-2,-1.2027269E-1,2.0274124E-1,1.0014329E-1,-2.844001E-1,-2.287079E-1,3.6889642E-2,3.0512628E-1,-1.5397146E-2,-1.9694734E-1,3.6659575E-1,2.845344E-1,-3.4832504E-1,-1.1847216E-1,3.76365E-3,2.015789E-1,8.534079E-3,1.7918873E-1,-8.28594E-2,1.1537192E-1,-2.6072267E-1,-7.1592845E-2,1.365471E-1,-1.892827E-1,-5.9549313E-2,3.2814655E-1,2.8749688E-2,1.908404E-1,-1.5683313E-1,-0E0,3.6714247E-1,-3.444901E-1,6.91752E-2,2.5914282E-1,-1.5878013E-1,-0E0,3.9942834E-1,-1.6062558E-1,1.6693223E-1,3.1593752E-1,-2.823435E-1,-2.7616262E-1,2.064091E-1,1.7098618E-1,-3.0423957E-1],"categories":[],"categories_nodes":[],"categories_segments":[],"categories_sizes":[],"default_left":[0,0,0,0,0,0,0,0,0,0,0,0,0,0,0,0,0,0,0,0,0,0,0,0,0,0,0,0,0,0,0,0,0,0,0,0,0,0,0,0,0,0,0,0,0,0,0,0,0,0,0,0,0,0,0,0,0,0,0,0,0,0,0,0,0,0,0,0,0,0,0,0,0,0,0,0,0,0,0,0,0,0,0,0,0,0,0,0,0,0,0,0,0,0,0,0,0,0,0,0,0,0,0,0,0,0,0,0,0,0,0,0,0,0,0,0,0,0,0,0,0,0,0,0,0,0,0,0,0,0,0,0,0,0,0,0,0,0,0,0,0,0,0,0,0,0,0,0,0,0,0,0,0,0,0,0,0,0,0,0,0,0,0,0,0,0,0,0,0,0,0,0,0,0,0,0,0,0,0,0,0,0,0,0,0,0,0,0,0,0,0,0,0,0,0,0,0,0,0,0,0,0,0,0,0,0,0,0,0,0,0,0,0,0,0,0,0,0,0,0,0,0,0,0,0,0,0,0,0,0,0,0,0,0,0,0,0,0,0,0,0,0,0,0,0],"id":4,"left_children":[1,3,5,7,9,11,13,15,17,19,21,23,25,27,29,31,33,35,37,39,41,43,45,47,49,51,53,55,57,59,61,63,65,67,69,71,73,75,77,79,81,83,85,87,89,91,93,95,97,99,101,103,105,107,109,111,113,115,117,119,121,123,125,127,129,131,133,135,137,139,141,143,145,-1,147,149,151,153,155,157,159,161,163,-1,-1,165,167,169,171,-1,173,175,177,-1,179,181,183,185,187,189,191,193,195,197,199,201,203,205,207,209,211,213,215,217,219,221,223,225,227,229,231,233,235,237,239,241,243,-1,-1,-1,-1,-1,-1,-1,-1,-1,-1,-1,-1,-1,-1,-1,-1,-1,-1,-1,-1,-1,-1,-1,-1,-1,-1,-1,-1,-1,-1,-1,-1,-1,-1,-1,-1,-1,-1,-1,-1,-1,-1,-1,-1,-1,-1,-1,-1,-1,-1,-1,-1,-1,-1,-1,-1,-1,-1,-1,-1,-1,-1,-1,-1,-1,-1,-1,-1,-1,-1,-1,-1,-1,-1,-1,-1,-1,-1,-1,-1,-1,-1,-1,-1,-1,-1,-1,-1,-1,-1,-1,-1,-1,-1,-1,-1,-1,-1,-1,-1,-1,-1,-1,-1,-1,-1,-1,-1,-1,-1,-1,-1,-1,-1,-1,-1,-1,-1],"loss_changes":[1.04582855E2,6.893474E1,8.4613976E1,4.9371258E1,3.0194962E1,1.3781993E2,5.332087E1,3.601351E1,9.300434E1,4.6441E1,2.4636772E1,4.52788E1,3.9177887E1,6.474373E1,2.9977783E1,5.353029E1,5.4929737E1,3.1109009E1,2.9638084E1,3.336563E1,1.84426E1,9.920858E0,1.8900436E1,2.0547836E1,6.809913E1,2.2643646E1,2.3657814E1,7.617128E1,3.579142E1,7.781967E0,2.0890263E1,3.4014683E1,2.2706635E1,4.8480927E1,2.2076653E1,1.8728733E1,2.3571426E1,1.3913479E1,2.5105274E1,1.882544E1,2.4371475E1,3.224431E0,9.284842E0,4.294702E0,6.679059E0,1.0945663E1,3.9977384E0,1.0097412E1,1.2777452E1,1.4256561E1,1.5053053E1,2.2420456E1,1.4989464E1,2.3813982E1,1.2215769E1,4.816415E1,3.341468E1,3.0297058E1,4.928036E1,1.3466099E1,6.093811E0,2.5569178E1,2.4461826E1,6.919462E0,3.4272903E1,1.6027817E1,1.2927733E1,1.393638E1,1.5429939E1,2.3087555E1,2.2611835E1,1.1692398E1,7.1675434E0,0E0,1.8966766E1,1.983183E1,7.2571106E0,2.2874338E1,1.743394E1,1.4657669E1,9.363193E0,9.206678E0,1.4801292E1,0E0,0E0,7.7906075E0,7.307206E0,1.5948296E-1,3.5070453E0,0E0,1.9934845E-1,8.069894E0,7.073166E0,0E0,1.721178E0,5.6351027E0,1.0479332E1,5.068057E0,5.190176E0,4.4478836E0,6.4346557E0,6.550232E0,1.1405861E1,2.1890488E1,3.6330414E0,9.900514E0,9.671484E0,1.125298E1,2.6208342E1,1.064097E1,9.81863E0,4.6152878E1,4.506439E1,3.33459E1,2.4025541E1,2.282599E1,3.6552216E1,1.6752834E1,3.6592457E1,9.024067E-1,5.4135633E0,5.6567197E0,2.9466171E0,1.5748303E1,1.1025139E1,1.598761E1,1.3201168E1,0E0,0E0,0E0,0E0,0E0,0E0,0E0,0E0,0E0,0E0,0E0,0E0,0E0,0E0,0E0,0E0,0E0,0E0,0E0,0E0,0E0,0E0,0E0,0E0,0E0,0E0,0E0,0E0,0E0,0E0,0E0,0E0,0E0,0E0,0E0,0E0,0E0,0E0,0E0,0E0,0E0,0E0,0E0,0E0,0E0,0E0,0E0,0E0,0E0,0E0,0E0,0E0,0E0,0E0,0E0,0E0,0E0,0E0,0E0,0E0,0E0,0E0,0E0,0E0,0E0,0E0,0E0,0E0,0E0,0E0,0E0,0E0,0E0,0E0,0E0,0E0,0E0,0E0,0E0,0E0,0E0,0E0,0E0,0E0,0E0,0E0,0E0,0E0,0E0,0E0,0E0,0E0,0E0,0E0,0E0,0E0,0E0,0E0,0E0,0E0,0E0,0E0,0E0,0E0,0E0,0E0,0E0,0E0,0E0,0E0,0E0,0E0,0E0,0E0,0E0,0E0,0E0,0E0],"parents":[2147483647,0,0,1,1,2,2,3,3,4,4,5,5,6,6,7,7,8,8,9,9,10,10,11,11,12,12,13,13,14,14,15,15,16,16,17,17,18,18,19,19,20,20,21,21,22,22,23,23,24,24,25,25,26,26,27,27,28,28,29,29,30,30,31,31,32,32,33,33,34,34,35,35,36,36,37,37,38,38,39,39,40,40,41,41,42,42,43,43,44,44,45,45,46,46,47,47,48,48,49,49,50,50,51,51,52,52,53,53,54,54,55,55,56,56,57,57,58,58,59,59,60,60,61,61,62,62,63,63,64,64,65,65,66,66,67,67,68,68,69,69,70,70,71,71,72,72,74,74,75,75,76,76,77,77,78,78,79,79,80,80,81,81,82,82,85,85,86,86,87,87,88,88,90,90,91,91,92,92,94,94,95,95,96,96,97,97,98,98,99,99,100,100,101,101,102,102,103,103,104,104,105,105,106,106,107,107,108,108,109,109,110,110,111,111,112,112,113,113,114,114,115,115,116,116,117,117,118,118,119,119,120,120,121,121,122,122,123,123,124,124,125,125,126,126],"right_children":[2,4,6,8,10,12,14,16,18,20,22,24,26,28,30,32,34,36,38,40,42,44,46,48,50,52,54,56,58,60,62,64,66,68,70,72,74,76,78,80,82,84,86,88,90,92,94,96,98,100,102,104,106,108,110,112,114,116,118,120,122,124,126,128,130,132,134,136,138,140,142,144,146,-1,148,150,152,154,156,158,160,162,164,-1,-1,166,168,170,172,-1,174,176,178,-1,180,182,184,186,188,190,192,194,196,198,200,202,204,206,208,210,212,214,216,218,220,222,224,226,228,230,232,234,236,238,240,242,244,-1,-1,-1,-1,-1,-1,-1,-1,-1,-1,-1,-1,-1,-1,-1,-1,-1,-1,-1,-1,-1,-1,-1,-1,-1,-1,-1,-1,-1,-1,-1,-1,-1,-1,-1,-1,-1,-1,-1,-1,-1,-1,-1,-1,-1,-1,-1,-1,-1,-1,-1,-1,-1,-1,-1,-1,-1,-1,-1,-1,-1,-1,-1,-1,-1,-1,-1,-1,-1,-1,-1,-1,-1,-1,-1,-1,-1,-1,-1,-1,-1,-1,-1,-1,-1,-1,-1,-1,-1,-1,-1,-1,-1,-1,-1,-1,-1,-1,-1,-1,-1,-1,-1,-1,-1,-1,-1,-1,-1,-1,-1,-1,-1,-1,-1,-1,-1,-1],"split_conditions":[-1.8864584E1,-8.3125E0,-2.099343E1,-7.994318E0,-6.665278E1,-8.946E1,-6.7875E0,-1.1404834E1,-9.625E0,-6.44375E1,-1.1292833E1,-8.9142715E1,-8.776557E1,-9.1775E0,-9.2875E0,-9.428125E1,-1.20665E1,-1.0739E1,-1.4845E1,-7.5775E1,-1.07125E1,-1.7995192E1,-5.9125E0,-9.15E1,-7.86875E1,-7.6757835E1,-7.106471E1,-8.7375E0,-6.9484375E1,-1.8768333E1,-1.04375E1,-9.646733E1,-8.1520836E1,-8.1820335E1,3E0,-7.78045E1,-9.115625E1,-1.54635E1,-7.8145836E1,6E0,-7.91875E1,-2.725E1,-6.9675E1,-1.5793269E1,-1.9158653E1,-1.1723429E1,-6.54675E1,-9.354343E1,-7.63625E1,-1.0931E1,-1.909375E1,-7.304228E1,-7.48E1,-7.944933E1,-7.896233E1,-7.645E1,1E0,-1.10625E1,-7.090625E1,-8.39285E1,2E0,-1.0634E1,-1.0673166E1,-1.65875E1,-8.80235E1,-9.64875E1,-8.380357E1,-1.6450333E1,-1.1309667E1,-6.5640625E1,-8.715625E1,-8.6583336E1,-6.86875E1,-3.0579445E-1,-8.3479164E1,-7.47236E1,-2.31125E1,-9.244318E0,-1.0682333E1,-7.6875E0,-9.15625E1,-2.0104166E1,-1.0660714E1,1.860926E-2,-3.8943568E-1,3E0,-1.4113334E1,-7.28125E0,-1.7583334E1,2.2104177E-1,-1.1276857E1,-6.375E1,-7.8475334E1,-9.058092E-2,-1.951923E1,-1.6854166E1,-2.125E1,-1.0928333E1,2E0,-2.50685E1,-1.1055833E1,-9.2436165E1,-8.4344E1,-8.061833E1,-6.1125E1,2E0,-1.1372334E1,-7.9234375E1,-8.0352715E1,-1.0676E1,-7.9643166E1,1E0,-1.10795E1,1E0,-7.863416E1,-1.1340428E1,-8.037857E1,-1.2859375E1,-7.375E1,-9.46125E1,-9.805555E0,-6.59465E1,-1.0403125E2,-6.99625E1,1E0,-8.214386E1,-8.0476715E1,-3.6751172E-1,-8.032141E-2,1.795403E-1,-2.1139075E-1,-1.0376232E-2,-2.8738093E-1,-2.9948908E-1,-5.483978E-2,2.6560977E-1,-3.4436744E-1,3.837261E-1,2.0167748E-2,-1.23504475E-1,2.075618E-1,1.1804592E-1,-9.747053E-2,2.3949192E-1,-1.2155933E-1,-3.446695E-1,1.2669119E-1,3.6206788E-1,8.389549E-2,-2.3233457E-1,9.976531E-2,7.110295E-2,-3.7409884E-1,2.2761151E-1,-1.2657428E-1,-9.0536624E-2,4.0414348E-1,-2.352119E-1,-1.216517E-1,-2.0935257E-1,4.0401003E-1,6.1559524E-2,-2.0013337E-1,3.2457322E-1,-5.824818E-2,4.9467438E-1,1.4199107E-2,1.9481064E-1,-2.9891E-1,4.772139E-1,4.185942E-2,2.4185562E-1,-2.2985634E-1,-1.4545866E-2,-3.854533E-1,2.8787103E-1,-3.1764862E-1,-1.1314774E-1,-3.968676E-1,-0E0,4.55129E-1,-3.371672E-1,1.6477805E-1,-8.357681E-2,3.5934955E-1,-2.9023674E-1,6.863402E-2,-1.6096207E-1,3.2181105E-1,3.5547193E-2,-4.3788427E-1,-2.617725E-1,3.2827055E-1,1.5927544E-1,-3.0729687E-1,-0E0,4.1654155E-1,-2.9425603E-1,-1.1317489E-1,-3.775818E-1,3.275391E-2,-1.2027269E-1,2.0274124E-1,1.0014329E-1,-2.844001E-1,-2.287079E-1,3.6889642E-2,3.0512628E-1,-1.5397146E-2,-1.9694734E-1,3.6659575E-1,2.845344E-1,-3.4832504E-1,-1.1847216E-1,3.76365E-3,2.015789E-1,8.534079E-3,1.7918873E-1,-8.28594E-2,1.1537192E-1,-2.6072267E-1,-7.1592845E-2,1.365471E-1,-1.892827E-1,-5.9549313E-2,3.2814655E-1,2.8749688E-2,1.908404E-1,-1.5683313E-1,-0E0,3.6714247E-1,-3.444901E-1,6.91752E-2,2.5914282E-1,-1.5878013E-1,-0E0,3.9942834E-1,-1.6062558E-1,1.6693223E-1,3.1593752E-1,-2.823435E-1,-2.7616262E-1,2.064091E-1,1.7098618E-1,-3.0423957E-1],"split_indices":[315,9,319,297,232,12,281,29,89,296,317,60,286,313,9,8,189,301,175,170,73,267,137,126,264,206,204,233,280,79,315,316,120,60,311,236,296,31,138,183,10,63,216,283,75,237,140,316,232,221,283,76,8,12,44,184,305,201,200,12,39,93,221,123,94,264,184,269,317,104,122,72,74,0,170,300,251,121,93,281,282,251,189,0,0,7,223,313,91,0,93,200,316,0,203,59,91,253,39,223,157,14,254,172,296,215,221,170,268,125,316,311,189,304,268,253,156,219,72,234,9,252,138,280,304,316,44,0,0,0,0,0,0,0,0,0,0,0,0,0,0,0,0,0,0,0,0,0,0,0,0,0,0,0,0,0,0,0,0,0,0,0,0,0,0,0,0,0,0,0,0,0,0,0,0,0,0,0,0,0,0,0,0,0,0,0,0,0,0,0,0,0,0,0,0,0,0,0,0,0,0,0,0,0,0,0,0,0,0,0,0,0,0,0,0,0,0,0,0,0,0,0,0,0,0,0,0,0,0,0,0,0,0,0,0,0,0,0,0,0,0,0,0,0,0],"split_type":[0,0,0,0,0,0,0,0,0,0,0,0,0,0,0,0,0,0,0,0,0,0,0,0,0,0,0,0,0,0,0,0,0,0,0,0,0,0,0,0,0,0,0,0,0,0,0,0,0,0,0,0,0,0,0,0,0,0,0,0,0,0,0,0,0,0,0,0,0,0,0,0,0,0,0,0,0,0,0,0,0,0,0,0,0,0,0,0,0,0,0,0,0,0,0,0,0,0,0,0,0,0,0,0,0,0,0,0,0,0,0,0,0,0,0,0,0,0,0,0,0,0,0,0,0,0,0,0,0,0,0,0,0,0,0,0,0,0,0,0,0,0,0,0,0,0,0,0,0,0,0,0,0,0,0,0,0,0,0,0,0,0,0,0,0,0,0,0,0,0,0,0,0,0,0,0,0,0,0,0,0,0,0,0,0,0,0,0,0,0,0,0,0,0,0,0,0,0,0,0,0,0,0,0,0,0,0,0,0,0,0,0,0,0,0,0,0,0,0,0,0,0,0,0,0,0,0,0,0,0,0,0,0,0,0,0,0,0,0,0,0,0,0,0,0],"sum_hessian":[8.738662E3,2.279779E3,6.4588833E3,1.555097E3,7.246819E2,8.221221E2,5.636761E3,1.1319601E3,4.2313696E2,5.8391376E2,1.4076819E2,1.9141093E2,6.307111E2,5.3748813E3,2.618802E2,5.0244037E2,6.295198E2,1.8790634E2,2.352306E2,5.472227E2,3.6691E1,1.5353541E1,1.2541464E2,1.16098564E2,7.531237E1,4.1497324E2,2.1573788E2,3.9934001E3,1.3814812E3,8.021298E1,1.816672E2,1.4922745E2,3.5321292E2,8.608317E1,5.434366E2,5.0522774E1,1.3738358E2,1.0622379E2,1.2900682E2,4.5738754E2,8.983518E1,5.4504585E0,3.1240543E1,8.637014E0,6.7165275E0,1.2003805E2,5.376594E0,9.158508E1,2.4513483E1,3.6450905E1,3.886147E1,3.4986823E2,6.5104996E1,1.6716287E2,4.8575012E1,3.457996E3,5.3540393E2,1.1687917E3,2.126894E2,1.8526392E1,6.168659E1,1.08541084E2,7.312613E1,3.44926E1,1.1473485E2,2.1819888E2,1.3501402E2,1.8529108E1,6.755406E1,3.680216E2,1.75415E2,3.438644E1,1.6136337E1,5.0369925E0,1.3234657E2,6.656872E1,3.9655075E1,1.0069479E2,2.8312025E1,4.4876678E2,8.62075E0,5.1552094E1,3.828309E1,1.5490341E0,3.9014246E0,2.0623667E1,1.0616877E1,4.971699E0,3.665315E0,1.5734601E0,5.1430674E0,6.0531406E0,1.1398491E2,1.8859217E0,3.490672E0,5.9978786E0,8.5587204E1,1.3945793E1,1.0567691E1,3.163093E1,4.819974E0,8.710126E0,3.0151342E1,2.5232866E2,9.7539566E1,3.410969E1,3.0995306E1,6.368441E1,1.0347847E2,1.0142996E1,3.8432014E1,3.0172615E3,4.4073453E2,4.7650372E2,5.8900238E1,1.8699731E2,9.817945E2,8.2575745E1,1.3011366E2,9.646542E0,8.879849E0,9.869481E0,5.181711E1,5.087692E1,5.766416E1,3.754981E1,3.5576324E1,1.8253954E1,1.6238647E1,9.0007484E1,2.4727362E1,2.2115173E1,1.9608371E2,2.3474806E1,1.11539215E2,3.1727154E0,1.5356392E1,5.3283688E1,1.42703705E1,3.4918796E2,1.8833647E1,9.867365E1,7.674134E1,2.3777613E1,1.0608827E1,1.3591137E1,2.5451994E0,1.0138468E2,3.0961899E1,4.2154972E1,2.4413746E1,2.6839676E0,3.6971107E1,1.9324121E1,8.1370674E1,8.09774E0,2.0214285E1,2.6270685E2,1.8605994E2,2.1032643E0,6.517486E0,1.6523912E1,3.502818E1,2.5855947E1,1.2427142E1,1.6058939E1,4.5647287E0,7.8218E0,2.7950761E0,3.8647375E0,1.1069616E0,1.8820843E0,1.7832305E0,1.1269387E0,4.0161285E0,3.6710494E0,2.382091E0,1.1275102E1,1.0270981E2,1.1157728E0,2.3748994E0,2.4798589E0,3.5180197E0,4.1710973E0,8.141611E1,1.0095492E1,3.8503008E0,1.3930744E0,9.174616E0,1.1259887E0,3.0504942E1,1.5874145E0,3.2325592E0,3.521797E0,5.188329E0,6.992691E0,2.3158651E1,1.1453218E2,1.3779648E2,9.6398094E1,1.1414682E0,1.2167985E1,2.1941706E1,6.4178634E0,2.4577442E1,4.4353085E1,1.9331327E1,3.2283783E1,7.119468E1,5.88604E0,4.256956E0,1.354004E0,3.707801E1,3.0857004E2,2.7086914E3,2.0134895E2,2.3938559E2,4.2926382E2,4.723989E1,2.7431374E1,3.1468866E1,9.056286E1,9.643445E1,2.7305344E2,7.08741E2,5.697591E1,2.5599838E1,3.7146492E1,9.296716E1,1.0738633E0,8.572679E0,4.650232E0,4.2296176E0,6.3359685E0,3.5335126E0,1.7020023E0,5.0115105E1,2.6176155E1,2.4700766E1,5.576036E1,1.9038025E0,6.5159626E0,3.1033844E1,5.2152586E0,3.0361067E1],"tree_param":{"num_deleted":"0","num_feature":"320","num_nodes":"245","size_leaf_vector":"0"}},{"base_weights":[-6.035393E-2,-3.779852E-1,-3.6926158E-2,-7.5097364E-1,-2.4660146E-1,-2.1621093E-2,-4.5364895E-1,-6.065111E-1,-1.0769216E0,1.0052462E0,-2.9319277E-1,-1.060409E-1,7.380405E-2,-8.253077E-1,2.5406672E-2,-8.676893E-1,-1.2538129E-1,-0E0,-1.1260524E0,1.4852151E0,-2.9150698E-1,-1.2864852E-1,-6.0504836E-1,5.187091E-3,-2.2591764E-1,-4.3582305E-2,1.8402433E-1,-1.0246536E0,-2.985508E-1,-8.909622E-1,2.8873795E-1,-9.681413E-1,-2.7281633E-2,8.2341987E-1,-5.252751E-1,-7.92239E-2,-1.1898093E0,1.7736534E0,-0E0,-2.8114912E-1,1.5113336E-1,-5.231531E-1,3.845075E-2,-7.627965E-2,-8.6943483E-1,-5.1473457E-2,4.6631825E-1,-1.0329853E-2,-3.7395394E-1,1.1857852E-1,-3.562004E-1,2.3319745E-1,-2.471413E-1,-1.0912412E0,6.757279E-1,5.1486635E-1,-6.1195606E-1,4.2412066E-1,-1.322684E0,-5.273137E-1,5.2287304E-1,-3.0697003E-1,-1.0874197E0,7.6316917E-1,-4.7997564E-1,-2.3220895E-1,1.6638947E0,3.2663262E-1,-9.41777E-1,2.2521049E-1,-2.4351501E-1,-0E0,-3.628828E-1,5.998345E-1,-0E0,1.8122135E-1,-7.765308E-1,-9.3411326E-1,1.7481087E-1,-4.047982E-1,3.3797106E-1,-4.3041393E-1,-1.1694603E0,-8.003899E-1,-2.9576493E-2,7.561461E-1,-0E0,2.0486885E-1,-3.589925E-1,-1.1505243E-1,-5.531982E-1,-7.716909E-2,4.650645E-1,2.9985964E-1,-4.2939484E-1,4.4596776E-1,1.4787781E-1,-3.913489E-1,8.3181155E-1,7.502607E-1,-1.1474658E0,2.8933653E-1,-0E0,9.863906E-1,-2.5797927E-1,-8.102861E-1,7.4030864E-1,3.158281E-1,-4.5329776E-1,-1.5000811E0,9.1851786E-2,-1.0786649E0,2.8059497E-1,7.056048E-1,-4.435792E-1,-3.2966614E-1,8.689042E-2,-3.521583E-1,-0E0,3.3030766E-1,-0E0,-2.7495643E-1,1.1647478E-1,-2.1201971E-1,2.1162036E-1,6.26658E-1,1.1594837E-1,-1.898307E-1,2.1562795E-1,-3.2738566E-1,3.7265312E-2,2.1933275E-1,-1.5107611E-1,-3.1267017E-1,-6.876589E-2,6.7060525E-3,-3.6074954E-1,8.0895215E-2,-2.8693515E-1,8.062835E-2,-2.171924E-1,2.0295574E-1,-2.0736869E-1,-3.0389887E-1,5.7637874E-2,1.2930545E-1,-3.6514965E-1,1.8932067E-1,-3.1439438E-1,5.7013195E-2,-3.9117828E-2,-2.5919876E-1,2.5170764E-1,3.467398E-1,-1.4620005E-1,1.4452372E-1,-1.127975E-1,2.5577015E-1,-1.3284376E-1,-7.163387E-2,1.9494064E-1,-1.8109916E-1,1.4267017E-1,5.066624E-3,-2.1146052E-1,1.88001E-1,-6.884902E-2,1.7468028E-1,-1.7591812E-1,-2.094887E-1,-6.629545E-2,2.1659462E-1,8.418769E-2,-8.2079425E-2,7.013822E-2,-3.2776815E-1,-8.176194E-2,3.560932E-1,-4.7180407E-2,-0E0,3.0011943E-1,-3.7258917E-1,-1.3059291E-2,-2.078632E-2,4.06233E-1,-2.8666183E-1,8.3401576E-2,-2.8443864E-1,1.6698794E-1,-0E0,3.3306E-1,-2.565834E-1,-0E0,-4.895256E-1,4.108935E-2,-4.212881E-1,-0E0,2.429889E-1,-2.3632154E-1,-8.194509E-2,2.7847987E-1,2.676616E-1,-2.8374055E-1],"categories":[],"categories_nodes":[],"categories_segments":[],"categories_sizes":[],"default_left":[0,0,0,0,0,0,0,0,0,0,0,0,0,0,0,0,0,0,0,0,0,0,0,0,0,0,0,0,0,0,0,0,0,0,0,0,0,0,0,0,0,0,0,0,0,0,0,0,0,0,0,0,0,0,0,0,0,0,0,0,0,0,0,0,0,0,0,0,0,0,0,0,0,0,0,0,0,0,0,0,0,0,0,0,0,0,0,0,0,0,0,0,0,0,0,0,0,0,0,0,0,0,0,0,0,0,0,0,0,0,0,0,0,0,0,0,0,0,0,0,0,0,0,0,0,0,0,0,0,0,0,0,0,0,0,0,0,0,0,0,0,0,0,0,0,0,0,0,0,0,0,0,0,0,0,0,0,0,0,0,0,0,0,0,0,0,0,0,0,0,0,0,0,0,0,0,0,0,0,0,0,0,0,0,0,0,0,0,0,0,0,0,0,0,0,0,0,0,0,0,0,0,0],"id":5,"left_children":[1,3,5,7,9,11,13,15,17,19,21,23,25,27,29,31,33,-1,35,37,39,41,43,45,47,49,51,53,55,57,59,61,63,65,67,69,71,73,-1,-1,-1,75,77,79,81,83,85,87,89,91,93,95,97,99,101,103,105,107,109,111,113,115,117,119,121,123,125,127,129,-1,-1,-1,-1,-1,-1,131,133,135,137,139,141,143,145,147,149,151,153,155,157,159,161,163,165,167,169,171,173,175,177,179,181,-1,-1,183,185,187,189,-1,191,193,-1,195,197,199,201,-1,-1,-1,-1,-1,-1,-1,-1,-1,-1,-1,-1,-1,-1,-1,-1,-1,-1,-1,-1,-1,-1,-1,-1,-1,-1,-1,-1,-1,-1,-1,-1,-1,-1,-1,-1,-1,-1,-1,-1,-1,-1,-1,-1,-1,-1,-1,-1,-1,-1,-1,-1,-1,-1,-1,-1,-1,-1,-1,-1,-1,-1,-1,-1,-1,-1,-1,-1,-1,-1,-1,-1,-1,-1,-1,-1,-1,-1,-1,-1,-1,-1,-1,-1,-1,-1,-1,-1],"loss_changes":[6.3098373E1,2.7882217E1,5.031202E1,5.585472E0,2.5226309E1,6.1639168E1,5.0206394E1,1.2908394E1,2.8578682E0,1.0613565E1,2.1064308E1,5.4266182E1,4.6502083E1,1.5631874E1,2.9526932E1,5.289154E0,1.5339021E1,0E0,2.0969849E0,5.5575104E0,3.1094596E0,1.850346E1,1.9515858E1,5.5245453E1,6.2259346E1,8.817498E1,3.9335644E1,1.3805176E1,1.1962687E1,1.6438824E1,1.868628E1,3.775608E0,3.4138656E0,1.15574875E1,1.0868218E1,3.0424123E0,3.6704254E-1,4.0730076E0,0E0,0E0,0E0,1.5303431E1,2.5567118E1,6.9128175E0,1.1198082E1,3.0310963E1,3.1261967E1,6.010848E1,5.338002E1,7.7744E1,2.8731346E1,2.9858719E1,2.9532698E1,1.2445023E1,1.1761017E0,5.2664733E0,9.685093E0,4.7412796E0,7.1207237E0,1.0281711E1,1.3841309E1,6.084827E0,4.294796E0,8.1453824E-1,3.1529891E0,3.0963333E0,1.7260895E0,4.1985016E0,3.8160763E0,0E0,0E0,0E0,0E0,0E0,0E0,8.88827E0,8.136719E0,6.678589E0,1.8347141E1,6.605179E0,8.0509815E0,1.5398473E1,5.126274E0,1.9504986E1,4.036991E1,1.9875137E1,5.1140793E1,7.966188E1,3.1271023E1,4.504067E1,3.582924E1,4.3468723E1,4.6772003E1,1.5244221E1,2.9409752E1,2.0942635E1,4.318874E1,1.3009249E1,8.503324E0,4.4962454E-1,1.0503571E1,0E0,0E0,4.0476723E0,2.557473E0,6.4191723E0,1.694885E0,0E0,9.5076627E-1,5.1467056E0,0E0,4.86849E0,5.823533E0,1.4663834E1,9.083124E0,0E0,0E0,0E0,0E0,0E0,0E0,0E0,0E0,0E0,0E0,0E0,0E0,0E0,0E0,0E0,0E0,0E0,0E0,0E0,0E0,0E0,0E0,0E0,0E0,0E0,0E0,0E0,0E0,0E0,0E0,0E0,0E0,0E0,0E0,0E0,0E0,0E0,0E0,0E0,0E0,0E0,0E0,0E0,0E0,0E0,0E0,0E0,0E0,0E0,0E0,0E0,0E0,0E0,0E0,0E0,0E0,0E0,0E0,0E0,0E0,0E0,0E0,0E0,0E0,0E0,0E0,0E0,0E0,0E0,0E0,0E0,0E0,0E0,0E0,0E0,0E0,0E0,0E0,0E0,0E0,0E0,0E0,0E0,0E0,0E0,0E0,0E0,0E0],"parents":[2147483647,0,0,1,1,2,2,3,3,4,4,5,5,6,6,7,7,8,8,9,9,10,10,11,11,12,12,13,13,14,14,15,15,16,16,18,18,19,19,20,20,21,21,22,22,23,23,24,24,25,25,26,26,27,27,28,28,29,29,30,30,31,31,32,32,33,33,34,34,35,35,36,36,37,37,41,41,42,42,43,43,44,44,45,45,46,46,47,47,48,48,49,49,50,50,51,51,52,52,53,53,54,54,55,55,56,56,57,57,58,58,59,59,60,60,61,61,62,62,63,63,64,64,65,65,66,66,67,67,68,68,75,75,76,76,77,77,78,78,79,79,80,80,81,81,82,82,83,83,84,84,85,85,86,86,87,87,88,88,89,89,90,90,91,91,92,92,93,93,94,94,95,95,96,96,97,97,98,98,99,99,100,100,103,103,104,104,105,105,106,106,108,108,109,109,111,111,112,112,113,113,114,114],"right_children":[2,4,6,8,10,12,14,16,18,20,22,24,26,28,30,32,34,-1,36,38,40,42,44,46,48,50,52,54,56,58,60,62,64,66,68,70,72,74,-1,-1,-1,76,78,80,82,84,86,88,90,92,94,96,98,100,102,104,106,108,110,112,114,116,118,120,122,124,126,128,130,-1,-1,-1,-1,-1,-1,132,134,136,138,140,142,144,146,148,150,152,154,156,158,160,162,164,166,168,170,172,174,176,178,180,182,-1,-1,184,186,188,190,-1,192,194,-1,196,198,200,202,-1,-1,-1,-1,-1,-1,-1,-1,-1,-1,-1,-1,-1,-1,-1,-1,-1,-1,-1,-1,-1,-1,-1,-1,-1,-1,-1,-1,-1,-1,-1,-1,-1,-1,-1,-1,-1,-1,-1,-1,-1,-1,-1,-1,-1,-1,-1,-1,-1,-1,-1,-1,-1,-1,-1,-1,-1,-1,-1,-1,-1,-1,-1,-1,-1,-1,-1,-1,-1,-1,-1,-1,-1,-1,-1,-1,-1,-1,-1,-1,-1,-1,-1,-1,-1,-1,-1,-1],"split_conditions":[-2.1171875E1,-1.9925E1,6E0,-6.83625E1,-9.917843E1,3E0,-8.025E1,-7.56625E1,-9.43125E0,-8.2375E0,-1.4875E1,-9.625E0,-1.1362572E1,-1.4270833E1,-1.145E1,-2.13125E1,-2.15E1,-0E0,-1.1070429E1,-9.24115E1,-7.652983E1,-9.02875E1,-8.68125E1,-7.8653846E0,2E0,-8.9277855E1,5E0,-7.03125E0,-1.209375E1,-9.309517E1,-1.79936E1,-1.4074333E1,-1.8232E1,-1.4322833E1,-8.805E1,-8.5109375E1,-8.7375E0,-8.334375E1,-0E0,-2.8114912E-1,1.5113336E-1,-1.6632715E1,-1.3884E1,-8.85625E1,-7.498672E1,-1.9994791E1,-7.7675E1,-1.0612E1,-7.94375E1,-8.3864334E1,-9.9625E1,-1.1375E1,-7.55625E1,-2.67016E1,-9.3604164E1,-1.265625E1,-9.241072E0,-1.2E1,-9.177885E0,-8.23125E1,-7.9515625E1,-2.265E1,-7.272727E1,-9.325E1,-7.66E1,-8.7544334E1,-1.975E1,-9.333333E0,-6.4625E0,2.2521049E-1,-2.4351501E-1,-0E0,-3.628828E-1,5.998345E-1,-0E0,-1.4462334E1,-1.5234375E1,-9.08125E1,-6.21875E1,-1.7028667E1,-7.778125E1,-8.4625E1,-9.649519E1,-9.9498665E1,-1.3625E1,-9.43125E1,-7.755E1,2E0,-8.3503426E1,-6.955E1,5E0,-7.9875E1,-1.2493286E1,4E0,-1.67375E1,-9.5760414E1,-9.5275E1,-1.0315104E2,-9.177885E0,-1.2973958E1,-7.24375E1,2.8933653E-1,-0E0,4E0,-1.5162833E1,-7.04875E1,-1.171675E1,3.158281E-1,-9.084375E1,-7.87E0,9.1851786E-2,-7.52695E1,-7.2763E1,-1.09375E1,-1.1234375E1,-3.2966614E-1,8.689042E-2,-3.521583E-1,-0E0,3.3030766E-1,-0E0,-2.7495643E-1,1.1647478E-1,-2.1201971E-1,2.1162036E-1,6.26658E-1,1.1594837E-1,-1.898307E-1,2.1562795E-1,-3.2738566E-1,3.7265312E-2,2.1933275E-1,-1.5107611E-1,-3.1267017E-1,-6.876589E-2,6.7060525E-3,-3.6074954E-1,8.0895215E-2,-2.8693515E-1,8.062835E-2,-2.171924E-1,2.0295574E-1,-2.0736869E-1,-3.0389887E-1,5.7637874E-2,1.2930545E-1,-3.6514965E-1,1.8932067E-1,-3.1439438E-1,5.7013195E-2,-3.9117828E-2,-2.5919876E-1,2.5170764E-1,3.467398E-1,-1.4620005E-1,1.4452372E-1,-1.127975E-1,2.5577015E-1,-1.3284376E-1,-7.163387E-2,1.9494064E-1,-1.8109916E-1,1.4267017E-1,5.066624E-3,-2.1146052E-1,1.88001E-1,-6.884902E-2,1.7468028E-1,-1.7591812E-1,-2.094887E-1,-6.629545E-2,2.1659462E-1,8.418769E-2,-8.2079425E-2,7.013822E-2,-3.2776815E-1,-8.176194E-2,3.560932E-1,-4.7180407E-2,-0E0,3.0011943E-1,-3.7258917E-1,-1.3059291E-2,-2.078632E-2,4.06233E-1,-2.8666183E-1,8.3401576E-2,-2.8443864E-1,1.6698794E-1,-0E0,3.3306E-1,-2.565834E-1,-0E0,-4.895256E-1,4.108935E-2,-4.212881E-1,-0E0,2.429889E-1,-2.3632154E-1,-8.194509E-2,2.7847987E-1,2.676616E-1,-2.8374055E-1],"split_indices":[11,315,55,216,60,311,152,312,201,281,171,41,45,235,313,11,59,0,317,206,300,266,122,265,23,78,103,233,249,254,191,317,111,319,170,106,41,8,0,0,0,223,109,42,236,121,120,221,8,300,312,57,72,63,26,43,57,313,25,8,26,11,184,42,104,318,251,265,41,0,0,0,0,0,0,47,315,122,104,95,298,282,218,30,153,248,312,7,316,168,199,72,13,119,315,248,168,90,153,123,312,0,0,39,47,312,13,0,10,153,0,300,204,201,265,0,0,0,0,0,0,0,0,0,0,0,0,0,0,0,0,0,0,0,0,0,0,0,0,0,0,0,0,0,0,0,0,0,0,0,0,0,0,0,0,0,0,0,0,0,0,0,0,0,0,0,0,0,0,0,0,0,0,0,0,0,0,0,0,0,0,0,0,0,0,0,0,0,0,0,0,0,0,0,0,0,0,0,0,0,0,0,0],"split_type":[0,0,0,0,0,0,0,0,0,0,0,0,0,0,0,0,0,0,0,0,0,0,0,0,0,0,0,0,0,0,0,0,0,0,0,0,0,0,0,0,0,0,0,0,0,0,0,0,0,0,0,0,0,0,0,0,0,0,0,0,0,0,0,0,0,0,0,0,0,0,0,0,0,0,0,0,0,0,0,0,0,0,0,0,0,0,0,0,0,0,0,0,0,0,0,0,0,0,0,0,0,0,0,0,0,0,0,0,0,0,0,0,0,0,0,0,0,0,0,0,0,0,0,0,0,0,0,0,0,0,0,0,0,0,0,0,0,0,0,0,0,0,0,0,0,0,0,0,0,0,0,0,0,0,0,0,0,0,0,0,0,0,0,0,0,0,0,0,0,0,0,0,0,0,0,0,0,0,0,0,0,0,0,0,0,0,0,0,0,0,0,0,0,0,0,0,0,0,0,0,0,0,0],"sum_hessian":[8.508132E3,5.8192865E2,7.926203E3,1.4936662E2,4.3256198E2,7.6475806E3,2.7862256E2,1.06541435E2,4.2825195E1,1.4398041E1,4.1816394E2,4.0605022E3,3.5870784E3,1.570791E2,1.21543465E2,6.7860916E1,3.868052E1,1.4870011E0,4.1338192E1,1.0683856E1,3.7141848E0,2.7570804E2,1.424559E2,2.104563E3,1.9559393E3,1.7351666E3,1.8519117E3,1.1257994E2,4.4499165E1,2.6174929E1,9.536854E1,5.9948475E1,7.9124413E0,1.07841835E1,2.7896336E1,2.9521146E0,3.8386078E1,8.959325E0,1.7245308E0,2.2984664E0,1.4157183E0,8.229031E1,1.9341774E2,4.8545456E1,9.3910446E1,1.8740918E3,2.3047112E2,7.9810004E2,1.1578394E3,1.1418757E3,5.932909E2,1.6637814E3,1.8813036E2,1.0896511E2,3.6148324E0,1.1754125E1,3.274504E1,6.1872344E0,1.9987694E1,2.0506773E1,7.486176E1,1.0348915E1,4.9599556E1,2.229378E0,5.6830635E0,4.8373413E0,5.946842E0,8.83685E0,1.9059486E1,1.052339E0,1.8997756E0,1.0279982E0,3.735808E1,7.8557644E0,1.1035607E0,2.1323559E1,6.0966755E1,2.261355E1,1.7080418E2,2.7760223E1,2.078523E1,3.978907E1,5.412138E1,5.1579838E1,1.822512E3,1.41711E2,8.876011E1,4.9287198E2,3.052281E2,4.7548178E2,6.8235754E2,7.292304E2,4.126453E2,5.855149E1,5.3473944E2,4.7332217E2,1.1904591E3,1.6692117E2,2.1209175E1,2.5991523E0,1.0636596E2,2.5297418E0,1.0850908E0,7.5303807E0,4.223744E0,2.9228746E1,3.5162933E0,3.8202055E0,2.3670287E0,1.8372759E1,1.6149347E0,1.2357345E1,8.149427E0,6.362007E1,1.1241693E1,4.4449644E0,5.903951E0,4.5538593E1,4.0609636E0,1.223469E0,1.005909E0,4.1278367E0,1.5552264E0,3.7294054E0,1.1079363E0,3.691944E0,2.2548985E0,2.0158858E0,6.8209643E0,1.710569E1,1.9537958E0,1.2194296E1,9.129263E0,3.9818325E1,2.1148426E1,4.747655E0,1.7865896E1,1.5870288E2,1.2101308E1,8.47237E0,1.9287855E1,1.6263844E1,4.521387E0,2.0645071E1,1.9144E1,1.0305619E0,5.3090816E1,7.079745E0,4.450009E1,5.715625E2,1.2509495E3,6.1442575E0,1.3556674E2,2.5935915E1,6.2824192E1,3.3447183E2,1.5840016E2,1.8770933E1,2.8645715E2,4.104299E2,6.5051895E1,6.513071E2,3.1050388E1,6.3435223E2,9.487821E1,3.3541983E2,7.7225464E1,4.509043E1,1.346106E1,2.3141139E2,3.0332803E2,1.7492317E2,2.9839902E2,2.0022406E2,9.902351E2,2.2387245E1,1.4453394E2,1.5830195E1,5.3789797E0,1.1255666E0,1.4735857E0,9.744647E1,8.919485E0,1.8037819E0,5.7265987E0,1.9004632E0,2.3232806E0,2.7161842E1,2.0669038E0,1.1329893E0,2.383304E0,1.2455485E0,1.1214802E0,1.7290697E1,1.0820631E0,9.349687E0,3.0076587E0,5.923933E0,2.2254946E0,1.1332662E1,5.228741E1,2.5875032E0,8.654189E0],"tree_param":{"num_deleted":"0","num_feature":"320","num_nodes":"203","size_leaf_vector":"0"}},{"base_weights":[-4.4853076E-2,-2.5484598E-1,-1.4462858E-2,4.410291E-1,-3.9836693E-1,-1.2338707E-1,4.6690863E-2,6.5907115E-1,-4.799554E-1,-2.7648678E-1,-7.830008E-1,-2.8502932E-1,-1.9423725E-2,1.23156846E-1,-4.0629048E-2,7.4369186E-1,-6.215013E-1,8.4974074E-1,-7.3042876E-1,-6.231494E-1,-1.1462542E-1,4.4950852E-1,-8.739322E-1,-4.6754646E-1,-7.91478E-2,3.999307E-1,-1.2294655E-1,3.0317345E-1,4.754419E-2,1.6220422E-1,-1.16782926E-1,8.7050426E-1,-1.616622E-1,-5.028471E-1,7.087461E-1,-0E0,3.4221795E-1,-4.7439754E-2,-1.0865862E0,1.9141334E-1,-7.570998E-1,9.817634E-2,-3.8936698E-1,8.6993235E-1,-2.5892916E-1,1.6441314E-1,-9.2189056E-1,-6.6469914E-1,-1.350906E-1,1.4852963E-1,-4.1105586E-1,-7.053814E-2,6.508479E-1,-6.913886E-2,-4.687597E-1,1.02305405E-1,5.024753E-1,-2.3220481E-2,3.363787E-1,2.8219566E-1,-4.9031213E-1,-2.706727E-1,3.1216884E-2,-6.118406E-1,9.3276364E-1,-6.493233E-1,6.481054E-1,3.0720547E-1,-0E0,-7.1398586E-1,3.9905864E-1,-1.3234017E0,-0E0,-6.8758136E-1,8.688924E-1,-8.620025E-1,1.03406E-1,2.6859528E-1,-4.2849565E-1,-6.830412E-1,-1.2645802E-1,1.2611841E0,-4.0269756E-1,-5.089484E-1,3.5497576E-1,-1.0384694E0,-4.9885857E-1,1.8724178E-1,-7.250864E-1,-1.1007835E0,-4.305998E-2,3.6664944E-2,1.0130293E0,-5.218174E-1,3.3927608E-1,-6.002232E-1,2.9151747E-1,7.136994E-1,-1.0244457E0,-1.5362352E-1,4.109304E-1,5.692579E-1,-7.026099E-1,3.4259468E-1,-1.2473753E-1,5.886982E-1,-4.529713E-1,-6.941075E-2,4.2702386E-1,4.998851E-1,-3.01621E-1,1.5500638E-1,6.369639E-1,-9.7576636E-1,-5.266585E-3,4.6587706E-2,-3.9618146E-1,1.5935956E-1,-1.4581622E-1,-3.5698736E-1,6.6337444E-2,3.1011894E-1,4.5495685E-2,-3.0986592E-1,5.8997832E-2,-1.1095668E-1,3.1644148E-1,-0E0,-2.8720352E-1,2.758155E-1,-1.6853292E-1,-4.3393627E-1,-2.1240242E-2,-2.107841E-1,2.1007268E-1,1.8555038E-1,-2.883947E-1,-1.3482048E-1,4.3209952E-1,-2.7134314E-1,1.1576239E-1,-2.988635E-1,1.760378E-1,-1.0688628E-1,1.285388E-1,2.0259097E-1,-2.9531768E-1,2.657702E-1,-2.1823429E-1,-1.0444606E-1,1.8587738E-1,4.5035785E-1,-2.8876314E-2,-0E0,-2.0231174E-1,2.5453946E-1,-3.56135E-1,-3.1851804E-1,2.587882E-1,8.927265E-3,-2.7331635E-1,-1.0378757E-1,4.115776E-1,1.3068639E-1,-2.3093674E-1,-3.7476626E-1,2.8854253E-2,6.357367E-2,-1.1039711E-1,4.2380657E-2,-2.0585282E-1,4.6168607E-2,4.311296E-1,-1.8319754E-1,1.1394075E-1,-7.8823544E-2,3.595466E-1,1.6413102E-1,-2.5711703E-1,-8.506579E-2,1.74134E-1,2.5468165E-1,-4.1151423E-2,9.7473204E-2,-4.121417E-1,-6.8657525E-2,1.5572493E-1,2.8893963E-1,-4.9931113E-2,3.6252987E-1,-2.1736243E-1,2.7592698E-1,-2.528482E-1,-1.12318285E-1,1.462537E-1,-7.43043E-2,2.3309796E-1,3.7941852E-1,1.4995621E-1,3.4741044E-2,-2.6639012E-1,-4.8412527E-3,-1.20018475E-1,2.9373372E-1,5.9653968E-2,-7.325236E-2,1.9256565E-1,3.6938715E-1,-1.4185251E-1,-1.7671926E-1,6.3373014E-2,2.1667098E-1,-3.4827283E-1,-1.4455881E-2,-3.9091146E-1,7.829872E-2,-3.5786083E-1,-3.531939E-2,8.687416E-2,-3.986289E-2,-1.6214448E-1,-9.557295E-2,7.7154085E-2,-1.6870943E-1,2.3649726E-2],"categories":[],"categories_nodes":[],"categories_segments":[],"categories_sizes":[],"default_left":[0,0,0,0,0,0,0,0,0,0,0,0,0,0,0,0,0,0,0,0,0,0,0,0,0,0,0,0,0,0,0,0,0,0,0,0,0,0,0,0,0,0,0,0,0,0,0,0,0,0,0,0,0,0,0,0,0,0,0,0,0,0,0,0,0,0,0,0,0,0,0,0,0,0,0,0,0,0,0,0,0,0,0,0,0,0,0,0,0,0,0,0,0,0,0,0,0,0,0,0,0,0,0,0,0,0,0,0,0,0,0,0,0,0,0,0,0,0,0,0,0,0,0,0,0,0,0,0,0,0,0,0,0,0,0,0,0,0,0,0,0,0,0,0,0,0,0,0,0,0,0,0,0,0,0,0,0,0,0,0,0,0,0,0,0,0,0,0,0,0,0,0,0,0,0,0,0,0,0,0,0,0,0,0,0,0,0,0,0,0,0,0,0,0,0,0,0,0,0,0,0,0,0,0,0,0,0,0,0,0,0,0,0,0,0,0,0,0,0,0,0,0,0,0,0],"id":6,"left_children":[1,3,5,7,9,11,13,15,17,19,21,23,25,27,29,31,33,35,37,39,41,43,45,47,49,51,53,55,57,59,61,63,65,-1,67,-1,-1,69,71,73,75,77,79,81,-1,83,85,87,89,91,93,95,97,99,101,103,105,107,109,111,113,115,117,119,121,123,125,-1,-1,127,129,131,133,135,137,139,141,143,145,147,149,151,153,155,-1,157,159,161,163,165,167,169,171,173,175,177,179,181,183,185,187,189,191,193,195,197,199,201,203,205,207,209,211,213,215,217,219,221,223,-1,-1,-1,-1,-1,-1,-1,-1,-1,-1,-1,-1,-1,-1,-1,-1,-1,-1,-1,-1,-1,-1,-1,-1,-1,-1,-1,-1,-1,-1,-1,-1,-1,-1,-1,-1,-1,-1,-1,-1,-1,-1,-1,-1,-1,-1,-1,-1,-1,-1,-1,-1,-1,-1,-1,-1,-1,-1,-1,-1,-1,-1,-1,-1,-1,-1,-1,-1,-1,-1,-1,-1,-1,-1,-1,-1,-1,-1,-1,-1,-1,-1,-1,-1,-1,-1,-1,-1,-1,-1,-1,-1,-1,-1,-1,-1,-1,-1,-1,-1,-1,-1,-1,-1,-1,-1],"loss_changes":[5.3121872E1,1.0531644E2,4.86288E1,3.6535324E1,4.022838E1,4.39682E1,3.1221104E1,1.6380604E1,1.2078208E1,3.694446E1,2.4004318E1,3.8237114E1,6.941256E1,3.3736958E1,3.363089E1,1.6348808E1,1.4647578E1,1.3896194E0,6.66765E0,2.3434898E1,2.6867546E1,8.826606E0,1.0248596E1,3.5053688E1,3.6808838E1,3.7668625E1,2.3622341E1,2.9075356E1,3.6104485E1,4.64645E1,3.6238586E1,1.1968536E1,7.2626505E0,0E0,1.4172835E0,0E0,0E0,3.9521372E0,5.0436745E0,1.8582289E1,1.6880402E1,2.3099047E1,1.49844475E1,6.845271E0,0E0,7.1166763E0,7.9430237E0,1.7855804E1,1.75169E1,2.721647E1,1.6749207E1,2.1464558E1,2.2375847E1,4.5157837E1,4.2143364E1,2.0262316E1,3.0608917E1,2.9214E1,3.649833E1,2.216491E1,2.1126835E1,3.1213585E1,1.8347372E1,3.2458882E0,8.523079E0,4.416949E0,3.4760883E0,0E0,0E0,1.2535303E0,4.322172E0,1.5737514E0,2.6388474E0,5.5268164E0,1.4501247E1,9.2308655E0,1.1080203E1,1.9716545E1,3.916231E1,7.0831337E0,1.7923397E1,3.980506E0,4.8408628E-1,6.5387945E0,0E0,7.4207E0,9.899057E0,1.5326041E1,1.697705E1,3.7601643E0,1.57170725E1,1.9172304E1,1.0773357E1,1.4266792E1,1.3990269E1,1.4070713E1,1.1208613E1,2.353598E1,4.558009E0,4.8042435E1,5.356205E1,2.7354828E1,3.280404E1,1.8985983E1,2.0902805E1,1.8785484E1,8.03598E0,2.23747E1,1.5656139E1,2.9685593E1,1.8808184E1,1.5502076E1,2.0728168E1,1.3035828E1,1.5782862E1,8.92793E0,2.0847443E1,2.204894E1,3.1908562E1,0E0,0E0,0E0,0E0,0E0,0E0,0E0,0E0,0E0,0E0,0E0,0E0,0E0,0E0,0E0,0E0,0E0,0E0,0E0,0E0,0E0,0E0,0E0,0E0,0E0,0E0,0E0,0E0,0E0,0E0,0E0,0E0,0E0,0E0,0E0,0E0,0E0,0E0,0E0,0E0,0E0,0E0,0E0,0E0,0E0,0E0,0E0,0E0,0E0,0E0,0E0,0E0,0E0,0E0,0E0,0E0,0E0,0E0,0E0,0E0,0E0,0E0,0E0,0E0,0E0,0E0,0E0,0E0,0E0,0E0,0E0,0E0,0E0,0E0,0E0,0E0,0E0,0E0,0E0,0E0,0E0,0E0,0E0,0E0,0E0,0E0,0E0,0E0,0E0,0E0,0E0,0E0,0E0,0E0,0E0,0E0,0E0,0E0,0E0,0E0,0E0,0E0,0E0,0E0,0E0,0E0],"parents":[2147483647,0,0,1,1,2,2,3,3,4,4,5,5,6,6,7,7,8,8,9,9,10,10,11,11,12,12,13,13,14,14,15,15,16,16,17,17,18,18,19,19,20,20,21,21,22,22,23,23,24,24,25,25,26,26,27,27,28,28,29,29,30,30,31,31,32,32,34,34,37,37,38,38,39,39,40,40,41,41,42,42,43,43,45,45,46,46,47,47,48,48,49,49,50,50,51,51,52,52,53,53,54,54,55,55,56,56,57,57,58,58,59,59,60,60,61,61,62,62,63,63,64,64,65,65,66,66,69,69,70,70,71,71,72,72,73,73,74,74,75,75,76,76,77,77,78,78,79,79,80,80,81,81,82,82,83,83,85,85,86,86,87,87,88,88,89,89,90,90,91,91,92,92,93,93,94,94,95,95,96,96,97,97,98,98,99,99,100,100,101,101,102,102,103,103,104,104,105,105,106,106,107,107,108,108,109,109,110,110,111,111,112,112,113,113,114,114,115,115,116,116,117,117,118,118],"right_children":[2,4,6,8,10,12,14,16,18,20,22,24,26,28,30,32,34,36,38,40,42,44,46,48,50,52,54,56,58,60,62,64,66,-1,68,-1,-1,70,72,74,76,78,80,82,-1,84,86,88,90,92,94,96,98,100,102,104,106,108,110,112,114,116,118,120,122,124,126,-1,-1,128,130,132,134,136,138,140,142,144,146,148,150,152,154,156,-1,158,160,162,164,166,168,170,172,174,176,178,180,182,184,186,188,190,192,194,196,198,200,202,204,206,208,210,212,214,216,218,220,222,224,-1,-1,-1,-1,-1,-1,-1,-1,-1,-1,-1,-1,-1,-1,-1,-1,-1,-1,-1,-1,-1,-1,-1,-1,-1,-1,-1,-1,-1,-1,-1,-1,-1,-1,-1,-1,-1,-1,-1,-1,-1,-1,-1,-1,-1,-1,-1,-1,-1,-1,-1,-1,-1,-1,-1,-1,-1,-1,-1,-1,-1,-1,-1,-1,-1,-1,-1,-1,-1,-1,-1,-1,-1,-1,-1,-1,-1,-1,-1,-1,-1,-1,-1,-1,-1,-1,-1,-1,-1,-1,-1,-1,-1,-1,-1,-1,-1,-1,-1,-1,-1,-1,-1,-1,-1,-1],"split_conditions":[-2.099343E1,-9.2878426E1,-1.775E1,-8.858243E1,-7.226033E1,-7.7377E1,-1.5625E1,-5.85625E1,-2.10625E1,-8.1129E1,-8.5306E1,-1.6927084E1,-1.0774834E1,-9.7208336E1,-1.7100166E1,-9.231129E1,-7.6208334E0,-1.9182692E1,-1.10449E2,-9.666406E1,-8.57018E1,-1.0677167E1,-1.2990833E1,-8.5684E1,-8.6541664E1,-1.1163E1,-6.834375E1,-9.593056E1,-7.0416664E1,-7.206029E1,3E0,-9.7427E1,-7.7358E1,-5.028471E-1,-8.555014E1,-0E0,3.4221795E-1,-8.7625E1,-7.9875E0,-9.2390625E1,-7.1484375E1,-1.06915E1,-1.64875E1,-7.0520835E0,-2.5892916E-1,-6.5949715E1,-1.9927166E1,-1.0225E2,-8.8525E1,-7.615E0,-6.896875E1,-8.50625E1,-1.0495833E1,-7.04875E1,-7.4875E1,-1.40546875E1,-1.0416667E1,-6.9958336E1,-6.534375E1,-1.09075E1,-8.46875E0,-1.57875E1,-1.0629807E1,-1.59875E1,-9.1871E1,-9.78125E0,-1.925E1,3.0720547E-1,-0E0,-1.49375E1,-1.1076834E1,-7.24375E1,-1.6645144E1,-1.6276041E1,-9.188843E1,-6.81875E1,-1.815E1,-1.06625E1,-7.9375E1,-9.925E1,-1.3308E1,1E0,-1.4697917E1,-8.4375E1,3.5497576E-1,-5.85625E1,-7.2388E1,-9.655E1,-2.8152E1,-7.0625E0,-9.30325E1,-1.26095E1,-9.62875E1,-1.0601714E1,-7.15E1,-1.8864584E1,-1.79E1,-6.6718834E1,-8.021875E1,-6.94375E1,-8.415625E1,3E0,-9.1796875E1,-1.0024467E2,5E0,-1.0660577E2,-1.54035E1,-8.1796875E0,-8.60625E1,-8.6425E1,-9.252866E1,-1.0484634E2,-6.9509E1,-1.1823E1,1E0,-9.95E0,-1.2114583E1,-1.715E1,-9.2125E1,-3.5698736E-1,6.6337444E-2,3.1011894E-1,4.5495685E-2,-3.0986592E-1,5.8997832E-2,-1.1095668E-1,3.1644148E-1,-0E0,-2.8720352E-1,2.758155E-1,-1.6853292E-1,-4.3393627E-1,-2.1240242E-2,-2.107841E-1,2.1007268E-1,1.8555038E-1,-2.883947E-1,-1.3482048E-1,4.3209952E-1,-2.7134314E-1,1.1576239E-1,-2.988635E-1,1.760378E-1,-1.0688628E-1,1.285388E-1,2.0259097E-1,-2.9531768E-1,2.657702E-1,-2.1823429E-1,-1.0444606E-1,1.8587738E-1,4.5035785E-1,-2.8876314E-2,-0E0,-2.0231174E-1,2.5453946E-1,-3.56135E-1,-3.1851804E-1,2.587882E-1,8.927265E-3,-2.7331635E-1,-1.0378757E-1,4.115776E-1,1.3068639E-1,-2.3093674E-1,-3.7476626E-1,2.8854253E-2,6.357367E-2,-1.1039711E-1,4.2380657E-2,-2.0585282E-1,4.6168607E-2,4.311296E-1,-1.8319754E-1,1.1394075E-1,-7.8823544E-2,3.595466E-1,1.6413102E-1,-2.5711703E-1,-8.506579E-2,1.74134E-1,2.5468165E-1,-4.1151423E-2,9.7473204E-2,-4.121417E-1,-6.8657525E-2,1.5572493E-1,2.8893963E-1,-4.9931113E-2,3.6252987E-1,-2.1736243E-1,2.7592698E-1,-2.528482E-1,-1.12318285E-1,1.462537E-1,-7.43043E-2,2.3309796E-1,3.7941852E-1,1.4995621E-1,3.4741044E-2,-2.6639012E-1,-4.8412527E-3,-1.20018475E-1,2.9373372E-1,5.9653968E-2,-7.325236E-2,1.9256565E-1,3.6938715E-1,-1.4185251E-1,-1.7671926E-1,6.3373014E-2,2.1667098E-1,-3.4827283E-1,-1.4455881E-2,-3.9091146E-1,7.829872E-2,-3.5786083E-1,-3.531939E-2,8.687416E-2,-3.986289E-2,-1.6214448E-1,-9.557295E-2,7.7154085E-2,-1.6870943E-1,2.3649726E-2],"split_indices":[319,28,315,94,60,92,203,296,219,188,300,171,205,58,239,14,313,315,318,312,30,317,253,318,120,61,232,312,56,268,39,300,300,0,302,0,0,282,233,56,296,237,283,121,0,300,303,312,312,297,40,122,301,312,312,281,283,296,184,77,281,187,73,283,110,105,43,0,0,63,269,106,239,297,156,248,203,121,56,250,111,145,283,106,0,280,172,58,47,217,62,159,74,141,248,139,187,142,56,88,218,231,74,140,311,106,31,313,138,232,318,318,220,189,305,249,313,11,136,0,0,0,0,0,0,0,0,0,0,0,0,0,0,0,0,0,0,0,0,0,0,0,0,0,0,0,0,0,0,0,0,0,0,0,0,0,0,0,0,0,0,0,0,0,0,0,0,0,0,0,0,0,0,0,0,0,0,0,0,0,0,0,0,0,0,0,0,0,0,0,0,0,0,0,0,0,0,0,0,0,0,0,0,0,0,0,0,0,0,0,0,0,0,0,0,0,0,0,0,0,0,0,0,0,0],"split_type":[0,0,0,0,0,0,0,0,0,0,0,0,0,0,0,0,0,0,0,0,0,0,0,0,0,0,0,0,0,0,0,0,0,0,0,0,0,0,0,0,0,0,0,0,0,0,0,0,0,0,0,0,0,0,0,0,0,0,0,0,0,0,0,0,0,0,0,0,0,0,0,0,0,0,0,0,0,0,0,0,0,0,0,0,0,0,0,0,0,0,0,0,0,0,0,0,0,0,0,0,0,0,0,0,0,0,0,0,0,0,0,0,0,0,0,0,0,0,0,0,0,0,0,0,0,0,0,0,0,0,0,0,0,0,0,0,0,0,0,0,0,0,0,0,0,0,0,0,0,0,0,0,0,0,0,0,0,0,0,0,0,0,0,0,0,0,0,0,0,0,0,0,0,0,0,0,0,0,0,0,0,0,0,0,0,0,0,0,0,0,0,0,0,0,0,0,0,0,0,0,0,0,0,0,0,0,0,0,0,0,0,0,0,0,0,0,0,0,0,0,0,0,0,0,0],