{"learner":{"attributes":{"best_iteration":"27","best_ntree_limit":"28","best_score":"1.4548897050921248"},"feature_names":[],"feature_types":[],"gradient_booster":{"model":{"gbtree_model_param":{"num_parallel_tree":"1","num_trees":"38","size_leaf_vector":"0"},"tree_info":[0,0,0,0,0,0,0,0,0,0,0,0,0,0,0,0,0,0,0,0,0,0,0,0,0,0,0,0,0,0,0,0,0,0,0,0,0,0],"trees":[{"base_weights":[4.41158E0,3.6180015E0,5.568396E0,4.4147763E0,2.883465E0,5.8933797E0,3.9114583E0,2.2713885E0,5.012157E0,2.631588E0,4.104305E0,6.0641704E0,4.7008114E0,2.1000001E0,3.7713704E0,1.75E0,2.8834355E0,5.2580647E0,3.597113E0,1.9172661E0,2.9829862E0,3.3163772E0,5.6534653E0,5.51668E0,6.382161E0,3.8818183E0,5.7054796E0,5.1928573E0,3.4314382E0,1.4033233E0,3.689655E0,4.40566E0,2.5766423E0,5.670661E0,4.5352645E0,3.2302632E0,4.974359E0,2.7603774E0,1.5987306E0,3.1775098E0,1.1096257E0,2.6405623E0,4.3774195E0,3.2916667E0,6.3451614E0,5.18032E0,6.7934365E0,6.6120048E0,5.382064E0,5.340909E0,3.586207E0,4.4784946E0,6.555118E0,5.8873873E0,2.4333334E0,2.7559056E0,3.9173913E0,1.6000001E0,1.3251534E0,4.7105265E0,1.6428572E0,5.596774E0,2.5869565E0,3.1086957E0,2.018248E0,5.5086956E0,7.4292035E0,3.949438E0,5.265714E0,2.9944239E0,4.888889E0,5.908163E0,3.2666667E0,2.2761195E0,4.207692E0,1.515919E0,4.5E0,2.8860946E0,4.0810184E0,3.642857E0,1.0027624E0,2.256906E0,3.6014493E0,5.022124E0,2.5697675E0,2.0357144E0,4.785714E0,6.638889E0,6.75E-1,5.6534653E0,4.4419193E0,7.853846E0,5.6769233E0,5.4854226E0,6.883131E0,4.1292133E0,5.713166E0,4.02E0,2.01E0,3.137097E0,4.0596333E0,3.5E0,5.2755103E0,7.548387E0,5.5151515E0,6.1E0,1.7857143E0,1.7E0,1.0500001E0,2.3E0,3.5555556E0,4.707317E0,3.1813188E0,3.8034058E-1,1.6500001E0,1.1E0,2.2833335E0,1.15E0,3.5526317E-1,1.832143E0,1.5E-1,1.8E-1,1.1357144E0,1.2368853E0,6.8076926E-1,7.6250005E-1,4.227273E-1,1.674475E0,6.214286E-1,1.5E0,2.4383721E0,1.5607439E0,1.0407692E0,1.300685E0,1.7700001E0,8.436759E-1,1.6500001E0,6.8333334E-1,1.6607143E0,2.077273E0,1.0676471E0,6.1E-1,1.25625E0,5.5535716E-1,1.2882353E0,1.725E0,6.6E-1,4.0137765E-1,8.8600004E-1,5.357143E-1,1.673077E0,8.026957E-1,1.218473E0,1.5214287E0,8.546154E-1,4.5000002E-1,1.4250001E0,2.8833336E-1,1.2E0,5.950981E-1,1.0810345E0,1.309091E0,6.461539E-1,1.3151163E0,2.0357144E0,4.0500003E-1,1.0375E0,2.6250002E-1,7.071429E-1,1.632353E0,4.5000002E-1,4.928572E-1,2.0521739E0,1.4508969E0,1.8335937E0,1.498E0,1.1075581E0,2.3952382E0,8.7000006E-1,1.4693183E0,2.1383722E0,1.4333334E0,1.867683E0,2.0994341E0,1.4260001E0,1.04375E0,1.4285715E0,1.95E0,1.5687193E0,4.5000002E-1,1.2818183E0,7.818182E-1,1.1008475E0,1.3595238E0,9.9893624E-1,1.5642859E0,7.875E-1,1.0500001E0,1.6884617E0,1.755E0,2.445349E0,1.745E0,6.214286E-1,1.1928573E0,1.9641178E0,6E-1,-0E0,5.2894735E-1,-0E0,7.8939396E-1,5.3059703E-1,1.263158E0,9.0283024E-1,2.7E-1,1.438125E0,8.0625004E-1,1.1725352E0],"categories":[],"categories_nodes":[],"categories_segments":[],"categories_sizes":[],"default_left":[0,0,0,0,0,0,0,0,0,0,0,0,0,0,0,0,0,0,0,0,0,0,0,0,0,0,0,0,0,0,0,0,0,0,0,0,0,0,0,0,0,0,0,0,0,0,0,0,0,0,0,0,0,0,0,0,0,0,0,0,0,0,0,0,0,0,0,0,0,0,0,0,0,0,0,0,0,0,0,0,0,0,0,0,0,0,0,0,0,0,0,0,0,0,0,0,0,0,0,0,0,0,0,0,0,0,0,0,0,0,0,0,0,0,0,0,0,0,0,0,0,0,0,0,0,0,0,0,0,0,0,0,0,0,0,0,0,0,0,0,0,0,0,0,0,0,0,0,0,0,0,0,0,0,0,0,0,0,0,0,0,0,0,0,0,0,0,0,0,0,0,0,0,0,0,0,0,0,0,0,0,0,0,0,0,0,0,0,0,0,0,0,0,0,0,0,0,0,0,0,0,0,0,0,0,0,0,0,0,0,0,0,0,0,0,0,0],"id":0,"left_children":[1,3,5,7,9,11,13,15,17,19,21,23,25,-1,27,29,31,33,35,37,39,41,43,45,47,49,51,53,55,57,59,61,63,65,67,69,71,73,75,77,79,81,83,85,87,89,91,93,95,97,99,101,103,105,107,109,111,-1,113,115,117,119,121,123,125,127,129,131,133,135,137,139,141,143,145,147,149,151,153,155,157,159,161,163,165,167,169,171,-1,173,175,177,179,181,183,185,187,189,-1,191,193,195,197,199,201,203,205,207,-1,209,211,213,215,-1,-1,-1,-1,-1,-1,-1,-1,-1,-1,-1,-1,-1,-1,-1,-1,-1,-1,-1,-1,-1,-1,-1,-1,-1,-1,-1,-1,-1,-1,-1,-1,-1,-1,-1,-1,-1,-1,-1,-1,-1,-1,-1,-1,-1,-1,-1,-1,-1,-1,-1,-1,-1,-1,-1,-1,-1,-1,-1,-1,-1,-1,-1,-1,-1,-1,-1,-1,-1,-1,-1,-1,-1,-1,-1,-1,-1,-1,-1,-1,-1,-1,-1,-1,-1,-1,-1,-1,-1,-1,-1,-1,-1,-1,-1,-1,-1,-1,-1,-1,-1,-1,-1,-1],"loss_changes":[1.05031875E4,3.9663125E3,2.4835156E3,4.161699E3,1.0756172E3,7.598594E2,3.0050293E2,2.2016602E2,8.639844E2,7.3005664E2,7.140244E2,5.5164844E2,3.78708E2,0E0,3.3399414E2,2.5317981E2,1.3740161E2,6.163281E2,1.7232666E2,2.5471729E2,7.118613E2,2.7391113E2,3.04292E2,4.994961E2,4.519375E2,9.499707E1,1.9343213E2,2.4983398E2,1.8217725E2,9.128931E1,1.1027661E2,9.624255E1,7.256653E1,3.448047E2,3.1436035E2,1.0033423E2,1.0049536E2,1.7291235E2,1.6051392E2,4.5419727E2,4.4646927E1,8.073657E1,1.6393555E2,7.691669E1,1.6706152E2,3.195625E2,2.5529492E2,4.8783594E2,1.4032129E2,4.669629E1,3.299414E1,4.967639E1,8.3024414E1,8.196387E1,1.4916672E1,8.149402E1,1.8167773E2,0E0,6.769861E1,8.1510254E1,1.4049503E1,7.428119E1,5.0318954E1,1.0494556E2,3.8124878E1,3.0153906E2,1.4459033E2,2.4538086E2,1.757832E2,1.0315967E2,4.4285767E1,8.708496E1,2.2445831E1,1.6133679E2,1.8464612E2,1.7069568E2,4.1898376E1,3.2020996E2,5.088418E2,6.3571396E0,1.6270844E1,5.665509E1,6.347345E1,9.189331E1,3.953241E1,6.7678604E0,3.3594543E1,1.2962256E2,0E0,1.9201758E2,1.4100586E2,5.5305176E1,1.0605469E2,1.4441309E2,3.0346094E2,1.5915894E1,8.165625E1,6.6263733E0,0E0,2.235669E1,1.853772E1,4.9892883E1,6.421631E0,8.7873535E0,5.2537354E1,6.840015E1,1.6785717E0,1.265789E0,0E0,2.2192932E1,1.5911133E1,4.6807617E1,5.1549194E1,0E0,0E0,0E0,0E0,0E0,0E0,0E0,0E0,0E0,0E0,0E0,0E0,0E0,0E0,0E0,0E0,0E0,0E0,0E0,0E0,0E0,0E0,0E0,0E0,0E0,0E0,0E0,0E0,0E0,0E0,0E0,0E0,0E0,0E0,0E0,0E0,0E0,0E0,0E0,0E0,0E0,0E0,0E0,0E0,0E0,0E0,0E0,0E0,0E0,0E0,0E0,0E0,0E0,0E0,0E0,0E0,0E0,0E0,0E0,0E0,0E0,0E0,0E0,0E0,0E0,0E0,0E0,0E0,0E0,0E0,0E0,0E0,0E0,0E0,0E0,0E0,0E0,0E0,0E0,0E0,0E0,0E0,0E0,0E0,0E0,0E0,0E0,0E0,0E0,0E0,0E0,0E0,0E0,0E0,0E0,0E0,0E0,0E0,0E0,0E0,0E0,0E0,0E0,0E0],"parents":[2147483647,0,0,1,1,2,2,3,3,4,4,5,5,6,6,7,7,8,8,9,9,10,10,11,11,12,12,14,14,15,15,16,16,17,17,18,18,19,19,20,20,21,21,22,22,23,23,24,24,25,25,26,26,27,27,28,28,29,29,30,30,31,31,32,32,33,33,34,34,35,35,36,36,37,37,38,38,39,39,40,40,41,41,42,42,43,43,44,44,45,45,46,46,47,47,48,48,49,49,50,50,51,51,52,52,53,53,54,54,55,55,56,56,58,58,59,59,60,60,61,61,62,62,63,63,64,64,65,65,66,66,67,67,68,68,69,69,70,70,71,71,72,72,73,73,74,74,75,75,76,76,77,77,78,78,79,79,80,80,81,81,82,82,83,83,84,84,85,85,86,86,87,87,89,89,90,90,91,91,92,92,93,93,94,94,95,95,96,96,97,97,99,99,100,100,101,101,102,102,103,103,104,104,105,105,106,106,107,107,109,109,110,110,111,111,112,112],"right_children":[2,4,6,8,10,12,14,16,18,20,22,24,26,-1,28,30,32,34,36,38,40,42,44,46,48,50,52,54,56,58,60,62,64,66,68,70,72,74,76,78,80,82,84,86,88,90,92,94,96,98,100,102,104,106,108,110,112,-1,114,116,118,120,122,124,126,128,130,132,134,136,138,140,142,144,146,148,150,152,154,156,158,160,162,164,166,168,170,172,-1,174,176,178,180,182,184,186,188,190,-1,192,194,196,198,200,202,204,206,208,-1,210,212,214,216,-1,-1,-1,-1,-1,-1,-1,-1,-1,-1,-1,-1,-1,-1,-1,-1,-1,-1,-1,-1,-1,-1,-1,-1,-1,-1,-1,-1,-1,-1,-1,-1,-1,-1,-1,-1,-1,-1,-1,-1,-1,-1,-1,-1,-1,-1,-1,-1,-1,-1,-1,-1,-1,-1,-1,-1,-1,-1,-1,-1,-1,-1,-1,-1,-1,-1,-1,-1,-1,-1,-1,-1,-1,-1,-1,-1,-1,-1,-1,-1,-1,-1,-1,-1,-1,-1,-1,-1,-1,-1,-1,-1,-1,-1,-1,-1,-1,-1,-1,-1,-1,-1,-1,-1],"split_conditions":[-1.2078143E1,-9.266025E1,-7.0166664E1,-1.6393333E1,1E0,-6.7E1,-1.18046665E1,-1.7338333E1,-1.4392E1,-1.5247334E1,-1.2158571E1,-1.1140667E1,-1.1037833E1,2.1000001E0,-1.1917571E1,1E0,-1.6793E1,-1.1934834E1,-1.3962167E1,-9.184375E1,-6.8899574E1,-1.54295E1,-1.8405144E1,-7.2875E1,-7.02265E1,-1.075E1,-7.668767E1,-1.0877666E1,-7.5031334E1,-2.1635416E1,-1.0780143E1,3E0,-1.3169333E1,-7.4451E1,-1.11145E1,1E0,-9.74465E1,-1.1949857E1,1E0,-8.69455E1,-1.4620193E1,-8.9649666E1,-8.5742E1,-1.7270834E1,-8.090117E1,-8.90845E1,-9.1836E1,-9.490625E1,-8.86875E1,-1.5725333E1,-6.6E1,-1.09505E1,-1.9464428E1,1E0,-1.0600572E1,-1.0603167E1,-6.727216E1,1.6000001E0,1E0,-1.6358166E1,-8.25E0,4E0,-1.869925E1,-1.4837334E1,-1.5816334E1,-1.09035E1,-8.5114586E1,-9.3125E1,-1.1234375E1,-8.03125E0,-1.4421875E1,-1.2916667E1,-1.2674143E1,-8.46615E1,-8.354786E1,-7.14715E1,-1.2746166E1,-6.85E1,-1.17565E1,-8.70715E1,1E0,-1.3209666E1,-8.7496E1,-9.34375E0,-1.6457E1,-1.5434834E1,-9.0501335E1,-9.987957E1,6.75E-1,-9.527333E1,-1.2489857E1,-6.6199165E1,-1.06536665E1,-1.6611834E1,-6.4625E1,-1.1633E1,-1.3079333E1,-1.0451967E2,2.01E0,-1.0985666E1,-8.29035E1,-1.203E1,-1.8890625E1,-7.72175E1,-1.05925E1,-1.24375E1,-7.265625E1,-7.2291665E0,1.0500001E0,-7.7974E1,-1.1395143E1,-9.8755165E1,-1.0671833E1,3.8034058E-1,1.6500001E0,1.1E0,2.2833335E0,1.15E0,3.5526317E-1,1.832143E0,1.5E-1,1.8E-1,1.1357144E0,1.2368853E0,6.8076926E-1,7.6250005E-1,4.227273E-1,1.674475E0,6.214286E-1,1.5E0,2.4383721E0,1.5607439E0,1.0407692E0,1.300685E0,1.7700001E0,8.436759E-1,1.6500001E0,6.8333334E-1,1.6607143E0,2.077273E0,1.0676471E0,6.1E-1,1.25625E0,5.5535716E-1,1.2882353E0,1.725E0,6.6E-1,4.0137765E-1,8.8600004E-1,5.357143E-1,1.673077E0,8.026957E-1,1.218473E0,1.5214287E0,8.546154E-1,4.5000002E-1,1.4250001E0,2.8833336E-1,1.2E0,5.950981E-1,1.0810345E0,1.309091E0,6.461539E-1,1.3151163E0,2.0357144E0,4.0500003E-1,1.0375E0,2.6250002E-1,7.071429E-1,1.632353E0,4.5000002E-1,4.928572E-1,2.0521739E0,1.4508969E0,1.8335937E0,1.498E0,1.1075581E0,2.3952382E0,8.7000006E-1,1.4693183E0,2.1383722E0,1.4333334E0,1.867683E0,2.0994341E0,1.4260001E0,1.04375E0,1.4285715E0,1.95E0,1.5687193E0,4.5000002E-1,1.2818183E0,7.818182E-1,1.1008475E0,1.3595238E0,9.9893624E-1,1.5642859E0,7.875E-1,1.0500001E0,1.6884617E0,1.755E0,2.445349E0,1.745E0,6.214286E-1,1.1928573E0,1.9641178E0,6E-1,-0E0,5.2894735E-1,-0E0,7.8939396E-1,5.3059703E-1,1.263158E0,9.0283024E-1,2.7E-1,1.438125E0,8.0625004E-1,1.1725352E0],"split_indices":[317,318,284,317,308,264,301,317,319,317,319,317,125,0,189,308,285,13,317,312,268,301,191,76,316,233,188,13,188,313,125,199,77,140,109,308,110,189,304,14,185,30,126,315,78,254,270,200,104,63,312,317,319,116,317,317,268,0,180,285,121,23,127,319,319,285,296,232,313,297,313,203,45,14,76,60,285,312,13,286,304,285,190,297,239,317,126,140,0,14,45,188,173,287,216,303,13,188,0,317,318,189,25,108,45,137,8,9,0,318,157,76,205,0,0,0,0,0,0,0,0,0,0,0,0,0,0,0,0,0,0,0,0,0,0,0,0,0,0,0,0,0,0,0,0,0,0,0,0,0,0,0,0,0,0,0,0,0,0,0,0,0,0,0,0,0,0,0,0,0,0,0,0,0,0,0,0,0,0,0,0,0,0,0,0,0,0,0,0,0,0,0,0,0,0,0,0,0,0,0,0,0,0,0,0,0,0,0,0,0,0,0,0,0,0,0,0],"split_type":[0,0,0,0,0,0,0,0,0,0,0,0,0,0,0,0,0,0,0,0,0,0,0,0,0,0,0,0,0,0,0,0,0,0,0,0,0,0,0,0,0,0,0,0,0,0,0,0,0,0,0,0,0,0,0,0,0,0,0,0,0,0,0,0,0,0,0,0,0,0,0,0,0,0,0,0,0,0,0,0,0,0,0,0,0,0,0,0,0,0,0,0,0,0,0,0,0,0,0,0,0,0,0,0,0,0,0,0,0,0,0,0,0,0,0,0,0,0,0,0,0,0,0,0,0,0,0,0,0,0,0,0,0,0,0,0,0,0,0,0,0,0,0,0,0,0,0,0,0,0,0,0,0,0,0,0,0,0,0,0,0,0,0,0,0,0,0,0,0,0,0,0,0,0,0,0,0,0,0,0,0,0,0,0,0,0,0,0,0,0,0,0,0,0,0,0,0,0,0,0,0,0,0,0,0,0,0,0,0,0,0,0,0,0,0,0,0],"sum_hessian":[1.1467E4,6.804E3,4.663E3,3.261E3,3.543E3,3.896E3,7.67E2,7.12E2,2.549E3,2.94E3,6.03E2,3.404E3,4.92E2,3.1E1,7.36E2,3.87E2,3.25E2,2.169E3,3.8E2,9.72E2,1.968E3,4.02E2,2.01E2,1.258E3,2.146E3,2.74E2,2.18E2,1.39E2,5.97E2,3.3E2,5.7E1,5.2E1,2.73E2,1.376E3,7.93E2,3.03E2,7.7E1,2.64E2,7.08E2,1.782E3,1.86E2,2.48E2,1.54E2,4.7E1,1.54E2,1E3,2.58E2,1.74E3,4.06E2,4.3E1,2.31E2,9.2E1,1.26E2,1.1E2,2.9E1,2.53E2,3.44E2,5E0,3.25E2,3.7E1,2E1,3E1,2.2E1,1.37E2,1.36E2,1.264E3,1.12E2,4.44E2,3.49E2,2.68E2,3.5E1,4.8E1,2.9E1,2E2,6.4E1,6.9E2,1.8E1,1.351E3,4.31E2,6E0,1.8E2,1.8E2,6.8E1,1.12E2,4.2E1,2.7E1,2E1,1.43E2,1.1E1,6.05E2,3.95E2,1.29E2,1.29E2,3.42E2,1.398E3,8.8E1,3.18E2,2.4E1,1.9E1,1.23E2,1.08E2,4.4E1,4.8E1,6.1E1,6.5E1,1.04E2,6E0,1.9E1,1E1,1.64E2,8.9E1,1.63E2,1.81E2,3.22E2,3E0,2.9E1,8E0,2E0,1.8E1,2.7E1,3E0,9E0,1.3E1,6E1,7.7E1,7.1E1,6.5E1,1.237E3,2.7E1,2.7E1,8.5E1,1.2E2,3.24E2,1.45E2,2.04E2,2.52E2,1.6E1,8E0,2.7E1,3.2E1,1.6E1,1.4E1,1.5E1,1.67E2,3.3E1,3.5E1,2.9E1,6.16E2,7.4E1,6E0,1.2E1,1.149E3,2.02E2,2.37E2,1.94E2,3E0,3E0,1.79E2,1E0,1.52E2,2.8E1,4.3E1,2.5E1,8.5E1,2.7E1,1.9E1,2.3E1,7E0,2E1,1.6E1,4E0,6E0,1.37E2,2.22E2,3.83E2,2.24E2,1.71E2,1.25E2,4E0,8.7E1,4.2E1,1.79E2,1.63E2,1.324E3,7.4E1,4.7E1,4.1E1,1.16E2,2.02E2,3E0,2.1E1,6.5E1,5.8E1,6.2E1,4.6E1,1.3E1,3.1E1,1E1,3.8E1,1.9E1,4.2E1,5.9E1,6E0,2E1,8.4E1,5E0,1E0,1.8E1,1E0,9.8E1,6.6E1,3.7E1,5.2E1,4E0,1.59E2,1.11E2,7E1],"tree_param":{"num_deleted":"0","num_feature":"320","num_nodes":"217","size_leaf_vector":"0"}},{"base_weights":[3.1005657E0,2.5267088E0,3.8979747E0,3.000534E0,1.8722407E0,4.1599383E0,2.7298937E0,1.4569888E0,3.3681242E0,1.6251494E0,2.9264035E0,3.74372E0,4.5386677E0,1.7516011E0,2.998851E0,1.3135478E0,2.334843E0,3.6218653E0,2.69456E0,1.2581444E0,2.1717172E0,2.1430252E0,3.6969008E0,4.3319263E0,3.3274264E0,5.636293E0,4.3886323E0,1.5655808E0,4.641612E0,3.5005066E0,2.4362423E0,7.3262525E-1,1.601813E0,2.8159564E0,7.011312E-1,3.9443693E0,3.0736158E0,2.2844934E0,3.2419257E0,1.4142562E0,3.911571E-1,1.9595087E0,4.3184543E0,2.5430305E0,1.1749752E0,2.0879593E0,4.0573597E0,2.026144E0,4.4644675E0,4.1730947E0,3.0263374E0,2.1654096E0,5.805794E0,3.876287E0,4.8159137E0,3.2254722E0,1.4167334E0,1.7478136E0,2.962031E-1,5.0978208E0,3.1898944E0,2.7427692E0,1.6584977E0,6.189941E-1,4.523217E0,9.392629E-1,1.8787802E0,1.3988447E0,3.7403972E0,1.5634407E0,3.2022086E-1,4.047067E0,1.8958738E0,2.3113592E0,3.4272707E0,4.2970095E0,2.139698E0,1.8973799E-1,3.32596E0,2.6255367E0,1.3077223E0,2.4359987E0,2.9563862E-1,2.2169585E0,7.31238E-1,2.6643462E0,5.934806E0,2.0724611E0,3.9295049E0,3.2148015E-1,1.4457821E0,5.6873375E-1,2.4324355E0,3.6174417E0,5.2407427E0,1.218757E0,4.292054E0,4.8108783E0,3.628106E0,3.5610332E0,5.4196053E0,2.825473E0,4.8841896E0,9.6496904E-1,8.955232E-1,6.183213E0,4.4519234E0,3.363141E0,4.55293E0,4.9483886E0,2.2985556E0,5.268587E0,1.4494542E0,6.560955E-1,1.5983921E0,1.5612651E0,5.3982344E0,2.3492322E0,3.8197143E0,4.3905463E0,2.504216E0,8.028208E-1,1.8008721E0,9.473087E-1,1.5418558E-1,3.5196596E-1,1.7339733E0,3.83338E-1,1.0508369E-1,7.937848E-1,4.5940793E-1,7.5357974E-1,1.574223E-1,2.5241202E-1,1.2160746E0,5.376588E-1,-0E0,-0E0,1.95208E-1,9.445754E-1,1.2793818E0,1.1011813E0,4.253827E-1,1.0236322E0,5.5386823E-1,1.1269969E0,6.270216E-1,3.1744194E-1,1.5424702E0,6.165203E-1,1.5343596E0,-9.4738096E-2,3.8351005E-1,5.076465E-1,1.0361301E0,1.0763437E-1,9.064141E-1,3.7662032E-1,1.0235944E0,1.1607303E-1,1.4326897E0,4.0458822E-1,6.759499E-2,1.182701E0,6.1342967E-1,6.799735E-1,1.9715165E-1,1.1948663E0,4.4659594E-1,5.842689E-1,1.8240755E0,5.524258E-1,1.0602009E0,1.3851969E0,7.3654485E-1,-2.8337143E-2,2.2609396E-1,7.320827E-2,4.8490778E-1,2.9177144E-1,3.828061E-2,4.2124817E-1,8.8573027E-1,1.2311733E0,7.336204E-1,1.8796515E0,1.1668495E0,7.243809E-1,2.402324E-1,6.5888435E-2,1.3882002E0,1.3470614E0,1.8107361E0,1.3296229E0,9.5158607E-1,4.972895E-1,1.148476E0,1.7872779E0,1.0878718E0,7.36619E-1,1.0879581E0,1.0119834E0,1.7395015E0,3.1771088E-1,-0E0,1.8809321E0,7.7638394E-1,1.477086E0,5.5022925E-1,1.3192612E0,9.199053E-1,1.526367E0,1.0482633E0,1.6431171E0,1.3501252E0,4.6218917E-1,1.1083107E0,1.8272728E-1,1.7936006E0,6.8865067E-1,1.6815394E-1,7.290511E-2,2.7862605E-1,5.6438285E-1,2.654548E-1,5.3823353E-3,5.299025E-1,4.5254245E-1,1.6786182E0,5.425871E-1,8.348076E-1,8.0794066E-1,1.2572492E0,6.0689855E-1,1.4386609E0,5.2608687E-1,8.589546E-1,-0E0,2.6618502E-1,1.9454329E-1,5.584728E-1],"categories":[],"categories_nodes":[],"categories_segments":[],"categories_sizes":[],"default_left":[0,0,0,0,0,0,0,0,0,0,0,0,0,0,0,0,0,0,0,0,0,0,0,0,0,0,0,0,0,0,0,0,0,0,0,0,0,0,0,0,0,0,0,0,0,0,0,0,0,0,0,0,0,0,0,0,0,0,0,0,0,0,0,0,0,0,0,0,0,0,0,0,0,0,0,0,0,0,0,0,0,0,0,0,0,0,0,0,0,0,0,0,0,0,0,0,0,0,0,0,0,0,0,0,0,0,0,0,0,0,0,0,0,0,0,0,0,0,0,0,0,0,0,0,0,0,0,0,0,0,0,0,0,0,0,0,0,0,0,0,0,0,0,0,0,0,0,0,0,0,0,0,0,0,0,0,0,0,0,0,0,0,0,0,0,0,0,0,0,0,0,0,0,0,0,0,0,0,0,0,0,0,0,0,0,0,0,0,0,0,0,0,0,0,0,0,0,0,0,0,0,0,0,0,0,0,0,0,0,0,0,0,0,0,0,0,0,0,0,0,0,0,0,0,0,0,0,0,0,0,0,0,0,0,0,0,0,0,0,0,0],"id":1,"left_children":[1,3,5,7,9,11,13,15,17,19,21,23,25,27,29,31,33,35,37,39,41,43,45,47,49,51,53,55,57,59,61,63,65,67,69,71,73,75,77,79,81,83,85,87,89,91,93,95,97,99,101,103,105,107,109,111,113,-1,-1,115,117,119,121,123,125,127,129,131,133,135,137,139,141,143,145,147,149,151,153,155,157,159,161,163,165,167,169,171,173,175,177,179,181,183,185,187,189,191,193,195,197,199,201,203,-1,205,207,209,211,213,215,217,219,221,223,225,227,229,231,233,235,237,239,-1,-1,-1,-1,-1,-1,-1,-1,-1,-1,-1,-1,-1,-1,-1,-1,-1,-1,-1,-1,-1,-1,-1,-1,-1,-1,-1,-1,-1,-1,-1,-1,-1,-1,-1,-1,-1,-1,-1,-1,-1,-1,-1,-1,-1,-1,-1,-1,-1,-1,-1,-1,-1,-1,-1,-1,-1,-1,-1,-1,-1,-1,-1,-1,-1,-1,-1,-1,-1,-1,-1,-1,-1,-1,-1,-1,-1,-1,-1,-1,-1,-1,-1,-1,-1,-1,-1,-1,-1,-1,-1,-1,-1,-1,-1,-1,-1,-1,-1,-1,-1,-1,-1,-1,-1,-1,-1,-1,-1,-1,-1,-1,-1,-1,-1,-1,-1,-1],"loss_changes":[5.2346875E3,2.060957E3,1.4530547E3,2.1873555E3,7.235996E2,5.9616406E2,2.2444336E2,8.904541E1,5.2083594E2,4.5190234E2,3.0966455E2,4.4014648E2,3.0703125E2,9.33866E1,1.832461E2,1.05503296E2,7.722516E1,3.848496E2,1.8263867E2,1.8315723E2,4.0386572E2,9.8154785E1,1.4272437E2,2.236416E2,2.6410938E2,1.2581494E2,3.7191016E2,3.832318E1,3.8451584E1,1.5919922E2,7.1684204E1,8.7666595E1,7.5549805E1,9.569098E1,6.7690887E0,2.8850977E2,2.1673047E2,1.3183179E2,9.122974E1,1.4364404E2,3.8931236E1,2.5999805E2,1.9645142E2,1.1086023E2,1.7142174E1,2.3806198E1,8.906055E1,7.251013E1,1.8953516E2,1.9441113E2,2.8685693E2,7.9359818E0,8.467969E1,2.6753125E2,3.1148633E2,3.9804947E1,2.1314087E1,0E0,0E0,4.8650757E1,1.499585E2,7.7539185E1,8.947723E0,5.2808807E1,1.5001854E1,2.4459549E1,7.408508E1,2.9271034E1,3.6814575E1,2.1613693E0,2.2857313E0,2.4731445E2,5.1625015E1,1.2982153E2,2.4204492E2,7.899286E1,1.0272217E2,6.9386854E0,6.571069E1,7.9775696E1,1.10526855E2,3.8718025E1,1.3866913E1,1.9305151E2,1.3651161E1,5.644348E1,7.3414307E0,3.8754883E1,3.1775574E1,4.1756186E0,1.0974884E1,1.285413E0,1.5598785E1,7.848584E1,4.8096436E1,1.3453407E1,1.1579651E1,1.6874707E2,6.2087402E1,9.0093506E1,6.2366943E1,2.0713184E2,8.3588135E1,2.1118975E-1,0E0,3.442871E1,5.4270996E1,1.2830078E2,1.7786035E2,1.903789E2,4.5644867E1,1.291629E1,4.0541153E0,3.1304321E0,2.44039E1,9.751663E-1,2.7886475E1,2.407196E1,5.7601562E1,1.3736755E1,4.8444336E1,1.4967375E0,3.204132E0,0E0,0E0,0E0,0E0,0E0,0E0,0E0,0E0,0E0,0E0,0E0,0E0,0E0,0E0,0E0,0E0,0E0,0E0,0E0,0E0,0E0,0E0,0E0,0E0,0E0,0E0,0E0,0E0,0E0,0E0,0E0,0E0,0E0,0E0,0E0,0E0,0E0,0E0,0E0,0E0,0E0,0E0,0E0,0E0,0E0,0E0,0E0,0E0,0E0,0E0,0E0,0E0,0E0,0E0,0E0,0E0,0E0,0E0,0E0,0E0,0E0,0E0,0E0,0E0,0E0,0E0,0E0,0E0,0E0,0E0,0E0,0E0,0E0,0E0,0E0,0E0,0E0,0E0,0E0,0E0,0E0,0E0,0E0,0E0,0E0,0E0,0E0,0E0,0E0,0E0,0E0,0E0,0E0,0E0,0E0,0E0,0E0,0E0,0E0,0E0,0E0,0E0,0E0,0E0,0E0,0E0,0E0,0E0,0E0,0E0,0E0,0E0,0E0,0E0,0E0,0E0,0E0,0E0],"parents":[2147483647,0,0,1,1,2,2,3,3,4,4,5,5,6,6,7,7,8,8,9,9,10,10,11,11,12,12,13,13,14,14,15,15,16,16,17,17,18,18,19,19,20,20,21,21,22,22,23,23,24,24,25,25,26,26,27,27,28,28,29,29,30,30,31,31,32,32,33,33,34,34,35,35,36,36,37,37,38,38,39,39,40,40,41,41,42,42,43,43,44,44,45,45,46,46,47,47,48,48,49,49,50,50,51,51,52,52,53,53,54,54,55,55,56,56,59,59,60,60,61,61,62,62,63,63,64,64,65,65,66,66,67,67,68,68,69,69,70,70,71,71,72,72,73,73,74,74,75,75,76,76,77,77,78,78,79,79,80,80,81,81,82,82,83,83,84,84,85,85,86,86,87,87,88,88,89,89,90,90,91,91,92,92,93,93,94,94,95,95,96,96,97,97,98,98,99,99,100,100,101,101,102,102,103,103,105,105,106,106,107,107,108,108,109,109,110,110,111,111,112,112,113,113,114,114,115,115,116,116,117,117,118,118,119,119,120,120,121,121,122,122],"right_children":[2,4,6,8,10,12,14,16,18,20,22,24,26,28,30,32,34,36,38,40,42,44,46,48,50,52,54,56,58,60,62,64,66,68,70,72,74,76,78,80,82,84,86,88,90,92,94,96,98,100,102,104,106,108,110,112,114,-1,-1,116,118,120,122,124,126,128,130,132,134,136,138,140,142,144,146,148,150,152,154,156,158,160,162,164,166,168,170,172,174,176,178,180,182,184,186,188,190,192,194,196,198,200,202,204,-1,206,208,210,212,214,216,218,220,222,224,226,228,230,232,234,236,238,240,-1,-1,-1,-1,-1,-1,-1,-1,-1,-1,-1,-1,-1,-1,-1,-1,-1,-1,-1,-1,-1,-1,-1,-1,-1,-1,-1,-1,-1,-1,-1,-1,-1,-1,-1,-1,-1,-1,-1,-1,-1,-1,-1,-1,-1,-1,-1,-1,-1,-1,-1,-1,-1,-1,-1,-1,-1,-1,-1,-1,-1,-1,-1,-1,-1,-1,-1,-1,-1,-1,-1,-1,-1,-1,-1,-1,-1,-1,-1,-1,-1,-1,-1,-1,-1,-1,-1,-1,-1,-1,-1,-1,-1,-1,-1,-1,-1,-1,-1,-1,-1,-1,-1,-1,-1,-1,-1,-1,-1,-1,-1,-1,-1,-1,-1,-1,-1,-1],"split_conditions":[-1.2166833E1,-8.95E1,-6.9789E1,-1.6613E1,1E0,-1.1004E1,-1.0985666E1,1E0,-1.49204E1,-1.3742143E1,-1.25703335E1,-9.358733E1,-1.6691856E1,-6.65105E1,-1.0604E1,-1.80605E1,-1.07395E1,-1.1934834E1,-1.5092857E1,-6.80625E1,6E0,-8.601033E1,-9.9499E1,-1.5852834E1,-8.8520836E1,-1.45E1,-9.0026E1,-9.325E1,-1.0844857E1,-1.3744667E1,-1.1058143E1,1E0,-9.7046875E1,-1.4734375E1,-1.8982143E1,-8.15885E1,-1.4947833E1,-1.65625E1,-1.6908833E1,-1.78125E1,-2.05E1,-7.03045E1,-1.1128285E1,-1.2293571E1,-9.364185E1,-1.91875E1,-1.2416667E1,-8.55E1,-8.833217E1,-9.228E1,-1.0607E1,-9.99375E1,-6.89375E1,-1.4494833E1,-5.971875E1,-1.02014336E2,-1.1664166E1,1.7478136E0,2.962031E-1,-1.7622334E1,-7.5083855E1,-1.1462167E1,-1.29245E1,-2.643775E1,-1.0213783E2,-9.990104E1,-9.023772E1,-1.5774038E1,-1.6935E1,1E0,-9.7032425E1,-1.5160167E1,-1.9687666E1,-1.10625E1,-8.6823E1,-1.7382833E1,-6.895086E1,-9.55585E1,-1.05E2,-9.51875E1,1E0,-1.44625E1,-8.65E1,-1.081015E2,-9.198067E1,-1.0464716E2,-2.1640625E1,-8.7464836E1,-1.178E1,-6.928125E1,-2.00625E1,-2.9342167E1,-9.81355E1,-1.2393167E1,-1.2806167E1,-1.459375E1,-1.060625E2,-7.294033E1,-2.2821428E1,-9.896233E1,-1.3419642E1,-8.715729E1,-1.06328335E1,-8.224733E1,8.955232E-1,-6.833733E1,-7.7524666E1,-1.35715E1,-7.812483E1,-9.22215E1,-8.128557E1,-1.9571428E1,-1.0640667E1,-7.721875E1,-1.0616167E1,-1.8826923E1,-1.5125E1,-8.11875E1,-7.289467E1,-1.020755E2,-1.49505E1,-8.383929E1,-2.403125E1,9.473087E-1,1.5418558E-1,3.5196596E-1,1.7339733E0,3.83338E-1,1.0508369E-1,7.937848E-1,4.5940793E-1,7.5357974E-1,1.574223E-1,2.5241202E-1,1.2160746E0,5.376588E-1,-0E0,-0E0,1.95208E-1,9.445754E-1,1.2793818E0,1.1011813E0,4.253827E-1,1.0236322E0,5.5386823E-1,1.1269969E0,6.270216E-1,3.1744194E-1,1.5424702E0,6.165203E-1,1.5343596E0,-9.4738096E-2,3.8351005E-1,5.076465E-1,1.0361301E0,1.0763437E-1,9.064141E-1,3.7662032E-1,1.0235944E0,1.1607303E-1,1.4326897E0,4.0458822E-1,6.759499E-2,1.182701E0,6.1342967E-1,6.799735E-1,1.9715165E-1,1.1948663E0,4.4659594E-1,5.842689E-1,1.8240755E0,5.524258E-1,1.0602009E0,1.3851969E0,7.3654485E-1,-2.8337143E-2,2.2609396E-1,7.320827E-2,4.8490778E-1,2.9177144E-1,3.828061E-2,4.2124817E-1,8.8573027E-1,1.2311733E0,7.336204E-1,1.8796515E0,1.1668495E0,7.243809E-1,2.402324E-1,6.5888435E-2,1.3882002E0,1.3470614E0,1.8107361E0,1.3296229E0,9.5158607E-1,4.972895E-1,1.148476E0,1.7872779E0,1.0878718E0,7.36619E-1,1.0879581E0,1.0119834E0,1.7395015E0,3.1771088E-1,-0E0,1.8809321E0,7.7638394E-1,1.477086E0,5.5022925E-1,1.3192612E0,9.199053E-1,1.526367E0,1.0482633E0,1.6431171E0,1.3501252E0,4.6218917E-1,1.1083107E0,1.8272728E-1,1.7936006E0,6.8865067E-1,1.6815394E-1,7.290511E-2,2.7862605E-1,5.6438285E-1,2.654548E-1,5.3823353E-3,5.299025E-1,4.5254245E-1,1.6786182E0,5.425871E-1,8.348076E-1,8.0794066E-1,1.2572492E0,6.0689855E-1,1.4386609E0,5.2608687E-1,8.589546E-1,-0E0,2.6618502E-1,1.9454329E-1,5.584728E-1],"split_indices":[317,318,300,317,308,317,317,308,319,317,319,254,61,204,285,317,141,13,15,200,231,126,190,141,220,185,12,218,285,221,13,309,232,265,299,284,317,297,45,313,89,268,109,285,316,315,315,74,286,14,189,88,296,287,200,14,317,0,0,13,204,189,205,223,286,314,44,267,287,1,158,93,159,41,284,127,108,286,296,266,304,297,264,238,172,62,299,30,189,168,75,191,140,13,45,9,8,60,223,222,187,30,253,286,0,316,236,253,252,286,284,9,301,216,253,9,201,56,252,140,29,8,155,0,0,0,0,0,0,0,0,0,0,0,0,0,0,0,0,0,0,0,0,0,0,0,0,0,0,0,0,0,0,0,0,0,0,0,0,0,0,0,0,0,0,0,0,0,0,0,0,0,0,0,0,0,0,0,0,0,0,0,0,0,0,0,0,0,0,0,0,0,0,0,0,0,0,0,0,0,0,0,0,0,0,0,0,0,0,0,0,0,0,0,0,0,0,0,0,0,0,0,0,0,0,0,0,0,0,0,0,0,0,0,0,0,0,0,0,0,0],"split_type":[0,0,0,0,0,0,0,0,0,0,0,0,0,0,0,0,0,0,0,0,0,0,0,0,0,0,0,0,0,0,0,0,0,0,0,0,0,0,0,0,0,0,0,0,0,0,0,0,0,0,0,0,0,0,0,0,0,0,0,0,0,0,0,0,0,0,0,0,0,0,0,0,0,0,0,0,0,0,0,0,0,0,0,0,0,0,0,0,0,0,0,0,0,0,0,0,0,0,0,0,0,0,0,0,0,0,0,0,0,0,0,0,0,0,0,0,0,0,0,0,0,0,0,0,0,0,0,0,0,0,0,0,0,0,0,0,0,0,0,0,0,0,0,0,0,0,0,0,0,0,0,0,0,0,0,0,0,0,0,0,0,0,0,0,0,0,0,0,0,0,0,0,0,0,0,0,0,0,0,0,0,0,0,0,0,0,0,0,0,0,0,0,0,0,0,0,0,0,0,0,0,0,0,0,0,0,0,0,0,0,0,0,0,0,0,0,0,0,0,0,0,0,0,0,0,0,0,0,0,0,0,0,0,0,0,0,0,0,0,0,0],"sum_hessian":[1.1467E4,6.671E3,4.796E3,3.867E3,2.804E3,3.915E3,8.81E2,7.45E2,3.122E3,2.274E3,5.3E2,1.871E3,2.044E3,1.92E2,6.89E2,6.43E2,1.02E2,2.264E3,8.58E2,1.363E3,9.11E2,2.65E2,2.65E2,7.71E2,1.1E3,2.41E2,1.803E3,1.82E2,1E1,3.61E2,3.28E2,2.15E2,4.28E2,7.8E1,2.4E1,1.421E3,8.43E2,4.94E2,3.64E2,1.154E3,2.09E2,8.31E2,8E1,1.86E2,7.9E1,5E1,2.15E2,4.3E1,7.28E2,2.85E2,8.15E2,1.2E1,2.29E2,8.25E2,9.78E2,1.3E1,1.69E2,7E0,3E0,5.6E1,3.05E2,2.33E2,9.5E1,2.1E2,5E0,1.28E2,3E2,3.2E1,4.6E1,6E0,1.8E1,1.352E3,6.9E1,2.7E2,5.73E2,3.1E1,4.63E2,1E1,3.54E2,9.1E1,1.063E3,8E0,2.01E2,6.86E2,1.45E2,4.1E1,3.9E1,1.41E2,4.5E1,2E1,5.9E1,1E1,4E1,1.6E2,5.5E1,3.3E1,1E1,5.11E2,2.17E2,1.94E2,9.1E1,7.38E2,7.7E1,6E0,6E0,1.76E2,5.3E1,4.73E2,3.52E2,9.28E2,5E1,5E0,8E0,3.4E1,1.35E2,5E0,5.1E1,1.33E2,1.72E2,2.7E1,2.06E2,1.5E1,8E1,7E0,2.03E2,2E0,3E0,8E1,4.8E1,9.1E1,2.09E2,1.3E1,1.9E1,5E0,4.1E1,5E0,1E0,9E0,9E0,2.67E2,1.085E3,1.3E1,5.6E1,7.8E1,1.92E2,4.58E2,1.15E2,7E0,2.4E1,4.52E2,1.1E1,7E0,3E0,2.7E1,3.27E2,1.4E1,7.7E1,1.039E3,2.4E1,5E0,3E0,1.1E1,1.9E2,6E1,6.26E2,5E0,1.4E2,1.8E1,2.3E1,2E0,3.7E1,1.24E2,1.7E1,2.9E1,1.6E1,1E1,1E1,8E0,5.1E1,4E0,6E0,1.5E1,2.5E1,1.11E2,4.9E1,2.9E1,2.6E1,7E0,2.6E1,1E0,9E0,4.09E2,1.02E2,7.5E1,1.42E2,2.5E1,1.69E2,6.8E1,2.3E1,5.08E2,2.3E2,3.1E1,4.6E1,5E0,1E0,1.71E2,5E0,4.4E1,9E0,1.02E2,3.71E2,2.31E2,1.21E2,4.2E2,5.08E2,3.4E1,1.6E1,1E0,4E0,3E0,5E0,1.5E1,1.9E1,9.5E1,4E1,1E0,4E0,3E0,4.8E1,6.2E1,7.1E1,4.5E1,1.27E2,5E0,2.2E1,6.9E1,1.37E2,1E0,1.4E1,5E0,7.5E1],"tree_param":{"num_deleted":"0","num_feature":"320","num_nodes":"241","size_leaf_vector":"0"}},{"base_weights":[2.1798851E0,1.7499906E0,2.7141423E0,1.0455823E0,1.9891192E0,2.8970907E0,1.9345818E0,8.9886504E-1,1.6656493E0,2.458324E0,1.4509424E0,2.504499E0,3.1667325E0,1.5684282E0,2.3400183E0,8.540579E-1,3.2396264E0,2.8821254E0,1.3376979E0,2.604423E0,1.637653E0,1.2849591E0,2.3263726E0,3.0760145E0,2.1209037E0,4.0415974E0,3.0489004E0,1.7808146E0,6.507915E-1,2.8461182E0,1.9378407E0,1.0725502E0,3.6671242E-1,4.2643476E-1,3.7559428E0,1.2342086E0,3.3953018E0,2.6525068E0,1.1865978E0,2.448595E0,4.0591283E0,1.0702037E0,2.6460388E0,1.8262694E0,9.6675634E-1,1.8926232E0,3.1734216E0,2.7747235E0,4.0272107E0,1.7318858E0,2.528278E0,4.221499E0,1.8734446E0,2.7099633E0,3.3292944E0,2.1267235E0,1.200833E0,7.3239875E-1,6.729057E-2,4.114809E0,2.569442E0,2.0967064E0,1.3264993E0,6.430233E-1,1.4434828E0,1.9365182E0,1.80644E-1,-0E0,2.2507913E-1,4.0284557E0,2.1066572E-1,-1.2665083E-1,2.0334637E0,3.7562442E0,1.3583014E0,9.257099E-1,3.4267983E0,4.967901E-1,1.4614444E0,9.7277117E-1,2.564139E0,2.758942E0,4.7334156E0,1.8348558E0,3.965481E-1,1.2430968E0,3.036208E0,1.5086584E0,2.8789604E0,1.358384E0,6.278746E-1,3.3202035E0,1.5437554E0,3.747595E0,1.9161621E0,5.457878E-1,2.9050379E0,2.4594798E0,4.2556934E0,1.6376272E0,3.3842788E0,3.5014222E0,2.0785947E0,4.414688E0,2.9034276E0,9.308326E-1,3.285483E0,3.6171174E0,2.5006201E0,3.9516413E0,2.8324058E0,3.3801088E0,1.7870638E0,2.015264E0,9.919322E-1,4.5433235E-1,9.5344925E-1,-4.163709E-2,3.017E-1,4.4450107E0,3.6319077E-1,1.8011672E0,2.8318095E0,1.4950371E0,2.3894484E0,1.4962913E-1,1.3868823E0,1.7320582E-1,7.742353E-1,9.893549E-1,3.7203482E-1,2.6774105E-1,1.3291798E0,4.058467E-1,2.8467383E-2,1.9549929E-1,1.2478037E0,-2.073497E-1,4.121647E-2,8.691957E-1,2.242094E-1,2.1551311E-1,1.1908886E0,1.7886843E-1,5.246144E-1,4.7444525E-1,-4.9313653E-2,2.1963038E-2,1.0836471E0,8.9211124E-1,1.08905934E-1,3.269051E-1,6.2057793E-1,1.2060046E0,2.348077E-1,7.926849E-1,1.3868552E-1,-0E0,9.2764044E-1,6.446753E-1,1.4761441E0,7.390659E-1,2.6473826E-1,7.751002E-2,7.434327E-1,1.2660506E0,1.9476706E-1,6.322544E-1,1.0858295E0,5.2448606E-1,1.11216836E-1,2.865737E-1,1.0067921E0,4.7397393E-1,6.5334834E-2,4.345859E-1,1.3772808E-1,2.3665518E-1,1.2604918E0,5.0982445E-1,7.4410446E-2,2.1625021E-1,1.1938939E0,9.4007266E-1,3.5031077E-1,-0E0,9.776605E-1,9.1524065E-1,2.7509487E-1,8.477306E-1,-0E0,1.2910311E0,-2.67777E-1,5.4555917E-1,1.8623136E-1,1.1091077E0,-5.5011466E-2,1.1008837E0,1.9875568E-1,4.251462E-1,7.6469845E-1,6.404187E-1,1.3587465E0,1.0821215E0,5.1696086E-1,3.8428417E-1,-0E0,1.0651124E0,9.995277E-2,1.1602144E0,2.79355E-1,6.668612E-1,8.942712E-1,8.535693E-1,1.2563778E0,1.0124348E0,6.38675E-1,1.1699821E0,2.8441438E-1,4.9680907E-1,1.2458471E0,9.550438E-2,8.353052E-1,1.672574E-1,3.8146934E-1,1.7522E-1,-0E0,6.4298764E-2,3.3417872E-1,-0E0,1.3500124E-1,1.3549066E0,2.8140494E-1,4.129835E-1,6.917143E-1,4.7117308E-1,9.1269535E-1,8.708506E-1,4.1436383E-1,5.057594E-1,7.734458E-1,4.740657E-1,2.9205987E-1],"categories":[],"categories_nodes":[],"categories_segments":[],"categories_sizes":[],"default_left":[0,0,0,0,0,0,0,0,0,0,0,0,0,0,0,0,0,0,0,0,0,0,0,0,0,0,0,0,0,0,0,0,0,0,0,0,0,0,0,0,0,0,0,0,0,0,0,0,0,0,0,0,0,0,0,0,0,0,0,0,0,0,0,0,0,0,0,0,0,0,0,0,0,0,0,0,0,0,0,0,0,0,0,0,0,0,0,0,0,0,0,0,0,0,0,0,0,0,0,0,0,0,0,0,0,0,0,0,0,0,0,0,0,0,0,0,0,0,0,0,0,0,0,0,0,0,0,0,0,0,0,0,0,0,0,0,0,0,0,0,0,0,0,0,0,0,0,0,0,0,0,0,0,0,0,0,0,0,0,0,0,0,0,0,0,0,0,0,0,0,0,0,0,0,0,0,0,0,0,0,0,0,0,0,0,0,0,0,0,0,0,0,0,0,0,0,0,0,0,0,0,0,0,0,0,0,0,0,0,0,0,0,0,0,0,0,0,0,0,0,0,0,0,0,0,0,0,0,0,0,0,0,0,0,0,0,0,0,0,0,0,0,0],"id":2,"left_children":[1,3,5,7,9,11,13,15,17,19,21,23,25,27,29,31,33,35,37,39,41,43,45,47,49,51,53,55,57,59,61,63,65,67,69,71,73,75,77,79,81,83,85,87,89,91,93,95,97,99,101,103,105,107,109,111,113,115,117,119,121,123,125,127,129,131,133,-1,-1,135,-1,137,139,141,143,145,147,149,151,153,155,157,159,161,163,165,167,169,171,173,175,177,179,181,183,185,187,189,191,193,195,197,199,201,203,205,207,209,211,213,215,217,219,221,223,225,227,-1,229,231,-1,233,235,237,239,-1,241,-1,-1,-1,-1,-1,-1,-1,-1,-1,-1,-1,-1,-1,-1,-1,-1,-1,-1,-1,-1,-1,-1,-1,-1,-1,-1,-1,-1,-1,-1,-1,-1,-1,-1,-1,-1,-1,-1,-1,-1,-1,-1,-1,-1,-1,-1,-1,-1,-1,-1,-1,-1,-1,-1,-1,-1,-1,-1,-1,-1,-1,-1,-1,-1,-1,-1,-1,-1,-1,-1,-1,-1,-1,-1,-1,-1,-1,-1,-1,-1,-1,-1,-1,-1,-1,-1,-1,-1,-1,-1,-1,-1,-1,-1,-1,-1,-1,-1,-1,-1,-1,-1,-1,-1,-1,-1,-1,-1,-1,-1,-1,-1,-1,-1,-1,-1],"loss_changes":[2.6269258E3,1.0673691E3,7.2091016E2,1.4405347E2,1.1926641E3,4.2717188E2,1.3911646E2,1.3237305E2,1.16510864E2,2.9731934E2,3.1676855E2,3.6137793E2,2.3648828E2,9.819043E1,8.5721924E1,1.3571533E2,3.1167099E1,4.7617798E1,4.3407898E1,4.737246E2,2.1618237E2,3.177329E2,1.204209E2,1.7915723E2,1.5434473E2,1.0098926E2,1.9342578E2,7.964172E1,4.265045E0,5.6639404E1,2.0758667E1,1.3919104E2,1.15428116E2,7.7945423E-1,1.1449402E1,1.9701403E1,2.7632202E1,2.6740585E1,4.019452E1,3.2706152E2,1.6379468E2,1.2641962E2,6.962518E1,2.2349316E2,1.5422742E2,1.0948108E2,7.444763E1,1.4685815E2,4.3487793E1,7.340515E1,2.0567212E2,5.074756E1,2.677771E1,1.749541E2,3.496963E2,1.0206433E2,2.3548904E1,4.149067E0,7.996301E-1,2.439563E1,2.6446777E1,3.041681E1,1.214386E0,4.94868E1,1.7239453E2,1.027498E2,3.5233547E1,0E0,0E0,2.8397827E0,0E0,1.4152244E0,8.233341E0,2.0733582E1,4.6260834E-1,7.402184E0,7.838745E0,1.8789074E1,3.1603851E1,7.728018E1,2.9303613E2,6.5825806E1,5.0676514E1,6.561014E1,3.653431E1,5.1401585E1,4.7463562E1,1.4308655E2,1.3962524E2,1.3621313E2,8.606818E1,9.459546E1,3.7127747E1,5.0267822E1,2.9726501E1,4.416458E1,1.3663428E2,2.0571411E1,3.9466797E1,8.907593E1,3.2560547E1,6.893396E1,1.0019275E2,4.650244E1,2.184613E1,5.8267193E0,3.9136963E0,1.1633862E2,9.80249E1,1.20510254E2,2.4150928E2,6.2148743E1,5.4387146E1,3.8019608E1,1.4046722E1,2.4531498E0,4.55336E0,0E0,2.8433537E-1,5.425415E-1,0E0,4.8383484E0,2.55719E1,5.0654755E0,1.1445435E1,0E0,1.340332E0,0E0,0E0,0E0,0E0,0E0,0E0,0E0,0E0,0E0,0E0,0E0,0E0,0E0,0E0,0E0,0E0,0E0,0E0,0E0,0E0,0E0,0E0,0E0,0E0,0E0,0E0,0E0,0E0,0E0,0E0,0E0,0E0,0E0,0E0,0E0,0E0,0E0,0E0,0E0,0E0,0E0,0E0,0E0,0E0,0E0,0E0,0E0,0E0,0E0,0E0,0E0,0E0,0E0,0E0,0E0,0E0,0E0,0E0,0E0,0E0,0E0,0E0,0E0,0E0,0E0,0E0,0E0,0E0,0E0,0E0,0E0,0E0,0E0,0E0,0E0,0E0,0E0,0E0,0E0,0E0,0E0,0E0,0E0,0E0,0E0,0E0,0E0,0E0,0E0,0E0,0E0,0E0,0E0,0E0,0E0,0E0,0E0,0E0,0E0,0E0,0E0,0E0,0E0,0E0,0E0,0E0,0E0,0E0,0E0,0E0,0E0,0E0,0E0,0E0,0E0,0E0],"parents":[2147483647,0,0,1,1,2,2,3,3,4,4,5,5,6,6,7,7,8,8,9,9,10,10,11,11,12,12,13,13,14,14,15,15,16,16,17,17,18,18,19,19,20,20,21,21,22,22,23,23,24,24,25,25,26,26,27,27,28,28,29,29,30,30,31,31,32,32,33,33,34,34,35,35,36,36,37,37,38,38,39,39,40,40,41,41,42,42,43,43,44,44,45,45,46,46,47,47,48,48,49,49,50,50,51,51,52,52,53,53,54,54,55,55,56,56,57,57,58,58,59,59,60,60,61,61,62,62,63,63,64,64,65,65,66,66,69,69,71,71,72,72,73,73,74,74,75,75,76,76,77,77,78,78,79,79,80,80,81,81,82,82,83,83,84,84,85,85,86,86,87,87,88,88,89,89,90,90,91,91,92,92,93,93,94,94,95,95,96,96,97,97,98,98,99,99,100,100,101,101,102,102,103,103,104,104,105,105,106,106,107,107,108,108,109,109,110,110,111,111,112,112,113,113,114,114,115,115,116,116,118,118,119,119,121,121,122,122,123,123,124,124,126,126],"right_children":[2,4,6,8,10,12,14,16,18,20,22,24,26,28,30,32,34,36,38,40,42,44,46,48,50,52,54,56,58,60,62,64,66,68,70,72,74,76,78,80,82,84,86,88,90,92,94,96,98,100,102,104,106,108,110,112,114,116,118,120,122,124,126,128,130,132,134,-1,-1,136,-1,138,140,142,144,146,148,150,152,154,156,158,160,162,164,166,168,170,172,174,176,178,180,182,184,186,188,190,192,194,196,198,200,202,204,206,208,210,212,214,216,218,220,222,224,226,228,-1,230,232,-1,234,236,238,240,-1,242,-1,-1,-1,-1,-1,-1,-1,-1,-1,-1,-1,-1,-1,-1,-1,-1,-1,-1,-1,-1,-1,-1,-1,-1,-1,-1,-1,-1,-1,-1,-1,-1,-1,-1,-1,-1,-1,-1,-1,-1,-1,-1,-1,-1,-1,-1,-1,-1,-1,-1,-1,-1,-1,-1,-1,-1,-1,-1,-1,-1,-1,-1,-1,-1,-1,-1,-1,-1,-1,-1,-1,-1,-1,-1,-1,-1,-1,-1,-1,-1,-1,-1,-1,-1,-1,-1,-1,-1,-1,-1,-1,-1,-1,-1,-1,-1,-1,-1,-1,-1,-1,-1,-1,-1,-1,-1,-1,-1,-1,-1,-1,-1,-1,-1,-1,-1],"split_conditions":[-1.2391833E1,-1.6239857E1,-7.019017E1,1E0,-9.12245E1,-1.1255167E1,-1.0619833E1,1E0,-9.6354E1,-1.1441334E1,1E0,-9.4143166E1,-1.6691856E1,-6.353586E1,-1.06275E1,-1.4144667E1,-2.1756332E1,-1.0043083E2,-9.865625E1,-7.4389336E1,-1.0614667E1,-1.1291667E1,-9.21875E0,-7.4617E1,-9.302233E1,-1.0988334E1,-9.0026E1,-1.59988575E1,5E0,-1.38411665E1,-1.09545E1,-1.7338333E1,-1.8125E1,-9.27125E1,-1.39375E1,-1.875E1,4E0,-1.6239666E1,-1.4734375E1,-1.70415E1,-1.3871166E1,-1.61015E1,-8.6607834E1,-7.653917E1,-8.3822E1,-9.370192E1,-9.00885E1,-1.3087767E2,-1.1712334E1,-6.8645836E1,-1.32213335E1,-7.041071E1,-9.195333E1,-1.0145067E2,-1.10338335E1,-1.2074333E1,-1.3824715E1,-1.10365E1,-7.21485E1,-1.6285166E1,-1.3010333E1,-9.443633E1,-9.0234375E1,1E0,-1.030065E2,-1.0359375E1,-9.940867E1,-0E0,2.2507913E-1,-1.6786667E1,2.1066572E-1,-1.004375E2,-1.7553333E1,-1.80625E1,-9.597667E1,-9.809375E1,-1.085E2,-1.0090625E2,-8.9415146E1,-1.4666667E1,-8.7725334E1,-1.28125E1,-9.134157E1,-7.96875E1,-6.622517E1,-2.020475E1,-8.804833E1,-7.67775E1,-1.9069286E1,-1.3548166E1,-1.5615E1,-1.74245E1,-1.1797E1,-1.4476571E1,-1.14375E1,-9.048434E1,-1.0785E1,-1.0857142E1,5E0,-7.79375E0,-1.0786667E1,1E0,-8.526175E1,-1.5453125E1,-1.153E1,-1.1830667E1,5E0,-1.2541833E1,-1.4242E1,-1.2875E1,-1.8029833E1,-6.96875E1,-6.773434E1,-1.3216346E1,-1.2879E1,-1.1011143E1,-1.5862E1,-4.163709E-2,-9.484116E1,-7.694925E1,3.6319077E-1,2E0,-9.14975E1,-8.22695E1,-1.3524667E1,1.4962913E-1,-7.362233E1,1.7320582E-1,7.742353E-1,9.893549E-1,3.7203482E-1,2.6774105E-1,1.3291798E0,4.058467E-1,2.8467383E-2,1.9549929E-1,1.2478037E0,-2.073497E-1,4.121647E-2,8.691957E-1,2.242094E-1,2.1551311E-1,1.1908886E0,1.7886843E-1,5.246144E-1,4.7444525E-1,-4.9313653E-2,2.1963038E-2,1.0836471E0,8.9211124E-1,1.08905934E-1,3.269051E-1,6.2057793E-1,1.2060046E0,2.348077E-1,7.926849E-1,1.3868552E-1,-0E0,9.2764044E-1,6.446753E-1,1.4761441E0,7.390659E-1,2.6473826E-1,7.751002E-2,7.434327E-1,1.2660506E0,1.9476706E-1,6.322544E-1,1.0858295E0,5.2448606E-1,1.11216836E-1,2.865737E-1,1.0067921E0,4.7397393E-1,6.5334834E-2,4.345859E-1,1.3772808E-1,2.3665518E-1,1.2604918E0,5.0982445E-1,7.4410446E-2,2.1625021E-1,1.1938939E0,9.4007266E-1,3.5031077E-1,-0E0,9.776605E-1,9.1524065E-1,2.7509487E-1,8.477306E-1,-0E0,1.2910311E0,-2.67777E-1,5.4555917E-1,1.8623136E-1,1.1091077E0,-5.5011466E-2,1.1008837E0,1.9875568E-1,4.251462E-1,7.6469845E-1,6.404187E-1,1.3587465E0,1.0821215E0,5.1696086E-1,3.8428417E-1,-0E0,1.0651124E0,9.995277E-2,1.1602144E0,2.79355E-1,6.668612E-1,8.942712E-1,8.535693E-1,1.2563778E0,1.0124348E0,6.38675E-1,1.1699821E0,2.8441438E-1,4.9680907E-1,1.2458471E0,9.550438E-2,8.353052E-1,1.672574E-1,3.8146934E-1,1.7522E-1,-0E0,6.4298764E-2,3.3417872E-1,-0E0,1.3500124E-1,1.3549066E0,2.8140494E-1,4.129835E-1,6.917143E-1,4.7117308E-1,9.1269535E-1,8.708506E-1,4.1436383E-1,5.057594E-1,7.734458E-1,4.740657E-1,2.9205987E-1],"split_indices":[317,317,300,308,318,317,317,304,44,221,308,270,61,300,285,285,239,204,168,124,205,201,281,60,14,173,12,143,103,221,13,317,313,282,75,75,135,63,265,205,269,319,174,108,318,280,126,286,125,44,45,280,12,126,29,125,173,173,286,15,253,44,170,309,174,137,318,0,0,77,0,8,285,185,300,8,282,26,30,297,300,297,252,26,12,271,252,300,159,287,13,15,159,157,25,46,13,13,23,25,301,196,14,217,253,109,295,29,287,137,271,248,204,153,109,125,13,0,28,286,0,71,76,252,237,0,12,0,0,0,0,0,0,0,0,0,0,0,0,0,0,0,0,0,0,0,0,0,0,0,0,0,0,0,0,0,0,0,0,0,0,0,0,0,0,0,0,0,0,0,0,0,0,0,0,0,0,0,0,0,0,0,0,0,0,0,0,0,0,0,0,0,0,0,0,0,0,0,0,0,0,0,0,0,0,0,0,0,0,0,0,0,0,0,0,0,0,0,0,0,0,0,0,0,0,0,0,0,0,0,0,0,0,0,0,0,0,0,0,0,0,0,0],"split_type":[0,0,0,0,0,0,0,0,0,0,0,0,0,0,0,0,0,0,0,0,0,0,0,0,0,0,0,0,0,0,0,0,0,0,0,0,0,0,0,0,0,0,0,0,0,0,0,0,0,0,0,0,0,0,0,0,0,0,0,0,0,0,0,0,0,0,0,0,0,0,0,0,0,0,0,0,0,0,0,0,0,0,0,0,0,0,0,0,0,0,0,0,0,0,0,0,0,0,0,0,0,0,0,0,0,0,0,0,0,0,0,0,0,0,0,0,0,0,0,0,0,0,0,0,0,0,0,0,0,0,0,0,0,0,0,0,0,0,0,0,0,0,0,0,0,0,0,0,0,0,0,0,0,0,0,0,0,0,0,0,0,0,0,0,0,0,0,0,0,0,0,0,0,0,0,0,0,0,0,0,0,0,0,0,0,0,0,0,0,0,0,0,0,0,0,0,0,0,0,0,0,0,0,0,0,0,0,0,0,0,0,0,0,0,0,0,0,0,0,0,0,0,0,0,0,0,0,0,0,0,0,0,0,0,0,0,0,0,0,0,0,0,0],"sum_hessian":[1.1467E4,6.357E3,5.11E3,1.613E3,4.744E3,4.136E3,9.74E2,1.307E3,3.06E2,2.532E3,2.212E3,1.689E3,2.447E3,5.15E2,4.59E2,1.284E3,2.3E1,6.3E1,2.43E2,2.147E3,3.85E2,1.862E3,3.5E2,6.75E2,1.014E3,2.86E2,2.161E3,4.17E2,9.8E1,2E2,2.59E2,8.85E2,3.99E2,4E0,1.9E1,1.6E1,4.7E1,2.3E1,2.2E2,1.942E3,2.05E2,2.48E2,1.37E2,6.87E2,1.175E3,2.34E2,1.16E2,5.16E2,1.59E2,5.22E2,4.92E2,2.63E2,2.3E1,9.84E2,1.177E3,2.59E2,1.58E2,8.5E1,1.3E1,3.3E1,1.67E2,2.03E2,5.6E1,4.12E2,4.73E2,4.1E1,3.58E2,2E0,2E0,1.7E1,2E0,6E0,1E1,3.9E1,8E0,8E0,1.5E1,6.4E1,1.56E2,1.42E2,1.8E3,7.2E1,1.33E2,1.15E2,1.33E2,3.1E1,1.06E2,5.3E2,1.57E2,5.43E2,6.32E2,4.4E1,1.9E2,7.8E1,3.8E1,2.9E1,4.87E2,2.2E1,1.37E2,4.96E2,2.6E1,1.53E2,3.39E2,2.27E2,3.6E1,1.5E1,8E0,1.81E2,8.03E2,5.19E2,6.58E2,5.3E1,2.06E2,3E1,1.28E2,4E1,4.5E1,6E0,7E0,2.9E1,4E0,4.5E1,1.22E2,6.9E1,1.34E2,5E0,5.1E1,4E2,1.2E1,4.5E1,4.28E2,3E1,1.1E1,2.3E1,3.35E2,1E0,1.6E1,2E0,4E0,5E0,5E0,3E0,3.6E1,4E0,4E0,5E0,3E0,1E0,1.4E1,2E0,6.2E1,9.9E1,5.7E1,7E0,1.35E2,1.735E3,6.5E1,8E0,6.4E1,1E1,1.23E2,6.8E1,4.7E1,1.26E2,7E0,4E0,2.7E1,4.3E1,6.3E1,4.37E2,9.3E1,3.2E1,1.25E2,4.54E2,8.9E1,1.06E2,5.26E2,1.2E1,3.2E1,1.69E2,2.1E1,6E0,7.2E1,1.3E1,2.5E1,2.5E1,4E0,4.53E2,3.4E1,1.9E1,3E0,1.36E2,1E0,4.2E2,7.6E1,2.4E1,2E0,1.44E2,9E0,1.43E2,1.96E2,1.2E1,2.15E2,2.1E1,1.5E1,1.1E1,4E0,7E0,1E0,1.65E2,1.6E1,5.13E2,2.9E2,9.4E1,4.25E2,3.69E2,2.89E2,4.3E1,1E1,1.97E2,9E0,1E1,2E1,5.2E1,7.6E1,3.1E1,9E0,9E0,3.6E1,3E0,4E0,2.8E1,1E0,2.7E1,1.8E1,1.9E1,1.03E2,3E0,6.6E1,3.1E1,1.03E2,3.2E1,1.9E1],"tree_param":{"num_deleted":"0","num_feature":"320","num_nodes":"243","size_leaf_vector":"0"}},{"base_weights":[1.532907E0,1.9427797E0,1.3590083E0,1.7209908E0,2.3361044E0,1.2250369E0,2.132829E0,2.106202E0,1.4581475E0,3.0785716E0,2.1278586E0,1.3872731E0,7.934164E-1,2.671648E0,1.7346951E0,2.4145706E0,1.7841073E0,1.8196828E0,1.2700752E0,1.2942084E0,3.2977948E0,2.624634E0,1.8386496E0,1.061819E0,1.6154798E0,1.315986E0,6.459745E-1,2.909353E0,1.3557155E0,1.3666035E0,2.4956315E0,2.7153778E0,1.6700977E0,1.8876674E0,-1.4030796E-1,2.0724258E0,1.2484143E0,1.8717551E0,1.0941136E0,2.1624413E0,-4.355278E-1,3.530899E0,2.476551E0,2.109015E0,3.1055136E0,1.7211312E0,3.2041132E0,9.156068E-1,1.6131128E0,1.8653911E0,1.2258302E0,9.343756E-1,1.9870049E0,5.102856E-1,1.300392E0,3.045751E0,9.99803E-1,1.4999167E0,-4.9058855E-2,7.688723E-3,1.5038681E0,2.971888E0,1.8798796E0,2.2548993E0,3.1788783E0,2.7706904E0,1.2852012E0,2.5412047E0,1.6051666E0,5.1165605E-1,-1.7750337E0,3.6705172E-1,2.2215948E0,1.859293E0,5.166555E-1,2.1089401E0,9.288021E-1,6.125231E-2,1.1874018E0,2.6710947E0,9.3949294E-1,6.063021E-1,-4.4643092E-1,3.8030803E0,2.5573153E0,3.9983253E0,2.1292067E0,2.532611E0,1.4103358E0,3.2880368E0,1.8296499E0,-5.6955703E-2,1.77387E0,1.5115738E0,3.7920966E0,1.5364001E0,7.08365E-1,2.1200254E0,1.08438E0,2.0865796E0,1.3066866E0,1.0327457E0,1.6884639E0,1.5845786E0,4.447852E-1,7.2077394E-1,2.4772024E0,1.220656E0,4.9186578E-1,2.6934052E0,9.888655E-1,2.0811894E0,3.2863507E0,1.2197645E-1,8.9368695E-1,5.7895464E-1,1.648304E0,-2.1165119E-1,6.1202053E-2,-1.8045503E-1,8.417415E-1,1.6290556E0,1.4369906E-1,1.3284211E0,3.149494E0,3.0121894E0,1.6056452E0,8.4569776E-1,4.792894E-1,1.0266329E0,6.238303E-1,8.8676864E-1,-0E0,-1.4458185E-1,4.4122916E-1,3.7973037E-1,8.644584E-1,2.4931827E-1,5.4342514E-1,-1.19575344E-1,2.897415E-1,-7.3868495E-1,-0E0,4.711178E-1,-2.22252E-1,5.345377E-1,7.916929E-1,9.322546E-1,3.921202E-1,1.11448236E-1,9.678478E-1,-2.5343096E-2,6.607331E-1,-0E0,3.3327046E-1,4.0122452E-1,-7.863651E-2,4.4676378E-1,2.4093847E-1,5.9296597E-2,8.42308E-1,3.6615038E-1,-0E0,1.0318083E-2,3.0002382E-1,1.1483923E0,-0E0,2.6223838E-2,8.3867306E-1,1.5016066E-1,1.2931447E0,6.93903E-1,-0E0,8.518831E-1,3.1365964E-1,5.1763785E-1,-1.6197793E-1,6.3946575E-1,1.0439471E0,6.974558E-1,1.9062507E-1,-2.0660271E-1,8.861888E-1,5.135823E-1,9.685688E-1,5.485586E-1,-2.8031113E-2,1.2225013E0,3.7087002E-1,2.940792E-1,6.122874E-1,8.900266E-4,2.4620186E-1,6.9719285E-1,2.2434089E-1,1.9444972E-1,5.221836E-1,3.6903188E-1,6.5494275E-1,2.8695127E-1,6.3818246E-1,2.0534727E-1,3.978211E-1,5.5043477E-1,-1.0652179E-2,1.5747545E0,3.9760688E-1,1.2853079E0,1.08673625E-1,3.7183678E-1,-2.5660273E-1,1.0068289E0,5.135128E-1,3.4791192E-1,1.2286533E-1,9.7701475E-3,9.762984E-1,5.4269886E-1,1.8170017E-1,1.0026518E0,4.3821606E-1,1.7143677E-1,1.0144125E0,4.02998E-1,-1.1662132E-1,3.7466015E-3,3.1800178E-1,5.2605575E-1,5.7571507E-3,9.4652824E-2,-3.691904E-1,4.1668552E-1,6.2620366E-1,-1.6117607E-1,4.4418934E-1,9.1791505E-1,1.5979168E-1,-0E0,9.535095E-1,1.0274355E0,3.4634537E-1,5.122037E-1,-6.670512E-2],"categories":[],"categories_nodes":[],"categories_segments":[],"categories_sizes":[],"default_left":[0,0,0,0,0,0,0,0,0,0,0,0,0,0,0,0,0,0,0,0,0,0,0,0,0,0,0,0,0,0,0,0,0,0,0,0,0,0,0,0,0,0,0,0,0,0,0,0,0,0,0,0,0,0,0,0,0,0,0,0,0,0,0,0,0,0,0,0,0,0,0,0,0,0,0,0,0,0,0,0,0,0,0,0,0,0,0,0,0,0,0,0,0,0,0,0,0,0,0,0,0,0,0,0,0,0,0,0,0,0,0,0,0,0,0,0,0,0,0,0,0,0,0,0,0,0,0,0,0,0,0,0,0,0,0,0,0,0,0,0,0,0,0,0,0,0,0,0,0,0,0,0,0,0,0,0,0,0,0,0,0,0,0,0,0,0,0,0,0,0,0,0,0,0,0,0,0,0,0,0,0,0,0,0,0,0,0,0,0,0,0,0,0,0,0,0,0,0,0,0,0,0,0,0,0,0,0,0,0,0,0,0,0,0,0,0,0,0,0,0,0,0,0,0,0,0,0,0,0,0,0,0,0,0,0,0,0,0,0,0,0,0,0],"id":3,"left_children":[1,3,5,7,9,11,13,15,17,19,21,23,25,27,29,31,33,35,37,39,41,43,45,47,49,51,53,55,57,59,61,63,65,67,69,71,73,75,77,79,81,83,85,87,89,91,93,95,97,99,101,103,105,107,109,111,113,115,117,119,121,123,125,127,129,131,133,135,137,139,141,143,145,147,149,151,153,155,157,159,161,163,-1,165,167,169,171,173,175,177,179,181,183,185,187,189,191,193,195,197,199,201,203,205,207,209,211,-1,213,215,217,219,221,223,-1,225,227,-1,-1,229,-1,231,233,235,237,239,241,-1,-1,-1,-1,-1,-1,-1,-1,-1,-1,-1,-1,-1,-1,-1,-1,-1,-1,-1,-1,-1,-1,-1,-1,-1,-1,-1,-1,-1,-1,-1,-1,-1,-1,-1,-1,-1,-1,-1,-1,-1,-1,-1,-1,-1,-1,-1,-1,-1,-1,-1,-1,-1,-1,-1,-1,-1,-1,-1,-1,-1,-1,-1,-1,-1,-1,-1,-1,-1,-1,-1,-1,-1,-1,-1,-1,-1,-1,-1,-1,-1,-1,-1,-1,-1,-1,-1,-1,-1,-1,-1,-1,-1,-1,-1,-1,-1,-1,-1,-1,-1,-1,-1,-1,-1,-1,-1,-1,-1,-1,-1,-1,-1,-1,-1,-1],"loss_changes":[8.1310547E2,2.9168457E2,8.3087305E2,2.1658105E2,1.8055957E2,4.7887695E2,2.4780078E2,8.139526E1,8.4809326E1,9.748828E1,1.3115479E2,3.6763184E2,1.4302026E2,1.5095093E2,1.8680322E2,9.359863E1,8.822949E1,5.9714478E1,8.7731445E1,4.8361504E1,3.343091E1,7.787402E1,9.0228516E1,1.633872E2,2.81583E2,1.0218262E2,1.2887415E2,1.05366455E2,1.6802048E1,8.5969604E1,5.709021E1,5.777295E1,5.0328247E1,7.046704E1,2.605289E1,7.5479004E1,5.9986618E1,3.9687683E1,6.3860046E1,8.748428E0,1.340579E1,3.5057373E1,1.8023468E1,4.565735E1,3.310962E1,5.4035645E1,3.838983E1,2.0775317E2,1.1134802E2,2.1591846E2,9.9532715E1,8.2638824E1,8.847955E1,7.562164E1,1.04419556E2,8.214575E1,5.020678E1,7.77153E0,1.723666E0,2.4982714E1,7.0736206E1,2.9479492E1,2.3906403E1,5.3721863E1,3.1583252E1,1.7524918E1,3.399478E1,4.7668457E1,4.3953613E1,7.696106E0,8.258982E0,3.6240646E1,4.4485962E1,4.5428528E1,2.256817E1,3.2624023E1,6.589859E0,2.441085E1,6.8868225E1,2.6725311E0,1.8765621E0,7.995949E-1,0E0,1.1752075E1,2.3618896E1,5.263672E0,1.7791641E1,4.3480957E1,4.3315384E1,2.415564E1,1.1827293E1,3.3236652E1,4.1551025E1,8.160425E0,1.6891174E1,1.1069403E2,9.671161E1,5.7736877E1,5.8650314E1,1.0105469E2,1.4268738E2,8.1238525E1,8.572046E1,9.709973E1,4.4613106E1,3.6404854E1,6.3036926E1,0E0,6.547772E1,6.5414154E1,6.275145E1,5.6873505E1,7.709741E1,1.4722235E1,0E0,2.7205043E0,9.535858E0,0E0,0E0,2.2721611E1,0E0,3.7837036E1,3.4951492E1,1.5862375E1,9.994019E0,7.5531464E0,1.6552475E1,0E0,0E0,0E0,0E0,0E0,0E0,0E0,0E0,0E0,0E0,0E0,0E0,0E0,0E0,0E0,0E0,0E0,0E0,0E0,0E0,0E0,0E0,0E0,0E0,0E0,0E0,0E0,0E0,0E0,0E0,0E0,0E0,0E0,0E0,0E0,0E0,0E0,0E0,0E0,0E0,0E0,0E0,0E0,0E0,0E0,0E0,0E0,0E0,0E0,0E0,0E0,0E0,0E0,0E0,0E0,0E0,0E0,0E0,0E0,0E0,0E0,0E0,0E0,0E0,0E0,0E0,0E0,0E0,0E0,0E0,0E0,0E0,0E0,0E0,0E0,0E0,0E0,0E0,0E0,0E0,0E0,0E0,0E0,0E0,0E0,0E0,0E0,0E0,0E0,0E0,0E0,0E0,0E0,0E0,0E0,0E0,0E0,0E0,0E0,0E0,0E0,0E0,0E0,0E0,0E0,0E0,0E0,0E0,0E0,0E0,0E0,0E0,0E0,0E0,0E0,0E0],"parents":[2147483647,0,0,1,1,2,2,3,3,4,4,5,5,6,6,7,7,8,8,9,9,10,10,11,11,12,12,13,13,14,14,15,15,16,16,17,17,18,18,19,19,20,20,21,21,22,22,23,23,24,24,25,25,26,26,27,27,28,28,29,29,30,30,31,31,32,32,33,33,34,34,35,35,36,36,37,37,38,38,39,39,40,40,41,41,42,42,43,43,44,44,45,45,46,46,47,47,48,48,49,49,50,50,51,51,52,52,53,53,54,54,55,55,56,56,57,57,58,58,59,59,60,60,61,61,62,62,63,63,64,64,65,65,66,66,67,67,68,68,69,69,70,70,71,71,72,72,73,73,74,74,75,75,76,76,77,77,78,78,79,79,80,80,81,81,83,83,84,84,85,85,86,86,87,87,88,88,89,89,90,90,91,91,92,92,93,93,94,94,95,95,96,96,97,97,98,98,99,99,100,100,101,101,102,102,103,103,104,104,105,105,106,106,108,108,109,109,110,110,111,111,112,112,113,113,115,115,116,116,119,119,121,121,122,122,123,123,124,124,125,125,126,126],"right_children":[2,4,6,8,10,12,14,16,18,20,22,24,26,28,30,32,34,36,38,40,42,44,46,48,50,52,54,56,58,60,62,64,66,68,70,72,74,76,78,80,82,84,86,88,90,92,94,96,98,100,102,104,106,108,110,112,114,116,118,120,122,124,126,128,130,132,134,136,138,140,142,144,146,148,150,152,154,156,158,160,162,164,-1,166,168,170,172,174,176,178,180,182,184,186,188,190,192,194,196,198,200,202,204,206,208,210,212,-1,214,216,218,220,222,224,-1,226,228,-1,-1,230,-1,232,234,236,238,240,242,-1,-1,-1,-1,-1,-1,-1,-1,-1,-1,-1,-1,-1,-1,-1,-1,-1,-1,-1,-1,-1,-1,-1,-1,-1,-1,-1,-1,-1,-1,-1,-1,-1,-1,-1,-1,-1,-1,-1,-1,-1,-1,-1,-1,-1,-1,-1,-1,-1,-1,-1,-1,-1,-1,-1,-1,-1,-1,-1,-1,-1,-1,-1,-1,-1,-1,-1,-1,-1,-1,-1,-1,-1,-1,-1,-1,-1,-1,-1,-1,-1,-1,-1,-1,-1,-1,-1,-1,-1,-1,-1,-1,-1,-1,-1,-1,-1,-1,-1,-1,-1,-1,-1,-1,-1,-1,-1,-1,-1,-1,-1,-1,-1,-1,-1,-1],"split_conditions":[-1.7375E1,-8.9517E1,-1.1578333E1,-1.00851425E2,-1.4469833E1,-8.5068E1,-1.2397285E1,3E0,-1.7286715E1,-8.7741E1,-1.9317667E1,-1.6452E1,-1.29375E1,-7.128125E1,-1.0665428E1,-1.0731833E1,-6.5465E1,-8.556633E1,-1.58935E1,-1.1833333E1,-1.0938833E1,-8.61825E1,-6.448167E1,-7.501033E1,-1.4837334E1,-8.9166664E1,-6.93125E1,-1.3765667E1,-6.0625E1,-9.0524574E1,-1.0633E1,-9.6125E0,-1.3137E1,-1.3109375E1,-1.4734428E1,-9.405334E1,-8.3354164E1,-8.4037E1,-9.925886E1,-1.290625E1,2E0,-7.259375E1,-2.0270834E1,-8.74845E1,-7.128267E1,-1.382775E2,-1.6388428E1,-9.55375E1,-8.3E0,-1.1787833E1,-1.4653334E1,-1.1921875E1,-1.3164E1,-1.0396875E2,-1.09375E1,-1.4E1,-9.225267E1,-8.4109375E1,-1.728125E1,-7.278125E1,-6.950916E1,-9.372784E1,2E0,-1.155E1,3E0,-1.0593857E1,-8.9604E1,-1.4979167E1,-1.5040286E1,-9.71875E0,-1.0016827E2,-9.546616E1,-1.6916666E1,-1.1648334E1,-6.773434E1,-9.8895836E1,-1.4428333E1,-1.778125E1,-7.95625E1,-1.59375E1,-1.31953335E1,3E0,-4.4643092E-1,-6.2416668E1,4E0,-1.15E1,-6.833043E1,-6.9875E0,5E0,-1.11214836E2,-7.78125E0,-9.8125E0,-1.0572833E1,-1.0902333E1,-1.696875E1,-9.860934E1,-1.003675E2,-8.2069E1,-7.40625E0,-9.985943E1,-7.641628E1,-1.25625E1,-7.3574165E1,-2.14375E1,-2.0739584E1,-7.455334E1,-8.6375E1,1.220656E0,-1.7001E1,-1.71055E1,-1.5503834E1,-1.00086E2,-2.103125E1,-1.61825E1,8.9368695E-1,-7.733036E1,-6.80495E1,-2.1165119E-1,6.1202053E-2,-1.1524834E1,8.417415E-1,-1.45625E1,-7.104586E1,-1.5113636E1,-1.14765E1,-7.1941E1,-7.315843E1,8.4569776E-1,4.792894E-1,1.0266329E0,6.238303E-1,8.8676864E-1,-0E0,-1.4458185E-1,4.4122916E-1,3.7973037E-1,8.644584E-1,2.4931827E-1,5.4342514E-1,-1.19575344E-1,2.897415E-1,-7.3868495E-1,-0E0,4.711178E-1,-2.22252E-1,5.345377E-1,7.916929E-1,9.322546E-1,3.921202E-1,1.11448236E-1,9.678478E-1,-2.5343096E-2,6.607331E-1,-0E0,3.3327046E-1,4.0122452E-1,-7.863651E-2,4.4676378E-1,2.4093847E-1,5.9296597E-2,8.42308E-1,3.6615038E-1,-0E0,1.0318083E-2,3.0002382E-1,1.1483923E0,-0E0,2.6223838E-2,8.3867306E-1,1.5016066E-1,1.2931447E0,6.93903E-1,-0E0,8.518831E-1,3.1365964E-1,5.1763785E-1,-1.6197793E-1,6.3946575E-1,1.0439471E0,6.974558E-1,1.9062507E-1,-2.0660271E-1,8.861888E-1,5.135823E-1,9.685688E-1,5.485586E-1,-2.8031113E-2,1.2225013E0,3.7087002E-1,2.940792E-1,6.122874E-1,8.900266E-4,2.4620186E-1,6.9719285E-1,2.2434089E-1,1.9444972E-1,5.221836E-1,3.6903188E-1,6.5494275E-1,2.8695127E-1,6.3818246E-1,2.0534727E-1,3.978211E-1,5.5043477E-1,-1.0652179E-2,1.5747545E0,3.9760688E-1,1.2853079E0,1.08673625E-1,3.7183678E-1,-2.5660273E-1,1.0068289E0,5.135128E-1,3.4791192E-1,1.2286533E-1,9.7701475E-3,9.762984E-1,5.4269886E-1,1.8170017E-1,1.0026518E0,4.3821606E-1,1.7143677E-1,1.0144125E0,4.02998E-1,-1.1662132E-1,3.7466015E-3,3.1800178E-1,5.2605575E-1,5.7571507E-3,9.4652824E-2,-3.691904E-1,4.1668552E-1,6.2620366E-1,-1.6117607E-1,4.4418934E-1,9.1791505E-1,1.5979168E-1,-0E0,9.535095E-1,1.0274355E0,3.4634537E-1,5.122037E-1,-6.670512E-2],"split_indices":[319,14,319,318,45,286,173,167,223,236,287,15,201,248,157,301,46,254,13,41,157,46,76,108,319,10,56,63,184,236,301,313,205,25,223,220,24,318,124,43,71,296,187,222,300,174,239,296,137,29,255,297,269,312,233,121,46,266,11,88,60,76,7,41,135,301,172,137,125,89,296,236,43,205,204,314,207,75,268,297,15,295,0,104,55,297,108,153,311,190,9,297,253,45,203,316,172,254,201,124,140,105,108,105,203,156,234,0,61,159,319,110,203,111,0,90,300,0,0,125,0,219,108,41,319,94,44,0,0,0,0,0,0,0,0,0,0,0,0,0,0,0,0,0,0,0,0,0,0,0,0,0,0,0,0,0,0,0,0,0,0,0,0,0,0,0,0,0,0,0,0,0,0,0,0,0,0,0,0,0,0,0,0,0,0,0,0,0,0,0,0,0,0,0,0,0,0,0,0,0,0,0,0,0,0,0,0,0,0,0,0,0,0,0,0,0,0,0,0,0,0,0,0,0,0,0,0,0,0,0,0,0,0,0,0,0,0,0,0,0,0,0,0],"split_type":[0,0,0,0,0,0,0,0,0,0,0,0,0,0,0,0,0,0,0,0,0,0,0,0,0,0,0,0,0,0,0,0,0,0,0,0,0,0,0,0,0,0,0,0,0,0,0,0,0,0,0,0,0,0,0,0,0,0,0,0,0,0,0,0,0,0,0,0,0,0,0,0,0,0,0,0,0,0,0,0,0,0,0,0,0,0,0,0,0,0,0,0,0,0,0,0,0,0,0,0,0,0,0,0,0,0,0,0,0,0,0,0,0,0,0,0,0,0,0,0,0,0,0,0,0,0,0,0,0,0,0,0,0,0,0,0,0,0,0,0,0,0,0,0,0,0,0,0,0,0,0,0,0,0,0,0,0,0,0,0,0,0,0,0,0,0,0,0,0,0,0,0,0,0,0,0,0,0,0,0,0,0,0,0,0,0,0,0,0,0,0,0,0,0,0,0,0,0,0,0,0,0,0,0,0,0,0,0,0,0,0,0,0,0,0,0,0,0,0,0,0,0,0,0,0,0,0,0,0,0,0,0,0,0,0,0,0,0,0,0,0,0,0],"sum_hessian":[1.1467E4,3.412E3,8.055E3,2.186E3,1.226E3,6.869E3,1.186E3,8.83E2,1.303E3,2.65E2,9.61E2,4.99E3,1.879E3,5.01E2,6.85E2,4.47E2,4.36E2,4.42E2,8.61E2,3E1,2.35E2,3.5E2,6.11E2,2.06E3,2.93E3,4.11E2,1.468E3,4.23E2,7.8E1,4.64E2,2.21E2,3.16E2,1.31E2,4.14E2,2.2E1,3.04E2,1.38E2,1.92E2,6.69E2,2E1,1E1,1.8E2,5.5E1,1.72E2,1.78E2,5.65E2,4.6E1,1.631E3,4.29E2,1.782E3,1.148E3,2.64E2,1.47E2,1.218E3,2.5E2,3.94E2,2.9E1,7.1E1,7E0,4.3E1,4.21E2,1.22E2,9.9E1,1.62E2,1.54E2,3.2E1,9.9E1,1.22E2,2.92E2,1.6E1,6E0,2.5E1,2.79E2,7.4E1,6.4E1,1.52E2,4E1,5.6E1,6.13E2,1.3E1,7E0,5E0,5E0,1.38E2,4.2E1,8E0,4.7E1,1.05E2,6.7E1,1.54E2,2.4E1,1.6E1,5.49E2,1.3E1,3.3E1,4.06E2,1.225E3,2.17E2,2.12E2,1.274E3,5.08E2,8.13E2,3.35E2,1.12E2,1.52E2,4.2E1,1.05E2,5E0,1.213E3,4.4E1,2.06E2,8.1E1,3.13E2,2.1E1,8E0,1.1E1,6E1,2E0,5E0,4.1E1,2E0,3.85E2,3.6E1,1.3E1,1.09E2,1.7E1,8.2E1,8.5E1,7.7E1,1.24E2,3E1,3E1,2E0,9E0,9E1,2.7E1,9.5E1,6.3E1,2.29E2,5E0,1.1E1,4E0,2E0,1.2E1,1.3E1,1.39E2,1.4E2,2.1E1,5.3E1,6.2E1,2E0,6E0,1.46E2,7E0,3.3E1,1.1E1,4.5E1,3.41E2,2.72E2,1E0,1.2E1,5E0,2E0,3E0,2E0,1.37E2,1E0,4E0,3.8E1,1E0,7E0,4.3E1,4E0,8.6E1,1.9E1,5.8E1,9E0,2.4E1,1.3E2,1.6E1,8E0,1.4E1,2E0,5.29E2,2E1,1.1E1,2E0,2.9E1,4E0,1.95E2,2.11E2,1.69E2,1.056E3,1.88E2,2.9E1,1.29E2,8.3E1,1.31E2,1.143E3,3.58E2,1.5E2,3.74E2,4.39E2,3.09E2,2.6E1,6E0,1.06E2,2E0,1.5E2,3.2E1,1E1,4.7E1,5.8E1,1.31E2,1.082E3,8E0,3.6E1,6.4E1,1.42E2,2.5E1,5.6E1,1.1E1,3.02E2,6E0,1.5E1,6E0,5E0,5.6E1,4E0,2.8E1,1.3E1,2.56E2,1.29E2,2.4E1,1.2E1,3E0,1E1,1E0,1.08E2,1.3E1,4E0,7.8E1,4E0],"tree_param":{"num_deleted":"0","num_feature":"320","num_nodes":"243","size_leaf_vector":"0"}},{"base_weights":[1.0784477E0,5.617767E-1,1.232761E0,7.245901E-1,2.4080564E-1,1.549607E0,1.0654349E0,1.4420431E0,5.946814E-1,6.89929E-1,4.0481012E-2,5.6591064E-1,1.606258E0,8.204421E-1,1.3358201E0,5.0961924E-1,2.0307698E0,4.365044E-1,1.0566586E0,9.424688E-1,-6.678298E-2,8.3513623E-1,-6.1637603E-2,4.4810858E-1,3.1399133E0,1.4318372E0,1.8819941E0,6.479434E-1,1.3259338E0,1.5365227E0,9.474217E-1,2.042124E-1,1.5110252E0,2.5637867E0,3.699926E-1,3.3019856E-1,1.1965444E0,2.0114894E0,6.0105103E-1,6.910838E-1,2.3775585E0,-2.0756459E-1,5.030204E-1,6.01913E-1,2.810047E0,-7.721904E-2,1.1942114E0,8.818667E-1,-1.1321332E-1,1.0828863E0,-0E0,1.8888899E0,1.3432462E0,2.3509774E0,1.633658E0,5.081018E-1,1.3061136E0,2.8284795E0,1.1299543E0,1.769658E0,1.287544E0,8.3986443E-1,1.5132185E0,1.3154767E0,7.6288044E-2,2.9117231E0,6.337908E-2,2.8650644E0,-0E0,1.101223E0,-4.2786044E-1,9.1337276E-1,1.396974E-1,1.748331E0,6.674926E-1,5.5174166E-1,2.6929333E0,1.0655582E0,4.922279E-2,2.8587246E-1,1.4487664E0,1.3644576E0,3.957964E0,9.295937E-1,-3.2615435E-1,1.317611E0,1.9347185E-1,9.200382E-1,1.1617633E0,-9.3446724E-2,8.1896484E-1,-2.1988654E-1,1.123287E0,2.070472E0,-4.3130785E-1,1.9987824E0,3.133706E-1,1.2485363E0,1.9270004E0,-4.8784626E-1,2.4299455E0,7.897628E-1,1.8603674E0,7.089899E-1,1.9985165E-1,4.3472916E-1,1.5780299E0,-2.7E-1,3.024412E0,1.3218066E0,1.7407157E-2,2.7791827E0,1.5774771E0,1.0758673E0,2.214682E0,6.697563E-1,1.1179304E0,2.9577084E0,1.1321435E0,5.093185E-1,-0E0,-1.3776357E-1,8.653666E-2,2.6641506E-1,1.1250161E0,-8.461985E-2,2.3175141E-1,7.149871E-1,1.2333856E0,-2.8357562E-1,5.784727E-1,4.763666E-1,-4.0822333E-1,-2.368844E-1,5.155854E-1,1.1190728E0,2.2767524E-1,2.5172466E-2,4.5885387E-1,3.256809E-1,8.044315E-1,3.787852E-1,3.128677E-2,8.348559E-1,-5.089222E-2,1.6461304E-1,9.356907E-1,1.3178848E-1,8.299883E-1,-9.833098E-3,1.019242E0,1.0215303E0,2.462533E-2,1.02011256E-1,6.435715E-1,-4.2440034E-2,6.167019E-1,4.190537E-2,1.2827471E0,7.0323707E-3,3.755429E-1,-2.3831242E-1,-3.3282675E-2,1.0891763E0,2.2924057E-1,-3.9774384E-2,3.5984924E-1,3.403079E-1,-0E0,-5.4855976E-2,1.1017612E-1,-2.6342055E-1,2.5758496E-2,1.1184252E-1,4.862663E-1,7.578011E-1,4.522226E-2,-4.877703E-1,-1.398295E-2,4.503873E-1,7.227662E-1,-7.656914E-2,2.8724843E-1,8.01029E-1,3.5864836E-1,6.442845E-1,2.5612026E-1,-3.9383584E-1,1.005204E-1,4.6549574E-1,7.8909045E-1,1.6933528E-1,7.747974E-1,7.75823E-1,5.103269E-1,-8.490469E-2,2.4887748E-1,-1.2312848E-3,2.500982E-1,2.6970612E-2,6.772406E-1,2.1401305E-1,5.5190074E-1,-3.8199675E-1,1.2749754E-1,9.6537614E-1,-1.6137071E-1,-1.9277489E-1,4.2355937E-1,3.7077564E-1,-5.065393E-2,8.9331234E-1,5.164559E-1,4.348536E-1,7.8619343E-1,3.7309128E-1,9.1085024E-2,7.852981E-1,2.967258E-1,3.3358783E-1,1.343386E-1,4.463947E-1,2.6725093E-1,1.0037237E0,2.2938076E-1,4.6071663E-1,1.972347E-1],"categories":[],"categories_nodes":[],"categories_segments":[],"categories_sizes":[],"default_left":[0,0,0,0,0,0,0,0,0,0,0,0,0,0,0,0,0,0,0,0,0,0,0,0,0,0,0,0,0,0,0,0,0,0,0,0,0,0,0,0,0,0,0,0,0,0,0,0,0,0,0,0,0,0,0,0,0,0,0,0,0,0,0,0,0,0,0,0,0,0,0,0,0,0,0,0,0,0,0,0,0,0,0,0,0,0,0,0,0,0,0,0,0,0,0,0,0,0,0,0,0,0,0,0,0,0,0,0,0,0,0,0,0,0,0,0,0,0,0,0,0,0,0,0,0,0,0,0,0,0,0,0,0,0,0,0,0,0,0,0,0,0,0,0,0,0,0,0,0,0,0,0,0,0,0,0,0,0,0,0,0,0,0,0,0,0,0,0,0,0,0,0,0,0,0,0,0,0,0,0,0,0,0,0,0,0,0,0,0,0,0,0,0,0,0,0,0,0,0,0,0,0,0,0,0,0,0,0,0,0,0,0,0,0,0,0,0,0,0,0,0,0,0,0,0,0,0],"id":4,"left_children":[1,3,5,7,9,11,13,15,17,19,21,23,25,27,29,31,33,35,37,39,41,43,45,47,49,51,53,55,57,59,61,63,65,67,69,71,73,75,77,79,81,83,-1,85,87,89,-1,91,93,-1,-1,95,97,99,101,103,105,107,109,111,113,115,117,119,121,123,125,127,129,131,133,135,137,139,141,143,145,147,149,151,153,155,157,159,161,163,165,167,-1,169,-1,171,173,175,177,179,181,183,185,187,189,191,193,195,197,199,201,203,205,207,209,211,213,215,217,219,221,223,225,-1,-1,-1,-1,-1,-1,-1,-1,-1,-1,-1,-1,-1,-1,-1,-1,-1,-1,-1,-1,-1,-1,-1,-1,-1,-1,-1,-1,-1,-1,-1,-1,-1,-1,-1,-1,-1,-1,-1,-1,-1,-1,-1,-1,-1,-1,-1,-1,-1,-1,-1,-1,-1,-1,-1,-1,-1,-1,-1,-1,-1,-1,-1,-1,-1,-1,-1,-1,-1,-1,-1,-1,-1,-1,-1,-1,-1,-1,-1,-1,-1,-1,-1,-1,-1,-1,-1,-1,-1,-1,-1,-1,-1,-1,-1,-1,-1,-1,-1,-1,-1,-1,-1,-1,-1,-1,-1,-1],"loss_changes":[9.127461E2,1.3730493E2,4.65125E2,1.6123004E2,7.977057E1,1.6786182E2,3.8083936E2,1.4426257E2,1.0723419E2,5.2862167E1,5.058836E1,4.7740387E1,1.3420752E2,2.629702E2,2.1136035E2,3.0946617E1,1.4187585E2,8.836429E1,1.6149026E2,7.1139175E1,1.6549856E1,2.9304878E1,3.2871696E1,3.9927593E1,9.162788E0,6.751538E1,1.23677E2,2.0708282E2,2.2185962E2,1.0113965E2,5.469586E1,1.08607E1,4.699307E1,9.4466E1,2.4727844E1,1.0755274E2,3.703479E1,1.17254944E2,6.526652E1,5.3061348E1,3.9971634E1,8.767068E0,0E0,1.7990368E1,8.097721E0,2.3854239E1,0E0,2.5169365E1,4.9391335E1,0E0,0E0,4.7388733E1,7.8218506E1,8.779175E1,1.3705981E2,1.15325226E2,9.213733E1,5.561798E1,1.4530359E2,1.7386816E2,1.68479E2,3.5820007E1,7.607446E1,3.4498549E0,8.568258E0,1.4708786E1,3.6476495E0,5.2997925E1,2.7525604E1,2.863369E1,1.6422495E1,9.890872E1,5.6131947E1,3.5401276E1,2.2982378E1,6.6158066E1,7.136304E1,1.452608E2,3.4465855E1,7.234928E1,4.5132004E1,2.2066277E1,1.054541E1,1.0848908E0,5.5052133E0,2.4472439E1,1.4797255E1,4.7443366E-1,0E0,2.2423304E1,0E0,3.8925407E0,2.6780197E1,6.1513443E0,2.804009E1,4.8538086E1,7.9205074E0,9.1615845E1,4.5205322E1,8.396134E0,5.9289307E1,6.0390465E1,5.9921143E1,1.359378E2,9.6206604E1,5.8962254E1,6.550537E1,5.149122E0,6.028601E1,1.0442963E2,2.389134E1,2.3390259E1,9.8821655E1,9.187341E1,7.561737E1,4.7307327E1,2.2527924E1,2.091681E1,2.069136E1,0E0,0E0,0E0,0E0,0E0,0E0,0E0,0E0,0E0,0E0,0E0,0E0,0E0,0E0,0E0,0E0,0E0,0E0,0E0,0E0,0E0,0E0,0E0,0E0,0E0,0E0,0E0,0E0,0E0,0E0,0E0,0E0,0E0,0E0,0E0,0E0,0E0,0E0,0E0,0E0,0E0,0E0,0E0,0E0,0E0,0E0,0E0,0E0,0E0,0E0,0E0,0E0,0E0,0E0,0E0,0E0,0E0,0E0,0E0,0E0,0E0,0E0,0E0,0E0,0E0,0E0,0E0,0E0,0E0,0E0,0E0,0E0,0E0,0E0,0E0,0E0,0E0,0E0,0E0,0E0,0E0,0E0,0E0,0E0,0E0,0E0,0E0,0E0,0E0,0E0,0E0,0E0,0E0,0E0,0E0,0E0,0E0,0E0,0E0,0E0,0E0,0E0,0E0,0E0,0E0,0E0,0E0,0E0],"parents":[2147483647,0,0,1,1,2,2,3,3,4,4,5,5,6,6,7,7,8,8,9,9,10,10,11,11,12,12,13,13,14,14,15,15,16,16,17,17,18,18,19,19,20,20,21,21,22,22,23,23,24,24,25,25,26,26,27,27,28,28,29,29,30,30,31,31,32,32,33,33,34,34,35,35,36,36,37,37,38,38,39,39,40,40,41,41,43,43,44,44,45,45,47,47,48,48,51,51,52,52,53,53,54,54,55,55,56,56,57,57,58,58,59,59,60,60,61,61,62,62,63,63,64,64,65,65,66,66,67,67,68,68,69,69,70,70,71,71,72,72,73,73,74,74,75,75,76,76,77,77,78,78,79,79,80,80,81,81,82,82,83,83,84,84,85,85,86,86,87,87,89,89,91,91,92,92,93,93,94,94,95,95,96,96,97,97,98,98,99,99,100,100,101,101,102,102,103,103,104,104,105,105,106,106,107,107,108,108,109,109,110,110,111,111,112,112,113,113,114,114,115,115,116,116,117,117,118,118],"right_children":[2,4,6,8,10,12,14,16,18,20,22,24,26,28,30,32,34,36,38,40,42,44,46,48,50,52,54,56,58,60,62,64,66,68,70,72,74,76,78,80,82,84,-1,86,88,90,-1,92,94,-1,-1,96,98,100,102,104,106,108,110,112,114,116,118,120,122,124,126,128,130,132,134,136,138,140,142,144,146,148,150,152,154,156,158,160,162,164,166,168,-1,170,-1,172,174,176,178,180,182,184,186,188,190,192,194,196,198,200,202,204,206,208,210,212,214,216,218,220,222,224,226,-1,-1,-1,-1,-1,-1,-1,-1,-1,-1,-1,-1,-1,-1,-1,-1,-1,-1,-1,-1,-1,-1,-1,-1,-1,-1,-1,-1,-1,-1,-1,-1,-1,-1,-1,-1,-1,-1,-1,-1,-1,-1,-1,-1,-1,-1,-1,-1,-1,-1,-1,-1,-1,-1,-1,-1,-1,-1,-1,-1,-1,-1,-1,-1,-1,-1,-1,-1,-1,-1,-1,-1,-1,-1,-1,-1,-1,-1,-1,-1,-1,-1,-1,-1,-1,-1,-1,-1,-1,-1,-1,-1,-1,-1,-1,-1,-1,-1,-1,-1,-1,-1,-1,-1,-1,-1,-1,-1],"split_conditions":[-1.5289E1,-1.1473833E1,-9.48326E1,-1.0055217E2,-1.9416E1,-1.0234634E2,-1.1691334E1,-1.7241167E1,-8.51185E1,-7.540366E1,-1.0806E2,6E0,-9.09245E1,-8.6828E1,-7.239614E1,-1.4668E1,-9.896233E1,-7.836967E1,-1.265625E1,-7.40625E0,-7.6666665E0,1E0,7E0,-1.5625E1,-9.309E1,-1.4518333E1,-8.609375E1,-1.2799334E1,-1.4840285E1,-1.2847667E1,-8.58905E1,-1.87945E1,-1.6806715E1,-1.4684834E1,-1.61875E1,-9.62955E1,-9.5718666E1,-9.60625E1,-1.47005E1,-9.375E0,-8.7375E1,-8.58125E1,5.030204E-1,-1.845E1,-8.9375E1,1E0,1.1942114E0,-1.9604166E1,-1.7647167E1,1.0828863E0,-0E0,-1.0727834E1,-7.4451E1,-1.75375E1,-9.68125E1,-8.2125E1,-1.9069286E1,-1.525E1,-1.3033428E1,-9.36875E1,-1.0670834E1,-1.14765E1,-1.2541833E1,-8.835625E1,-1.6736666E1,-1.71875E1,-9.96055E1,3E0,-9.914716E1,-7.399375E1,-9.029017E1,-2.1104166E1,-8.6098145E1,-1.55375E1,-1.0988334E1,-1.001875E2,-9.9708336E1,-9.282816E1,1E0,-1.036875E2,-1.0902333E1,-1.02027336E2,-1.7290142E1,-1.6135416E1,-7.840625E1,-1.08595E1,-8.28125E0,-1.6358166E1,1.1617633E0,1E0,8.1896484E-1,-1.6269142E1,-1.45875E1,-1.05948E2,-1.0517834E2,-1.4615666E1,-9.95E0,-1.7895666E1,-6.636729E1,-9.2E1,-9.639286E1,-1.0466333E1,-1.0329933E2,-9.867834E1,-7.4617E1,-1.0673166E1,-1.8375E1,-8.949617E1,-7.7995575E1,-9.203571E1,-1.88125E1,-1.4792833E1,-8.385486E1,-1.0724286E1,3E0,-1.88E1,-1.6260666E1,-7.211217E1,-1.0775572E1,5.093185E-1,-0E0,-1.3776357E-1,8.653666E-2,2.6641506E-1,1.1250161E0,-8.461985E-2,2.3175141E-1,7.149871E-1,1.2333856E0,-2.8357562E-1,5.784727E-1,4.763666E-1,-4.0822333E-1,-2.368844E-1,5.155854E-1,1.1190728E0,2.2767524E-1,2.5172466E-2,4.5885387E-1,3.256809E-1,8.044315E-1,3.787852E-1,3.128677E-2,8.348559E-1,-5.089222E-2,1.6461304E-1,9.356907E-1,1.3178848E-1,8.299883E-1,-9.833098E-3,1.019242E0,1.0215303E0,2.462533E-2,1.02011256E-1,6.435715E-1,-4.2440034E-2,6.167019E-1,4.190537E-2,1.2827471E0,7.0323707E-3,3.755429E-1,-2.3831242E-1,-3.3282675E-2,1.0891763E0,2.2924057E-1,-3.9774384E-2,3.5984924E-1,3.403079E-1,-0E0,-5.4855976E-2,1.1017612E-1,-2.6342055E-1,2.5758496E-2,1.1184252E-1,4.862663E-1,7.578011E-1,4.522226E-2,-4.877703E-1,-1.398295E-2,4.503873E-1,7.227662E-1,-7.656914E-2,2.8724843E-1,8.01029E-1,3.5864836E-1,6.442845E-1,2.5612026E-1,-3.9383584E-1,1.005204E-1,4.6549574E-1,7.8909045E-1,1.6933528E-1,7.747974E-1,7.75823E-1,5.103269E-1,-8.490469E-2,2.4887748E-1,-1.2312848E-3,2.500982E-1,2.6970612E-2,6.772406E-1,2.1401305E-1,5.5190074E-1,-3.8199675E-1,1.2749754E-1,9.6537614E-1,-1.6137071E-1,-1.9277489E-1,4.2355937E-1,3.7077564E-1,-5.065393E-2,8.9331234E-1,5.164559E-1,4.348536E-1,7.8619343E-1,3.7309128E-1,9.1085024E-2,7.852981E-1,2.967258E-1,3.3358783E-1,1.343386E-1,4.463947E-1,2.6725093E-1,1.0037237E0,2.2938076E-1,4.6071663E-1,1.972347E-1],"split_indices":[317,29,318,284,95,188,317,317,12,220,62,151,14,14,300,319,174,318,185,73,313,241,71,315,284,301,40,319,45,45,30,31,269,301,299,318,94,136,319,265,266,184,0,203,8,226,0,235,239,0,0,45,140,153,316,266,159,169,223,298,189,319,29,8,271,107,252,7,156,104,302,235,14,11,173,184,280,300,210,296,61,238,285,11,88,29,9,285,0,308,0,271,169,286,174,253,297,93,284,74,172,157,270,140,60,157,107,284,238,108,315,127,12,237,231,315,239,92,269,0,0,0,0,0,0,0,0,0,0,0,0,0,0,0,0,0,0,0,0,0,0,0,0,0,0,0,0,0,0,0,0,0,0,0,0,0,0,0,0,0,0,0,0,0,0,0,0,0,0,0,0,0,0,0,0,0,0,0,0,0,0,0,0,0,0,0,0,0,0,0,0,0,0,0,0,0,0,0,0,0,0,0,0,0,0,0,0,0,0,0,0,0,0,0,0,0,0,0,0,0,0,0,0,0,0,0,0],"split_type":[0,0,0,0,0,0,0,0,0,0,0,0,0,0,0,0,0,0,0,0,0,0,0,0,0,0,0,0,0,0,0,0,0,0,0,0,0,0,0,0,0,0,0,0,0,0,0,0,0,0,0,0,0,0,0,0,0,0,0,0,0,0,0,0,0,0,0,0,0,0,0,0,0,0,0,0,0,0,0,0,0,0,0,0,0,0,0,0,0,0,0,0,0,0,0,0,0,0,0,0,0,0,0,0,0,0,0,0,0,0,0,0,0,0,0,0,0,0,0,0,0,0,0,0,0,0,0,0,0,0,0,0,0,0,0,0,0,0,0,0,0,0,0,0,0,0,0,0,0,0,0,0,0,0,0,0,0,0,0,0,0,0,0,0,0,0,0,0,0,0,0,0,0,0,0,0,0,0,0,0,0,0,0,0,0,0,0,0,0,0,0,0,0,0,0,0,0,0,0,0,0,0,0,0,0,0,0,0,0,0,0,0,0,0,0,0,0,0,0,0,0,0,0,0,0,0,0],"sum_hessian":[1.1467E4,2.639E3,8.828E3,1.749E3,8.9E2,3.047E3,5.781E3,2.66E2,1.483E3,2.73E2,6.17E2,1.67E2,2.88E3,3.036E3,2.745E3,1.04E2,1.62E2,1.107E3,3.76E2,2.05E2,6.8E1,7E1,5.47E2,1.61E2,6E0,1.769E3,1.111E3,2.266E3,7.7E2,1.807E3,9.38E2,8.1E1,2.3E1,1.22E2,4E1,9.73E2,1.34E2,1.2E2,2.56E2,1.76E2,2.9E1,6.4E1,4E0,6.4E1,6E0,5.46E2,1E0,9.1E1,7E1,5E0,1E0,2.83E2,1.486E3,3.81E2,7.3E2,1.871E3,3.95E2,8.7E1,6.83E2,9.29E2,8.78E2,7.91E2,1.47E2,7E0,7.4E1,1.1E1,1.2E1,1.09E2,1.3E1,2.1E1,1.9E1,2.38E2,7.35E2,6.4E1,7E1,3.9E1,8.1E1,1.38E2,1.18E2,1.16E2,6E1,1.9E1,1E1,5E0,5.9E1,2.2E1,4.2E1,3E0,3E0,5.44E2,2E0,1.6E1,7.5E1,8E0,6.2E1,2.64E2,1.9E1,1.282E3,2.04E2,1E1,3.71E2,1.56E2,5.74E2,1.131E3,7.4E2,9.5E1,3E2,5E0,8.2E1,5.82E2,1.01E2,1.46E2,7.83E2,7.17E2,1.61E2,4.94E2,2.97E2,2.9E1,1.18E2,5E0,2E0,2E1,5.4E1,4E0,7E0,8E0,4E0,8.1E1,2.8E1,9E0,4E0,1.8E1,3E0,1.7E1,2E0,1.1E1,2.27E2,7.08E2,2.7E1,3.9E1,2.5E1,3.3E1,3.7E1,9E0,3E1,1.4E1,6.7E1,1.02E2,3.6E1,1.16E2,2E0,6E0,1.1E2,2.4E1,3.6E1,6E0,1.3E1,1E0,9E0,2E0,3E0,1.7E1,4.2E1,3E0,1.9E1,3.2E1,1E1,2E0,1E0,4.57E2,8.7E1,5E0,1.1E1,3.1E1,4.4E1,6E0,2E0,1.4E1,4.8E1,1.22E2,1.42E2,1E1,9E0,4.4E1,1.238E3,1.68E2,3.6E1,5E0,5E0,7.1E1,3E2,1.4E2,1.6E1,1E2,4.74E2,1.22E2,1.009E3,5.6E2,1.8E2,8.1E1,1.4E1,7.1E1,2.29E2,2E0,3E0,7.8E1,4E0,2.5E1,5.57E2,1.3E1,8.8E1,1.21E2,2.5E1,7E2,8.3E1,5.88E2,1.29E2,1.2E2,4.1E1,1.63E2,3.31E2,1.1E2,1.87E2,2.4E1,5E0,6.2E1,5.6E1],"tree_param":{"num_deleted":"0","num_feature":"320","num_nodes":"227","size_leaf_vector":"0"}},{"base_weights":[7.592577E-1,5.568461E-1,9.6120286E-1,7.141483E-1,2.7033654E-1,1.057138E0,5.6070584E-1,3.233932E-1,8.737701E-1,9.1111824E-2,8.8750565E-1,1.5380707E0,9.759016E-1,2.145391E-1,7.958142E-1,1.2229474E0,2.3845175E-1,1.2269893E0,6.7948097E-1,-2.9308326E-3,7.9761887E-1,4.1978055E-1,1.188122E0,2.176099E0,1.0740294E0,1.3666755E0,8.503154E-1,6.5654206E-1,1.8631332E-2,3.409068E-1,1.1535163E0,1.9479252E0,4.447537E-1,6.231509E-1,8.308389E-2,7.207192E-1,1.5495251E0,5.3234404E-1,1.5263917E0,-4.6358117E-1,8.6718574E-2,-3.498601E-1,1.1486081E0,8.471259E-1,-6.683245E-3,8.5423315E-1,1.6827148E0,1.1866727E0,2.4225435E0,7.652898E-1,1.7530037E0,1.6877837E0,9.9717754E-1,5.0320286E-1,9.9448586E-1,1.1084406E0,9.30368E-2,-6.5812546E-1,9.924738E-2,2.0806548E-1,1.8695629E0,1.4676889E0,6.6566586E-1,2.584888E0,-8.3623804E-2,-9.811808E-1,9.35224E-1,3.634075E0,5.314762E-1,2.5236402E0,5.4193757E-2,2.050815E0,3.5497636E-1,4.0570292E-1,1.8141946E0,9.378762E-1,3.2766572E-1,1.0348681E0,2.8460026E0,-5.6639624E-1,1.1127632E0,3.2109192E-1,-1.6227163E-1,-7.662268E-1,4.7286403E-1,1.4976398E0,-9.3271956E-2,1.1926109E0,8.821937E-2,-1.0098982E-1,1.2628249E0,1.6733958E0,4.9866706E-1,9.134038E-1,2.053278E0,2.288639E0,7.0047987E-1,2.49473E0,-1.1093007E0,1.2043489E0,2.7557948E-1,-2.5755016E-2,1.9194887E0,1.9740103E0,1.1596824E0,1.2333038E0,4.7812805E-1,9.077916E-1,2.734025E-1,8.5663134E-1,1.5572507E0,1.8211514E0,7.5535566E-1,-2.906119E-2,1.6151857E0,-1.1065339E0,7.8390114E-2,3.8808852E-2,9.59103E-1,-1.7215773E-2,1.0629321E0,6.828782E-1,3.293965E0,2.939059E0,1.3217195E0,3.2303894E0,5.3007203E-1,8.648202E-1,1.8509347E-2,-2.3009779E-1,4.0495858E-1,-4.2306614E-1,-7.013134E-2,-0E0,5.433335E-1,1.2786713E0,-3.945975E-2,4.8284003E-1,1.0170359E-1,6.120011E-2,1.1323873E0,4.4630516E-2,-1.5377162E-1,7.1602446E-1,-5.0053366E-2,1.5147936E-1,-4.3545666E-1,5.150798E-1,-4.872181E-2,-3.0821884E-2,5.7500994E-1,4.716151E-1,1.4287858E-1,-1.8818952E-1,1.3943349E-1,-1.2855428E-1,3.687296E-1,8.814258E-1,-0E0,-1.7887545E-1,7.9839337E-1,-3.0445424E-1,5.492202E-1,2.1891646E-1,2.1136671E-2,-6.354793E-2,4.906578E-1,1.123881E-1,-2.6368594E-1,6.232207E-1,8.325098E-3,3.5843816E-1,9.270961E-1,4.816404E-1,-1.9594137E-1,-0E0,4.1979042E-1,-8.019008E-2,4.0979087E-1,4.464572E-1,-5.4715257E-2,4.440635E-1,-0E0,2.0198734E-1,7.4456453E-1,-8.808736E-2,2.3603648E-1,-1.26491E-2,4.480225E-1,1.7675649E-1,6.8051535E-1,4.686551E-2,7.587642E-1,3.2944635E-2,4.5996976E-1,7.8494406E-1,2.6156762E-1,-0E0,-4.513029E-1,2.6640916E-2,4.1839883E-1,-2.0705178E-2,3.256179E-1,2.4244244E-1,-5.436328E-1,7.297729E-1,3.9992726E-1,4.1708803E-1,6.882771E-1,5.411132E-1,2.4071102E-1,3.0650255E-1,5.4228026E-1,8.179022E-2,4.5500335E-1,5.230132E-1,1.9521417E-1,6.348954E-2,4.4405177E-1,3.658525E-1,2.1022758E-1,5.280932E-1,1.6247267E-1,2.54774E-1,7.6192325E-1,4.1772506E-1,1.5030012E-1,-6.132454E-2,2.127745E-1,3.175514E-2,5.523171E-1,-0E0,-3.8625067E-1,1.154595E-1,-1.16682805E-1,1.268045E-1,-2.3243807E-2,4.1039195E-2,5.1319605E-1,-2.7784178E-1,3.302281E-2,1.6575308E-1,4.7732577E-1,-0E0,7.329914E-1,1.1343268E0,4.47902E-1,1.030606E0,2.2870956E-1,2.1630175E-1,4.4928008E-1,1.0877411E0,5.3685524E-2,1.0439012E-1,4.1475058E-1],"categories":[],"categories_nodes":[],"categories_segments":[],"categories_sizes":[],"default_left":[0,0,0,0,0,0,0,0,0,0,0,0,0,0,0,0,0,0,0,0,0,0,0,0,0,0,0,0,0,0,0,0,0,0,0,0,0,0,0,0,0,0,0,0,0,0,0,0,0,0,0,0,0,0,0,0,0,0,0,0,0,0,0,0,0,0,0,0,0,0,0,0,0,0,0,0,0,0,0,0,0,0,0,0,0,0,0,0,0,0,0,0,0,0,0,0,0,0,0,0,0,0,0,0,0,0,0,0,0,0,0,0,0,0,0,0,0,0,0,0,0,0,0,0,0,0,0,0,0,0,0,0,0,0,0,0,0,0,0,0,0,0,0,0,0,0,0,0,0,0,0,0,0,0,0,0,0,0,0,0,0,0,0,0,0,0,0,0,0,0,0,0,0,0,0,0,0,0,0,0,0,0,0,0,0,0,0,0,0,0,0,0,0,0,0,0,0,0,0,0,0,0,0,0,0,0,0,0,0,0,0,0,0,0,0,0,0,0,0,0,0,0,0,0,0,0,0,0,0,0,0,0,0,0,0,0,0,0,0,0,0,0,0,0,0,0,0,0,0,0,0,0,0,0,0],"id":5,"left_children":[1,3,5,7,9,11,13,15,17,19,21,23,25,27,29,31,33,35,37,39,41,43,45,47,49,51,53,55,57,59,61,63,65,67,69,71,73,75,77,79,81,83,85,87,89,91,93,95,97,99,101,103,105,107,109,111,113,115,117,119,121,123,125,127,129,131,133,135,137,139,141,143,145,147,149,151,153,155,157,159,161,163,165,167,169,171,173,175,177,179,181,183,185,187,189,191,193,195,197,199,201,203,205,207,209,211,213,215,217,219,221,223,225,227,229,231,233,235,237,239,241,243,245,247,249,251,253,-1,-1,-1,-1,-1,-1,-1,-1,-1,-1,-1,-1,-1,-1,-1,-1,-1,-1,-1,-1,-1,-1,-1,-1,-1,-1,-1,-1,-1,-1,-1,-1,-1,-1,-1,-1,-1,-1,-1,-1,-1,-1,-1,-1,-1,-1,-1,-1,-1,-1,-1,-1,-1,-1,-1,-1,-1,-1,-1,-1,-1,-1,-1,-1,-1,-1,-1,-1,-1,-1,-1,-1,-1,-1,-1,-1,-1,-1,-1,-1,-1,-1,-1,-1,-1,-1,-1,-1,-1,-1,-1,-1,-1,-1,-1,-1,-1,-1,-1,-1,-1,-1,-1,-1,-1,-1,-1,-1,-1,-1,-1,-1,-1,-1,-1,-1,-1,-1,-1,-1,-1,-1,-1,-1,-1,-1,-1,-1],"loss_changes":[4.6747217E2,2.5760278E2,2.190625E2,2.2977429E2,2.2441457E2,1.7801514E2,8.982614E1,8.111781E1,1.7828943E2,1.05244835E2,6.2954163E1,1.9322144E2,1.9216772E2,3.8789684E1,1.06418396E2,4.9841248E1,5.840868E1,1.494447E2,2.0949976E2,5.7755398E1,7.571323E1,3.341265E1,4.3037598E1,6.3351685E1,7.8734314E1,1.1099609E2,1.4898071E2,3.4437447E1,1.6971478E1,5.8071323E1,5.4512695E1,6.228578E1,3.3066063E1,7.382501E1,4.814145E1,1.751453E2,1.6950183E2,1.191662E2,1.5726941E2,3.730949E1,6.817539E1,1.5581423E1,6.282602E1,2.3113739E1,1.0441405E1,4.7012276E1,2.7999817E1,2.7976852E1,6.0059326E1,5.6766327E1,3.6532684E1,7.3536255E1,5.3707184E1,8.1350784E1,1.6185034E2,1.6461334E1,1.25486355E1,1.1499387E1,1.417088E1,5.273181E1,3.463948E1,4.1879883E1,4.752826E1,2.5404709E1,1.2499092E1,2.6963568E0,2.8429705E1,2.1549301E1,5.5535645E1,2.045533E1,3.720111E1,5.9617004E1,7.800598E1,8.150761E1,9.129529E1,1.3991519E2,1.2643411E2,5.322589E1,1.8420654E1,2.1272522E1,2.3651733E1,6.1203785E1,4.9970158E1,4.4395695E0,9.602804E0,4.8186874E1,3.1006554E1,1.5592468E1,1.4542417E1,1.0742647E1,1.3867712E0,3.71799E1,2.764245E1,2.184946E1,2.0225006E1,6.9832916E0,1.9668951E1,3.904712E1,2.8994498E0,2.9069275E1,3.658172E1,1.8352404E1,2.7970428E1,5.665625E1,3.936154E1,3.417218E1,2.9210297E1,6.6193054E1,4.1032223E1,9.462451E1,8.348663E1,1.2910324E1,6.9438057E0,7.531028E0,5.362463E-1,4.1251545E0,2.0095863E0,1.2079558E1,9.966337E0,2.5385155E1,1.3415237E1,1.735043E1,4.9066162E-1,1.580748E1,1.946997E1,5.8948593E0,2.0541374E1,0E0,0E0,0E0,0E0,0E0,0E0,0E0,0E0,0E0,0E0,0E0,0E0,0E0,0E0,0E0,0E0,0E0,0E0,0E0,0E0,0E0,0E0,0E0,0E0,0E0,0E0,0E0,0E0,0E0,0E0,0E0,0E0,0E0,0E0,0E0,0E0,0E0,0E0,0E0,0E0,0E0,0E0,0E0,0E0,0E0,0E0,0E0,0E0,0E0,0E0,0E0,0E0,0E0,0E0,0E0,0E0,0E0,0E0,0E0,0E0,0E0,0E0,0E0,0E0,0E0,0E0,0E0,0E0,0E0,0E0,0E0,0E0,0E0,0E0,0E0,0E0,0E0,0E0,0E0,0E0,0E0,0E0,0E0,0E0,0E0,0E0,0E0,0E0,0E0,0E0,0E0,0E0,0E0,0E0,0E0,0E0,0E0,0E0,0E0,0E0,0E0,0E0,0E0,0E0,0E0,0E0,0E0,0E0,0E0,0E0,0E0,0E0,0E0,0E0,0E0,0E0,0E0,0E0,0E0,0E0,0E0,0E0,0E0,0E0,0E0,0E0,0E0,0E0],"parents":[2147483647,0,0,1,1,2,2,3,3,4,4,5,5,6,6,7,7,8,8,9,9,10,10,11,11,12,12,13,13,14,14,15,15,16,16,17,17,18,18,19,19,20,20,21,21,22,22,23,23,24,24,25,25,26,26,27,27,28,28,29,29,30,30,31,31,32,32,33,33,34,34,35,35,36,36,37,37,38,38,39,39,40,40,41,41,42,42,43,43,44,44,45,45,46,46,47,47,48,48,49,49,50,50,51,51,52,52,53,53,54,54,55,55,56,56,57,57,58,58,59,59,60,60,61,61,62,62,63,63,64,64,65,65,66,66,67,67,68,68,69,69,70,70,71,71,72,72,73,73,74,74,75,75,76,76,77,77,78,78,79,79,80,80,81,81,82,82,83,83,84,84,85,85,86,86,87,87,88,88,89,89,90,90,91,91,92,92,93,93,94,94,95,95,96,96,97,97,98,98,99,99,100,100,101,101,102,102,103,103,104,104,105,105,106,106,107,107,108,108,109,109,110,110,111,111,112,112,113,113,114,114,115,115,116,116,117,117,118,118,119,119,120,120,121,121,122,122,123,123,124,124,125,125,126,126],"right_children":[2,4,6,8,10,12,14,16,18,20,22,24,26,28,30,32,34,36,38,40,42,44,46,48,50,52,54,56,58,60,62,64,66,68,70,72,74,76,78,80,82,84,86,88,90,92,94,96,98,100,102,104,106,108,110,112,114,116,118,120,122,124,126,128,130,132,134,136,138,140,142,144,146,148,150,152,154,156,158,160,162,164,166,168,170,172,174,176,178,180,182,184,186,188,190,192,194,196,198,200,202,204,206,208,210,212,214,216,218,220,222,224,226,228,230,232,234,236,238,240,242,244,246,248,250,252,254,-1,-1,-1,-1,-1,-1,-1,-1,-1,-1,-1,-1,-1,-1,-1,-1,-1,-1,-1,-1,-1,-1,-1,-1,-1,-1,-1,-1,-1,-1,-1,-1,-1,-1,-1,-1,-1,-1,-1,-1,-1,-1,-1,-1,-1,-1,-1,-1,-1,-1,-1,-1,-1,-1,-1,-1,-1,-1,-1,-1,-1,-1,-1,-1,-1,-1,-1,-1,-1,-1,-1,-1,-1,-1,-1,-1,-1,-1,-1,-1,-1,-1,-1,-1,-1,-1,-1,-1,-1,-1,-1,-1,-1,-1,-1,-1,-1,-1,-1,-1,-1,-1,-1,-1,-1,-1,-1,-1,-1,-1,-1,-1,-1,-1,-1,-1,-1,-1,-1,-1,-1,-1,-1,-1,-1,-1,-1,-1],"split_conditions":[-1.2888E1,-8.783043E1,-6.86875E1,-1.6129E1,1E0,-1.5434667E1,-1.1251333E1,-1.6836E1,-1.2416667E1,-1.2799334E1,-1.7649666E1,-1.4315E1,-2.1492167E1,-9.21875E0,-7.0076385E1,-1.2826834E1,-1.4242E1,-9.7326E1,-7.6708336E1,-8.662217E1,-9.650667E1,-9.596083E1,-7.555E1,-1.6083334E1,-1.325E1,-1.9464428E1,-1.9187666E1,-8.727717E1,-7.4854164E1,-6.4875E1,-1.0748667E1,4E0,-9.490625E1,-2.2354166E1,-1.35903E2,-1.035E2,-1.4578125E1,-9.940867E1,-8.0761665E1,6E0,-1.2001333E1,-1.1035571E1,-1.3458333E1,-7.81875E1,-1E1,-9.425E1,-1.7567667E1,-9.5375E1,-1.1686167E1,-1.2776167E1,-1.571875E1,-1.07785E1,-2.0448E1,-1.9828167E1,-7.2375E1,-1.4760333E1,-6.948583E1,-7.455334E1,-6.7291665E0,3E0,-6.8541665E0,-1.1E1,-6.875E1,-1.4522166E1,-9.75E1,-8.796875E0,-1.275E1,-8.456471E1,-1.00511665E2,-9.9336E1,-1.3798333E1,-1.0005572E2,-9.504183E1,-9.66175E1,-1.0246733E2,-9.169783E1,-9.73125E1,-9.16875E1,-1.3725333E1,-1.05925E1,-1.3125E1,-1.06875E1,1E0,-1.0865884E2,-8.6671875E1,-7.84375E0,-1.01389336E2,-9.95845E1,-6.8375E1,-9.90625E1,-6.221875E1,-1.6738167E1,-1.7878666E1,-1.2799334E1,-1.3414166E1,-1.8328E1,-9.143867E1,-9.0125E0,4E0,-1.64675E1,-8.436317E1,-8.652143E1,-8.4375E0,-9.575E0,-8.4375E1,-7.552983E1,-1.0599167E1,-9.7403E1,-6.9458855E1,-8.7725334E1,-6.7751335E1,4E0,-7.8145836E1,-9.3125E0,-7.75E1,-1.6037666E1,-1.0753834E1,-9.243529E1,-8.4927086E1,-2.24375E1,-9.09375E0,-6.21875E1,-6.3875E1,-7.7875E1,-7.535133E1,-1.6876333E1,-1.06575E1,8.648202E-1,1.8509347E-2,-2.3009779E-1,4.0495858E-1,-4.2306614E-1,-7.013134E-2,-0E0,5.433335E-1,1.2786713E0,-3.945975E-2,4.8284003E-1,1.0170359E-1,6.120011E-2,1.1323873E0,4.4630516E-2,-1.5377162E-1,7.1602446E-1,-5.0053366E-2,1.5147936E-1,-4.3545666E-1,5.150798E-1,-4.872181E-2,-3.0821884E-2,5.7500994E-1,4.716151E-1,1.4287858E-1,-1.8818952E-1,1.3943349E-1,-1.2855428E-1,3.687296E-1,8.814258E-1,-0E0,-1.7887545E-1,7.9839337E-1,-3.0445424E-1,5.492202E-1,2.1891646E-1,2.1136671E-2,-6.354793E-2,4.906578E-1,1.123881E-1,-2.6368594E-1,6.232207E-1,8.325098E-3,3.5843816E-1,9.270961E-1,4.816404E-1,-1.9594137E-1,-0E0,4.1979042E-1,-8.019008E-2,4.0979087E-1,4.464572E-1,-5.4715257E-2,4.440635E-1,-0E0,2.0198734E-1,7.4456453E-1,-8.808736E-2,2.3603648E-1,-1.26491E-2,4.480225E-1,1.7675649E-1,6.8051535E-1,4.686551E-2,7.587642E-1,3.2944635E-2,4.5996976E-1,7.8494406E-1,2.6156762E-1,-0E0,-4.513029E-1,2.6640916E-2,4.1839883E-1,-2.0705178E-2,3.256179E-1,2.4244244E-1,-5.436328E-1,7.297729E-1,3.9992726E-1,4.1708803E-1,6.882771E-1,5.411132E-1,2.4071102E-1,3.0650255E-1,5.4228026E-1,8.179022E-2,4.5500335E-1,5.230132E-1,1.9521417E-1,6.348954E-2,4.4405177E-1,3.658525E-1,2.1022758E-1,5.280932E-1,1.6247267E-1,2.54774E-1,7.6192325E-1,4.1772506E-1,1.5030012E-1,-6.132454E-2,2.127745E-1,3.175514E-2,5.523171E-1,-0E0,-3.8625067E-1,1.154595E-1,-1.16682805E-1,1.268045E-1,-2.3243807E-2,4.1039195E-2,5.1319605E-1,-2.7784178E-1,3.302281E-2,1.6575308E-1,4.7732577E-1,-0E0,7.329914E-1,1.1343268E0,4.47902E-1,1.030606E0,2.2870956E-1,2.1630175E-1,4.4928008E-1,1.0877411E0,5.3685524E-2,1.0439012E-1,4.1475058E-1],"split_indices":[317,318,248,317,308,221,109,253,233,303,31,223,255,233,312,77,61,316,312,236,158,62,248,173,303,287,191,142,296,40,269,183,298,219,94,286,25,318,204,215,285,189,27,296,315,138,239,264,189,223,169,301,239,239,168,61,220,220,153,247,121,137,264,239,250,153,281,286,286,286,319,316,318,318,30,12,56,10,239,77,169,169,304,30,298,297,94,156,216,232,8,223,271,319,189,319,44,9,7,157,174,270,297,89,314,28,173,270,172,300,300,39,216,217,296,127,13,156,106,91,313,24,40,8,252,287,221,0,0,0,0,0,0,0,0,0,0,0,0,0,0,0,0,0,0,0,0,0,0,0,0,0,0,0,0,0,0,0,0,0,0,0,0,0,0,0,0,0,0,0,0,0,0,0,0,0,0,0,0,0,0,0,0,0,0,0,0,0,0,0,0,0,0,0,0,0,0,0,0,0,0,0,0,0,0,0,0,0,0,0,0,0,0,0,0,0,0,0,0,0,0,0,0,0,0,0,0,0,0,0,0,0,0,0,0,0,0,0,0,0,0,0,0,0,0,0,0,0,0,0,0,0,0,0,0],"split_type":[0,0,0,0,0,0,0,0,0,0,0,0,0,0,0,0,0,0,0,0,0,0,0,0,0,0,0,0,0,0,0,0,0,0,0,0,0,0,0,0,0,0,0,0,0,0,0,0,0,0,0,0,0,0,0,0,0,0,0,0,0,0,0,0,0,0,0,0,0,0,0,0,0,0,0,0,0,0,0,0,0,0,0,0,0,0,0,0,0,0,0,0,0,0,0,0,0,0,0,0,0,0,0,0,0,0,0,0,0,0,0,0,0,0,0,0,0,0,0,0,0,0,0,0,0,0,0,0,0,0,0,0,0,0,0,0,0,0,0,0,0,0,0,0,0,0,0,0,0,0,0,0,0,0,0,0,0,0,0,0,0,0,0,0,0,0,0,0,0,0,0,0,0,0,0,0,0,0,0,0,0,0,0,0,0,0,0,0,0,0,0,0,0,0,0,0,0,0,0,0,0,0,0,0,0,0,0,0,0,0,0,0,0,0,0,0,0,0,0,0,0,0,0,0,0,0,0,0,0,0,0,0,0,0,0,0,0,0,0,0,0,0,0,0,0,0,0,0,0,0,0,0,0,0,0],"sum_hessian":[1.1467E4,5.73E3,5.737E3,3.697E3,2.033E3,4.626E3,1.111E3,1.074E3,2.623E3,1.577E3,4.56E2,6.65E2,3.961E3,4.51E2,6.6E2,9.1E1,9.83E2,9.28E2,1.695E3,1.392E3,1.85E2,1.8E2,2.76E2,2.78E2,3.87E2,9.6E2,3.001E3,1.37E2,3.14E2,2.92E2,3.68E2,4.6E1,4.5E1,2.81E2,7.02E2,3.63E2,5.65E2,1.446E3,2.49E2,2.27E2,1.165E3,4.3E1,1.42E2,9E1,9E1,1.67E2,1.09E2,5.7E1,2.21E2,2.68E2,1.19E2,5.11E2,4.49E2,8.83E2,2.118E3,7.5E1,6.2E1,3.2E1,2.82E2,2.7E2,2.2E1,2.22E2,1.46E2,3.5E1,1.1E1,1.1E1,3.4E1,7E0,2.74E2,7E0,6.95E2,7.7E1,2.86E2,1.07E2,4.58E2,4.83E2,9.63E2,1.83E2,6.6E1,2.14E2,1.3E1,6.01E2,5.64E2,2.9E1,1.4E1,1.11E2,3.1E1,6.1E1,2.9E1,8.5E1,5E0,4.9E1,1.18E2,3.7E1,7.2E1,1.6E1,4.1E1,2.17E2,4E0,1.4E2,1.28E2,1E1,1.09E2,3.29E2,1.82E2,3.07E2,1.42E2,3.18E2,5.65E2,1.704E3,4.14E2,2.3E1,5.2E1,5.8E1,4E0,2E1,1.2E1,2.65E2,1.7E1,2.14E2,5.6E1,1.3E1,9E0,1.8E1,2.04E2,6E0,1.4E2,3.1E1,4E0,8E0,3E0,6E0,5E0,1.7E1,1.7E1,6E0,1E0,4E1,2.34E2,3E0,4E0,5.97E2,9.8E1,6.7E1,1E1,2.65E2,2.1E1,3.2E1,7.5E1,2.3E1,4.35E2,2.02E2,2.81E2,1.2E2,8.43E2,2.1E1,1.62E2,6.4E1,2E0,2.13E2,1E0,3E0,1E1,2.27E2,3.74E2,5.5E2,1.4E1,2E0,2.7E1,2E0,1.2E1,9.5E1,1.6E1,7E0,2.4E1,9E0,5.2E1,2.3E1,6E0,3E0,8.2E1,4E0,1E0,2.3E1,2.6E1,3.1E1,8.7E1,1.4E1,2.3E1,1E1,6.2E1,2E0,1.4E1,2.5E1,1.6E1,2.01E2,1.6E1,1E0,3E0,2.1E1,1.19E2,9E1,3.8E1,7E0,3E0,5.6E1,5.3E1,1.19E2,2.1E2,6.3E1,1.19E2,2.27E2,8E1,1.2E2,2.2E1,7.3E1,2.45E2,5.39E2,2.6E1,5.09E2,1.195E3,3.44E2,7E1,1.1E1,1.2E1,1.3E1,3.9E1,4.8E1,1E1,1E0,3E0,3E0,1.7E1,8E0,4E0,6.2E1,2.03E2,9E0,8E0,2.6E1,1.88E2,3E1,2.6E1,1E1,3E0,6E0,3E0,1.4E1,4E0,4.8E1,1.56E2,5E0,1E0,1.17E2,2.3E1],"tree_param":{"num_deleted":"0","num_feature":"320","num_nodes":"255","size_leaf_vector":"0"}},{"base_weights":[5.351755E-1,2.7459034E-1,6.12977E-1,3.3887646E-1,-7.3664255E-2,5.162058E-1,7.8911173E-1,5.713991E-1,2.0981467E-1,-1.8815713E-1,6.774859E-1,4.4998577E-1,8.5635346E-1,1.0602905E0,5.4133123E-1,1.2079687E0,4.2654458E-1,5.76822E-1,1.0707412E-1,9.090821E-1,-2.161547E-1,1.2832317E0,-2.3920041E-1,7.164894E-1,3.123333E-1,1.2854543E0,6.3470197E-1,1.3879198E0,8.0895495E-1,9.5259875E-1,3.112513E-1,1.6055617E0,2.9786295E-1,8.76796E-1,2.454197E-1,1.968473E-1,1.0598782E0,2.390213E-1,-1.0084016E-1,7.27694E-2,-4.4437933E-1,8.772061E-1,8.642439E-1,-1.2452387E0,3.889099E-1,-1.5769775E0,7.377094E-1,2.9070467E-1,1.6949615E0,1.5121133E0,3.6862832E-1,2.3263328E0,5.788703E-1,5.9548885E-1,1.636351E0,5.2137774E-1,1.1158789E0,-1.107874E0,1.002152E0,-7.258809E-2,5.364053E-1,2.1716523E0,7.4672866E-1,-6.2205404E-2,1.364907E0,1.4172857E-1,1.1593658E0,-6.8203384E-1,3.5006145E-1,7.676388E-2,2.1445642E0,2.8544462E-1,1.5244088E0,3.3347784E-3,6.845128E-1,1.4336547E0,-1.377116E-1,-0E0,2.3730745E0,-4.7164574E-1,6.722454E-1,1.2388474E0,-3.1326738E-1,-0E0,-4.0176958E-1,-8.2951635E-2,8.4486353E-1,-2.017402E0,6.9052076E-1,2.5044206E-1,8.1141293E-1,3.8560873E-1,-3.1163052E-2,1.1000129E0,9.9615234E-1,1.8738171E0,6.4800817E-1,1.049415E0,-7.8890836E-1,-0E0,2.9360077E0,-2.7993658E-1,6.7290515E-1,1.5238522E0,9.8138236E-2,1.9272095E0,1.009818E0,3.8516816E-1,1.5429534E0,6.699849E-1,1.621326E0,1.2055064E-2,-1.6211153E0,-7.359128E-2,1.0883192E0,-6.512421E-1,2.6439875E-1,4.0757963E-1,1.1700363E0,5.623464E-2,7.8091687E-1,-1.8279845E-2,5.9023863E-1,-1.8025334E-1,5.6661807E-2,5.989372E-1,-0E0,4.4210342E-1,-5.7201248E-2,2.6453286E-1,5.8760226E-1,2.3871201E-1,-2.7896735E-1,5.2894145E-1,8.5402444E-2,-2.5578733E-3,7.393055E-1,8.1636584E-1,-0E0,-4.778236E-2,4.3680546E-1,6.9597495E-1,1.5414365E-1,-2.2379488E-2,2.7660617E-1,-9.2846654E-2,3.0723518E-1,6.4338076E-1,-1.3175325E-2,-5.5856656E-2,2.6602712E-1,-4.6670057E-2,2.2467671E-1,8.900455E-1,-0E0,2.4935913E-1,-1.495137E-1,1.5794158E-2,4.6656638E-1,-2.159252E-1,9.058817E-2,-0E0,2.861782E-1,-7.522935E-1,-2.832533E-1,3.124516E-1,-0E0,4.1634327E-1,2.9420203E-3,3.6909455E-1,2.1204759E-1,-5.2061263E-2,1.3974226E-1,-1.9512992E-2,6.218976E-1,-0E0,3.5584256E-1,8.854709E-1,5.067728E-1,2.268875E-2,3.221667E-1,6.720378E-1,1.7307708E-1,-3.780759E-1,5.2736336E-1,-1.17471784E-1,7.075158E-2,1.6782911E-1,1.0325599E0,2.67262E-1,-2.7480462E-1,1.20532945E-1,2.8220445E-1,1.1078649E-1,7.0572686E-1,-9.553279E-2,3.9031467E-1,1.04969755E-1,6.224643E-1,-1.089631E-1,4.355411E-1,-2.8015468E-1,1.6454405E-1,1.6495864E-3,5.451707E-1,2.7520198E-1,5.577532E-2,-0E0,5.597994E-1,-2.1028821E-1,-6.103175E-1,-2.2413836E-1,1.4097665E-1,3.5652918E-1,4.6071265E-2,-6.4044714E-2,-4.0399337E-1,5.489433E-2,5.01335E-1,3.065053E-1,7.136607E-2,9.16654E-2,5.308298E-1],"categories":[],"categories_nodes":[],"categories_segments":[],"categories_sizes":[],"default_left":[0,0,0,0,0,0,0,0,0,0,0,0,0,0,0,0,0,0,0,0,0,0,0,0,0,0,0,0,0,0,0,0,0,0,0,0,0,0,0,0,0,0,0,0,0,0,0,0,0,0,0,0,0,0,0,0,0,0,0,0,0,0,0,0,0,0,0,0,0,0,0,0,0,0,0,0,0,0,0,0,0,0,0,0,0,0,0,0,0,0,0,0,0,0,0,0,0,0,0,0,0,0,0,0,0,0,0,0,0,0,0,0,0,0,0,0,0,0,0,0,0,0,0,0,0,0,0,0,0,0,0,0,0,0,0,0,0,0,0,0,0,0,0,0,0,0,0,0,0,0,0,0,0,0,0,0,0,0,0,0,0,0,0,0,0,0,0,0,0,0,0,0,0,0,0,0,0,0,0,0,0,0,0,0,0,0,0,0,0,0,0,0,0,0,0,0,0,0,0,0,0,0,0,0,0,0,0,0,0,0,0,0,0,0,0,0,0,0,0,0,0,0,0],"id":6,"left_children":[1,3,5,7,9,11,13,15,17,19,21,23,25,27,29,31,33,35,37,-1,39,41,43,45,47,49,51,53,55,57,59,61,63,65,67,69,71,73,75,77,79,81,-1,83,85,87,89,91,93,95,97,99,101,103,105,107,109,111,113,115,117,119,121,123,125,127,129,131,133,135,137,139,141,143,145,147,149,151,153,155,-1,157,159,-1,-1,-1,161,163,165,167,169,171,173,-1,175,177,179,181,183,185,187,189,191,193,195,197,199,201,203,205,207,-1,209,211,213,215,217,219,221,-1,-1,-1,-1,-1,-1,-1,-1,-1,-1,-1,-1,-1,-1,-1,-1,-1,-1,-1,-1,-1,-1,-1,-1,-1,-1,-1,-1,-1,-1,-1,-1,-1,-1,-1,-1,-1,-1,-1,-1,-1,-1,-1,-1,-1,-1,-1,-1,-1,-1,-1,-1,-1,-1,-1,-1,-1,-1,-1,-1,-1,-1,-1,-1,-1,-1,-1,-1,-1,-1,-1,-1,-1,-1,-1,-1,-1,-1,-1,-1,-1,-1,-1,-1,-1,-1,-1,-1,-1,-1,-1,-1,-1,-1,-1,-1,-1,-1,-1,-1,-1,-1,-1,-1],"loss_changes":[2.318894E2,5.926175E1,1.4942822E2,6.641135E1,3.522936E1,1.2741919E2,2.0873718E2,7.18822E1,5.3780575E1,3.1506697E1,3.0814028E1,1.7450543E2,8.6391785E1,1.2055481E2,1.5397171E2,5.1400406E1,5.2150795E1,5.6613884E1,3.0956108E1,0E0,2.3692635E1,1.6999676E1,1.4814318E1,7.982843E1,9.2802795E1,6.37536E1,5.5190994E1,1.2488733E2,7.3359436E1,6.0889893E1,9.118784E1,4.60231E1,1.8409863E1,3.7611084E1,4.520119E1,4.012298E1,4.7945435E1,7.210127E1,2.4217924E1,2.7326038E1,1.4815422E1,1.2905561E1,0E0,3.9276123E-1,4.7653675E0,1.7036427E1,5.7122253E1,9.50668E1,6.015399E1,7.5974915E1,5.1392418E1,2.6477455E1,4.851648E1,7.106811E1,8.587927E1,5.966694E1,8.9721466E1,9.104837E0,5.370099E1,7.622014E1,5.2935257E1,4.947635E1,4.24826E1,5.052885E0,9.53108E0,2.4387669E1,2.6362656E1,1.8021646E1,3.7188248E1,3.5460052E1,1.3248722E1,2.8470833E1,6.5725784E1,3.292548E1,8.1015305E1,1.16493E1,2.1021103E1,1.7680735E1,7.0506344E0,7.1788673E0,0E0,7.370407E0,2.1767905E0,0E0,0E0,0E0,8.5566854E-1,2.746254E0,7.3901E-1,5.7857475E1,5.941107E1,1.0784979E2,4.9532402E1,0E0,6.899082E0,2.770459E1,1.787019E1,2.036573E1,3.0776493E1,5.291376E-1,1.410704E1,4.4767532E1,3.8010635E1,4.942885E1,5.2519897E1,7.5625244E1,9.695531E1,8.432991E1,2.0585175E1,2.5500107E1,7.506888E1,0E0,1.0090771E0,1.623097E1,4.8836914E1,4.2768803E1,2.6941957E1,5.685901E1,5.593863E1,0E0,0E0,0E0,0E0,0E0,0E0,0E0,0E0,0E0,0E0,0E0,0E0,0E0,0E0,0E0,0E0,0E0,0E0,0E0,0E0,0E0,0E0,0E0,0E0,0E0,0E0,0E0,0E0,0E0,0E0,0E0,0E0,0E0,0E0,0E0,0E0,0E0,0E0,0E0,0E0,0E0,0E0,0E0,0E0,0E0,0E0,0E0,0E0,0E0,0E0,0E0,0E0,0E0,0E0,0E0,0E0,0E0,0E0,0E0,0E0,0E0,0E0,0E0,0E0,0E0,0E0,0E0,0E0,0E0,0E0,0E0,0E0,0E0,0E0,0E0,0E0,0E0,0E0,0E0,0E0,0E0,0E0,0E0,0E0,0E0,0E0,0E0,0E0,0E0,0E0,0E0,0E0,0E0,0E0,0E0,0E0,0E0,0E0,0E0,0E0,0E0,0E0,0E0,0E0],"parents":[2147483647,0,0,1,1,2,2,3,3,4,4,5,5,6,6,7,7,8,8,9,9,10,10,11,11,12,12,13,13,14,14,15,15,16,16,17,17,18,18,20,20,21,21,22,22,23,23,24,24,25,25,26,26,27,27,28,28,29,29,30,30,31,31,32,32,33,33,34,34,35,35,36,36,37,37,38,38,39,39,40,40,41,41,43,43,44,44,45,45,46,46,47,47,48,48,49,49,50,50,51,51,52,52,53,53,54,54,55,55,56,56,57,57,58,58,59,59,60,60,61,61,62,62,63,63,64,64,65,65,66,66,67,67,68,68,69,69,70,70,71,71,72,72,73,73,74,74,75,75,76,76,77,77,78,78,79,79,81,81,82,82,86,86,87,87,88,88,89,89,90,90,91,91,92,92,94,94,95,95,96,96,97,97,98,98,99,99,100,100,101,101,102,102,103,103,104,104,105,105,106,106,107,107,108,108,109,109,110,110,112,112,113,113,114,114,115,115,116,116,117,117,118,118],"right_children":[2,4,6,8,10,12,14,16,18,20,22,24,26,28,30,32,34,36,38,-1,40,42,44,46,48,50,52,54,56,58,60,62,64,66,68,70,72,74,76,78,80,82,-1,84,86,88,90,92,94,96,98,100,102,104,106,108,110,112,114,116,118,120,122,124,126,128,130,132,134,136,138,140,142,144,146,148,150,152,154,156,-1,158,160,-1,-1,-1,162,164,166,168,170,172,174,-1,176,178,180,182,184,186,188,190,192,194,196,198,200,202,204,206,208,-1,210,212,214,216,218,220,222,-1,-1,-1,-1,-1,-1,-1,-1,-1,-1,-1,-1,-1,-1,-1,-1,-1,-1,-1,-1,-1,-1,-1,-1,-1,-1,-1,-1,-1,-1,-1,-1,-1,-1,-1,-1,-1,-1,-1,-1,-1,-1,-1,-1,-1,-1,-1,-1,-1,-1,-1,-1,-1,-1,-1,-1,-1,-1,-1,-1,-1,-1,-1,-1,-1,-1,-1,-1,-1,-1,-1,-1,-1,-1,-1,-1,-1,-1,-1,-1,-1,-1,-1,-1,-1,-1,-1,-1,-1,-1,-1,-1,-1,-1,-1,-1,-1,-1,-1,-1,-1,-1,-1,-1],"split_conditions":[-1.5289E1,1E0,-9.052725E1,-9.6383E1,1E0,-1.20925E1,-1.1787833E1,-1.484375E1,-1.4779285E1,-2.41875E1,-8.89125E1,-9.669783E1,-1.3763333E1,-8.2895836E1,-9.4918E1,-9.408867E1,2E0,-9.1008E1,-8.5625E1,9.090821E-1,-1.4392E1,-8.20375E1,-1.7436285E1,-1.12166664E2,-5.628125E1,-1.5102E1,-1.4746166E1,-9.436217E1,-8.2145836E1,-1.0522596E2,-1.1128285E1,-1.4125E1,-8.55E0,-1.036615E2,-1.03826E2,-7.796875E0,-1.6817833E1,-8.7221E1,-1.1380483E2,-9.21875E0,-6.496233E1,-1.5308666E1,8.642439E-1,4E0,-8.68125E1,-1.4607142E1,-1.45625E1,-8.0494E1,-1.1856667E1,-8.11535E1,-1.4946834E1,-9.777333E1,-9.3849E1,-1.6103E1,-8.8097664E1,-1.0761666E1,-8.2356E1,-1.05630165E2,-1.4634167E1,-8.404017E1,-1.0685166E1,-1.7875E1,-7.9125E1,-1.83375E1,-1.29375E1,-1.7520834E1,-1.5407333E1,-1.049375E2,-1.07625E2,8E0,-9.5151855E1,-1.5630333E1,-1.4407666E1,-1.2431E1,-9.8982E1,-1.4541667E1,1E0,-1.4889334E1,-8.5601425E1,-1.04645836E2,6.722454E-1,-1.8040285E1,-1.4128834E1,-0E0,-4.0176958E-1,-8.2951635E-2,-1.6600962E1,-8.2625E1,-1.3125E1,-1.0503571E2,-1.3026786E1,-9.896886E1,-6.266086E1,1.1000129E0,-1.7474428E1,-1.1040334E1,-1.6291666E1,-9.0041664E1,4E0,-2E1,-2.15605E1,-1.0019666E2,-1.69375E1,-9.8097664E1,-1.0848833E1,-9.56055E1,-8.3921715E1,-1.56171665E1,-9.0026E1,-7.5854E1,-7.85745E1,1.2055064E-2,-1.3962167E1,-1.3010417E1,-1.06875E1,-1.0818286E1,-6.5E0,-1.2087167E1,-8.870193E0,5.623464E-2,7.8091687E-1,-1.8279845E-2,5.9023863E-1,-1.8025334E-1,5.6661807E-2,5.989372E-1,-0E0,4.4210342E-1,-5.7201248E-2,2.6453286E-1,5.8760226E-1,2.3871201E-1,-2.7896735E-1,5.2894145E-1,8.5402444E-2,-2.5578733E-3,7.393055E-1,8.1636584E-1,-0E0,-4.778236E-2,4.3680546E-1,6.9597495E-1,1.5414365E-1,-2.2379488E-2,2.7660617E-1,-9.2846654E-2,3.0723518E-1,6.4338076E-1,-1.3175325E-2,-5.5856656E-2,2.6602712E-1,-4.6670057E-2,2.2467671E-1,8.900455E-1,-0E0,2.4935913E-1,-1.495137E-1,1.5794158E-2,4.6656638E-1,-2.159252E-1,9.058817E-2,-0E0,2.861782E-1,-7.522935E-1,-2.832533E-1,3.124516E-1,-0E0,4.1634327E-1,2.9420203E-3,3.6909455E-1,2.1204759E-1,-5.2061263E-2,1.3974226E-1,-1.9512992E-2,6.218976E-1,-0E0,3.5584256E-1,8.854709E-1,5.067728E-1,2.268875E-2,3.221667E-1,6.720378E-1,1.7307708E-1,-3.780759E-1,5.2736336E-1,-1.17471784E-1,7.075158E-2,1.6782911E-1,1.0325599E0,2.67262E-1,-2.7480462E-1,1.20532945E-1,2.8220445E-1,1.1078649E-1,7.0572686E-1,-9.553279E-2,3.9031467E-1,1.04969755E-1,6.224643E-1,-1.089631E-1,4.355411E-1,-2.8015468E-1,1.6454405E-1,1.6495864E-3,5.451707E-1,2.7520198E-1,5.577532E-2,-0E0,5.597994E-1,-2.1028821E-1,-6.103175E-1,-2.2413836E-1,1.4097665E-1,3.5652918E-1,4.6071265E-2,-6.4044714E-2,-4.0399337E-1,5.489433E-2,5.01335E-1,3.065053E-1,7.136607E-2,9.16654E-2,5.308298E-1],"split_indices":[317,305,14,62,308,319,29,313,45,11,106,318,173,76,286,14,103,142,94,0,319,10,301,250,312,63,317,172,280,184,109,233,41,30,156,41,317,14,110,281,12,127,0,295,250,235,185,206,253,252,79,76,252,175,206,301,30,268,141,268,205,111,264,187,281,303,223,232,58,311,284,239,63,79,300,283,129,319,284,200,0,47,303,0,0,0,283,40,283,216,41,124,28,0,127,317,123,296,7,283,175,110,203,110,317,78,172,253,12,252,140,0,317,137,301,237,201,237,313,0,0,0,0,0,0,0,0,0,0,0,0,0,0,0,0,0,0,0,0,0,0,0,0,0,0,0,0,0,0,0,0,0,0,0,0,0,0,0,0,0,0,0,0,0,0,0,0,0,0,0,0,0,0,0,0,0,0,0,0,0,0,0,0,0,0,0,0,0,0,0,0,0,0,0,0,0,0,0,0,0,0,0,0,0,0,0,0,0,0,0,0,0,0,0,0,0,0,0,0,0,0,0,0],"split_type":[0,0,0,0,0,0,0,0,0,0,0,0,0,0,0,0,0,0,0,0,0,0,0,0,0,0,0,0,0,0,0,0,0,0,0,0,0,0,0,0,0,0,0,0,0,0,0,0,0,0,0,0,0,0,0,0,0,0,0,0,0,0,0,0,0,0,0,0,0,0,0,0,0,0,0,0,0,0,0,0,0,0,0,0,0,0,0,0,0,0,0,0,0,0,0,0,0,0,0,0,0,0,0,0,0,0,0,0,0,0,0,0,0,0,0,0,0,0,0,0,0,0,0,0,0,0,0,0,0,0,0,0,0,0,0,0,0,0,0,0,0,0,0,0,0,0,0,0,0,0,0,0,0,0,0,0,0,0,0,0,0,0,0,0,0,0,0,0,0,0,0,0,0,0,0,0,0,0,0,0,0,0,0,0,0,0,0,0,0,0,0,0,0,0,0,0,0,0,0,0,0,0,0,0,0,0,0,0,0,0,0,0,0,0,0,0,0,0,0,0,0,0,0],"sum_hessian":[1.1467E4,2.639E3,8.828E3,2.229E3,4.1E2,5.702E3,3.126E3,7.93E2,1.436E3,3.57E2,5.3E1,4.776E3,9.26E2,1.49E3,1.636E3,1.45E2,6.48E2,3.12E2,1.124E3,2E0,3.55E2,3.2E1,2.1E1,1.624E3,3.152E3,3.13E2,6.13E2,6.44E2,8.46E2,5.85E2,1.051E3,1E2,4.5E1,1.84E2,4.64E2,1.76E2,1.36E2,6.89E2,4.35E2,1.56E2,1.99E2,2.7E1,5E0,8E0,1.3E1,1.4E1,1.61E3,3.105E3,4.7E1,2.5E2,6.3E1,1.8E1,5.95E2,1.55E2,4.89E2,4.39E2,4.07E2,1.3E1,5.72E2,3.88E2,6.63E2,5.9E1,4.1E1,3.4E1,1.1E1,5.2E1,1.32E2,4.6E1,4.18E2,1.67E2,9E0,5.2E1,8.4E1,4.52E2,2.37E2,9E0,4.26E2,1.52E2,4E0,1.98E2,1E0,2.1E1,6E0,1E0,7E0,5E0,8E0,1.2E1,2E0,2.13E2,1.397E3,2.399E3,7.06E2,1.1E1,3.6E1,1.75E2,7.5E1,4E1,2.3E1,4E0,1.4E1,5.8E1,5.37E2,5.3E1,1.02E2,3.32E2,1.57E2,3.89E2,5E1,2.18E2,1.89E2,4E0,9E0,4.2E1,5.3E2,1.43E2,2.45E2,5.53E2,1.1E2,1.1E1,4.8E1,2.5E1,1.6E1,1.1E1,2.3E1,7E0,4E0,1E1,4.2E1,1E2,3.2E1,6E0,4E1,1.7E1,4.01E2,1.62E2,5E0,7E0,2E0,3.8E1,1.4E1,4.6E1,3.8E1,4.17E2,3.5E1,6E1,1.77E2,6E0,3E0,4.08E2,1.8E1,1.27E2,2.5E1,3E0,1E0,3E0,1.95E2,5E0,1.6E1,4E0,2E0,1E0,7E0,7E0,5E0,1E0,1E0,3.6E1,1.77E2,2.76E2,1.121E3,3E2,2.099E3,6.96E2,1E1,6E0,3E1,2.3E1,1.52E2,3.3E1,4.2E1,1E1,3E1,2E1,3E0,1E0,3E0,3E0,1.1E1,2E1,3.8E1,2.69E2,2.68E2,2.3E1,3E1,7.6E1,2.6E1,2.9E1,3.03E2,3.8E1,1.19E2,4.2E1,3.47E2,8E0,4.2E1,1.43E2,7.5E1,2.5E1,1.64E2,4E0,5E0,1.9E1,2.3E1,4.78E2,5.2E1,8.9E1,5.4E1,2.33E2,1.2E1,1.18E2,4.35E2,4.6E1,6.4E1],"tree_param":{"num_deleted":"0","num_feature":"320","num_nodes":"223","size_leaf_vector":"0"}},{"base_weights":[3.7712967E-1,5.0417346E-1,3.1740147E-1,3.014793E-1,6.240836E-1,6.3021296E-1,2.650505E-1,6.5890044E-1,6.755977E-2,1.3649902E-1,6.947055E-1,8.6952937E-1,2.4467838E-1,2.1720524E-1,5.7009757E-1,2.6463747E-1,1.0982717E0,3.371757E-2,1.6486461E0,-3.7414905E-1,4.437533E-1,3.4244308E-1,7.9279274E-1,1.3735394E0,6.978951E-1,-3.861896E-2,7.074571E-1,1.6161267E-1,5.758024E-1,1.2356302E0,4.6418366E-1,9.9110514E-1,2.676939E-2,1.2964842E0,-5.300324E-1,4.6974933E-1,-8.01597E-2,-1.283162E-1,2.1598475E0,1.8403398E0,-5.018898E-1,-1.5333311E-3,1.1433871E0,1.4832482E0,2.600989E-1,8.535415E-1,1.9184521E-1,-5.342882E-1,1.4969294E0,2.4300165E0,6.543637E-1,-4.159714E-1,4.44448E-1,8.075061E-1,-7.1208805E-1,3.8324606E-1,7.99146E-2,-1.4247714E-1,7.149215E-1,1.5328258E0,4.899098E-1,-3.3216676E-1,5.47234E-1,1.1592652E-1,1.670967E0,2.7143756E-1,-5.676804E-1,8.2127714E-1,1.8458035E0,3.4024012E-1,-1.1425757E0,1.6692921E0,2.0577767E-1,2.3834977E0,-1.0398695E-1,7.1301675E-1,1.21719696E-1,3.4739614E-2,6.186265E-1,-7.9523855E-1,3.153633E-1,2.647655E-1,-6.4277965E-1,3.6303976E-1,2.0918512E0,1.8793248E0,-2.6493287E-1,-2.591356E-2,5.8420527E-1,-0E0,8.8679135E-1,-5.758847E-1,2.9961938E-1,-3.02139E-1,1.2599027E-1,-1.0331041E0,1.6033837E0,8.5438824E-1,1.3095057E0,7.6887786E-1,1.4017019E-1,-8.1759256E-1,2.5192302E-1,9.50317E-1,-1.7490926E-1,1.1097447E0,3.453877E-1,-2.5885567E-1,4.433298E-2,5.5830485E-1,3.8485743E-2,-3.6174694E-1,1.2026237E-1,-5.1368994E-1,2.929739E-1,8.587102E-1,1.403663E-1,1.7497252E0,6.937268E-1,7.6635396E-1,-3.9973354E-1,-1.070486E0,1.8419825E-1,1.004811E0,4.0703723E-1,5.652573E-1,-5.5835426E-2,1.4357103E-1,7.3737425E-1,-1.4728511E-2,2.5926232E-1,-2.2887956E-1,5.249467E-1,-3.2475355E-1,3.0064735E-1,7.0324045E-1,2.2085279E-1,3.0628204E-1,-6.611824E-2,8.705974E-2,-4.158877E-1,7.654267E-1,1.7512016E-1,7.7605027E-1,2.2838142E-2,8.375123E-1,-0E0,-3.6064756E-1,-1.636539E-2,-1.1401037E-1,-4.6407565E-1,1.0602591E-2,5.584967E-1,-0E0,3.2793486E-1,-6.6673666E-1,-3.9720695E-2,2.9735005E-1,-1.9473198E-1,8.819946E-1,4.7990113E-2,1.607169E-2,6.3413584E-1,3.1122652E-1,-2.4986644E-1,-6.8322085E-2,2.5310078E-1,3.5070503E-1,6.527747E-2,2.0781551E-1,-1.5231653E-1,2.0768489E-1,3.2137814E-1,2.3136343E-1,1.9517314E-3,-5.688798E-1,-6.2575825E-2,5.289706E-1,7.297123E-2,4.165454E-1,-0E0,5.354942E-1,2.0579237E-1,-1.3986894E-1,1.4062056E-1,-3.343724E-1,-4.5715567E-2,3.8685656E-1,-1.7501207E-1,4.346152E-1,2.2478437E-2,-2.9154813E-1,2.6551893E-1,-8.106415E-2,3.919966E-1,2.5632704E-2,3.6401376E-1,1.2182448E-1,4.6805337E-1,1.5037258E-1,-6.422207E-2,6.2755454E-1,-1.2835722E-1,7.593233E-2,-6.073853E-3,-2.3133898E-1,2.629654E-2,-6.783308E-2,1.8216416E-1,6.243281E-4,2.973427E-1,1.8435318E-2,7.575875E-1,5.7730675E-1,4.1085597E-2,-3.4446657E-2,3.252491E-1,4.5977905E-1,1.1329847E-1,-3.0988646E-1,1.7108679E-3,2.930267E-2,-3.95436E-1,2.4172525E-1,-2.7678844E-1,4.1281018E-1,1.3834149E-1,6.278278E-2,2.2531064E-1],"categories":[],"categories_nodes":[],"categories_segments":[],"categories_sizes":[],"default_left":[0,0,0,0,0,0,0,0,0,0,0,0,0,0,0,0,0,0,0,0,0,0,0,0,0,0,0,0,0,0,0,0,0,0,0,0,0,0,0,0,0,0,0,0,0,0,0,0,0,0,0,0,0,0,0,0,0,0,0,0,0,0,0,0,0,0,0,0,0,0,0,0,0,0,0,0,0,0,0,0,0,0,0,0,0,0,0,0,0,0,0,0,0,0,0,0,0,0,0,0,0,0,0,0,0,0,0,0,0,0,0,0,0,0,0,0,0,0,0,0,0,0,0,0,0,0,0,0,0,0,0,0,0,0,0,0,0,0,0,0,0,0,0,0,0,0,0,0,0,0,0,0,0,0,0,0,0,0,0,0,0,0,0,0,0,0,0,0,0,0,0,0,0,0,0,0,0,0,0,0,0,0,0,0,0,0,0,0,0,0,0,0,0,0,0,0,0,0,0,0,0,0,0,0,0,0,0,0,0,0,0,0,0,0,0,0,0,0,0,0,0,0,0,0,0,0,0,0,0],"id":7,"left_children":[1,3,5,7,9,11,13,15,17,19,21,23,25,27,29,31,33,35,37,39,41,43,45,47,49,51,53,55,57,59,61,63,65,67,69,71,73,-1,75,77,79,81,83,85,87,89,91,93,95,97,99,101,103,105,107,109,111,113,115,117,119,121,123,125,127,129,131,133,135,137,139,141,143,145,147,-1,-1,-1,-1,149,151,153,155,157,159,161,163,165,167,169,171,-1,173,-1,-1,175,177,179,-1,181,183,185,187,189,191,193,195,-1,-1,197,199,201,203,205,207,209,211,213,215,217,219,221,223,225,227,-1,-1,-1,-1,-1,-1,-1,-1,-1,-1,-1,-1,-1,-1,-1,-1,-1,-1,-1,-1,-1,-1,-1,-1,-1,-1,-1,-1,-1,-1,-1,-1,-1,-1,-1,-1,-1,-1,-1,-1,-1,-1,-1,-1,-1,-1,-1,-1,-1,-1,-1,-1,-1,-1,-1,-1,-1,-1,-1,-1,-1,-1,-1,-1,-1,-1,-1,-1,-1,-1,-1,-1,-1,-1,-1,-1,-1,-1,-1,-1,-1,-1,-1,-1,-1,-1,-1,-1,-1,-1,-1,-1,-1,-1,-1,-1,-1,-1,-1,-1,-1,-1,-1,-1],"loss_changes":[8.6449585E1,8.83786E1,1.2721625E2,1.1371688E2,7.865375E1,1.0228989E2,9.712344E1,9.2397705E1,4.3353886E1,4.6172176E1,6.850769E1,5.7521362E1,5.6736446E1,1.14884094E2,6.2369263E1,4.888633E1,8.304895E1,4.050193E1,1.9834393E1,3.1371286E1,5.7895596E1,4.0075535E1,5.6556213E1,4.20065E1,3.577498E1,4.8841137E1,2.3914665E1,9.049017E1,7.7831055E1,2.5497559E1,5.2074722E1,4.056289E1,3.156709E1,5.640674E1,1.571615E1,5.2232025E1,3.6853596E1,0E0,2.970398E0,9.667549E-1,2.5663443E1,1.9655428E1,5.1302597E1,2.1385082E1,3.8486057E1,4.066394E1,3.2989048E1,5.6798763E0,4.5842834E1,3.024701E1,2.9173325E1,4.0993126E1,3.7211617E1,2.0398323E1,1.9110508E0,8.103641E1,6.5233284E1,2.0628126E1,5.3079407E1,1.3398453E1,9.589304E0,2.8852242E1,4.4432175E1,1.829075E1,3.395125E1,2.9900318E1,2.9348778E1,4.3745155E1,5.4242218E1,5.2047663E0,6.8865967E0,2.5671173E1,4.169034E1,4.8817863E0,3.3942333E1,0E0,0E0,0E0,0E0,2.2792488E1,1.1109562E1,1.7095097E1,2.5940157E1,2.6880417E1,5.0411423E1,9.076721E0,5.1998644E0,3.8319775E1,4.0645905E1,1.9285753E1,4.7533325E1,0E0,1.8958328E1,0E0,0E0,3.533887E0,3.2703094E1,3.7996135E0,0E0,3.224623E1,1.894852E1,1.7964363E1,5.050741E1,2.7488739E1,4.5673183E1,2.5870316E1,1.346163E1,0E0,0E0,1.3457324E2,5.354515E1,4.9698727E1,6.2839024E1,1.1091236E1,9.788632E0,5.8379364E1,2.3394764E1,1.78573E1,6.922904E0,7.103218E0,2.8300953E0,9.706547E0,3.0954802E1,3.1747803E1,3.6506805E1,0E0,0E0,0E0,0E0,0E0,0E0,0E0,0E0,0E0,0E0,0E0,0E0,0E0,0E0,0E0,0E0,0E0,0E0,0E0,0E0,0E0,0E0,0E0,0E0,0E0,0E0,0E0,0E0,0E0,0E0,0E0,0E0,0E0,0E0,0E0,0E0,0E0,0E0,0E0,0E0,0E0,0E0,0E0,0E0,0E0,0E0,0E0,0E0,0E0,0E0,0E0,0E0,0E0,0E0,0E0,0E0,0E0,0E0,0E0,0E0,0E0,0E0,0E0,0E0,0E0,0E0,0E0,0E0,0E0,0E0,0E0,0E0,0E0,0E0,0E0,0E0,0E0,0E0,0E0,0E0,0E0,0E0,0E0,0E0,0E0,0E0,0E0,0E0,0E0,0E0,0E0,0E0,0E0,0E0,0E0,0E0,0E0,0E0,0E0,0E0,0E0,0E0,0E0,0E0],"parents":[2147483647,0,0,1,1,2,2,3,3,4,4,5,5,6,6,7,7,8,8,9,9,10,10,11,11,12,12,13,13,14,14,15,15,16,16,17,17,18,18,19,19,20,20,21,21,22,22,23,23,24,24,25,25,26,26,27,27,28,28,29,29,30,30,31,31,32,32,33,33,34,34,35,35,36,36,38,38,39,39,40,40,41,41,42,42,43,43,44,44,45,45,46,46,47,47,48,48,49,49,50,50,51,51,52,52,53,53,54,54,55,55,56,56,57,57,58,58,59,59,60,60,61,61,62,62,63,63,64,64,65,65,66,66,67,67,68,68,69,69,70,70,71,71,72,72,73,73,74,74,79,79,80,80,81,81,82,82,83,83,84,84,85,85,86,86,87,87,88,88,89,89,90,90,92,92,95,95,96,96,97,97,99,99,100,100,101,101,102,102,103,103,104,104,105,105,106,106,109,109,110,110,111,111,112,112,113,113,114,114,115,115,116,116,117,117,118,118,119,119,120,120,121,121,122,122,123,123,124,124],"right_children":[2,4,6,8,10,12,14,16,18,20,22,24,26,28,30,32,34,36,38,40,42,44,46,48,50,52,54,56,58,60,62,64,66,68,70,72,74,-1,76,78,80,82,84,86,88,90,92,94,96,98,100,102,104,106,108,110,112,114,116,118,120,122,124,126,128,130,132,134,136,138,140,142,144,146,148,-1,-1,-1,-1,150,152,154,156,158,160,162,164,166,168,170,172,-1,174,-1,-1,176,178,180,-1,182,184,186,188,190,192,194,196,-1,-1,198,200,202,204,206,208,210,212,214,216,218,220,222,224,226,228,-1,-1,-1,-1,-1,-1,-1,-1,-1,-1,-1,-1,-1,-1,-1,-1,-1,-1,-1,-1,-1,-1,-1,-1,-1,-1,-1,-1,-1,-1,-1,-1,-1,-1,-1,-1,-1,-1,-1,-1,-1,-1,-1,-1,-1,-1,-1,-1,-1,-1,-1,-1,-1,-1,-1,-1,-1,-1,-1,-1,-1,-1,-1,-1,-1,-1,-1,-1,-1,-1,-1,-1,-1,-1,-1,-1,-1,-1,-1,-1,-1,-1,-1,-1,-1,-1,-1,-1,-1,-1,-1,-1,-1,-1,-1,-1,-1,-1,-1,-1,-1,-1,-1,-1],"split_conditions":[-9.607833E1,-9.820657E1,-1.5895143E1,-9.7461E1,-9.853267E1,-1.44375E1,-1.1203E1,-1.00770836E2,-1.0466333E1,-1.6736666E1,-1.9234375E1,-9.11625E1,-8.978125E1,-6.95E1,-1.6078E1,-1.44625E1,-9.0112E1,-9.98685E1,-1.4920667E1,-1.07375E2,-1.6019E1,-1.335E1,-1.0606667E1,-9.89375E1,-1.06770836E2,-1.3724428E1,1E0,-1.278125E1,-1.30952E1,-8.4875E1,-9.478125E1,-1.5125E1,3E0,