{"learner":{"attributes":{"best_iteration":"29","best_score":"0.000115111527373"},"feature_names":[],"feature_types":[],"gradient_booster":{"model":{"gbtree_model_param":{"num_parallel_tree":"1","num_trees":"60"},"iteration_indptr":[0,1,2,3,4,5,6,7,8,9,10,11,12,13,14,15,16,17,18,19,20,21,22,23,24,25,26,27,28,29,30,31,32,33,34,35,36,37,38,39,40,41,42,43,44,45,46,47,48,49,50,51,52,53,54,55,56,57,58,59,60],"tree_info":[0,0,0,0,0,0,0,0,0,0,0,0,0,0,0,0,0,0,0,0,0,0,0,0,0,0,0,0,0,0,0,0,0,0,0,0,0,0,0,0,0,0,0,0,0,0,0,0,0,0,0,0,0,0,0,0,0,0,0,0],"trees":[{"base_weights":[-1.123748E0,6.605807E-1,-1.1315806E0,1.4506432E0,-6.1712575E-1,-9.215865E-1,-1.1340766E0,3.0253506E0,6.167417E-3,-1.0216984E0,-1.0579634E-1,-9.3291575E-1,6.4122385E-1,-1.0756654E0,-1.1348501E0,3.4016342E0,-5.433637E-2,-5.1394814E-1,1.1284792E0,-2.4004225E-1,-1.0399983E0,1.1442037E0,-5.122729E-1,-8.5185283E-1,-1.0797073E0,1.1572931E0,-4.8576307E-1,-1.0810835E0,-5.0917375E-1,-1.1034552E0,-5.675407E-2,1.6889385E0,4.0242076E0,-9.761359E-2,-6.7748624E-1,3.227271E0,2.8556547E-1,4.0842277E-1,-4.0068444E-2,-1.0711455E0,-6.879994E-1,1.5696679E0,-4.8625585E-2,-9.559114E-3,-1.0142133E0,-5.012556E-1,-9.37188E-1,-1.0860741E0,-5.4901147E-1,-8.475676E-2,2.2141712E0,-4.6034392E-2,4.3633144E-2,-1.085209E0,-5.1706284E-1,-6.6473067E-1,6.1868053E-2,-5.5236217E-2,-2.9498982E-1,2.349152E0,5.5544615E-1,4.2419147E0,-4.9875673E-2,1.4381588E0,-3.175185E-1,4.5678574E-1,-7.0361674E-1,3.60246E0,1.612228E-1,-7.194812E-2,1.5544759E0,4.3633144E-2,-9.425892E-3,-1.0815866E0,-4.7988874E-1,-9.6564883E-1,-5.1108718E-2,-6.732123E-1,2.0880184E0,6.1793786E-1,-4.905507E-1,-1.0467038E0,1.9291379E-2,-9.7856194E-2,-9.8468935E-1,-9.483156E-1,2.9561028E-1,-1.0931286E0,-8.160174E-1,-8.133307E-1,3.6088175E-1,6.797491E-2,-5.882697E-1,2.8632052E0,-1.1532716E-2,-1.0903617E0,-6.262782E-1,1.6368542E0,-1.015915E0,-9.911186E-1,-2.0428687E-1,-3.5472587E-2,1.9291379E-2,2.5713232E0,-4.0568147E-2,1.3877009E0,-9.746342E-2,2.548829E0,4.6990614E0,2.4747708E0,3.501948E-1,-4.5597163E-1,6.759692E-1,7.242263E-2,-3.3656318E-2,-7.723E-1,-1.9842793E-1,3.9049892E0,4.5908254E-1,5.63607E-2,-3.5472587E-2,1.1183307E0,-2.890907E-1,2.051102E0,-3.398614E-1,-1.0870793E0,-1.5230134E-2,-4.0568147E-2,1.2208625E-2,-4.5635514E-3,-5.183676E-2,6.205108E-1,-4.0568147E-2,1.9291379E-2,-4.6824858E-2,2.5676532E0,-6.783914E-1,1.2104753E0,-4.9302366E-2,-8.655473E-1,-2.1704135E-2,-1.0624477E0,-9.425892E-3,-7.843758E-1,2.5277907E-1,-1.0631796E0,-7.8079975E-1,-9.560113E-1,2.0965034E-1,9.607463E-1,-4.4850808E-2,-5.075237E-1,-1.0953715E0,-9.8413885E-1,-6.5928526E-2,-8.8921964E-1,-4.5635514E-3,6.797491E-2,-3.2627027E-2,-4.4582166E-2,1.9291379E-2,1.557714E-2,3.4662347E0,-1.0694251E0,-5.64589E-2,-7.379942E-1,6.188435E-2,1.709003E-2,1.19982265E-1,-4.5635514E-3,-5.339336E-2,-5.236373E-2,-1.9767394E-2,-4.766345E-2,5.265381E-1,-2.3411697E-2,1.3818222E-1,1.3601685E-2,1.1751693E-1,-4.6638325E-2,1.711393E-2,1.381654E-1,4.775848E-3,2.3954959E-1,-1.0866167E-2,3.4284662E-2,1.5679987E-1,-3.702455E-2,6.617324E-2,-2.8320445E-2,1.7212933E-2,1.1665844E-1,-2.2960794E-3,-4.0191937E-2,1.497095E-2,-1.8187193E-2,5.63607E-2,2.1064973E-1,8.9743994E-2,6.797491E-2,-3.0266995E-2,-1.9317834E-3,1.0093522E-1,5.5280495E-3,-3.781277E-2,1.3255514E-1,8.06114E-3,-3.702455E-2,1.9291379E-2,-5.462692E-2,-2.2279322E-2,6.797491E-2,-4.4160853E-3,1.5350881E-1,-2.964671E-2,-4.1038867E-2,-4.5635514E-3,4.9625E-3,1.22804426E-1,1.9291379E-2,-4.804868E-2,9.000556E-2,-2.1016024E-2,-5.3934764E-2,-1.3460137E-2,-4.1470416E-2,3.0234015E-2,-2.2276944E-2,2.8994923E-2,-5.4600805E-2,-1.4496313E-2,2.8407176E-3,-4.9302366E-2,-4.3334924E-2,-5.3054955E-2,4.686105E-2,-4.303485E-2,-1.699307E-2,8.818542E-2,1.9291379E-2,-4.2300355E-2,-5.5366613E-2,-4.8526023E-2,-5.134327E-2,-4.5635514E-3,3.851313E-2,-4.0568147E-2,-4.9197458E-2,-7.1133906E-3,4.3633144E-2,2.0119946E-1,-3.2219987E-2,-5.3672533E-2,-4.8346262E-2,-1.7510096E-2,-3.8970698E-2,6.741496E-2],"categories":[],"categories_nodes":[],"categories_segments":[],"categories_sizes":[],"default_left":[0,0,0,0,0,0,0,0,0,0,0,0,0,0,0,0,0,0,0,0,0,0,0,0,0,0,0,0,0,0,0,0,0,0,0,0,0,0,0,0,0,0,0,0,0,0,0,0,0,0,0,0,0,0,0,0,0,0,0,0,0,0,0,0,0,0,0,0,0,0,0,0,0,0,0,0,0,0,0,0,0,0,0,0,0,0,0,0,0,0,0,0,0,0,0,0,0,0,0,0,0,0,0,0,0,0,0,0,0,0,0,0,0,0,0,0,0,0,0,0,0,0,0,0,0,0,0,0,0,0,0,0,0,0,0,0,0,0,0,0,0,0,0,0,0,0,0,0,0,0,0,0,0,0,0,0,0,0,0,0,0,0,0,0,0,0,0,0,0,0,0,0,0,0,0,0,0,0,0,0,0,0,0,0,0,0,0,0,0,0,0,0,0,0,0,0,0,0,0,0,0,0,0,0,0,0,0,0,0,0,0,0,0,0,0,0,0,0,0,0,0,0,0,0,0,0,0,0,0,0,0,0,0,0,0,0,0,0,0,0,0,0,0,0,0,0,0,0,0,0,0,0,0,0,0,0,0],"id":0,"left_children":[1,3,5,7,9,11,13,15,17,19,21,23,25,27,29,31,-1,33,35,37,39,41,43,45,47,49,51,53,55,57,-1,59,61,63,65,67,69,71,-1,73,75,77,-1,79,81,83,85,87,89,91,93,-1,-1,95,97,99,-1,-1,101,103,105,107,-1,109,111,113,115,117,119,121,123,-1,-1,125,127,129,131,133,135,137,139,141,-1,143,145,147,149,151,153,155,157,-1,159,161,-1,163,165,167,169,171,173,-1,-1,175,-1,177,179,181,183,185,187,189,191,-1,-1,193,195,197,199,-1,-1,201,203,205,207,209,-1,-1,-1,-1,-1,211,-1,-1,-1,213,215,217,-1,219,221,223,-1,225,227,229,231,233,235,237,-1,239,241,243,245,247,-1,-1,-1,-1,-1,-1,249,251,-1,253,-1,-1,-1,-1,-1,-1,-1,-1,255,-1,-1,-1,-1,-1,-1,-1,-1,-1,-1,-1,-1,-1,-1,-1,-1,-1,-1,-1,-1,-1,-1,-1,-1,-1,-1,-1,-1,-1,-1,-1,-1,-1,-1,-1,-1,-1,-1,-1,-1,-1,-1,-1,-1,-1,-1,-1,-1,-1,-1,-1,-1,-1,-1,-1,-1,-1,-1,-1,-1,-1,-1,-1,-1,-1,-1,-1,-1,-1,-1,-1,-1,-1,-1,-1,-1,-1,-1,-1,-1,-1,-1],"loss_changes":[2.8984375E3,9.162622E2,1.0715625E2,1.2751353E3,7.169777E1,4.3627686E1,7.9375E0,4.187234E2,1.7185457E2,2.5080872E0,7.906763E1,2.7774414E1,1.1082029E1,7.67749E0,2.1875E-1,2.5541748E2,0E0,1.3623112E1,1.6398051E2,2.4218183E0,1.3169861E0,3.5943115E1,2.9569906E1,4.616919E1,2.2753296E0,1.6880611E1,4.5708494E0,5.61084E0,8.24795E0,1.2076416E0,0E0,4.9031235E1,2.006875E2,2.0006563E1,4.5992966E0,2.9997131E1,3.0801773E1,1.0911226E0,0E0,5.256958E-1,3.1555662E0,3.885647E1,0E0,1.8292488E1,3.078701E0,5.9845276E1,1.747461E1,6.958618E-1,3.225742E0,5.7351556E0,1.1640026E1,0E0,0E0,5.5410156E0,2.4477053E1,3.658516E0,0E0,0E0,1.3324625E0,3.1745987E1,1.4323587E1,1.2138135E2,0E0,7.48452E0,7.3886266E0,5.2922E0,4.7434845E0,2.0666107E1,4.1272883E0,1.4195392E1,1.474485E1,0E0,0E0,3.7179565E-1,1.3545486E0,6.769495E-1,3.8685162E0,2.262162E0,3.6794563E1,2.6189999E1,6.0044117E0,5.655098E-1,0E0,4.0813816E1,1.3873749E0,1.1275513E1,1.035177E1,5.037842E-1,3.1346092E0,4.4323874E-1,4.359749E0,0E0,2.0463338E0,7.395439E0,0E0,8.901367E-1,7.503998E0,3.4723415E0,7.491436E-1,6.696987E-2,7.0541496E0,0E0,0E0,2.4515594E1,0E0,1.1729057E1,6.0356207E0,2.0145264E1,6.189966E1,2.1118488E0,6.075567E0,4.244666E0,8.135825E0,0E0,0E0,4.4409637E0,4.4099646E0,6.3184814E0,3.9104617E0,0E0,0E0,8.935582E0,8.719518E0,1.3109043E1,1.4380579E0,8.0459595E-2,0E0,0E0,0E0,0E0,0E0,2.2578316E0,0E0,0E0,0E0,3.7921234E1,3.079803E-1,2.6939423E1,0E0,2.6483507E0,1.2568499E1,4.2225266E-1,0E0,4.0872955E0,2.59394E1,1.856575E0,7.3952637E0,1.0642822E1,7.824797E0,9.143563E0,0E0,1.8446048E0,1.217041E-1,6.85215E-1,4.2053647E0,4.6398258E-1,0E0,0E0,0E0,0E0,0E0,0E0,2.765419E0,2.2230225E0,0E0,2.3571987E0,0E0,0E0,0E0,0E0,0E0,0E0,0E0,0E0,8.238347E0,0E0,0E0,0E0,0E0,0E0,0E0,0E0,0E0,0E0,0E0,0E0,0E0,0E0,0E0,0E0,0E0,0E0,0E0,0E0,0E0,0E0,0E0,0E0,0E0,0E0,0E0,0E0,0E0,0E0,0E0,0E0,0E0,0E0,0E0,0E0,0E0,0E0,0E0,0E0,0E0,0E0,0E0,0E0,0E0,0E0,0E0,0E0,0E0,0E0,0E0,0E0,0E0,0E0,0E0,0E0,0E0,0E0,0E0,0E0,0E0,0E0,0E0,0E0,0E0,0E0,0E0,0E0,0E0,0E0,0E0,0E0,0E0,0E0,0E0,0E0,0E0,0E0,0E0,0E0,0E0,0E0,0E0],"parents":[2147483647,0,0,1,1,2,2,3,3,4,4,5,5,6,6,7,7,8,8,9,9,10,10,11,11,12,12,13,13,14,14,15,15,17,17,18,18,19,19,20,20,21,21,22,22,23,23,24,24,25,25,26,26,27,27,28,28,29,29,31,31,32,32,33,33,34,34,35,35,36,36,37,37,39,39,40,40,41,41,43,43,44,44,45,45,46,46,47,47,48,48,49,49,50,50,53,53,54,54,55,55,58,58,59,59,60,60,61,61,63,63,64,64,65,65,66,66,67,67,68,68,69,69,70,70,73,73,74,74,75,75,76,76,77,77,78,78,79,79,80,80,81,81,83,83,84,84,85,85,86,86,87,87,88,88,89,89,90,90,92,92,93,93,95,95,96,96,97,97,98,98,99,99,100,100,103,103,105,105,106,106,107,107,108,108,109,109,110,110,111,111,112,112,115,115,116,116,117,117,118,118,121,121,122,122,123,123,124,124,125,125,131,131,135,135,136,136,137,137,139,139,140,140,141,141,143,143,144,144,145,145,146,146,147,147,148,148,149,149,151,151,152,152,153,153,154,154,155,155,162,162,163,163,165,165,174,174],"right_children":[2,4,6,8,10,12,14,16,18,20,22,24,26,28,30,32,-1,34,36,38,40,42,44,46,48,50,52,54,56,58,-1,60,62,64,66,68,70,72,-1,74,76,78,-1,80,82,84,86,88,90,92,94,-1,-1,96,98,100,-1,-1,102,104,106,108,-1,110,112,114,116,118,120,122,124,-1,-1,126,128,130,132,134,136,138,140,142,-1,144,146,148,150,152,154,156,158,-1,160,162,-1,164,166,168,170,172,174,-1,-1,176,-1,178,180,182,184,186,188,190,192,-1,-1,194,196,198,200,-1,-1,202,204,206,208,210,-1,-1,-1,-1,-1,212,-1,-1,-1,214,216,218,-1,220,222,224,-1,226,228,230,232,234,236,238,-1,240,242,244,246,248,-1,-1,-1,-1,-1,-1,250,252,-1,254,-1,-1,-1,-1,-1,-1,-1,-1,256,-1,-1,-1,-1,-1,-1,-1,-1,-1,-1,-1,-1,-1,-1,-1,-1,-1,-1,-1,-1,-1,-1,-1,-1,-1,-1,-1,-1,-1,-1,-1,-1,-1,-1,-1,-1,-1,-1,-1,-1,-1,-1,-1,-1,-1,-1,-1,-1,-1,-1,-1,-1,-1,-1,-1,-1,-1,-1,-1,-1,-1,-1,-1,-1,-1,-1,-1,-1,-1,-1,-1,-1,-1,-1,-1,-1,-1,-1,-1,-1,-1,-1],"split_conditions":[-2.30625E1,1E0,-1.8145834E1,1E0,-6.31915E1,1E0,-1.6625E1,1E0,-1.0453E1,-1.09688E2,-1.2297E1,1E0,-9.29375E1,1E0,-1.675E1,-6.31915E1,-5.433637E-2,-2.30625E1,-1.1133E1,-2.0291666E1,1E0,1E0,-9.6125E1,-2.0291666E1,1E0,-1.0178125E2,-7.99375E1,-7.05E1,-1.4916667E1,8E0,-5.675407E-2,-2.30625E1,1E0,-9.9609E1,-2.5035E1,3E0,4E0,-1.068125E2,-4.0068444E-2,7E0,-1.275E1,-8.1547E1,-4.8625585E-2,1E0,1E0,1E0,1E0,1E0,-6.31915E1,-1.5867E1,-1.49375E1,-4.6034392E-2,4.3633144E-2,1E0,-7.86875E1,-6.31915E1,6.1868053E-2,-5.5236217E-2,-1.7125E1,1E0,-9.8875E1,-1.665625E1,-4.9875673E-2,3E0,1E0,-9.6390625E1,1E0,-2.30625E1,-2.30625E1,-1.04725E1,-2.30625E1,4.3633144E-2,-9.425892E-3,7E0,-9.3727E1,-8.582E1,-9.36875E1,-9.5055E1,1E0,1E0,-9.03125E1,1E0,1.9291379E-2,-6.31915E1,-1.04925E1,1E0,-9.56875E1,-1.29742E2,4E0,-1.43125E1,-1.59375E1,6.797491E-2,5E0,-9.0633E1,-1.1532716E-2,-9.121875E1,-1.50625E1,-6.78125E1,-2.025E1,1E0,-6.957E1,-3.5472587E-2,1.9291379E-2,-1.8125E1,-4.0568147E-2,-1.4047E1,-1.60625E1,-2.0291666E1,1E0,-2.0719E1,-1.7008E1,-7.59375E1,-1.113125E2,7.242263E-2,-3.3656318E-2,7E0,-1.44375E1,-9.55E1,-8.7422E1,5.63607E-2,-3.5472587E-2,2E0,-9.85E1,-1.228125E1,-9.19375E1,1E0,-1.5230134E-2,-4.0568147E-2,1.2208625E-2,-4.5635514E-3,-5.183676E-2,-1.1945E1,-4.0568147E-2,1.9291379E-2,-4.6824858E-2,-9.1625E1,-1.89375E1,-9.34375E1,-4.9302366E-2,-1.7953E1,-8.86875E1,-7.4125E1,-9.425892E-3,1E0,-7.6398E1,-1.89375E1,-1.34925E1,1E0,-1.63125E1,-1.734375E1,-4.4850808E-2,-9.8E1,1E0,-1.40625E1,-1.63125E1,6E0,-4.5635514E-3,6.797491E-2,-3.2627027E-2,-4.4582166E-2,1.9291379E-2,1.557714E-2,-2.0291666E1,-2.04375E1,-5.64589E-2,-6.31915E1,6.188435E-2,1.709003E-2,1.19982265E-1,-4.5635514E-3,-5.339336E-2,-5.236373E-2,-1.9767394E-2,-4.766345E-2,-7.0664E1,-2.3411697E-2,1.3818222E-1,1.3601685E-2,1.1751693E-1,-4.6638325E-2,1.711393E-2,1.381654E-1,4.775848E-3,2.3954959E-1,-1.0866167E-2,3.4284662E-2,1.5679987E-1,-3.702455E-2,6.617324E-2,-2.8320445E-2,1.7212933E-2,1.1665844E-1,-2.2960794E-3,-4.0191937E-2,1.497095E-2,-1.8187193E-2,5.63607E-2,2.1064973E-1,8.9743994E-2,6.797491E-2,-3.0266995E-2,-1.9317834E-3,1.0093522E-1,5.5280495E-3,-3.781277E-2,1.3255514E-1,8.06114E-3,-3.702455E-2,1.9291379E-2,-5.462692E-2,-2.2279322E-2,6.797491E-2,-4.4160853E-3,1.5350881E-1,-2.964671E-2,-4.1038867E-2,-4.5635514E-3,4.9625E-3,1.22804426E-1,1.9291379E-2,-4.804868E-2,9.000556E-2,-2.1016024E-2,-5.3934764E-2,-1.3460137E-2,-4.1470416E-2,3.0234015E-2,-2.2276944E-2,2.8994923E-2,-5.4600805E-2,-1.4496313E-2,2.8407176E-3,-4.9302366E-2,-4.3334924E-2,-5.3054955E-2,4.686105E-2,-4.303485E-2,-1.699307E-2,8.818542E-2,1.9291379E-2,-4.2300355E-2,-5.5366613E-2,-4.8526023E-2,-5.134327E-2,-4.5635514E-3,3.851313E-2,-4.0568147E-2,-4.9197458E-2,-7.1133906E-3,4.3633144E-2,2.0119946E-1,-3.2219987E-2,-5.3672533E-2,-4.8346262E-2,-1.7510096E-2,-3.8970698E-2,6.741496E-2],"split_indices":[162,180,162,160,187,94,162,198,168,27,108,180,181,94,62,147,0,22,128,2,111,198,181,102,114,61,123,3,62,40,0,82,158,127,8,140,0,41,0,180,108,167,0,140,151,160,54,134,187,48,164,0,0,114,61,147,0,0,2,194,41,144,0,160,91,161,29,122,22,88,102,0,0,140,187,167,181,7,189,198,143,91,0,147,168,114,101,107,60,2,64,0,20,167,0,161,82,23,64,69,167,0,0,84,0,68,24,22,174,88,128,63,121,0,0,160,2,81,7,0,0,120,41,124,3,150,0,0,0,0,0,108,0,0,0,181,2,3,0,8,123,81,0,114,127,162,48,160,4,104,0,3,69,2,4,180,0,0,0,0,0,0,102,164,0,167,0,0,0,0,0,0,0,0,187,0,0,0,0,0,0,0,0,0,0,0,0,0,0,0,0,0,0,0,0,0,0,0,0,0,0,0,0,0,0,0,0,0,0,0,0,0,0,0,0,0,0,0,0,0,0,0,0,0,0,0,0,0,0,0,0,0,0,0,0,0,0,0,0,0,0,0,0,0,0,0,0,0,0,0,0,0,0,0,0,0,0],"split_type":[0,0,0,0,0,0,0,0,0,0,0,0,0,0,0,0,0,0,0,0,0,0,0,0,0,0,0,0,0,0,0,0,0,0,0,0,0,0,0,0,0,0,0,0,0,0,0,0,0,0,0,0,0,0,0,0,0,0,0,0,0,0,0,0,0,0,0,0,0,0,0,0,0,0,0,0,0,0,0,0,0,0,0,0,0,0,0,0,0,0,0,0,0,0,0,0,0,0,0,0,0,0,0,0,0,0,0,0,0,0,0,0,0,0,0,0,0,0,0,0,0,0,0,0,0,0,0,0,0,0,0,0,0,0,0,0,0,0,0,0,0,0,0,0,0,0,0,0,0,0,0,0,0,0,0,0,0,0,0,0,0,0,0,0,0,0,0,0,0,0,0,0,0,0,0,0,0,0,0,0,0,0,0,0,0,0,0,0,0,0,0,0,0,0,0,0,0,0,0,0,0,0,0,0,0,0,0,0,0,0,0,0,0,0,0,0,0,0,0,0,0,0,0,0,0,0,0,0,0,0,0,0,0,0,0,0,0,0,0,0,0,0,0,0,0,0,0,0,0,0,0,0,0,0,0,0,0],"sum_hessian":[2.0733061E5,9.057734E2,2.0642483E5,5.5961255E2,3.461608E2,2.4291338E3,2.039957E5,2.6721E2,2.9240256E2,1.9268634E2,1.5347446E2,2.4120576E3,1.7076141E1,2.684749E3,2.0131095E5,2.4496884E2,2.2241148E1,2.0017032E2,9.223225E1,4.7433724E0,1.8794296E2,3.720912E1,1.16265335E2,1.5583561E3,8.5370166E2,1.1700319E1,5.3758225E0,2.6583967E3,2.635207E1,1.5073384E3,1.9980361E5,6.630181E1,1.7866704E2,5.692047E1,1.4324985E2,2.5614212E1,6.6618034E1,2.3189821E0,2.4243906E0,1.7076141E2,1.718155E1,3.1200851E1,6.008272E0,5.8607006E1,5.765833E1,3.0642188E2,1.2519342E3,8.425284E2,1.1173278E1,5.7974553E0,5.9028635E0,4.3217397E0,1.0540829E0,2.6381584E3,2.023839E1,2.4770947E1,1.5811242E0,1.5045978E3,2.7406154E0,4.1214638E1,2.5087172E1,1.7139386E2,7.2731714E0,6.429905E0,5.0490566E1,2.8460236E0,1.4040382E2,2.266278E1,2.9514318E0,5.270414E1,1.3913893E1,1.0540829E0,1.2648994E0,1.6696672E2,3.7946982E0,1.1594911E1,5.586639E0,5.7974553E0,2.5403397E1,2.5297987E1,3.3309017E1,5.6604248E1,1.0540829E0,1.6770457E2,1.387173E2,1.2409717E3,1.0962461E1,8.1807367E2,2.4454721E1,8.748887E0,2.4243906E0,1.0540829E0,4.7433724E0,4.532556E0,1.3703077E0,2.6074846E3,3.067381E1,3.373065E0,1.6865326E1,1.3808485E1,1.0962461E1,1.6865325E0,1.0540829E0,3.8684837E1,2.5297987E0,1.0540828E1,1.4546343E1,3.784157E1,1.3355229E2,2.635207E0,3.7946982E0,4.479852E1,5.692047E0,1.3703077E0,1.4757159E0,1.23116875E2,1.7286959E1,2.0449207E1,2.213574E0,1.2648994E0,1.6865325E0,7.483988E0,4.5220154E1,1.0962461E1,2.9514318E0,1.6538559E2,1.5811242E0,2.5297987E0,1.2648994E0,1.0540829E0,1.0540828E1,3.0568402E0,2.5297987E0,1.0540829E0,4.7433724E0,2.1714106E1,3.6892898E0,1.8657267E1,6.640722E0,1.8024817E1,1.5284201E1,5.5339348E1,1.2648994E0,5.628802E1,1.1141655E2,9.7081024E1,4.1636272E1,1.2329607E3,8.011029E0,7.167763E0,3.7946982E0,4.0055146E0,8.140682E2,1.971135E1,4.7433724E0,7.6948047E0,1.0540829E0,1.0540829E0,1.3703077E0,3.6892898E0,1.0540829E0,1.1594911E0,3.373065E0,1.7125684E3,8.949163E2,2.9514318E1,1.1594911E0,1.7919408E0,1.5811242E0,1.0540829E0,1.5811242E1,1.1911136E1,1.8973491E0,5.270414E0,5.692047E0,2.213574E0,3.6471264E1,5.4812307E0,5.0595975E0,4.6379642E0,9.908379E0,3.4679325E1,3.1622484E0,1.311279E2,2.4243906E0,1.2648994E0,1.3703077E0,1.8973491E0,1.8973491E0,3.9633514E1,5.1650057E0,1.0540829E0,4.6379642E0,1.1984921E2,3.2676568E0,1.6022058E1,1.2648994E0,1.6970734E1,3.4784732E0,1.0540829E0,1.1594911E0,3.6892898E0,3.7946982E0,2.4770947E1,2.0449207E1,8.011029E0,2.9514318E0,1.8973491E0,1.0540829E0,1.6327742E2,2.1081657E0,1.0540829E0,2.0027573E0,1.8762674E1,2.9514318E0,2.635207E0,1.0540829E0,1.043542E1,8.221846E0,1.0540829E0,1.6970734E1,2.1081657E0,1.3176035E1,5.3863632E1,1.4757159E0,5.4917713E1,1.3703077E0,3.5417183E1,7.5999374E1,9.318092E1,3.9001064E0,8.327254E0,3.3309017E1,6.7155615E2,5.614045E2,4.848781E0,3.1622484E0,2.9514318E0,4.2163315E0,1.0540829E0,2.9514318E0,7.356444E2,7.842376E1,1.8657267E1,1.0540829E0,2.213574E0,2.5297987E0,6.5353136E0,1.1594911E0,1.0540829E0,2.3189821E0,1.7603184E1,1.6949652E3,1.7603184E1,1.1911136E1,2.213574E0,3.4784732E0],"tree_param":{"num_deleted":"0","num_feature":"200","num_nodes":"257","size_leaf_vector":"1"}},{"base_weights":[-1.1157916E0,6.1568147E-1,-1.1239322E0,1.311029E0,-5.8696723E-1,-9.090901E-1,-1.1265069E0,2.5862093E0,8.530182E-3,-1.0211518E0,2.30926E-1,-9.207854E-1,7.162388E-1,-1.0663598E0,-5.636526E-2,2.856743E0,-5.3759016E-2,-4.9724358E-1,1.0392405E0,-3.1732705E-1,-1.0367706E0,1.3012956E0,-2.445308E-1,-7.7550006E-1,-1.0165436E0,-3.977869E-2,1.011647E0,-1.0720102E0,-4.3575895E-1,3.1317098E0,-5.5292785E-2,-8.842392E-2,-6.608332E-1,2.7447436E0,2.7695146E-1,3.9662707E-1,-4.2116374E-2,-1.048226E0,-5.4439616E-1,1.7377322E0,-8.2326114E-1,4.0452042E-1,-6.337185E-1,-6.513647E-1,-1.0546843E0,-1.0224271E0,1.8792744E-1,1.4289647E0,-2.3252451E-1,-1.0773343E0,-5.2811176E-1,-6.197069E-1,7.1128243E-1,1.4622221E0,3.7154744E0,1.3487719E0,-3.0406615E-1,4.3853047E-1,-6.8713623E-1,3.024556E0,1.573363E-1,-1.5555118E-1,1.5049798E0,4.1776065E-2,-9.110301E-3,-1.2244741E-2,-5.2621584E-2,2.0504573E-2,-7.763248E-1,-5.1655143E-1,2.103368E0,-3.6743996E-3,-4.6939608E-2,8.728828E-1,-8.9103377E-1,2.8174374E-1,-7.459798E-1,-4.1711992E-1,-9.768422E-1,-1.0646461E0,5.703131E-2,-1.0289632E0,1.9503048E-3,1.0618469E0,-3.6869273E-1,1.9301145E0,-2.3731327E-1,-4.0417667E-2,4.3319143E-2,-1.0817201E0,-4.4999692E-1,-6.87733E-1,6.0028195E-2,-5.136324E-2,-1.72993E-1,8.304323E-2,-1.6527534E-2,2.0179772E0,4.7269303E-1,3.882373E0,-4.8763756E-2,2.273247E0,3.347143E-1,-4.4119263E-1,6.498092E-1,6.8066195E-2,-3.31679E-2,-4.678693E-1,-8.553808E-1,3.1804526E0,-8.157301E-3,5.345599E-2,-3.4961056E-2,7.9308385E-1,-4.1881618E-1,2.7659228E0,2.6232284E-1,-4.5161877E-2,-3.7696038E-3,2.0427871E-2,-4.2593483E-2,2.4723449E0,-4.1252322E-2,1.3460834E0,-4.6247274E-2,-4.9112014E-2,-8.591836E-3,-2.698569E-1,5.901025E-2,-4.156764E-1,-9.016323E-1,-1.3080713E-1,-8.4126544E-1,-9.93849E-1,4.2344052E-1,-1.074553E0,-2.3071735E-1,-3.3106282E-2,4.4715043E-2,-1.0334111E0,-2.8752217E-1,-4.365475E-2,6.130238E-1,9.058375E-2,-7.216688E-3,4.386593E-2,-4.3626618E-2,2.2668896E0,-7.321983E-3,1.9385653E-2,-3.3368163E-2,-1.0853039E0,-6.661401E-1,1.9185866E0,-5.2893043E-2,-5.2427687E-2,-2.2597483E-1,6.119767E-1,-5.297336E-1,1.10220924E-1,-4.0012684E-2,6.162828E-2,-7.270248E-3,1.0070013E-1,2.0797303E-1,2.0445546E-2,1.3974512E-1,-3.6496118E-2,6.187996E-2,-4.5133803E-2,-1.159293E-2,1.08456336E-1,-2.2048827E-3,-2.7694702E-2,2.4610562E-2,-4.5815572E-2,-6.787782E-3,-8.160582E-3,1.6744664E-1,6.200083E-2,-3.87409E-2,-4.6558365E-2,4.1997223E-3,1.5056555E-1,3.5127666E-2,6.624246E-2,-3.1393092E-2,2.338032E-1,8.0743186E-2,1.240688E-1,-2.6437777E-4,-4.1403096E-2,4.441374E-2,1.7653828E-2,-3.0762507E-2,1.3215574E-4,-4.779983E-2,4.705099E-3,-3.1200647E-2,-4.6251457E-2,5.029468E-2,5.45929E-3,-5.0030757E-2,-3.585754E-2,8.372768E-2,-8.938032E-3,-5.3894807E-2,-3.9854407E-2,3.8415402E-2,-2.647394E-2,-5.191384E-2,4.476222E-2,-3.1053264E-2,9.187134E-2,-4.078271E-2,4.464299E-2,1.4767788E-1,-5.452902E-2,-4.0327054E-2,5.219992E-3,-4.3125786E-2,2.3170788E-2,1.2961935E-1,5.37637E-2,-3.505383E-2,-3.4281824E-2,8.441433E-2,3.8965624E-2,-4.2130545E-2],"categories":[],"categories_nodes":[],"categories_segments":[],"categories_sizes":[],"default_left":[0,0,0,0,0,0,0,0,0,0,0,0,0,0,0,0,0,0,0,0,0,0,0,0,0,0,0,0,0,0,0,0,0,0,0,0,0,0,0,0,0,0,0,0,0,0,0,0,0,0,0,0,0,0,0,0,0,0,0,0,0,0,0,0,0,0,0,0,0,0,0,0,0,0,0,0,0,0,0,0,0,0,0,0,0,0,0,0,0,0,0,0,0,0,0,0,0,0,0,0,0,0,0,0,0,0,0,0,0,0,0,0,0,0,0,0,0,0,0,0,0,0,0,0,0,0,0,0,0,0,0,0,0,0,0,0,0,0,0,0,0,0,0,0,0,0,0,0,0,0,0,0,0,0,0,0,0,0,0,0,0,0,0,0,0,0,0,0,0,0,0,0,0,0,0,0,0,0,0,0,0,0,0,0,0,0,0,0,0,0,0,0,0,0,0,0,0,0,0,0,0,0,0,0,0,0,0,0,0,0,0,0,0,0,0,0,0,0,0,0,0,0,0,0,0,0,0,0,0],"id":1,"left_children":[1,3,5,7,9,11,13,15,17,19,21,23,25,27,-1,29,-1,31,33,35,37,39,41,43,45,-1,47,49,51,53,-1,55,57,59,61,63,-1,65,67,69,71,73,75,77,79,81,83,85,87,89,91,93,95,97,99,101,103,105,107,109,111,113,115,-1,-1,-1,-1,-1,117,119,121,-1,-1,123,125,127,129,131,133,135,137,139,141,143,145,147,149,-1,-1,151,153,155,-1,-1,157,-1,-1,159,161,163,-1,165,167,169,171,-1,-1,173,175,177,-1,-1,-1,179,181,183,185,-1,-1,-1,-1,187,-1,189,-1,-1,-1,191,-1,193,195,197,199,201,203,205,207,-1,-1,209,211,-1,213,-1,-1,-1,-1,215,-1,-1,-1,217,219,221,-1,-1,223,225,227,-1,-1,-1,-1,-1,-1,-1,-1,-1,-1,-1,-1,-1,-1,-1,-1,-1,-1,-1,-1,-1,-1,-1,-1,-1,-1,-1,-1,-1,-1,-1,-1,-1,-1,-1,-1,-1,-1,-1,-1,-1,-1,-1,-1,-1,-1,-1,-1,-1,-1,-1,-1,-1,-1,-1,-1,-1,-1,-1,-1,-1,-1,-1,-1,-1,-1,-1,-1,-1,-1],"loss_changes":[2.8000156E3,7.784967E2,1.0828125E2,9.792312E2,1.2148009E2,4.5255127E1,8.15625E0,2.9818542E2,1.5309964E2,2.1111145E0,6.098875E1,3.1604126E1,8.54055E0,8.699707E0,0E0,3.0605542E2,0E0,1.3109745E1,1.2489466E2,2.7001865E0,6.424866E-1,3.558605E1,2.1317852E1,3.1517517E1,1.0127808E1,0E0,8.096966E0,6.8085938E0,5.6272197E0,2.4784912E2,0E0,1.8212421E1,4.367565E0,2.102803E1,3.6326107E1,1.0077057E0,0E0,4.4503784E-1,1.8837609E0,2.6551445E1,5.229449E-1,2.0104954E1,5.6120434E0,4.884726E1,3.2217712E0,9.34729E0,4.117817E0,9.933819E0,3.6133637E0,6.4523926E0,8.196579E0,3.7663488E0,4.376908E0,3.6965454E1,1.5408301E2,6.4096203E0,6.929156E0,4.860694E0,4.664459E0,1.3859756E1,3.8449845E0,1.3099253E1,2.7123348E1,0E0,0E0,0E0,0E0,0E0,4.585054E-1,1.9370059E0,3.0979057E1,0E0,0E0,2.1586266E1,4.0653324E-1,3.5255024E0,2.0317345E0,4.572782E1,6.8487854E0,2.0692139E0,2.682104E0,4.258423E0,5.7878323E0,3.208337E0,4.1594696E0,6.52285E0,1.2036489E0,0E0,0E0,2.996338E0,2.9773905E1,3.9343805E0,0E0,0E0,3.5663495E0,0E0,0E0,2.4829208E1,1.2461338E1,8.762109E1,0E0,2.557558E0,5.5596457E0,4.128353E0,7.2648654E0,0E0,0E0,5.393488E0,3.2260857E0,1.4992981E1,0E0,0E0,0E0,8.986034E0,1.0569128E1,2.263649E0,1.03633795E1,0E0,0E0,0E0,0E0,3.7785645E1,0E0,2.970311E1,0E0,0E0,0E0,3.8413332E0,0E0,2.8204823E0,1.5416107E0,2.5198797E1,2.4439903E1,2.1089783E0,6.818918E0,6.286621E-1,3.2135468E0,0E0,0E0,2.8105469E0,4.364339E0,0E0,1.267121E1,0E0,0E0,0E0,0E0,4.5478287E0,0E0,0E0,0E0,2.7583008E0,3.7393227E0,2.9730902E0,0E0,0E0,8.355795E0,6.8571696E0,4.141527E0,0E0,0E0,0E0,0E0,0E0,0E0,0E0,0E0,0E0,0E0,0E0,0E0,0E0,0E0,0E0,0E0,0E0,0E0,0E0,0E0,0E0,0E0,0E0,0E0,0E0,0E0,0E0,0E0,0E0,0E0,0E0,0E0,0E0,0E0,0E0,0E0,0E0,0E0,0E0,0E0,0E0,0E0,0E0,0E0,0E0,0E0,0E0,0E0,0E0,0E0,0E0,0E0,0E0,0E0,0E0,0E0,0E0,0E0,0E0,0E0,0E0,0E0,0E0,0E0,0E0,0E0,0E0,0E0,0E0,0E0],"parents":[2147483647,0,0,1,1,2,2,3,3,4,4,5,5,6,6,7,7,8,8,9,9,10,10,11,11,12,12,13,13,15,15,17,17,18,18,19,19,20,20,21,21,22,22,23,23,24,24,26,26,27,27,28,28,29,29,31,31,32,32,33,33,34,34,35,35,37,37,38,38,39,39,40,40,41,41,42,42,43,43,44,44,45,45,46,46,47,47,48,48,49,49,50,50,51,51,52,52,53,53,54,54,55,55,56,56,57,57,58,58,59,59,60,60,61,61,62,62,68,68,69,69,70,70,73,73,74,74,75,75,76,76,77,77,78,78,79,79,80,80,81,81,82,82,83,83,84,84,85,85,86,86,89,89,90,90,91,91,94,94,97,97,98,98,99,99,101,101,102,102,103,103,104,104,107,107,108,108,109,109,113,113,114,114,115,115,116,116,121,121,123,123,127,127,129,129,130,130,131,131,132,132,133,133,134,134,135,135,136,136,139,139,140,140,142,142,147,147,151,151,152,152,153,153,156,156,157,157,158,158],"right_children":[2,4,6,8,10,12,14,16,18,20,22,24,26,28,-1,30,-1,32,34,36,38,40,42,44,46,-1,48,50,52,54,-1,56,58,60,62,64,-1,66,68,70,72,74,76,78,80,82,84,86,88,90,92,94,96,98,100,102,104,106,108,110,112,114,116,-1,-1,-1,-1,-1,118,120,122,-1,-1,124,126,128,130,132,134,136,138,140,142,144,146,148,150,-1,-1,152,154,156,-1,-1,158,-1,-1,160,162,164,-1,166,168,170,172,-1,-1,174,176,178,-1,-1,-1,180,182,184,186,-1,-1,-1,-1,188,-1,190,-1,-1,-1,192,-1,194,196,198,200,202,204,206,208,-1,-1,210,212,-1,214,-1,-1,-1,-1,216,-1,-1,-1,218,220,222,-1,-1,224,226,228,-1,-1,-1,-1,-1,-1,-1,-1,-1,-1,-1,-1,-1,-1,-1,-1,-1,-1,-1,-1,-1,-1,-1,-1,-1,-1,-1,-1,-1,-1,-1,-1,-1,-1,-1,-1,-1,-1,-1,-1,-1,-1,-1,-1,-1,-1,-1,-1,-1,-1,-1,-1,-1,-1,-1,-1,-1,-1,-1,-1,-1,-1,-1,-1,-1,-1,-1,-1,-1,-1],"split_conditions":[-2.30625E1,1E0,-1.8145834E1,1E0,-6.31915E1,1E0,-1.6625E1,1E0,-1.0453E1,-1.09688E2,-1.2297E1,-1.89375E1,-1.02125E2,1E0,-5.636526E-2,1E0,-5.3759016E-2,-2.30625E1,-1.1133E1,-2.0291666E1,7E0,1E0,1E0,1E0,1E0,-3.977869E-2,-9.29375E1,1E0,-1.58125E1,-1.0887E1,-5.5292785E-2,-9.9609E1,-2.5035E1,3E0,4E0,-1.068125E2,-4.2116374E-2,-1.106875E2,-1.74375E1,-8.28555E1,-9.93125E1,-9.403125E1,-8.7641E1,1E0,1E0,1E0,-7.3312E1,-1.49375E1,-8.06875E1,-7.05E1,-1.4916667E1,-1.3453E1,-1.55E1,-2.30625E1,1E0,3E0,1E0,-9.6390625E1,-1.023125E2,-2.0291666E1,-2.30625E1,-6.5773E1,-2.30625E1,4.1776065E-2,-9.110301E-3,-1.2244741E-2,-5.2621584E-2,2.0504573E-2,-1.4625E1,-1.7148E1,1E0,-3.6743996E-3,-4.6939608E-2,1E0,1E0,1E0,-2.30625E1,-9.4375E1,1E0,1E0,-9.59375E1,1E0,-9.59375E1,-1.6125E1,-1.6398E1,5E0,-8.6859E1,-4.0417667E-2,4.3319143E-2,1E0,-7.86875E1,-1.6375E1,6.0028195E-2,-5.136324E-2,-8.7312E1,8.304323E-2,-1.6527534E-2,1E0,-9.8875E1,-1.76875E1,-4.8763756E-2,2E0,-1.7008E1,-9.3625E1,-1.113125E2,6.8066195E-2,-3.31679E-2,-8.54375E1,-9.34375E0,-1.8E1,-8.157301E-3,5.345599E-2,-3.4961056E-2,1E0,-1.275E1,1E0,-1.53125E1,-4.5161877E-2,-3.7696038E-3,2.0427871E-2,-4.2593483E-2,1E0,-4.1252322E-2,-2.30625E1,-4.6247274E-2,-4.9112014E-2,-8.591836E-3,-9.24335E1,5.901025E-2,-1.10505E1,-1.1047E1,1E0,-7.05E1,-2.575E1,-1.89375E1,-1.29742E2,3E0,-3.3106282E-2,4.4715043E-2,-2.0291666E1,-1.7192667E1,-4.365475E-2,-9.25E1,9.058375E-2,-7.216688E-3,4.386593E-2,-4.3626618E-2,-1.75625E1,-7.321983E-3,1.9385653E-2,-3.3368163E-2,1E0,-1.75625E1,-6.78125E1,-5.2893043E-2,-5.2427687E-2,-1.61875E1,-9.50625E1,-1.6188E1,1.10220924E-1,-4.0012684E-2,6.162828E-2,-7.270248E-3,1.0070013E-1,2.0797303E-1,2.0445546E-2,1.3974512E-1,-3.6496118E-2,6.187996E-2,-4.5133803E-2,-1.159293E-2,1.08456336E-1,-2.2048827E-3,-2.7694702E-2,2.4610562E-2,-4.5815572E-2,-6.787782E-3,-8.160582E-3,1.6744664E-1,6.200083E-2,-3.87409E-2,-4.6558365E-2,4.1997223E-3,1.5056555E-1,3.5127666E-2,6.624246E-2,-3.1393092E-2,2.338032E-1,8.0743186E-2,1.240688E-1,-2.6437777E-4,-4.1403096E-2,4.441374E-2,1.7653828E-2,-3.0762507E-2,1.3215574E-4,-4.779983E-2,4.705099E-3,-3.1200647E-2,-4.6251457E-2,5.029468E-2,5.45929E-3,-5.0030757E-2,-3.585754E-2,8.372768E-2,-8.938032E-3,-5.3894807E-2,-3.9854407E-2,3.8415402E-2,-2.647394E-2,-5.191384E-2,4.476222E-2,-3.1053264E-2,9.187134E-2,-4.078271E-2,4.464299E-2,1.4767788E-1,-5.452902E-2,-4.0327054E-2,5.219992E-3,-4.3125786E-2,2.3170788E-2,1.2961935E-1,5.37637E-2,-3.505383E-2,-3.4281824E-2,8.441433E-2,3.8965624E-2,-4.2130545E-2],"split_indices":[182,180,182,160,187,94,182,198,168,27,108,82,3,94,0,178,0,22,128,2,180,189,140,180,114,0,161,114,82,148,0,127,8,140,80,41,0,3,44,167,3,81,27,160,114,74,47,164,183,3,82,148,164,82,158,160,91,161,141,82,22,47,22,0,0,0,0,0,4,168,198,0,0,198,89,69,2,161,114,134,101,134,23,44,148,140,127,0,0,74,81,4,0,0,7,0,0,194,41,4,0,120,128,3,121,0,0,163,44,104,0,0,0,178,144,169,24,0,0,0,0,140,0,22,0,0,0,27,0,8,108,140,123,28,2,107,60,0,0,22,88,0,101,0,0,0,0,144,0,0,0,9,142,23,0,0,64,163,128,0,0,0,0,0,0,0,0,0,0,0,0,0,0,0,0,0,0,0,0,0,0,0,0,0,0,0,0,0,0,0,0,0,0,0,0,0,0,0,0,0,0,0,0,0,0,0,0,0,0,0,0,0,0,0,0,0,0,0,0,0,0,0,0,0,0,0,0,0,0],"split_type":[0,0,0,0,0,0,0,0,0,0,0,0,0,0,0,0,0,0,0,0,0,0,0,0,0,0,0,0,0,0,0,0,0,0,0,0,0,0,0,0,0,0,0,0,0,0,0,0,0,0,0,0,0,0,0,0,0,0,0,0,0,0,0,0,0,0,0,0,0,0,0,0,0,0,0,0,0,0,0,0,0,0,0,0,0,0,0,0,0,0,0,0,0,0,0,0,0,0,0,0,0,0,0,0,0,0,0,0,0,0,0,0,0,0,0,0,0,0,0,0,0,0,0,0,0,0,0,0,0,0,0,0,0,0,0,0,0,0,0,0,0,0,0,0,0,0,0,0,0,0,0,0,0,0,0,0,0,0,0,0,0,0,0,0,0,0,0,0,0,0,0,0,0,0,0,0,0,0,0,0,0,0,0,0,0,0,0,0,0,0,0,0,0,0,0,0,0,0,0,0,0,0,0,0,0,0,0,0,0,0,0,0,0,0,0,0,0,0,0,0,0,0,0,0,0,0,0,0,0],"sum_hessian":[1.985954E5,9.28999E2,1.976664E5,5.886003E2,3.4039874E2,2.3449417E3,1.9532147E5,2.9691727E2,2.9168298E2,2.222039E2,1.1819484E2,2.3286252E3,1.6316435E1,2.57587E3,1.927456E5,2.7669522E2,2.0222046E1,1.9600862E2,9.567437E1,5.300625E0,2.1690327E2,3.5825954E1,8.236889E1,9.2873737E2,1.3998878E3,2.3847904E0,1.3931644E1,2.552285E3,2.358506E1,2.5893948E2,1.7755728E1,5.64753E1,1.3953333E2,2.8745964E1,6.6928406E1,2.3416548E0,2.95897E0,2.1084851E2,6.054763E0,2.9875553E1,5.9503994E0,3.0851885E1,5.1517006E1,6.452188E2,2.8351855E2,1.3932417E3,6.646126E0,1.0327217E1,3.6044266E0,2.5265537E3,2.573124E1,2.0729221E1,2.8558383E0,6.799758E1,1.9094191E2,6.676595E0,4.9798706E1,2.885336E0,1.36648E2,2.5784689E1,2.961274E0,5.0136044E1,1.6792358E1,1.0894264E0,1.2522283E0,1.418962E0,2.0942955E2,1.0250282E0,5.0297346E0,4.1080112E0,2.5767542E1,1.0244664E0,4.9259334E0,2.2905254E1,7.946629E0,5.4527154E0,4.606429E1,3.7653818E2,2.686806E2,2.8105145E2,2.4671063E0,1.3844137E3,8.82801E0,2.2398129E0,4.406313E0,7.822258E0,2.5049596E0,2.544571E0,1.0598557E0,2.5082778E3,1.827585E1,2.4112686E1,1.6185535E0,1.0148388E1,1.0580834E1,1.188238E0,1.6676003E0,4.2870518E1,2.5127066E1,1.8455002E2,6.3918962E0,2.8378487E0,3.8387463E0,4.401866E1,5.7800436E0,1.4470831E0,1.4382527E0,6.0995335E1,7.565266E1,2.4587627E1,1.1970633E0,1.3198466E0,1.6414273E0,1.0445785E1,3.9690258E1,7.72243E0,9.069928E0,4.0021977E0,1.027537E0,1.0268359E0,3.0811756E0,2.3025509E1,2.742033E0,1.8335945E1,4.5693107E0,6.715357E0,1.2312722E0,3.8051188E0,1.6475964E0,1.5950728E1,3.0113562E1,2.255895E2,1.5094868E2,2.657504E2,2.9302049E0,2.7745486E2,3.5966117E0,1.4332684E0,1.0338379E0,1.3757533E3,8.660434E0,3.4469259E0,5.381084E0,1.076746E0,1.1630669E0,1.049573E0,3.35674E0,6.6559534E0,1.1663043E0,1.0516725E0,1.4532871E0,2.485211E3,2.3066938E1,3.2886546E0,1.4987196E1,1.281024E1,1.1302445E1,3.0737894E0,7.507045E0,4.0418E1,2.4525194E0,1.0832251E1,1.4294814E1,2.4907297E1,1.5964272E2,1.0146494E0,1.8231993E0,1.844406E0,1.9943403E0,1.2687896E1,3.1330767E1,1.1501734E0,4.62987E0,5.6377327E1,4.618007E0,6.948237E1,6.1702914E0,1.1781387E0,2.3409489E1,8.296389E0,2.1493957E0,1.9246517E1,2.0443743E1,6.48673E0,1.2357005E0,3.917245E0,5.1526837E0,5.199058E0,1.782645E1,9.514218E0,8.821727E0,2.7657154E0,1.0394036E0,3.1186206E0,1.2832108E1,1.7512556E0,2.8362307E1,1.5547812E2,7.0111374E1,1.4488326E2,6.0654306E0,1.5188961E0,2.642315E2,1.7518804E0,1.1783246E0,1.2452623E0,2.762096E2,2.4307225E0,1.1658893E0,1.4226503E1,1.3615267E3,1.5280033E0,7.13243E0,2.7474048E0,2.6336794E0,2.989258E0,3.6666956E0,2.436151E3,4.906006E1,4.769559E0,1.8297379E1,1.5796889E0,1.7089657E0,2.6794484E0,8.622997E0,1.5539777E0,1.5198116E0,1.1544002E0,6.3526444E0],"tree_param":{"num_deleted":"0","num_feature":"200","num_nodes":"229","size_leaf_vector":"1"}},{"base_weights":[-1.1082841E0,5.696363E-1,-1.1167027E0,1.185623E0,-5.716295E-1,-8.955083E-1,-1.1193763E0,2.2370777E0,8.584836E-3,-1.0157521E0,2.3807724E-1,-9.0744483E-1,6.715368E-1,-1.0570467E0,-1.1202054E0,2.449537E0,-5.3329516E-2,-4.737328E-1,9.494844E-1,-3.067598E-1,-1.0318717E0,1.2164419E0,-2.1726416E-1,-6.8428713E-1,-9.7226423E-1,-3.8213607E-2,9.1705716E-1,-1.0628872E0,-4.2010665E-1,-1.0898758E0,-5.6023248E-2,2.6622179E0,-5.4744154E-2,-6.309183E-2,-6.441981E-1,2.3112617E0,2.6118338E-1,3.832328E-1,-4.1563578E-2,-1.0592132E0,-7.1950096E-1,1.588478E0,-8.0102783E-1,1.9005452E-1,-8.2222867E-1,-5.0608927E-1,-1.0602435E0,-9.820915E-1,3.8026366E-1,1.2982581E0,-2.4827328E-1,-1.0683925E0,-5.1214397E-1,-5.893114E-1,5.8531243E-2,-5.4552704E-2,-3.767347E-1,1.3276325E0,3.1024785E0,1.2621031E0,-2.677401E-1,-7.101345E-1,-1.5652278E-1,2.7359314E0,7.4396354E-1,-1.625324E-1,1.3723872E0,4.043465E-2,-9.108336E-3,-5.3660817E-2,-5.2251726E-1,1.732078E-2,-8.4355307E-1,-5.036434E-1,1.9035122E0,-2.959948E-3,-4.609793E-2,4.6492454E-1,-8.434669E-1,1.1236411E-2,-9.205426E-1,-7.879779E-2,-9.667914E-1,-1.0941162E0,-7.2471774E-1,-9.9010015E-1,-8.818409E-2,8.676091E-1,-6.8033785E-1,1.6303271E0,-1.8346524E-2,4.234944E-2,-4.0771037E-2,-1.0729061E0,-4.722432E-1,-6.722916E-1,5.652861E-2,-5.1243585E-2,-1.2323368E-1,-3.8454365E-2,2.1546206E-2,1.8060669E0,4.2624444E-1,3.2258308E0,-4.8243232E-2,-2.8492568E-2,1.6111839E0,-4.2395818E-1,6.2098104E-1,4.2052394E-1,-7.4196947E-1,-3.288741E-1,6.011624E-2,1.8558268E-2,2.888668E0,1.9704195E0,-1.1463644E-1,-6.0691136E-1,5.29374E-1,2.4254072E0,2.4988215E-1,-4.506503E-2,1.6780667E-2,-9.329383E-1,-2.0354162E-3,2.0114167E-2,-4.2087883E-2,2.2163875E0,-4.070288E-2,7.287532E-1,-4.774289E-2,-3.1069263E-3,-9.1621125E-1,-3.883728E-2,5.7027906E-2,-9.773714E-1,-1.0989968E-1,-7.780545E-1,2.2293547E-1,1.3773344E-2,-9.7764736E-1,-5.502829E-2,-4.2202273E-1,-1.8719225E-1,-9.501154E-1,-9.97133E-1,-1.774863E-1,4.3012795E-1,-4.7477588E-2,-3.7023854E-2,1.3649514E0,-3.9064693E-3,-4.1225217E-2,2.1148794E0,-1.2523314E-1,-1.0769504E0,-7.04877E-1,1.7824334E0,-5.2697327E-2,-5.1959764E-2,-2.1575806E-1,-6.0888064E-1,6.515903E-1,9.798425E-2,-3.9467078E-2,6.222991E-2,-4.6044663E-3,1.7641889E-1,9.851328E-2,1.5590902E-1,2.8475214E-2,9.18064E-3,-3.289045E-2,5.2806713E-2,-3.474891E-2,6.405323E-2,-3.268882E-2,-3.8736556E-2,1.5873875E-2,6.9842706E-3,-4.8410017E-2,1.5650128E-1,6.9315016E-2,1.65507E-2,1.2861086E-1,-3.5520937E-2,6.756549E-2,9.93834E-3,-3.8693335E-2,7.487871E-2,-1.0750111E-2,1.3221829E-1,1.797084E-2,6.1081607E-2,-3.0698702E-2,-5.2134473E-2,-1.0023861E-2,1.3528636E-1,1.4227832E-2,1.6334768E-1,2.363555E-2,-4.07652E-3,-5.022152E-2,-3.133407E-2,-5.3566564E-2,2.133768E-2,-2.895358E-2,-2.8413385E-2,-5.3702503E-2,-2.1307357E-2,2.8908608E-2,-5.2779716E-2,-3.7465904E-2,-2.8352425E-2,-2.980841E-3,-4.2637646E-2,3.499818E-2,-5.105252E-2,-7.285261E-3,-4.6984553E-2,-5.3692818E-2,5.152438E-2,-2.5481224E-2,5.3928196E-2,-4.2921852E-2,-2.232384E-2,1.0694172E-1,1.4551202E-2,1.1923671E-1,-2.94897E-2,2.0955738E-2,-5.40373E-2,-4.354569E-2,-4.2967673E-2,-3.2022551E-3,2.2586089E-2,1.1802571E-1,5.0237723E-2,-3.4324657E-2,-4.5967504E-2,1.2283459E-3,-2.231644E-2,7.9557955E-2],"categories":[],"categories_nodes":[],"categories_segments":[],"categories_sizes":[],"default_left":[0,0,0,0,0,0,0,0,0,0,0,0,0,0,0,0,0,0,0,0,0,0,0,0,0,0,0,0,0,0,0,0,0,0,0,0,0,0,0,0,0,0,0,0,0,0,0,0,0,0,0,0,0,0,0,0,0,0,0,0,0,0,0,0,0,0,0,0,0,0,0,0,0,0,0,0,0,0,0,0,0,0,0,0,0,0,0,0,0,0,0,0,0,0,0,0,0,0,0,0,0,0,0,0,0,0,0,0,0,0,0,0,0,0,0,0,0,0,0,0,0,0,0,0,0,0,0,0,0,0,0,0,0,0,0,0,0,0,0,0,0,0,0,0,0,0,0,0,0,0,0,0,0,0,0,0,0,0,0,0,0,0,0,0,0,0,0,0,0,0,0,0,0,0,0,0,0,0,0,0,0,0,0,0,0,0,0,0,0,0,0,0,0,0,0,0,0,0,0,0,0,0,0,0,0,0,0,0,0,0,0,0,0,0,0,0,0,0,0,0,0,0,0,0,0,0,0,0,0,0,0,0,0,0,0,0,0,0,0,0,0,0,0],"id":2,"left_children":[1,3,5,7,9,11,13,15,17,19,21,23,25,27,29,31,-1,33,35,37,39,41,43,45,47,-1,49,51,53,55,-1,57,-1,59,61,63,65,67,-1,69,71,73,75,77,79,81,83,85,87,89,91,93,95,97,-1,-1,99,101,103,105,107,109,111,113,115,117,119,-1,-1,-1,121,-1,123,125,127,-1,-1,129,131,133,135,137,139,141,143,145,147,149,151,153,-1,-1,-1,155,157,159,-1,-1,161,-1,-1,163,165,167,-1,-1,169,171,173,175,177,179,-1,-1,181,183,185,187,189,191,193,-1,-1,195,-1,-1,-1,197,-1,199,-1,-1,201,-1,-1,203,205,207,209,-1,211,-1,213,215,217,219,221,223,-1,-1,225,-1,-1,227,229,231,233,235,-1,-1,237,239,241,-1,-1,-1,-1,-1,-1,-1,-1,-1,-1,-1,-1,-1,-1,-1,-1,-1,-1,-1,-1,-1,-1,-1,-1,-1,-1,-1,-1,-1,-1,-1,-1,-1,-1,-1,-1,-1,-1,-1,-1,-1,-1,-1,-1,-1,-1,-1,-1,-1,-1,-1,-1,-1,-1,-1,-1,-1,-1,-1,-1,-1,-1,-1,-1,-1,-1,-1,-1,-1,-1,-1,-1,-1,-1,-1,-1,-1,-1,-1,-1],"loss_changes":[2.6868438E3,6.6853296E2,1.10875E2,7.639469E2,1.202436E2,4.297473E1,8.453125E0,2.3147388E2,1.3309084E2,2.1350555E0,5.3285606E1,3.183667E1,6.9382596E0,8.735596E0,2.1875E-1,2.3409045E2,0E0,1.3524082E1,9.2528595E1,2.578324E0,1.0175171E0,2.9765385E1,2.0379414E1,3.3576477E1,2.3502808E1,0E0,7.2479515E0,6.862793E0,7.1798205E0,9.2041016E-1,0E0,1.6598608E2,0E0,1.6057655E1,4.281708E0,2.0051651E1,3.1852465E1,9.636464E-1,0E0,8.6146545E-1,2.9530802E0,2.2315193E1,5.249529E-1,1.4545416E1,2.7407322E0,6.832839E1,1.0400848E0,1.2268311E1,7.447298E0,7.189234E0,3.5912268E0,6.0004883E0,7.642408E0,4.426609E0,0E0,0E0,1.6606822E0,3.0942352E1,1.12005615E2,5.998028E0,7.3520255E0,4.6445847E0,4.5094676E0,8.203903E0,9.157621E0,1.554236E1,2.141146E1,0E0,0E0,0E0,2.5291877E0,0E0,1.2649021E0,1.8820742E0,2.5929306E1,0E0,0E0,1.5683165E1,5.4809093E-1,4.8774037E0,1.2512665E0,3.84543E1,2.5302734E0,1.5299988E-1,1.9824934E0,9.595215E0,7.756764E0,8.641201E0,3.3716583E-1,8.882769E0,0E0,0E0,0E0,2.8027344E0,2.812481E1,3.8646622E0,0E0,0E0,4.9153132E0,0E0,0E0,2.0598618E1,1.1507421E1,7.308496E1,0E0,0E0,9.057177E0,6.3830113E0,5.3368454E0,4.4709806E0,4.3238373E0,5.0605583E0,0E0,0E0,4.339096E0,2.6172495E0,6.1231675E0,4.2779856E0,1.4665716E1,3.3184624E0,9.273596E0,0E0,0E0,1.0970545E0,0E0,0E0,0E0,2.3496284E1,0E0,2.0721943E1,0E0,0E0,6.296911E-1,0E0,0E0,2.2250557E-1,1.0255926E0,2.7832718E0,2.9645046E1,0E0,2.1437988E0,0E0,1.1886507E-1,4.4683776E0,5.4543877E-1,6.449829E0,6.90649E0,1.0077056E1,0E0,0E0,1.1678526E1,0E0,0E0,3.2075424E0,1.0393962E0,8.9819336E-1,2.812747E0,2.3467054E0,0E0,0E0,7.686943E0,1.5865974E0,5.984907E0,0E0,0E0,0E0,0E0,0E0,0E0,0E0,0E0,0E0,0E0,0E0,0E0,0E0,0E0,0E0,0E0,0E0,0E0,0E0,0E0,0E0,0E0,0E0,0E0,0E0,0E0,0E0,0E0,0E0,0E0,0E0,0E0,0E0,0E0,0E0,0E0,0E0,0E0,0E0,0E0,0E0,0E0,0E0,0E0,0E0,0E0,0E0,0E0,0E0,0E0,0E0,0E0,0E0,0E0,0E0,0E0,0E0,0E0,0E0,0E0,0E0,0E0,0E0,0E0,0E0,0E0,0E0,0E0,0E0,0E0,0E0,0E0,0E0,0E0,0E0,0E0,0E0,0E0,0E0,0E0],"parents":[2147483647,0,0,1,1,2,2,3,3,4,4,5,5,6,6,7,7,8,8,9,9,10,10,11,11,12,12,13,13,14,14,15,15,17,17,18,18,19,19,20,20,21,21,22,22,23,23,24,24,26,26,27,27,28,28,29,29,31,31,33,33,34,34,35,35,36,36,37,37,39,39,40,40,41,41,42,42,43,43,44,44,45,45,46,46,47,47,48,48,49,49,50,50,51,51,52,52,53,53,56,56,57,57,58,58,59,59,60,60,61,61,62,62,63,63,64,64,65,65,66,66,70,70,72,72,73,73,74,74,77,77,78,78,79,79,80,80,81,81,82,82,83,83,84,84,85,85,86,86,87,87,88,88,89,89,93,93,94,94,95,95,98,98,101,101,102,102,103,103,106,106,107,107,108,108,109,109,110,110,111,111,114,114,115,115,116,116,117,117,118,118,119,119,120,120,123,123,127,127,129,129,132,132,135,135,136,136,137,137,138,138,140,140,142,142,143,143,144,144,145,145,146,146,147,147,150,150,153,153,154,154,155,155,156,156,157,157,160,160,161,161,162,162],"right_children":[2,4,6,8,10,12,14,16,18,20,22,24,26,28,30,32,-1,34,36,38,40,42,44,46,48,-1,50,52,54,56,-1,58,-1,60,62,64,66,68,-1,70,72,74,76,78,80,82,84,86,88,90,92,94,96,98,-1,-1,100,102,104,106,108,110,112,114,116,118,120,-1,-1,-1,122,-1,124,126,128,-1,-1,130,132,134,136,138,140,142,144,146,148,150,152,154,-1,-1,-1,156,158,160,-1,-1,162,-1,-1,164,166,168,-1,-1,170,172,174,176,178,180,-1,-1,182,184,186,188,190,192,194,-1,-1,196,-1,-1,-1,198,-1,200,-1,-1,202,-1,-1,204,206,208,210,-1,212,-1,214,216,218,220,222,224,-1,-1,226,-1,-1,228,230,232,234,236,-1,-1,238,240,242,-1,-1,-1,-1,-1,-1,-1,-1,-1,-1,-1,-1,-1,-1,-1,-1,-1,-1,-1,-1,-1,-1,-1,-1,-1,-1,-1,-1,-1,-1,-1,-1,-1,-1,-1,-1,-1,-1,-1,-1,-1,-1,-1,-1,-1,-1,-1,-1,-1,-1,-1,-1,-1,-1,-1,-1,-1,-1,-1,-1,-1,-1,-1,-1,-1,-1,-1,-1,-1,-1,-1,-1,-1,-1,-1,-1,-1,-1,-1,-1],"split_conditions":[-2.30625E1,1E0,-1.8145834E1,1E0,-1.0414E1,1E0,-1.6625E1,1E0,-6.31915E1,-1.09688E2,-1.2297E1,-2.0291666E1,-1.014375E2,1E0,-1.675E1,1E0,-5.3329516E-2,-2.30625E1,-1.1133E1,-2.0291666E1,1E0,1E0,-2.30625E1,1E0,1E0,-3.8213607E-2,1E0,1E0,-1.4916667E1,8E0,-5.6023248E-2,-1.0812E1,-5.4744154E-2,-9.9609E1,1E0,-2.30625E1,4E0,-1.0446875E2,-4.1563578E-2,7E0,-1.113125E2,-8.28555E1,-1.75E1,1E0,-9.2914E1,1E0,1E0,1E0,-1.5375E1,-1.4E1,-9.8195E1,-7.05E1,-1.4916667E1,-1.3453E1,5.8531243E-2,-5.4552704E-2,-1.49375E1,-2.30625E1,1E0,-9.96875E1,-7.59375E1,-2.5035E1,-1.44375E1,-1.5383E1,-1.0446875E2,-1.1875E1,-2.30625E1,4.043465E-2,-9.108336E-3,-5.3660817E-2,5E0,1.732078E-2,3E0,-1.6234E1,1E0,-2.959948E-3,-4.609793E-2,1E0,-6.5773E1,4E0,-1.38125E1,-1.04335E1,-2.575E1,1E0,-9.3828E1,1E0,-9.56875E1,-1.036875E2,-1.4586E1,-9.29375E1,-1.8346524E-2,4.234944E-2,-4.0771037E-2,1E0,-7.86875E1,-1.6375E1,5.652861E-2,-5.1243585E-2,4E0,-3.8454365E-2,2.1546206E-2,1E0,-9.8625E1,-2.30625E1,-4.8243232E-2,-2.8492568E-2,-1.09375E2,-1.05375E2,-6.5773E1,-9.6390625E1,7E0,-8.0578E1,6.011624E-2,1.8558268E-2,-7.825E1,-1.09375E2,1E0,-1.118E1,-1E1,-8.18125E1,-1.53125E1,-4.506503E-2,1.6780667E-2,-1.109375E1,-2.0354162E-3,2.0114167E-2,-4.2087883E-2,-1.89375E1,-4.070288E-2,-9.6664E1,-4.774289E-2,-3.1069263E-3,-1.3102E1,-3.883728E-2,5.7027906E-2,-1.036875E2,-8.58125E1,-1.425E1,-7.8375E1,1.3773344E-2,-6.31915E1,-5.502829E-2,-9.575E1,-9.8039E1,1E0,-1.8145834E1,-1.657E1,-1.75625E1,-4.7477588E-2,-3.7023854E-2,-1.825E1,-3.9064693E-3,-4.1225217E-2,-1.8125E1,-1.7125E1,1E0,5E0,-6.78125E1,-5.2697327E-2,-5.1959764E-2,-1.61875E1,3E0,-6.957E1,9.798425E-2,-3.9467078E-2,6.222991E-2,-4.6044663E-3,1.7641889E-1,9.851328E-2,1.5590902E-1,2.8475214E-2,9.18064E-3,-3.289045E-2,5.2806713E-2,-3.474891E-2,6.405323E-2,-3.268882E-2,-3.8736556E-2,1.5873875E-2,6.9842706E-3,-4.8410017E-2,1.5650128E-1,6.9315016E-2,1.65507E-2,1.2861086E-1,-3.5520937E-2,6.756549E-2,9.93834E-3,-3.8693335E-2,7.487871E-2,-1.0750111E-2,1.3221829E-1,1.797084E-2,6.1081607E-2,-3.0698702E-2,-5.2134473E-2,-1.0023861E-2,1.3528636E-1,1.4227832E-2,1.6334768E-1,2.363555E-2,-4.07652E-3,-5.022152E-2,-3.133407E-2,-5.3566564E-2,2.133768E-2,-2.895358E-2,-2.8413385E-2,-5.3702503E-2,-2.1307357E-2,2.8908608E-2,-5.2779716E-2,-3.7465904E-2,-2.8352425E-2,-2.980841E-3,-4.2637646E-2,3.499818E-2,-5.105252E-2,-7.285261E-3,-4.6984553E-2,-5.3692818E-2,5.152438E-2,-2.5481224E-2,5.3928196E-2,-4.2921852E-2,-2.232384E-2,1.0694172E-1,1.4551202E-2,1.1923671E-1,-2.94897E-2,2.0955738E-2,-5.40373E-2,-4.354569E-2,-4.2967673E-2,-3.2022551E-3,2.2586089E-2,1.1802571E-1,5.0237723E-2,-3.4324657E-2,-4.5967504E-2,1.2283459E-3,-2.231644E-2,7.9557955E-2],"split_indices":[182,180,182,160,188,94,182,198,167,27,108,122,23,94,62,178,0,22,128,2,111,189,82,180,114,0,180,114,62,40,0,148,0,127,29,102,80,1,0,180,1,167,4,189,27,160,29,54,184,104,187,23,82,148,0,0,4,82,158,143,63,8,2,148,81,4,22,0,0,0,0,0,160,8,198,0,0,198,107,20,22,148,28,134,27,134,101,21,68,161,0,0,0,134,81,4,0,0,40,0,0,194,1,62,0,0,41,61,87,161,160,127,0,0,163,41,49,48,64,63,24,0,0,4,0,0,0,2,0,7,0,0,48,0,0,1,43,104,127,0,167,0,63,27,111,102,68,122,0,0,144,0,0,48,144,29,80,23,0,0,64,60,167,0,0,0,0,0,0,0,0,0,0,0,0,0,0,0,0,0,0,0,0,0,0,0,0,0,0,0,0,0,0,0,0,0,0,0,0,0,0,0,0,0,0,0,0,0,0,0,0,0,0,0,0,0,0,0,0,0,0,0,0,0,0,0,0,0,0,0,0,0,0,0,0,0,0,0,0,0,0,0,0],"split_type":[0,0,0,0,0,0,0,0,0,0,0,0,0,0,0,0,0,0,0,0,0,0,0,0,0,0,0,0,0,0,0,0,0,0,0,0,0,0,0,0,0,0,0,0,0,0,0,0,0,0,0,0,0,0,0,0,0,0,0,0,0,0,0,0,0,0,0,0,0,0,0,0,0,0,0,0,0,0,0,0,0,0,0,0,0,0,0,0,0,0,0,0,0,0,0,0,0,0,0,0,0,0,0,0,0,0,0,0,0,0,0,0,0,0,0,0,0,0,0,0,0,0,0,0,0,0,0,0,0,0,0,0,0,0,0,0,0,0,0,0,0,0,0,0,0,0,0,0,0,0,0,0,0,0,0,0,0,0,0,0,0,0,0,0,0,0,0,0,0,0,0,0,0,0,0,0,0,0,0,0,0,0,0,0,0,0,0,0,0,0,0,0,0,0,0,0,0,0,0,0,0,0,0,0,0,0,0,0,0,0,0,0,0,0,0,0,0,0,0,0,0,0,0,0,0,0,0,0,0,0,0,0,0,0,0,0,0,0,0,0,0,0,0],"sum_hessian":[1.901619E5,9.4899243E2,1.892129E5,6.1631335E2,3.3267905E2,2.2637886E3,1.8694912E5,3.2504224E2,2.9127112E2,2.1468347E2,1.1799556E2,2.247099E3,1.668934E1,2.4712734E3,1.8447786E5,3.0564758E2,1.9394665E1,1.9288275E2,9.8388374E1,5.2315993E0,2.0945187E2,3.6951206E1,8.104436E1,5.0842474E2,1.7386746E3,2.1226184E0,1.4566723E1,2.44814E3,2.3133556E1,1.6012124E3,1.8287664E5,2.8858307E2,1.7064522E1,5.700055E1,1.358822E2,3.223675E1,6.615163E1,2.3674796E0,2.86412E0,1.9036638E2,1.9085497E1,3.1381773E1,5.5694323E0,4.883403E1,3.2210327E1,3.4654172E2,1.6188301E2,1.7264119E3,1.22625885E1,1.0896719E1,3.6700034E0,2.4229617E3,2.5178331E1,2.1484129E1,1.6494274E0,1.5980283E3,3.1840842E0,7.258641E1,2.1599664E2,6.9272513E0,5.0073296E1,1.1927843E2,1.660377E1,2.477247E1,7.464279E0,4.850196E1,1.7649666E1,1.115474E0,1.2520055E0,1.8453336E2,5.833019E0,1.7943602E0,1.7291138E1,4.0245533E0,2.735722E1,1.0010265E0,4.5684056E0,3.901708E1,9.816951E0,3.4813E0,2.8729027E1,1.8040897E2,1.6613275E2,1.4495816E2,1.692485E1,1.7109644E3,1.544758E1,8.533052E0,3.729536E0,9.107464E0,1.7892549E0,1.0777078E0,2.5922956E0,2.4039443E3,1.9017115E1,2.3485567E1,1.6927645E0,1.0474802E1,1.1009326E1,2.1835E0,1.0005841E0,4.6755177E1,2.5831232E1,2.0984203E2,6.15463E0,1.0029182E0,5.924333E0,4.30417E1,7.0315967E0,2.9234831E0,1.1635494E2,1.5414042E1,1.189727E0,1.7150209E0,2.3057451E1,2.5452604E0,4.9190187E0,2.9617395E1,1.8884567E1,8.503205E0,9.146461E0,4.019942E0,1.8130771E0,1.5401865E1,1.889273E0,1.0342021E0,2.9903512E0,2.4701433E1,2.6557865E0,3.331933E1,5.69775E0,1.0057818E0,8.811169E0,2.2292159E0,1.2520841E0,2.6643236E1,2.0857904E0,5.391569E1,1.2649328E2,1.2200956E0,1.6491266E2,1.4293413E2,2.0240252E0,5.5541778E0,1.1370673E1,1.6960463E3,1.491802E1,9.949617E0,5.4979625E0,1.89544E0,6.637613E0,1.0316126E0,2.6979234E0,6.9815173E0,2.1259472E0,2.3758816E3,2.8062735E1,3.4732964E0,1.55438175E1,1.2301225E1,1.1184342E1,6.9071274E0,4.102199E0,4.437735E1,2.3778274E0,9.480851E0,1.635038E1,1.6763077E2,4.2211254E1,1.6026975E0,4.3216357E0,1.2010119E1,3.103158E1,5.4383254E0,1.593271E0,1.5215383E0,1.4019449E0,1.1313462E2,3.2203252E0,9.336922E0,6.077121E0,1.8926786E1,4.130664E0,1.1041139E0,1.4411464E0,3.8688629E0,1.0501558E0,5.0409236E0,2.4576471E1,7.7742667E0,1.11103E1,7.4308734E0,1.072332E0,4.1149626E0,5.031498E0,1.3014579E1,2.3872857E0,1.938529E1,5.3161426E0,1.9719989E0,3.134733E1,1.0370173E0,7.7741513E0,7.2732177E0,1.9370018E1,1.0051575E0,1.080633E0,3.3281254E1,2.0634438E1,4.4661236E1,8.183204E1,1.20208855E2,4.47038E1,1.0225537E0,1.0014716E0,3.2020166E0,2.3521612E0,1.0190318E1,1.180355E0,9.775462E2,7.185001E2,2.7572634E0,1.2160757E1,6.7324333E0,3.2171843E0,2.1096656E0,4.527947E0,1.1724998E0,5.809017E0,1.1119031E0,1.014044E0,2.3286907E3,4.7190956E1,2.2324642E1,5.7380924E0,1.5966369E0,1.8766595E0,2.7913375E0,8.393004E0,4.342967E0,2.5641603E0,2.128866E0,1.973333E0],"tree_param":{"num_deleted":"0","num_feature":"200","num_nodes":"243","size_leaf_vector":"1"}},{"base_weights":[-1.1011915E0,5.3014874E-1,-1.1098895E0,1.0828422E0,-5.570086E-1,-8.8214475E-1,-1.1126677E0,1.9722589E0,9.705466E-3,-1.0055012E0,2.2314827E-1,-8.943068E-1,6.264058E-1,-1.0480309E0,-1.1135298E0,2.1453438E0,-5.291568E-2,3.9407262E-1,-5.8632E-1,-2.9664811E-1,-1.0220933E0,5.256469E-1,-9.577457E-1,-7.4411047E-1,-9.95091E-1,-3.8765818E-2,8.7567574E-1,-1.0540668E0,-4.059645E-1,-1.0820242E0,-5.5689987E-2,2.3167017E0,-5.4218985E-2,7.0954096E-1,-3.5044608E-1,-5.3962185E-3,-8.0166966E-1,3.7024337E-1,-4.1020077E-2,-1.0502826E0,-7.0479995E-1,8.231325E-1,-7.96477E-1,-5.3510267E-2,-2.448614E-1,-6.1776197E-1,-1.0361769E0,-1.001301E0,1.5959036E-1,-2.58983E-1,1.2430837E0,-1.0597594E0,-4.9666584E-1,-5.746514E-1,5.5148404E-2,-5.41622E-2,-3.66341E-1,1.1952995E0,2.6618683E0,8.4859836E-1,-5.1529694E-2,2.8388378E-1,-4.950156E-1,-2.074384E-1,1.1865447E0,4.240593E-1,-8.516609E-1,3.85142E-2,-8.775111E-3,-5.323721E-2,-5.0950646E-1,-5.1006403E-2,-2.2659102E-1,1.0555655E0,-4.99571E-2,1.1912415E-2,-9.386247E-1,-3.807893E-2,2.3310473E-2,-3.8542303E-1,-9.533225E-1,-1.0467905E0,5.941387E-2,-1.0082986E0,4.631667E-2,6.505482E-2,-2.192217E-1,1.9482506E-2,-3.7831686E-2,1.7432692E0,-1.3681225E-1,-1.0644481E0,-4.1612256E-1,-6.57172E-1,5.329565E-2,-5.077827E-2,-1.1734619E-1,2.1490822E-2,-3.8054895E-2,2.5634E0,9.296585E-1,2.757406E0,-4.773327E-2,1.2950956E0,3.628928E-1,8.0547017E-1,-4.9799377E-1,-9.2028546E-1,-2.648668E-1,1.0896676E-1,-8.912229E-1,1.2343134E-1,-3.54041E-2,-3.195104E-2,6.041183E-2,-9.017329E-1,3.5999708E-2,-4.4519436E-2,1.6101293E-2,4.1997083E-2,-5.688132E-1,1.6344324E0,-5.960529E-2,-3.7472341E-3,-9.913783E-1,-1.0625835E-1,-8.1467056E-1,-9.713735E-1,4.273479E-1,-1.0573303E0,-2.1727489E-1,-3.2364268E-2,4.211154E-2,-1.0136167E0,-3.266947E-1,-4.3195087E-1,1.1901345E0,4.4541575E-2,-5.794638E-1,2.0653412E0,4.845329E-3,-3.4484982E-2,2.3161527E-2,-1.06831E0,-6.269247E-1,1.6499091E0,-5.200375E-2,-9.545424E-1,-2.8111738E-1,7.354864E-1,-5.337939E-1,1.547579E-1,4.669298E-2,6.6790834E-2,8.232175E-3,7.762704E-2,1.4892454E-1,1.9058472E-2,8.470558E-2,8.565194E-2,1.0062261E-2,-2.162653E-2,7.2290294E-2,-4.2257175E-2,1.9921836E-2,-1.6384818E-2,-5.174088E-2,-1.9146247E-2,4.8241857E-2,-4.477942E-2,2.0235417E-2,-4.8109894E-3,-4.915276E-2,-1.3418014E-2,-4.6544813E-2,-3.5964873E-2,3.1718515E-2,1.5431854E-2,-4.5933127E-2,1.6311608E-1,6.0448863E-2,6.471634E-2,-2.9516784E-2,-5.2594204E-2,-3.8186212E-3,-3.328387E-2,3.8797979E-3,-4.5095515E-2,4.7283042E-2,-5.1392723E-2,-3.8254995E-2,-3.471235E-2,7.75091E-2,-5.3863823E-2,-4.0116332E-2,-3.9173312E-2,3.6812004E-2,-5.0920453E-2,-1.33202365E-2,-3.3715483E-2,3.7275296E-2,-4.4311386E-2,1.4105287E-2,9.5840834E-2,-4.4523147E-3,-4.423214E-2,1.8904813E-2,1.3579361E-2,1.1817966E-1,-5.370043E-2,-3.856506E-2,-3.702841E-2,4.0295403E-2,2.2103732E-2,1.0610811E-1,-5.0955124E-2,-1.5594329E-2,4.633152E-2,-3.4439273E-2,7.4541844E-2,-1.584181E-2,2.5011597E-2,-4.1317705E-2],"categories":[],"categories_nodes":[],"categories_segments":[],"categories_sizes":[],"default_left":[0,0,0,0,0,0,0,0,0,0,0,0,0,0,0,0,0,0,0,0,0,0,0,0,0,0,0,0,0,0,0,0,0,0,0,0,0,0,0,0,0,0,0,0,0,0,0,0,0,0,0,0,0,0,0,0,0,0,0,0,0,0,0,0,0,0,0,0,0,0,0,0,0,0,0,0,0,0,0,0,0,0,0,0,0,0,0,0,0,0,0,0,0,0,0,0,0,0,0,0,0,0,0,0,0,0,0,0,0,0,0,0,0,0,0,0,0,0,0,0,0,0,0,0,0,0,0,0,0,0,0,0,0,0,0,0,0,0,0,0,0,0,0,0,0,0,0,0,0,0,0,0,0,0,0,0,0,0,0,0,0,0,0,0,0,0,0,0,0,0,0,0,0,0,0,0,0,0,0,0,0,0,0,0,0,0,0,0,0,0,0,0,0,0,0,0,0,0,0,0,0,0,0,0,0,0,0,0,0,0,0,0,0,0,0,0,0,0,0,0,0,0,0],"id":3,"left_children":[1,3,5,7,9,11,13,15,17,19,21,23,25,27,29,31,-1,33,35,37,39,41,43,45,47,-1,49,51,53,55,-1,57,-1,59,61,63,65,67,-1,69,71,73,75,-1,77,79,81,83,85,87,89,91,93,95,-1,-1,97,99,101,103,-1,105,107,109,111,113,115,-1,-1,-1,117,-1,119,121,-1,-1,123,-1,-1,125,127,129,131,133,135,-1,137,-1,-1,139,141,143,145,147,-1,-1,149,-1,-1,151,153,155,-1,157,159,161,163,165,167,169,171,-1,-1,-1,-1,173,175,-1,-1,-1,177,179,181,-1,183,185,187,189,191,193,195,-1,-1,197,199,201,203,-1,205,207,-1,-1,-1,209,211,213,-1,215,217,219,221,-1,-1,-1,-1,-1,-1,-1,-1,-1,-1,-1,-1,-1,-1,-1,-1,-1,-1,-1,-1,-1,-1,-1,-1,-1,-1,-1,-1,-1,-1,-1,-1,-1,-1,-1,-1,-1,-1,-1,-1,-1,-1,-1,-1,-1,-1,-1,-1,-1,-1,-1,-1,-1,-1,-1,-1,-1,-1,-1,-1,-1,-1,-1,-1,-1,-1,-1,-1,-1,-1,-1,-1],"loss_changes":[2.5834688E3,5.8108203E2,1.13546875E2,6.115908E2,1.1438712E2,4.0686768E1,8.78125E0,1.8607605E2,6.6991356E1,2.1223602E0,4.3330658E1,3.2088135E1,6.994314E0,8.748291E0,2.96875E-1,1.8615027E2,0E0,4.200686E1,1.4329811E1,2.4616704E0,1.0506287E0,3.845489E1,1.7129211E0,3.1645294E1,9.457764E0,0E0,6.9263897E0,6.911377E0,6.668255E0,9.2871094E-1,0E0,1.1886035E2,0E0,3.1170197E1,5.055152E0,7.948568E0,5.489296E0,8.8181925E-1,0E0,8.777771E-1,2.706831E0,3.449501E1,2.9008198E0,0E0,2.0804126E0,4.7451096E1,3.1282654E0,9.503906E0,3.6620305E0,1.8124697E0,8.625786E0,6.555908E0,7.1282887E0,4.3065658E0,0E0,0E0,1.6304483E0,2.5221237E1,8.569263E1,2.4777443E1,0E0,4.712965E0,4.051237E0,6.215027E0,1.3384391E1,4.0594482E0,3.6272469E0,0E0,0E0,0E0,2.420172E0,0E0,3.7866964E0,4.5629967E1,0E0,0E0,6.518898E-1,0E0,0E0,4.354776E1,6.6587524E0,2.0338745E0,2.4606674E0,4.2962646E0,5.717353E0,0E0,3.1898654E0,0E0,0E0,4.539831E0,1.6980996E0,3.2109375E0,2.5513891E1,2.389821E0,0E0,0E0,4.6325645E0,0E0,0E0,7.286171E0,2.0042992E1,5.777417E1,0E0,2.1322342E1,1.2119457E1,5.9685216E0,1.8467941E0,6.675167E-1,4.7147336E0,6.355278E0,5.555463E-1,0E0,0E0,0E0,0E0,1.1498413E0,2.8323257E0,0E0,0E0,0E0,2.5834827E0,2.8187271E1,1.8759321E1,0E0,7.4706554E-1,2.28751E1,2.2868439E1,2.0778198E0,6.018441E0,4.2321777E-1,3.0268166E0,0E0,0E0,4.2628174E0,4.7515492E0,2.6645112E0,3.0453176E0,0E0,1.9954299E0,3.3208084E0,0E0,0E0,0E0,3.0205078E0,4.280319E0,1.6977482E0,0E0,2.0419598E-1,6.5331163E0,3.9270167E0,3.0220194E0,0E0,0E0,0E0,0E0,0E0,0E0,0E0,0E0,0E0,0E0,0E0,0E0,0E0,0E0,0E0,0E0,0E0,0E0,0E0,0E0,0E0,0E0,0E0,0E0,0E0,0E0,0E0,0E0,0E0,0E0,0E0,0E0,0E0,0E0,0E0,0E0,0E0,0E0,0E0,0E0,0E0,0E0,0E0,0E0,0E0,0E0,0E0,0E0,0E0,0E0,0E0,0E0,0E0,0E0,0E0,0E0,0E0,0E0,0E0,0E0,0E0,0E0,0E0,0E0,0E0,0E0,0E0,0E0,0E0,0E0,0E0,0E0],"parents":[2147483647,0,0,1,1,2,2,3,3,4,4,5,5,6,6,7,7,8,8,9,9,10,10,11,11,12,12,13,13,14,14,15,15,17,17,18,18,19,19,20,20,21,21,22,22,23,23,24,24,26,26,27,27,28,28,29,29,31,31,33,33,34,34,35,35,36,36,37,37,39,39,40,40,41,41,42,42,44,44,45,45,46,46,47,47,48,48,49,49,50,50,51,51,52,52,53,53,56,56,57,57,58,58,59,59,61,61,62,62,63,63,64,64,65,65,66,66,70,70,72,72,73,73,76,76,79,79,80,80,81,81,82,82,83,83,84,84,86,86,89,89,90,90,91,91,92,92,93,93,96,96,99,99,100,100,101,101,103,103,104,104,105,105,106,106,107,107,108,108,109,109,110,110,115,115,116,116,120,120,121,121,122,122,124,124,125,125,126,126,127,127,128,128,129,129,130,130,133,133,134,134,135,135,136,136,138,138,139,139,143,143,144,144,145,145,147,147,148,148,149,149,150,150],"right_children":[2,4,6,8,10,12,14,16,18,20,22,24,26,28,30,32,-1,34,36,38,40,42,44,46,48,-1,50,52,54,56,-1,58,-1,60,62,64,66,68,-1,70,72,74,76,-1,78,80,82,84,86,88,90,92,94,96,-1,-1,98,100,102,104,-1,106,108,110,112,114,116,-1,-1,-1,118,-1,120,122,-1,-1,124,-1,-1,126,128,130,132,134,136,-1,138,-1,-1,140,142,144,146,148,-1,-1,150,-1,-1,152,154,156,-1,158,160,162,164,166,168,170,172,-1,-1,-1,-1,174,176,-1,-1,-1,178,180,182,-1,184,186,188,190,192,194,196,-1,-1,198,200,202,204,-1,206,208,-1,-1,-1,210,212,214,-1,216,218,220,222,-1,-1,-1,-1,-1,-1,-1,-1,-1,-1,-1,-1,-1,-1,-1,-1,-1,-1,-1,-1,-1,-1,-1,-1,-1,-1,-1,-1,-1,-1,-1,-1,-1,-1,-1,-1,-1,-1,-1,-1,-1,-1,-1,-1,-1,-1,-1,-1,-1,-1,-1,-1,-1,-1,-1,-1,-1,-1,-1,-1,-1,-1,-1,-1,-1,-1,-1,-1,-1,-1,-1,-1],"split_conditions":[-2.30625E1,1E0,-1.8145834E1,1E0,-1.0414E1,1E0,-1.6625E1,1E0,-2.30625E1,-1.09688E2,1E0,-1.89375E1,-1.02125E2,1E0,-1.675E1,1E0,-5.291568E-2,1E0,-1.0825E2,-2.0291666E1,1E0,1E0,1E0,1E0,1E0,-3.8765818E-2,-1.81875E1,1E0,-1.4916667E1,8E0,-5.5689987E-2,-1.0887E1,-5.4218985E-2,1E0,-9.6945E1,-9.04375E1,-1.07398E2,-1.068125E2,-4.1020077E-2,7E0,-1.2344E1,1E0,-1.8246E1,-5.3510267E-2,2E0,1E0,1E0,1E0,-1.657E1,-9.575E1,-1.5E1,-7.05E1,-1.4916667E1,-1.3453E1,5.5148404E-2,-5.41622E-2,-1.7875E1,-1.113125E2,1E0,-1.0125E2,-5.1529694E-2,4E0,-1.3789E1,-1.113125E2,-1.029375E2,-2.832E1,1E0,3.85142E-2,-8.775111E-3,-5.323721E-2,5E0,-5.1006403E-2,-8.2434E1,-2.30625E1,-4.99571E-2,1.1912415E-2,-1.7625E1,-3.807893E-2,2.3310473E-2,-9.4375E1,1E0,1E0,-9.59375E1,1E0,3E0,6.505482E-2,-1.6656E1,1.9482506E-2,-3.7831686E-2,-1.8145834E1,-1.38125E1,1E0,-7.86875E1,-1.6375E1,5.329565E-2,-5.077827E-2,-1.5102E1,2.1490822E-2,-3.8054895E-2,1E0,-2.30625E1,-1.7125E1,-4.773327E-2,-9.675E1,-1.81875E1,-1.55E1,-9.8195E1,-9.2781E1,6E0,-1.7391E1,-9.6797E1,1.2343134E-1,-3.54041E-2,-3.195104E-2,6.041183E-2,-1.02375E2,-8.75E1,-4.4519436E-2,1.6101293E-2,4.1997083E-2,-2.30625E1,-1.3281E1,-8.8305E1,-3.7472341E-3,1E0,-7.8172E1,-7.05E1,4E0,-1.89375E1,1E0,3E0,-3.2364268E-2,4.211154E-2,1E0,-1.575E1,-9.38125E1,-1.8145834E1,4.4541575E-2,-9.06875E1,-1.036875E2,4.845329E-3,-3.4484982E-2,2.3161527E-2,1E0,-1.478125E1,-8.425E1,-5.200375E-2,5E0,-1.61875E1,-1.7125E1,-8.7312E1,1.547579E-1,4.669298E-2,6.6790834E-2,8.232175E-3,7.762704E-2,1.4892454E-1,1.9058472E-2,8.470558E-2,8.565194E-2,1.0062261E-2,-2.162653E-2,7.2290294E-2,-4.2257175E-2,1.9921836E-2,-1.6384818E-2,-5.174088E-2,-1.9146247E-2,4.8241857E-2,-4.477942E-2,2.0235417E-2,-4.8109894E-3,-4.915276E-2,-1.3418014E-2,-4.6544813E-2,-3.5964873E-2,3.1718515E-2,1.5431854E-2,-4.5933127E-2,1.6311608E-1,6.0448863E-2,6.471634E-2,-2.9516784E-2,-5.2594204E-2,-3.8186212E-3,-3.328387E-2,3.8797979E-3,-4.5095515E-2,4.7283042E-2,-5.1392723E-2,-3.8254995E-2,-3.471235E-2,7.75091E-2,-5.3863823E-2,-4.0116332E-2,-3.9173312E-2,3.6812004E-2,-5.0920453E-2,-1.33202365E-2,-3.3715483E-2,3.7275296E-2,-4.4311386E-2,1.4105287E-2,9.5840834E-2,-4.4523147E-3,-4.423214E-2,1.8904813E-2,1.3579361E-2,1.1817966E-1,-5.370043E-2,-3.856506E-2,-3.702841E-2,4.0295403E-2,2.2103732E-2,1.0610811E-1,-5.0955124E-2,-1.5594329E-2,4.633152E-2,-3.4439273E-2,7.4541844E-2,-1.584181E-2,2.5011597E-2,-4.1317705E-2],"split_indices":[182,180,182,160,188,94,182,198,82,27,189,82,3,94,62,178,0,169,161,2,111,160,9,180,114,0,124,114,62,40,0,148,0,178,127,163,87,21,0,180,148,198,8,0,60,160,114,74,48,103,164,3,82,148,0,0,144,101,158,81,0,80,48,161,101,88,91,0,0,0,0,0,147,82,0,0,104,0,0,161,114,134,101,54,60,0,148,0,0,142,144,74,81,24,0,0,128,0,0,29,82,144,0,163,48,8,127,127,80,128,27,0,0,0,0,127,63,0,0,0,22,8,27,0,131,147,123,40,2,29,60,0,0,134,124,143,142,0,61,81,0,0,0,9,62,61,0,0,64,162,7,0,0,0,0,0,0,0,0,0,0,0,0,0,0,0,0,0,0,0,0,0,0,0,0,0,0,0,0,0,0,0,0,0,0,0,0,0,0,0,0,0,0,0,0,0,0,0,0,0,0,0,0,0,0,0,0,0,0,0,0,0,0,0,0,0,0,0,0,0,0,0,0],"split_type":[0,0,0,0,0,0,0,0,0,0,0,0,0,0,0,0,0,0,0,0,0,0,0,0,0,0,0,0,0,0,0,0,0,0,0,0,0,0,0,0,0,0,0,0,0,0,0,0,0,0,0,0,0,0,0,0,0,0,0,0,0,0,0,0,0,0,0,0,0,0,0,0,0,0,0,0,0,0,0,0,0,0,0,0,0,0,0,0,0,0,0,0,0,0,0,0,0,0,0,0,0,0,0,0,0,0,0,0,0,0,0,0,0,0,0,0,0,0,0,0,0,0,0,0,0,0,0,0,0,0,0,0,0,0,0,0,0,0,0,0,0,0,0,0,0,0,0,0,0,0,0,0,0,0,0,0,0,0,0,0,0,0,0,0,0,0,0,0,0,0,0,0,0,0,0,0,0,0,0,0,0,0,0,0,0,0,0,0,0,0,0,0,0,0,0,0,0,0,0,0,0,0,0,0,0,0,0,0,0,0,0,0,0,0,0,0,0,0,0,0,0,0,0],"sum_hessian":[1.820277E5,9.6506366E2,1.8106262E5,6.398084E2,3.2525525E2,2.1859368E3,1.788767E5,3.493881E2,2.904203E2,2.0635242E2,1.18902824E2,2.168865E3,1.7071703E1,2.3705085E3,1.7650619E5,3.3079105E2,1.859704E1,1.7677596E2,1.1364434E2,5.165195E0,2.0118723E2,9.51042E1,2.3798622E1,8.7433997E2,1.2945251E3,2.2528377E0,1.4818866E1,2.3477803E3,2.272822E1,1.5339176E3,1.7497227E5,3.143961E2,1.639497E1,1.2420716E2,5.2568794E1,3.1024542E1,8.26198E1,2.3926516E0,2.7725434E0,1.8262096E2,1.8566269E1,7.794998E1,1.715422E1,2.0110819E1,3.6878018E0,6.125144E2,2.6182553E2,1.2877411E3,6.7841277E0,3.6902454E0,1.112862E1,2.323135E3,2.4645124E1,2.1005737E1,1.7224842E0,1.5307812E3,3.1363351E0,7.505243E1,2.3934366E2,1.15495766E2,8.711399E0,9.56546E0,4.3003334E1,2.7241308E1,3.7832336E0,2.9365373E0,7.968326E1,1.1537921E0,1.2388594E0,1.7690276E2,5.7181973E0,1.0493068E1,8.073201E0,6.951013E1,8.439856E0,1.9818035E0,1.5172417E1,2.1027904E0,1.5850115E0,3.6320978E2,2.4930464E2,2.5936655E2,2.4589643E0,1.2792434E3,8.497637E0,1.0903147E0,5.693813E0,1.6875871E0,2.0026581E0,7.979955E0,3.1486652E0,2.3056697E3,1.746549E1,2.288068E1,1.7644445E0,1.0061879E1,1.0943857E1,1.0017769E0,2.1345584E0,1.0790717E1,6.426171E1,2.3341782E2,5.925853E0,5.9297768E1,5.6197994E1,5.7273746E0,3.8380861E0,1.4032296E1,2.8971037E1,1.9188362E1,8.052945E0,2.0788229E0,1.7044108E0,1.3197523E0,1.6167848E0,7.542408E1,4.2591805E0,3.8815186E0,1.8366789E0,1.6007819E0,6.4724193E0,4.545731E1,2.4052818E1,1.0236406E0,1.4148776E1,2.2084938E2,1.4236038E2,2.4638705E2,2.917587E0,2.5582933E2,3.537234E0,1.3765882E0,1.0823761E0,1.2688417E3,1.0401698E1,6.424825E0,2.072811E0,1.0273865E0,4.666426E0,6.4563594E0,1.5235963E0,1.5696326E0,1.5790325E0,2.2840442E3,2.1625402E1,3.6660726E0,1.37994175E1,1.1903177E1,1.0977503E1,3.3314202E0,7.6124372E0,7.453062E0,3.3376555E0,4.148009E1,2.2781618E1,3.7440838E1,1.9597697E2,1.862301E1,4.067476E1,4.9761286E0,5.1221867E1,2.0578036E0,3.6695707E0,2.8159537E0,1.0221324E0,2.9123392E0,1.1119957E1,2.7069004E1,1.9020332E0,3.895226E0,1.5293137E1,1.0572119E0,6.9957333E0,3.7841575E0,7.163992E1,1.7859933E0,2.4731874E0,1.8704349E0,4.6019845E0,8.0323515E0,3.7424957E1,6.362925E0,1.7689894E1,1.3120639E1,1.0281373E0,5.3993977E1,1.6685541E2,1.3610837E2,6.2520247E0,1.902595E2,5.6127552E1,1.6460994E0,1.2714876E0,2.3424324E2,2.158608E1,2.3378558E0,1.1993783E0,1.2603818E3,8.459861E0,8.1423235E0,2.259374E0,3.7878895E0,2.636936E0,1.0089744E0,1.0638366E0,3.604308E0,1.0621184E0,1.1976349E0,5.258724E0,2.2384465E3,4.5597702E1,2.0490356E1,1.1350458E0,1.5806569E0,2.0854158E0,1.0270131E1,1.6330457E0,2.4428477E0,8.534656E0,1.702307E0,1.6291131E0,1.5147334E0,6.097704E0],"tree_param":{"num_deleted":"0","num_feature":"200","num_nodes":"223","size_leaf_vector":"1"}},{"base_weights":[-1.094479E0,4.9482447E-1,-1.1034614E0,9.9426264E-1,-5.425907E-1,-8.6882424E-1,-1.1063508E0,-2.2124828E-1,1.5655651E0,-9.954582E-1,2.098506E-1,-8.812086E-1,5.859989E-1,-1.0392706E0,-1.1072478E0,9.243133E-2,-6.5312827E-1,1.689709E0,-5.3287417E-2,-1.21410236E-1,-1.0042202E0,1.0318245E0,-2.2777186E-1,-7.288489E-1,-9.8450875E-1,-3.823558E-2,8.155712E-1,-1.0455109E0,-3.913927E-1,-1.0744894E0,-5.5376448E-2,3.241441E-1,-4.0014493E-1,9.4649047E-1,-7.086293E-1,1.944305E0,5.7336974E-1,2.1148266E-2,-2.9243002E-2,-1.0320196E0,-6.880866E-1,1.3273447E0,-7.893552E-1,3.993734E-1,-6.320161E-1,-6.02003E-1,-1.0270243E0,-9.909111E-1,1.6224472E-1,-2.518591E-1,1.1468899E0,-1.0513973E0,-4.8198515E-1,-5.59509E-1,5.2021153E-2,-5.3787638E-2,-3.5621357E-1,-9.343083E-3,7.790441E-1,-8.510503E-1,-1.2262715E-1,-1.2514698E-2,9.61242E-2,1.4325006E-1,-7.6655656E-1,6.7115283E-1,2.076205E0,-6.479957E-1,7.7354014E-1,-1.0463852E0,-4.9684387E-1,-9.506734E-1,-9.1361284E-2,-4.8928642E-1,1.5623258E0,-3.5597456E-3,-4.550917E-2,8.019393E-1,-8.6018735E-1,-3.5843207E-3,-7.8887E-1,-9.5155454E-1,-3.768936E-1,-1.037988E0,5.8742043E-2,-9.981265E-1,4.9827334E-2,9.50239E-1,-3.63953E-1,1.8696947E-2,-3.7292913E-2,1.3703007E0,-2.968957E-2,-1.0562427E0,-4.0054205E-1,-6.4261055E-1,5.0304305E-2,-5.0324608E-2,-1.0937688E-1,-3.7619583E-2,2.121057E-2,1.467516E0,-1.8259005E-1,1.0229957E-1,1.4036678E0,-1.9297734E-1,-9.562545E-1,-7.341865E-1,1.4125869E-1,-6.2367266E-1,1.1349286E0,-3.6033627E-1,-9.416961E-1,2.0430515E0,4.2206034E-1,2.1183805E0,-4.76404E-2,3.2742225E-2,-9.471463E-1,1.1283125E0,-2.2567423E-2,-6.212348E-3,-5.2584417E-2,2.1126954E-2,-7.400237E-1,-4.460522E-3,-5.0943226E-2,5.295601E-1,-4.027904E-2,2.1325586E-2,-4.1653574E-2,1.7993557E0,-4.032304E-2,1.266547E0,-4.5947224E-2,-4.796509E-2,-6.781017E-3,-6.084199E-1,3.2010275E-1,1.5452551E-2,-8.3093256E-1,-9.6789914E-1,6.2753506E-2,-9.126073E-2,-6.636162E-1,-1.0488782E0,-2.0898563E-1,3.9161634E-2,-3.181423E-2,-2.505882E-1,-1.0030444E0,-4.2451452E-2,6.5295696E-1,8.545904E-2,-9.27846E-3,4.2679008E-2,-4.3210465E-2,1.6447598E0,-1.3753044E-2,-1.0602441E0,-6.109174E-1,1.5325154E0,-5.1580448E-2,-5.11222E-2,-1.9257288E-1,-5.8582586E-1,6.0902685E-1,8.463983E-3,1.1322787E-1,-4.4038802E-2,3.6349688E-3,4.7397666E-2,-2.0074679E-2,1.0171018E-1,1.3612154E-2,1.9132376E-2,-3.1499326E-2,-8.112879E-3,-5.1209446E-2,1.568109E-3,-4.727043E-2,4.0908787E-2,-1.4917048E-2,-3.871317E-2,-4.0047164E-3,-6.368471E-3,9.560954E-2,-3.1317756E-2,4.7469277E-2,-5.019003E-2,-2.4590318E-3,-9.730977E-3,1.4111231E-1,7.7444494E-2,6.910431E-4,1.076588E-1,-4.839267E-2,-5.1389445E-2,-6.182929E-3,3.2284886E-2,8.591279E-2,-1.0031731E-2,6.14324E-2,-4.3534096E-2,-4.5312424E-3,-1.2590195E-2,5.0982174E-2,1.6263418E-1,6.0469247E-2,1.1761695E-1,7.5091794E-3,-3.8106598E-2,-3.0463343E-3,-3.3532005E-2,3.351758E-2,-2.8668841E-2,-4.7529653E-2,-4.9585458E-2,2.4033433E-2,-3.415474E-2,8.87872E-3,-1.8094676E-2,-4.8966944E-2,-6.366437E-3,-5.263123E-2,4.595785E-2,-3.9886333E-2,3.3294354E-2,-4.616231E-2,-5.0398678E-2,-1.2845947E-2,1.0560504E-1,-3.0302841E-2,9.3403645E-2,8.051488E-3,-5.3235043E-2,-3.330626E-2,-3.845041E-2,4.8286233E-2,1.871649E-2,1.0213595E-1,4.508948E-2,-3.285335E-2,-4.5211706E-2,2.1482517E-3,-2.1795157E-2,7.259401E-2],"categories":[],"categories_nodes":[],"categories_segments":[],"categories_sizes":[],"default_left":[0,0,0,0,0,0,0,0,0,0,0,0,0,0,0,0,0,0,0,0,0,0,0,0,0,0,0,0,0,0,0,0,0,0,0,0,0,0,0,0,0,0,0,0,0,0,0,0,0,0,0,0,0,0,0,0,0,0,0,0,0,0,0,0,0,0,0,0,0,0,0,0,0,0,0,0,0,0,0,0,0,0,0,0,0,0,0,0,0,0,0,0,0,0,0,0,0,0,0,0,0,0,0,0,0,0,0,0,0,0,0,0,0,0,0,0,0,0,0,0,0,0,0,0,0,0,0,0,0,0,0,0,0,0,0,0,0,0,0,0,0,0,0,0,0,0,0,0,0,0,0,0,0,0,0,0,0,0,0,0,0,0,0,0,0,0,0,0,0,0,0,0,0,0,0,0,0,0,0,0,0,0,0,0,0,0,0,0,0,0,0,0,0,0,0,0,0,0,0,0,0,0,0,0,0,0,0,0,0,0,0,0,0,0,0,0,0,0,0,0,0,0,0,0,0,0,0,0,0,0,0,0,0,0,0,0,0,0,0,0,0,0,0,0,0,0,0],"id":4,"left_children":[1,3,5,7,9,11,13,15,17,19,21,23,25,27,29,31,33,35,-1,37,39,41,43,45,47,-1,49,51,53,55,-1,57,59,61,63,65,67,-1,-1,69,71,73,75,77,79,81,83,85,87,89,91,93,95,97,-1,-1,99,101,103,105,107,-1,-1,109,111,113,115,117,119,121,123,125,127,129,131,-1,-1,133,135,137,139,141,143,145,147,149,151,153,155,-1,-1,157,-1,159,161,163,-1,-1,165,-1,-1,167,169,171,173,175,177,179,181,183,185,187,189,191,193,195,-1,-1,197,199,201,-1,-1,-1,203,-1,-1,205,-1,-1,-1,207,-1,209,-1,-1,-1,211,213,-1,215,217,-1,219,221,223,225,-1,-1,227,229,-1,231,-1,-1,-1,-1,233,-1,235,237,239,-1,-1,241,243,245,-1,-1,-1,-1,-1,-1,-1,-1,-1,-1,-1,-1,-1,-1,-1,-1,-1,-1,-1,-1,-1,-1,-1,-1,-1,-1,-1,-1,-1,-1,-1,-1,-1,-1,-1,-1,-1,-1,-1,-1,-1,-1,-1,-1,-1,-1,-1,-1,-1,-1,-1,-1,-1,-1,-1,-1,-1,-1,-1,-1,-1,-1,-1,-1,-1,-1,-1,-1,-1,-1,-1,-1,-1,-1,-1,-1,-1,-1,-1,-1],"loss_changes":[2.4872656E3,5.081203E2,1.164375E2,4.5982037E2,1.0891759E2,3.856653E1,9.109375E0,2.8842815E1,1.4887744E2,1.3933411E0,4.3651283E1,3.2227173E1,6.3354635E0,8.7717285E0,3.59375E-1,1.4271628E1,8.614956E0,1.2116626E2,0E0,1.03796E0,1.0057068E0,2.3719063E1,2.0424654E1,3.151831E1,9.311279E0,0E0,6.0387383E0,6.9484863E0,6.18871E0,9.3652344E-1,0E0,1.28848295E1,4.900643E0,4.496847E0,4.4134293E0,5.7352173E1,2.038906E1,0E0,0E0,8.426056E-1,2.874981E0,1.6404106E1,4.8960257E-1,1.6806395E1,4.7969704E0,4.6748703E1,3.0737305E0,9.359131E0,3.5710127E0,1.72257E0,5.7117176E0,6.588867E0,6.653262E0,4.2083497E0,0E0,0E0,1.5870953E0,1.3029168E1,1.5020878E1,8.483963E-1,4.303802E0,0E0,0E0,5.562334E0,5.460846E0,1.0848071E1,4.248181E1,5.29663E0,1.990617E1,7.066345E-1,1.793141E0,6.6489315E-1,3.4957156E0,1.9178436E0,1.9800156E1,0E0,0E0,2.0844582E1,4.4603395E-1,2.3040924E0,2.0637531E0,9.6480255E0,2.9900463E1,2.023529E0,2.2416592E0,4.2579346E0,5.68628E0,3.2574408E0,4.0090327E0,0E0,0E0,5.637705E0,0E0,3.2751465E0,2.3643805E1,3.77592E0,0E0,0E0,4.4141946E0,0E0,0E0,5.1244583E0,8.196155E0,8.191937E0,1.2683739E1,1.0850433E0,5.091753E-1,1.3334765E0,5.89793E0,2.761308E-1,3.3431501E0,9.738063E0,3.0694313E0,9.311554E0,1.3915106E1,3.5666504E1,0E0,0E0,5.365572E-1,1.2730419E1,5.2844744E0,0E0,0E0,0E0,3.8642025E-1,0E0,0E0,1.908996E0,0E0,0E0,0E0,2.174836E1,0E0,2.362677E1,0E0,0E0,0E0,2.9090583E-1,3.1052456E0,0E0,6.063671E-1,8.5095825E0,0E0,2.9479689E1,1.7011429E1,7.0458984E-1,3.7207403E0,0E0,0E0,6.403041E0,4.2211914E0,0E0,1.2756882E1,0E0,0E0,0E0,0E0,2.9801254E0,0E0,3.119629E0,6.2417717E0,2.0774755E0,0E0,0E0,6.6463304E0,1.5782206E0,5.2307053E0,0E0,0E0,0E0,0E0,0E0,0E0,0E0,0E0,0E0,0E0,0E0,0E0,0E0,0E0,0E0,0E0,0E0,0E0,0E0,0E0,0E0,0E0,0E0,0E0,0E0,0E0,0E0,0E0,0E0,0E0,0E0,0E0,0E0,0E0,0E0,0E0,0E0,0E0,0E0,0E0,0E0,0E0,0E0,0E0,0E0,0E0,0E0,0E0,0E0,0E0,0E0,0E0,0E0,0E0,0E0,0E0,0E0,0E0,0E0,0E0,0E0,0E0,0E0,0E0,0E0,0E0,0E0,0E0,0E0,0E0,0E0,0E0,0E0,0E0,0E0,0E0,0E0,0E0,0E0,0E0],"parents":[2147483647,0,0,1,1,2,2,3,3,4,4,5,5,6,6,7,7,8,8,9,9,10,10,11,11,12,12,13,13,14,14,15,15,16,16,17,17,19,19,20,20,21,21,22,22,23,23,24,24,26,26,27,27,28,28,29,29,31,31,32,32,33,33,34,34,35,35,36,36,39,39,40,40,41,41,42,42,43,43,44,44,45,45,46,46,47,47,48,48,49,49,50,50,51,51,52,52,53,53,56,56,57,57,58,58,59,59,60,60,63,63,64,64,65,65,66,66,67,67,68,68,69,69,70,70,71,71,72,72,73,73,74,74,77,77,78,78,79,79,80,80,81,81,82,82,83,83,84,84,85,85,86,86,87,87,88,88,91,91,93,93,94,94,95,95,98,98,101,101,102,102,103,103,104,104,105,105,106,106,107,107,108,108,109,109,110,110,111,111,112,112,113,113,114,114,115,115,118,118,119,119,120,120,124,124,127,127,131,131,133,133,137,137,138,138,140,140,141,141,143,143,144,144,145,145,146,146,149,149,150,150,152,152,157,157,159,159,160,160,161,161,164,164,165,165,166,166],"right_children":[2,4,6,8,10,12,14,16,18,20,22,24,26,28,30,32,34,36,-1,38,40,42,44,46,48,-1,50,52,54,56,-1,58,60,62,64,66,68,-1,-1,70,72,74,76,78,80,82,84,86,88,90,92,94,96,98,-1,-1,100,102,104,106,108,-1,-1,110,112,114,116,118,120,122,124,126,128,130,132,-1,-1,134,136,138,140,142,144,146,148,150,152,154,156,-1,-1,158,-1,160,162,164,-1,-1,166,-1,-1,168,170,172,174,176,178,180,182,184,186,188,190,192,194,196,-1,-1,198,200,202,-1,-1,-1,204,-1,-1,206,-1,-1,-1,208,-1,210,-1,-1,-1,212,214,-1,216,218,-1,220,222,224,226,-1,-1,228,230,-1,232,-1,-1,-1,-1,234,-1,236,238,240,-1,-1,242,244,246,-1,-1,-1,-1,-1,-1,-1,-1,-1,-1,-1,-1,-1,-1,-1,-1,-1,-1,-1,-1,-1,-1,-1,-1,-1,-1,-1,-1,-1,-1,-1,-1,-1,-1,-1,-1,-1,-1,-1,-1,-1,-1,-1,-1,-1,-1,-1,-1,-1,-1,-1,-1,-1,-1,-1,-1,-1,-1,-1,-1,-1,-1,-1,-1,-1,-1,-1,-1,-1,-1,-1,-1,-1,-1,-1,-1,-1,-1,-1,-1],"split_conditions":[-2.30625E1,1E0,-1.8145834E1,-1.0414E1,-1.0414E1,1E0,-1.6625E1,-2.30625E1,1E0,-3.1836E1,-1.1555E1,-1.89375E1,-1.02125E2,1E0,-1.675E1,1E0,-1.046875E2,-2.30625E1,-5.3287417E-2,-9.56875E1,1E0,1E0,1E0,1E0,1E0,-3.823558E-2,-1.81875E1,1E0,-1.4916667E1,8E0,-5.5376448E-2,-8.2719E1,-1.4828E1,-1.0840625E2,-2.0297E1,-1.8E1,-1.78125E1,2.1148266E-2,-2.9243002E-2,7E0,-1.275E1,-8.1234E1,-1.6273E1,-2.30625E1,-1.04925E1,-1.04335E1,1E0,1E0,-7.3312E1,-9.575E1,5E0,-7.05E1,-1.4916667E1,-1.3453E1,5.2021153E-2,-5.3787638E-2,-1.43125E1,-1.05008E2,2E0,-1.9328E1,-1.55E1,-1.2514698E-2,9.61242E-2,1E0,-1.0178125E2,-2.0125E1,1E0,-1.05375E2,-9.85E1,-1.249925E2,-1.74375E1,-8.582E1,-8.95625E1,-8.24335E1,1E0,-3.5597456E-3,-4.550917E-2,1E0,-1.3875E1,-1.6352E1,-9.6797E1,1E0,-2.0291666E1,1E0,-1.8125E1,-2.0291666E1,-9.59375E1,-1.65E1,-1.6656E1,1.8696947E-2,-3.7292913E-2,-1.36875E1,-2.968957E-2,1E0,-7.86875E1,-1.6375E1,5.0304305E-2,-5.0324608E-2,4E0,-3.7619583E-2,2.121057E-2,-2.34805E1,-1.60625E1,-1.4625E1,-7.9891E1,-9.7875E1,-1.75625E1,-1.7875E1,-8.75625E1,-1.5625E1,-1.4375E1,-9.1125E1,1E0,-1.025E2,-1.09375E2,1E0,-4.76404E-2,3.2742225E-2,-1.7E1,-9.08125E1,-8.75E0,-6.212348E-3,-5.2584417E-2,2.1126954E-2,-8.81875E1,-4.460522E-3,-5.0943226E-2,-1.425E1,-4.027904E-2,2.1325586E-2,-4.1653574E-2,1E0,-4.032304E-2,1E0,-4.5947224E-2,-4.796509E-2,-6.781017E-3,-9.91875E1,-1.66875E1,1.5452551E-2,-2.30625E1,1E0,6.2753506E-2,-1.04335E1,-9.26875E1,-1.29742E2,-8.7422E1,3.9161634E-2,-3.181423E-2,-9.61875E1,1E0,-4.2451452E-2,-9.4375E1,8.545904E-2,-9.27846E-3,4.2679008E-2,-4.3210465E-2,-9.29375E1,-1.3753044E-2,1E0,-1.4916667E1,-6.78125E1,-5.1580448E-2,-5.11222E-2,-1.61875E1,3E0,-6.957E1,8.463983E-3,1.1322787E-1,-4.4038802E-2,3.6349688E-3,4.7397666E-2,-2.0074679E-2,1.0171018E-1,1.3612154E-2,1.9132376E-2,-3.1499326E-2,-8.112879E-3,-5.1209446E-2,1.568109E-3,-4.727043E-2,4.0908787E-2,-1.4917048E-2,-3.871317E-2,-4.0047164E-3,-6.368471E-3,9.560954E-2,-3.1317756E-2,4.7469277E-2,-5.019003E-2,-2.4590318E-3,-9.730977E-3,1.4111231E-1,7.7444494E-2,6.910431E-4,1.076588E-1,-4.839267E-2,-5.1389445E-2,-6.182929E-3,3.2284886E-2,8.591279E-2,-1.0031731E-2,6.14324E-2,-4.3534096E-2,-4.5312424E-3,-1.2590195E-2,5.0982174E-2,1.6263418E-1,6.0469247E-2,1.1761695E-1,7.5091794E-3,-3.8106598E-2,-3.0463343E-3,-3.3532005E-2,3.351758E-2,-2.8668841E-2,-4.7529653E-2,-4.9585458E-2,2.4033433E-2,-3.415474E-2,8.87872E-3,-1.8094676E-2,-4.8966944E-2,-6.366437E-3,-5.263123E-2,4.595785E-2,-3.9886333E-2,3.3294354E-2,-4.616231E-2,-5.0398678E-2,-1.2845947E-2,1.0560504E-1,-3.0302841E-2,9.3403645E-2,8.051488E-3,-5.3235043E-2,-3.330626E-2,-3.845041E-2,4.8286233E-2,1.871649E-2,1.0213595E-1,4.508948E-2,-3.285335E-2,-4.5211706E-2,2.1482517E-3,-2.1795157E-2,7.259401E-2],"split_indices":[182,180,182,168,188,94,182,82,198,108,108,82,3,94,62,169,163,82,0,181,111,189,140,180,114,0,124,114,62,40,0,127,48,3,88,84,24,0,0,180,108,167,8,142,68,168,114,74,47,103,180,3,82,148,0,0,24,47,120,128,104,0,0,89,61,124,194,1,181,107,44,167,1,127,198,0,0,198,22,68,7,74,182,134,4,42,43,44,148,0,0,104,0,74,81,4,0,0,40,0,0,48,24,64,167,47,84,4,163,22,4,63,91,83,1,138,0,0,44,143,44,0,0,0,43,0,0,104,0,0,0,140,0,120,0,0,0,81,24,0,2,134,0,148,3,107,67,0,0,3,134,0,1,0,0,0,0,181,0,134,42,23,0,0,64,60,167,0,0,0,0,0,0,0,0,0,0,0,0,0,0,0,0,0,0,0,0,0,0,0,0,0,0,0,0,0,0,0,0,0,0,0,0,0,0,0,0,0,0,0,0,0,0,0,0,0,0,0,0,0,0,0,0,0,0,0,0,0,0,0,0,0,0,0,0,0,0,0,0,0,0,0,0,0,0,0,0],"split_type":[0,0,0,0,0,0,0,0,0,0,0,0,0,0,0,0,0,0,0,0,0,0,0,0,0,0,0,0,0,0,0,0,0,0,0,0,0,0,0,0,0,0,0,0,0,0,0,0,0,0,0,0,0,0,0,0,0,0,0,0,0,0,0,0,0,0,0,0,0,0,0,0,0,0,0,0,0,0,0,0,0,0,0,0,0,0,0,0,0,0,0,0,0,0,0,0,0,0,0,0,0,0,0,0,0,0,0,0,0,0,0,0,0,0,0,0,0,0,0,0,0,0,0,0,0,0,0,0,0,0,0,0,0,0,0,0,0,0,0,0,0,0,0,0,0,0,0,0,0,0,0,0,0,0,0,0,0,0,0,0,0,0,0,0,0,0,0,0,0,0,0,0,0,0,0,0,0,0,0,0,0,0,0,0,0,0,0,0,0,0,0,0,0,0,0,0,0,0,0,0,0,0,0,0,0,0,0,0,0,0,0,0,0,0,0,0,0,0,0,0,0,0,0,0,0,0,0,0,0,0,0,0,0,0,0,0,0,0,0,0,0,0,0,0,0,0,0],"sum_hessian":[1.7418917E5,9.786411E2,1.7321053E5,6.606423E2,3.1799884E2,2.110731E3,1.710998E5,2.1141919E2,4.4922308E2,1.9832466E2,1.1967419E2,2.0933125E3,1.7418386E1,2.273426E3,1.6882638E5,1.2291058E2,8.8508606E1,4.2932925E2,1.9893852E1,2.1272078E0,1.9619745E2,4.111469E1,7.85595E1,8.491035E2,1.2442091E3,2.1854568E0,1.5232929E1,2.2511145E3,2.2311691E1,1.469105E3,1.6735727E5,8.3835686E1,3.9074894E1,2.4235902E0,8.6085014E1,3.489874E2,8.034184E1,1.008447E0,1.1187608E0,1.782287E2,1.7968752E1,3.5612545E1,5.5021434E0,3.0785748E1,4.777375E1,5.9783344E2,2.5127005E2,1.237445E3,6.7640877E0,3.6578505E0,1.1575079E1,2.2269688E3,2.4145695E1,2.0518707E1,1.7929835E0,1.4660148E3,3.0902088E0,4.892572E1,3.4909966E1,1.4085833E1,2.4989063E1,1.41805E0,1.00554E0,5.3762493E0,8.070877E1,3.3340046E1,3.1564737E2,1.0991094E1,6.9350746E1,1.7262119E2,5.607514E0,1.2054364E1,5.914387E0,3.9500518E0,3.1662495E1,1.0331925E0,4.468951E0,2.3610802E1,7.174947E0,9.759421E0,3.8014328E1,2.329051E2,3.6492834E2,2.4881088E2,2.4591684E0,1.2289751E3,8.4698515E0,2.3932624E0,4.3708253E0,1.7119486E0,1.9459019E0,1.0452109E1,1.1229694E0,2.2098787E3,1.7090061E1,2.2312155E1,1.8335396E0,9.664053E0,1.0854654E1,2.0820186E0,1.0081902E0,4.3463655E0,4.4579357E1,1.7322165E1,1.75878E1,2.3452427E0,1.1740589E1,7.0066743E0,1.798239E1,3.235251E0,2.1409981E0,2.5252468E1,5.54563E1,4.010383E0,2.9329662E1,3.1161246E2,4.0349035E0,1.8241667E0,9.166926E0,4.7692596E1,2.1658152E1,1.137523E0,1.7148366E2,1.0100743E0,4.59744E0,1.0642693E0,1.0990095E1,3.294656E0,2.619731E0,1.0044926E0,2.945559E0,2.9004776E1,2.6577184E0,1.8803907E1,4.806893E0,6.014455E0,1.160492E0,3.1062956E0,6.6531262E0,1.1596595E0,3.685467E1,2.3175438E2,1.1507238E0,1.8348941E2,1.8143892E2,2.4531104E2,3.4998367E0,1.148969E0,1.3101993E0,8.385124E0,1.22059E3,3.230735E0,5.239116E0,1.1373081E0,1.2559541E0,1.0613694E0,3.3094559E0,8.963389E0,1.4887198E0,2.1888083E3,2.1070343E1,3.850641E0,1.3239419E1,1.1398039E1,1.0914115E1,6.645674E0,4.2089796E0,2.1193154E0,2.2270503E0,1.1290435E1,3.328892E1,6.145205E0,1.117696E1,1.0775777E1,6.8120227E0,1.0559139E0,1.2893289E0,1.2040182E0,1.05365715E1,1.68906E0,5.3176146E0,6.749989E0,1.12324E1,2.1866825E0,1.0485685E0,1.1296601E0,1.011338E0,2.1429335E1,3.823133E0,5.1721436E1,3.7348633E0,1.2262545E0,2.784129E0,7.0504165E0,2.2279247E1,3.0844052E2,3.1719394E0,8.112272E0,1.054655E0,2.7393917E1,2.029868E1,1.9701906E1,1.956244E0,3.530881E0,1.0665588E0,1.4494785E0,1.8451777E0,7.066641E0,2.1938135E1,8.966679E0,9.83723E0,2.105E0,1.0012954E0,1.4913279E0,5.1617985E0,1.3554787E1,2.3299883E1,2.2832373E2,3.430643E0,5.6844303E1,1.2664511E2,9.389009E1,8.754883E1,1.1457198E0,2.4416533E2,1.0018625E0,2.4979742E0,3.5472744E0,4.8378496E0,1.2122172E3,8.372781E0,2.1165192E0,3.1225972E0,7.559801E0,1.4035883E0,2.1626265E3,2.6181875E1,1.9621479E1,1.4488641E0,1.7137153E0,2.1369257E0,2.9651523E0,7.9489627E0,4.1314397E0,2.5142345E0,2.0894892E0,2.1194906E0],"tree_param":{"num_deleted":"0","num_feature":"200","num_nodes":"247","size_leaf_vector":"1"}},{"base_weights":[-1.0881102E0,4.6295074E-1,-1.0973904E0,9.165285E-1,-5.288419E-1,-8.555872E-1,-1.1003977E0,1.6151154E0,-7.454052E-3,-9.8558354E-1,1.9723116E-1,-8.6817455E-1,5.447017E-1,-1.0307481E0,-1.1013318E0,1.7406415E0,-5.4550916E-2,-4.4428834E-1,7.450033E-1,-2.637697E-1,-1.0033032E0,9.516657E-1,-2.2036484E-1,-7.136231E-1,-9.740826E-1,8.361654E-1,-3.547682E-1,-1.0371965E0,-3.78331E-1,-1.0672417E0,-5.5081245E-2,1.8783771E0,-5.215242E-2,-7.201558E-2,-6.085047E-1,1.8203828E0,1.6153234E-1,3.8088775E-1,-3.9910145E-2,-1.0332701E0,-6.762898E-1,1.2149676E0,-7.7743185E-1,1.1509125E-1,-7.7602017E-1,-5.8635795E-1,-1.0180476E0,-9.806779E-1,1.6336414E-1,1.6631635E0,3.6515528E-1,3.7891995E-2,-4.272194E-2,-1.0432837E0,-4.673808E-1,-5.4559153E-1,4.912554E-2,-5.3427547E-2,-3.4638503E-1,9.824745E-1,2.1486094E0,1.0914382E0,-2.643023E-1,-6.398235E-1,3.034362E-1,1.9480168E0,-3.4646347E-2,-2.1012774E-1,1.0720022E0,-1.0391234E-2,4.2858362E-2,-5.2435514E-2,-4.8431164E-1,1.8491803E-2,-8.0775756E-1,1.4375886E0,-3.7718302E-1,-3.0575634E-3,-4.503792E-2,1.4751015E0,-5.8500156E-2,-9.105421E-1,-3.3442028E-2,-3.5462177E-1,-9.3238294E-1,-1.0293776E0,5.7399828E-2,-9.8810554E-1,4.9416047E-2,6.646573E-1,-3.818522E-2,-7.817765E-3,2.2573724E0,1.8572664E0,-2.8392917E-1,-1.045844E0,-1.2966728E-2,-6.2803644E-1,4.7532033E-2,-4.9881317E-2,-1.04405925E-1,-3.7294343E-2,2.1413563E-2,2.0878272E0,7.623783E-1,2.224887E0,-4.8287086E-2,-0E0,1.5741014E0,-8.057969E-1,-1.4243128E-2,3.9638284E-1,-6.682663E-1,9.1808334E-2,-5.803639E-1,-2.21818E-2,2.1029038E0,-6.1748606E-1,3.863747E-1,1.881318E0,1.4699367E-1,-4.3683756E-2,1.6335843E-2,-9.030162E-1,-5.1182555E-4,1.648793E0,-3.9798856E-2,1.5220013E-2,-4.0578883E-2,-1.2358702E-2,2.0909376E0,7.89008E-1,-3.3395115E-1,-9.759915E-1,-2.1338336E-1,5.3423464E-2,-6.2133276E-1,-4.0598053E-2,-7.408077E-1,-9.5152557E-1,4.5626593E-1,-1.0406389E0,-1.9949034E-1,-3.1804785E-2,3.9836563E-2,-9.9381506E-1,-2.821676E-1,-4.1784346E-1,1.1118152E0,-3.2553175E-1,9.007106E-2,1.3867246E-1,3.337752E-2,1.9161943E-2,1.17058754E-1,4.910497E-1,-4.556215E-2,-1.0499456E0,-5.9497076E-1,-4.329432E-2,7.327523E-2,-5.069061E-2,-1.8395905E-1,6.9157004E-1,-5.1317644E-1,5.1408917E-2,1.4913736E-1,5.4109216E-2,5.5419146E-3,1.1386057E-1,-2.5667597E-2,-3.129178E-2,3.00576E-2,-4.3888604E-3,9.6994184E-2,-4.585687E-2,2.112401E-2,3.71142E-2,-1.6187005E-2,5.7891287E-2,-3.1706862E-2,2.1773923E-2,-3.4643363E-2,-3.026528E-3,-3.678259E-2,4.4085696E-2,-3.5727613E-2,1.1054114E-1,-3.1425025E-2,7.4554146E-3,-3.8940977E-2,5.9756886E-2,-1.3386994E-2,1.0188919E-1,1.4425389E-2,5.1155385E-2,-3.223347E-2,-5.1050514E-2,-8.328739E-3,-2.948516E-2,9.358632E-2,1.4803113E-2,1.3249446E-1,2.9754043E-3,7.576604E-2,5.825314E-2,-2.2184065E-2,-5.2651267E-2,-2.5391294E-2,1.982572E-2,-3.243084E-2,-2.8942632E-3,-3.8676735E-2,-3.3084095E-2,7.063515E-3,-4.0832702E-2,4.7993004E-2,-5.0574865E-2,-3.674911E-2,-3.354622E-2,7.524577E-2,-5.222943E-2,-5.279373E-3,4.516932E-2,-3.9513685E-2,-4.994547E-2,-1.2385248E-2,-3.1991806E-2,3.7756305E-2,-4.3667372E-2,1.3354652E-2,8.756136E-2,-4.1864007E-3,1.8068075E-2,-3.6349427E-2,-3.0603424E-2,5.5098485E-2,-5.2724462E-2,-3.2988753E-2,-4.070516E-2,1.1261457E-2,4.2313904E-2,-3.2145824E-2,-3.126506E-2,7.132428E-2,2.427342E-2,-4.047843E-2],"categories":[],"categories_nodes":[],"categories_segments":[],"categories_sizes":[],"default_left":[0,0,0,0,0,0,0,0,0,0,0,0,0,0,0,0,0,0,0,0,0,0,0,0,0,0,0,0,0,0,0,0,0,0,0,0,0,0,0,0,0,0,0,0,0,0,0,0,0,0,0,0,0,0,0,0,0,0,0,0,0,0,0,0,0,0,0,0,0,0,0,0,0,0,0,0,0,0,0,0,0,0,0,0,0,0,0,0,0,0,0,0,0,0,0,0,0,0,0,0,0,0,0,0,0,0,0,0,0,0,0,0,0,0,0,0,0,0,0,0,0,0,0,0,0,0,0,0,0,0,0,0,0,0,0,0,0,0,0,0,0,0,0,0,0,0,0,0,0,0,0,0,0,0,0,0,0,0,0,0,0,0,0,0,0,0,0,0,0,0,0,0,0,0,0,0,0,0,0,0,0,0,0,0,0,0,0,0,0,0,0,0,0,0,0,0,0,0,0,0,0,0,0,0,0,0,0,0,0,0,0,0,0,0,0,0,0,0,0,0,0,0,0,0,0,0,0,0,0,0,0,0,0,0,0,0,0,0,0,0,0,0,0,0,0,0,0],"id":5,"left_children":[1,3,5,7,9,11,13,15,17,19,21,23,25,27,29,31,-1,33,35,37,39,41,43,45,47,49,51,53,55,57,-1,59,-1,61,63,65,67,69,-1,71,73,75,77,79,81,83,85,87,89,91,93,-1,-1,95,97,99,-1,-1,101,103,105,107,109,111,113,115,-1,117,119,-1,-1,-1,121,-1,123,125,127,-1,-1,129,131,133,135,137,139,141,143,145,147,149,-1,-1,151,153,155,157,159,161,-1,-1,163,-1,-1,165,167,169,-1,171,173,175,177,179,181,-1,183,185,187,189,191,193,195,-1,-1,197,-1,199,-1,-1,-1,-1,201,203,205,207,209,-1,211,213,215,217,219,221,223,-1,-1,225,227,229,231,233,-1,-1,-1,-1,-1,235,-1,237,239,-1,-1,-1,241,243,245,-1,-1,-1,-1,-1,-1,-1,-1,-1,-1,-1,-1,-1,-1,-1,-1,-1,-1,-1,-1,-1,-1,-1,-1,-1,-1,-1,-1,-1,-1,-1,-1,-1,-1,-1,-1,-1,-1,-1,-1,-1,-1,-1,-1,-1,-1,-1,-1,-1,-1,-1,-1,-1,-1,-1,-1,-1,-1,-1,-1,-1,-1,-1,-1,-1,-1,-1,-1,-1,-1,-1,-1,-1,-1,-1,-1,-1,-1,-1,-1,-1,-1],"loss_changes":[2.3992344E3,4.466659E2,1.195E2,4.395683E2,1.0362895E2,3.642383E1,9.484375E0,1.3363123E2,9.702055E1,2.173584E0,3.8418285E1,3.2379517E1,5.2241483E0,8.769287E0,4.0625E-1,1.442063E2,0E0,1.136618E1,6.771123E1,2.3621004E0,1.1132812E0,2.0707802E1,1.4794362E1,3.1382233E1,9.147095E0,5.0158567E0,3.5889382E0,6.986084E0,5.7520523E0,9.445801E-1,0E0,8.352539E1,0E0,1.332665E1,3.8943024E0,1.3561653E1,2.4389568E1,1.129721E0,0E0,9.0979004E-1,2.860073E0,1.4042931E1,4.9537015E-1,1.1911849E1,2.9394379E0,4.6546204E1,3.0185242E0,9.163696E0,4.107492E0,5.745534E0,1.0731534E1,0E0,0E0,5.6088867E0,6.2094145E0,4.0876756E0,0E0,0E0,1.5746729E0,1.8779121E1,6.6538574E1,4.4466105E0,6.8667994E0,3.965557E0,7.8043685E0,1.119281E1,0E0,1.2759883E1,1.5322924E1,0E0,0E0,0E0,2.3438168E0,0E0,1.2608719E0,1.7173332E1,1.8673565E0,0E0,0E0,6.589034E0,1.0839304E1,9.297466E-1,4.302553E0,4.2631092E1,6.657028E0,2.0194092E0,2.2833316E0,4.4696045E0,5.168961E0,6.8715525E0,0E0,0E0,1.2435398E0,1.4481239E0,4.4349914E0,3.2978516E0,9.226779E0,3.698926E0,0E0,0E0,4.190276E0,0E0,0E0,9.544277E0,1.47682E1,3.913025E1,0E0,1.7295308E0,3.7517672E0,2.5854425E0,8.623628E0,3.8548996E0,3.6305618E0,0E0,2.6273906E-1,2.9076858E0,1.1373184E1,3.957509E0,1.1709492E1,2.1396446E0,8.172758E0,0E0,0E0,1.123168E0,0E0,1.6602028E1,0E0,0E0,0E0,0E0,3.5143356E0,5.9372854E0,6.2530513E0,2.6994705E-1,1.1770351E0,0E0,3.161403E-1,2.2139214E1,2.1126724E1,2.2397766E0,5.568159E0,7.503662E-1,3.6168625E0,0E0,0E0,4.1937256E0,4.5225677E0,2.5145216E0,2.5867815E0,1.3196228E0,0E0,0E0,0E0,0E0,0E0,3.582652E0,0E0,3.0268555E0,4.0594063E0,0E0,0E0,0E0,6.126036E0,5.176737E0,2.8749096E0,0E0,0E0,0E0,0E0,0E0,0E0,0E0,0E0,0E0,0E0,0E0,0E0,0E0,0E0,0E0,0E0,0E0,0E0,0E0,0E0,0E0,0E0,0E0,0E0,0E0,0E0,0E0,0E0,0E0,0E0,0E0,0E0,0E0,0E0,0E0,0E0,0E0,0E0,0E0,0E0,0E0,0E0,0E0,0E0,0E0,0E0,0E0,0E0,0E0,0E0,0E0,0E0,0E0,0E0,0E0,0E0,0E0,0E0,0E0,0E0,0E0,0E0,0E0,0E0,0E0,0E0,0E0,0E0,0E0,0E0,0E0,0E0,0E0,0E0,0E0,0E0,0E0,0E0,0E0,0E0,0E0,0E0],"parents":[2147483647,0,0,1,1,2,2,3,3,4,4,5,5,6,6,7,7,8,8,9,9,10,10,11,11,12,12,13,13,14,14,15,15,17,17,18,18,19,19,20,20,21,21,22,22,23,23,24,24,25,25,26,26,27,27,28,28,29,29,31,31,33,33,34,34,35,35,36,36,37,37,39,39,40,40,41,41,42,42,43,43,44,44,45,45,46,46,47,47,48,48,49,49,50,50,53,53,54,54,55,55,58,58,59,59,60,60,61,61,62,62,63,63,64,64,65,65,67,67,68,68,72,72,74,74,75,75,76,76,79,79,80,80,81,81,82,82,83,83,84,84,85,85,86,86,87,87,88,88,89,89,92,92,93,93,94,94,95,95,96,96,97,97,100,100,103,103,104,104,105,105,107,107,108,108,109,109,110,110,111,111,112,112,114,114,115,115,116,116,117,117,118,118,119,119,120,120,123,123,125,125,130,130,131,131,132,132,133,133,134,134,136,136,137,137,138,138,139,139,140,140,141,141,142,142,145,145,146,146,147,147,148,148,149,149,155,155,157,157,158,158,162,162,163,163,164,164],"right_children":[2,4,6,8,10,12,14,16,18,20,22,24,26,28,30,32,-1,34,36,38,40,42,44,46,48,50,52,54,56,58,-1,60,-1,62,64,66,68,70,-1,72,74,76,78,80,82,84,86,88,90,92,94,-1,-1,96,98,100,-1,-1,102,104,106,108,110,112,114,116,-1,118,120,-1,-1,-1,122,-1,124,126,128,-1,-1,130,132,134,136,138,140,142,144,146,148,150,-1,-1,152,154,156,158,160,162,-1,-1,164,-1,-1,166,168,170,-1,172,174,176,178,180,182,-1,184,186,188,190,192,194,196,-1,-1,198,-1,200,-1,-1,-1,-1,202,204,206,208,210,-1,212,214,216,218,220,222,224,-1,-1,226,228,230,232,234,-1,-1,-1,-1,-1,236,-1,238,240,-1,-1,-1,242,244,246,-1,-1,-1,-1,-1,-1,-1,-1,-1,-1,-1,-1,-1,-1,-1,-1,-1,-1,-1,-1,-1,-1,-1,-1,-1,-1,-1,-1,-1,-1,-1,-1,-1,-1,-1,-1,-1,-1,-1,-1,-1,-1,-1,-1,-1,-1,-1,-1,-1,-1,-1,-1,-1,-1,-1,-1,-1,-1,-1,-1,-1,-1,-1,-1,-1,-1,-1,-1,-1,-1,-1,-1,-1,-1,-1,-1,-1,-1,-1,-1,-1,-1],"split_conditions":[-2.30625E1,1E0,-1.8145834E1,1E0,-1.0414E1,1E0,-1.6625E1,1E0,-6.31915E1,-1.09688E2,-1.1555E1,-1.89375E1,1E0,1E0,-1.675E1,1E0,-5.4550916E-2,-2.30625E1,-1.1133E1,-2.0291666E1,1E0,1E0,-2.30625E1,1E0,1E0,-8.4461E1,-9.8195E1,1E0,-1.4916667E1,8E0,-5.5081245E-2,-1.0812E1,-5.215242E-2,-9.9609E1,7E0,-1.89375E1,4E0,-1.10383E2,-3.9910145E-2,7E0,-1.113125E2,1E0,-1.6E1,-9.5305E1,4E0,1E0,1E0,1E0,-1.5375E1,-1.89375E1,-1.582E1,3.7891995E-2,-4.272194E-2,-8.75E0,-1.4916667E1,-1.3453E1,4.912554E-2,-5.3427547E-2,-1.5375E1,-1.113125E2,1E0,-1.44375E1,-1.55625E1,-2.5035E1,-2.30625E1,-1.5383E1,-3.4646347E-2,-1.1875E1,-2.30625E1,-1.0391234E-2,4.2858362E-2,-5.2435514E-2,5E0,1.8491803E-2,3E0,1E0,-1.5875E1,-3.0575634E-3,-4.503792E-2,-1.6875E1,-1.04925E1,-1.3625E1,-9.2914E1,-9.525E1,1E0,1E0,-9.59375E1,1E0,3E0,-1.62875E1,-3.818522E-2,-7.817765E-3,2E0,-1.7484E1,-1.3828E1,1E0,-6.78125E1,-1.6375E1,4.7532033E-2,-4.9881317E-2,-1.5102E1,-3.7294343E-2,2.1413563E-2,-1.4336E1,-2.30625E1,1E0,-4.8287086E-2,-1.7008E1,-1.26523E2,-9.53125E1,-8.86875E1,-9.6390625E1,-1.05625E2,9.1808334E-2,-1.6875E1,-1.05375E2,1E0,-7.9352E1,-1E1,-8.18125E1,-1.53125E1,-4.3683756E-2,1.6335843E-2,-1.109375E1,-5.1182555E-4,-1.11156E2,-3.9798856E-2,1.5220013E-2,-4.0578883E-2,-1.2358702E-2,-1.09688E2,2E0,-1.02625E2,1E0,-8.83125E1,5.3423464E-2,-1.575E1,-7.8375E1,-7.05E1,4E0,-1.89375E1,1E0,-1.4828E1,-3.1804785E-2,3.9836563E-2,1E0,-1.575E1,-9.38125E1,-1.8145834E1,-1.753125E1,9.007106E-2,1.3867246E-1,3.337752E-2,1.9161943E-2,1.17058754E-1,1E0,-4.556215E-2,1E0,1E0,-4.329432E-2,7.327523E-2,-5.069061E-2,-1.61875E1,-8.582E1,-8.7312E1,5.1408917E-2,1.4913736E-1,5.4109216E-2,5.5419146E-3,1.1386057E-1,-2.5667597E-2,-3.129178E-2,3.00576E-2,-4.3888604E-3,9.6994184E-2,-4.585687E-2,2.112401E-2,3.71142E-2,-1.6187005E-2,5.7891287E-2,-3.1706862E-2,2.1773923E-2,-3.4643363E-2,-3.026528E-3,-3.678259E-2,4.4085696E-2,-3.5727613E-2,1.1054114E-1,-3.1425025E-2,7.4554146E-3,-3.8940977E-2,5.9756886E-2,-1.3386994E-2,1.0188919E-1,1.4425389E-2,5.1155385E-2,-3.223347E-2,-5.1050514E-2,-8.328739E-3,-2.948516E-2,9.358632E-2,1.4803113E-2,1.3249446E-1,2.9754043E-3,7.576604E-2,5.825314E-2,-2.2184065E-2,-5.2651267E-2,-2.5391294E-2,1.982572E-2,-3.243084E-2,-2.8942632E-3,-3.8676735E-2,-3.3084095E-2,7.063515E-3,-4.0832702E-2,4.7993004E-2,-5.0574865E-2,-3.674911E-2,-3.354622E-2,7.524577E-2,-5.222943E-2,-5.279373E-3,4.516932E-2,-3.9513685E-2,-4.994547E-2,-1.2385248E-2,-3.1991806E-2,3.7756305E-2,-4.3667372E-2,1.3354652E-2,8.756136E-2,-4.1864007E-3,1.8068075E-2,-3.6349427E-2,-3.0603424E-2,5.5098485E-2,-5.2724462E-2,-3.2988753E-2,-4.070516E-2,1.1261457E-2,4.2313904E-2,-3.2145824E-2,-3.126506E-2,7.132428E-2,2.427342E-2,-4.047843E-2],"split_indices":[182,180,182,160,188,94,182,178,167,27,108,82,180,94,62,198,0,22,128,2,111,189,82,180,114,27,187,114,62,40,0,148,0,127,160,62,80,67,0,180,1,160,64,7,20,160,114,74,184,2,8,0,0,4,82,148,0,0,122,101,158,124,44,8,62,148,0,4,22,0,0,0,0,0,160,198,44,0,0,88,68,22,27,1,114,134,101,54,60,184,0,0,60,8,128,74,63,4,0,0,128,0,0,68,82,174,0,128,47,161,143,161,163,0,4,1,178,47,64,63,24,0,0,4,0,27,0,0,0,0,7,100,63,109,41,0,184,147,123,40,2,93,68,0,0,134,124,143,142,104,0,0,0,0,0,49,0,134,49,0,0,0,64,167,7,0,0,0,0,0,0,0,0,0,0,0,0,0,0,0,0,0,0,0,0,0,0,0,0,0,0,0,0,0,0,0,0,0,0,0,0,0,0,0,0,0,0,0,0,0,0,0,0,0,0,0,0,0,0,0,0,0,0,0,0,0,0,0,0,0,0,0,0,0,0,0,0,0,0,0,0,0,0,0,0,0,0],"split_type":[0,0,0,0,0,0,0,0,0,0,0,0,0,0,0,0,0,0,0,0,0,0,0,0,0,0,0,0,0,0,0,0,0,0,0,0,0,0,0,0,0,0,0,0,0,0,0,0,0,0,0,0,0,0,0,0,0,0,0,0,0,0,0,0,0,0,0,0,0,0,0,0,0,0,0,0,0,0,0,0,0,0,0,0,0,0,0,0,0,0,0,0,0,0,0,0,0,0,0,0,0,0,0,0,0,0,0,0,0,0,0,0,0,0,0,0,0,0,0,0,0,0,0,0,0,0,0,0,0,0,0,0,0,0,0,0,0,0,0,0,0,0,0,0,0,0,0,0,0,0,0,0,0,0,0,0,0,0,0,0,0,0,0,0,0,0,0,0,0,0,0,0,0,0,0,0,0,0,0,0,0,0,0,0,0,0,0,0,0,0,0,0,0,0,0,0,0,0,0,0,0,0,0,0,0,0,0,0,0,0,0,0,0,0,0,0,0,0,0,0,0,0,0,0,0,0,0,0,0,0,0,0,0,0,0,0,0,0,0,0,0,0,0,0,0,0,0],"sum_hessian":[1.6664278E5,9.908245E2,1.6565197E5,6.7994867E2,3.1087582E2,2.038473E3,1.6361348E5,3.8678134E2,2.9316736E2,1.9062077E2,1.2025504E2,2.0206958E3,1.777722E1,2.1799998E3,1.6143348E5,3.6998E2,1.6801325E1,1.8575267E2,1.0741469E2,4.9615226E0,1.8565924E2,4.2399883E1,7.785516E1,8.2483997E2,1.1958558E3,1.3488055E1,4.289164E0,2.1580645E3,2.193509E1,1.4067302E3,1.6002677E5,3.5284998E2,1.7130041E1,5.7316837E1,1.2843582E2,3.702952E1,7.038517E1,2.3705962E0,2.5909264E0,1.680675E2,1.7591745E1,3.7059666E1,5.3402147E0,4.9030006E1,2.8825155E1,5.83758E2,2.4108202E2,1.1891075E3,6.7482767E0,3.968278E0,9.519777E0,1.16295E0,3.126214E0,2.1344146E3,2.3650047E1,2.0074203E1,1.8608855E0,1.4036844E3,3.0457172E0,8.28499E1,2.700001E2,7.45874E0,4.9858097E1,1.24470505E2,3.9653249E0,3.5457756E1,1.5717611E0,5.0520554E1,1.9864614E1,1.3028467E0,1.0677495E0,1.6256654E2,5.500953E0,1.7530491E0,1.58386965E1,3.260418E1,4.4554896E0,1.0160326E0,4.324182E0,4.7076616E0,4.4322346E1,2.4201305E1,4.6238503E0,3.5084653E2,2.3291147E2,2.3862024E2,2.4617677E0,1.1806449E3,8.46274E0,4.5706396E0,2.1776373E0,1.1541647E0,2.8141131E0,2.3262506E0,7.1935267E0,2.129099E3,5.3153887E0,2.1750021E1,1.9000262E0,9.281034E0,1.079317E1,2.0424452E0,1.0032723E0,1.2340893E1,7.0509E1,2.6382718E2,6.1729093E0,2.597491E0,4.8612494E0,1.5035918E1,3.4822178E1,2.970324E0,1.21500175E2,1.0602756E0,2.9050493E0,2.642082E0,3.2815678E1,3.0008795E1,2.051176E1,1.0037701E1,9.826914E0,3.6727862E0,1.8281671E0,1.401936E1,1.8193376E0,3.0030777E1,2.5734012E0,1.841824E0,2.6136656E0,1.393351E0,3.3143108E0,1.0405612E1,3.3916733E1,2.174553E1,2.4557753E0,1.3183439E0,3.3055062E0,1.9412582E2,1.5672069E2,2.3006203E2,2.8494322E0,2.3516315E2,3.457096E0,1.3353307E0,1.126437E0,1.170754E3,9.890796E0,6.292491E0,2.1702487E0,2.8195121E0,1.7511272E0,1.5576779E0,1.2564354E0,1.0229344E0,1.3033161E0,3.308056E0,3.8854704E0,2.1085662E3,2.0532887E1,3.6378431E0,1.6775458E0,1.0940439E1,1.0809582E1,3.4190848E0,7.3740854E0,6.6394234E0,5.701469E0,4.6840973E1,2.3668032E1,2.5904907E2,4.778096E0,1.2476187E0,1.3498724E0,1.009125E0,3.8521245E0,1.4025953E1,1.0099642E0,9.694501E0,2.5127678E1,1.6427085E0,1.3276156E0,2.2760212E0,1.1922416E2,1.0026898E0,1.9023596E0,1.0211053E0,1.6209766E0,3.1755264E1,1.0604118E0,5.2198544E0,2.478894E1,8.808679E0,1.1703083E1,8.879775E0,1.1579252E0,4.5318766E0,5.295037E0,1.173859E1,2.2807686E0,2.5668373E0,2.746394E1,1.1545256E0,2.159785E0,5.738066E0,4.667546E0,1.651198E0,3.2265537E1,1.7581911E1,4.1636195E0,1.0501595E0,1.4056157E0,1.0105389E0,2.2949674E0,4.338431E1,1.5074152E2,1.5053291E2,6.187776E0,1.7725414E2,5.28079E1,1.5422921E0,1.30714E0,2.3404672E2,1.11643E0,1.015429E0,2.441667E0,1.1624647E3,8.289375E0,7.646887E0,2.243909E0,3.6227632E0,2.669728E0,1.116617E0,1.0536318E0,1.0676781E0,1.7518342E0,1.172558E0,2.1354983E0,2.082586E3,2.5980276E1,1.6219227E1,4.3136587E0,3.0646214E0,7.744961E0,1.2732086E0,2.1458762E0,1.5339674E0,5.8401184E0],"tree_param":{"num_deleted":"0","num_feature":"200","num_nodes":"247","size_leaf_vector":"1"}},{"base_weights":[-1.0820776E0,4.3194643E-1,-1.0916151E0,8.4451735E-1,-5.264944E-1,-8.4083897E-1,-1.0947655E0,1.4580615E0,-7.822256E-3,-9.639709E-1,-6.990497E-2,-7.4411446E-1,-1.0249645E0,-1.0219401E0,-1.0957453E0,1.572074E0,-5.1940467E-2,-4.372206E-1,6.936744E-1,-3.8010653E-3,-9.75077E-1,2.7972075E-1,-9.847964E-1,-5.7041824E-1,-9.663206E-1,-1.032668E0,-4.4078276E-1,-1.0285432E0,-4.1840643E-1,-1.0560035E0,-5.480201E-2,1.6278318E0,-5.0437886E-2,-5.1006068E-2,-5.815064E-1,1.6783073E0,1.5250255E-1,-1.0118016E0,-5.8688945E-1,9.4612396E-1,-1.23207256E-1,-1.0485593E0,-4.306963E-1,-8.285798E-2,-7.5172055E-1,-9.7875565E-1,4.2769474E-1,-1.0365459E0,-3.944824E-1,-7.363334E-1,4.52745E-1,-1.0335948E0,-4.072056E-1,-5.7876825E-1,4.9637645E-2,-1.057588E0,-2.1767886E-1,1.8307186E0,9.101972E-1,-7.9149616E-1,2.6739633E-1,4.6631966E-2,-6.0554063E-1,1.831327E0,1.6966024E-2,-4.757239E-1,6.2040955E-1,-1.0240256E0,-4.0753096E-1,-9.007706E-1,3.343048E-2,1.1554351E0,-7.025772E-1,3.7574658E-1,-5.534042E-1,-5.367556E-2,-4.1305077E-1,1.7451447E-2,-4.240874E-2,-7.039101E-1,2.4886636E-1,-4.9213344E-1,-9.3628526E-1,-9.8824084E-1,2.1276493E-1,-3.2284328E-1,6.30815E-2,-1.0453038E0,-7.1717405E-1,2.2360086E-2,-4.1880053E-2,-4.5883533E-2,-2.281247E-1,6.936069E-2,-3.0083764E-2,-1.0399336E0,-5.247352E-1,1.1010208E0,-5.0886817E-2,-5.0082404E-2,-1.6174276E-1,-1.0168321E0,-1.0823438E0,-3.288545E-2,2.1319985E-2,1.8712472E0,-5.0666787E-2,-4.910913E-2,1.0313768E0,-5.1243432E-2,-5.252611E-2,1.23963E0,-1.0246324E-1,-6.4259607E-1,3.8809896E-1,2.0235794E0,5.672893E-1,3.7644982E-2,-3.5592686E-2,2.783813E-1,-6.644708E-1,1.1678647E0,6.9899395E-2,-1.0308189E0,-8.5689565E-3,1.772541E-2,-3.866176E-2,-3.840329E-3,-4.9188193E-2,6.942361E-1,-3.8226977E-2,1.3673028E0,-4.1735794E-2,-2.618169E-3,-4.210466E-2,7.787151E-1,-4.813617E-2,-6.7810553E-1,1.6608904E-1,-2.7462468E-2,-3.244383E-3,4.4750378E-2,-7.53503E-1,-5.6562555E-1,4.4244248E-1,-5.322857E-1,1.1709352E0,-9.479306E-1,4.5765662E-1,-9.930188E-1,-1.789971E-2,-3.8644755E-1,6.641743E-2,-3.672582E-2,2.0122364E-2,-3.967342E-1,-1.0480926E0,6.953833E-2,-9.1728824E-1,2.1617506E-2,-3.3227663E-2,-1.0442692E0,-5.6469923E-1,-6.649441E-1,6.6158885E-1,-3.0180037E-2,1.6532682E0,-4.568393E-2,3.9267713E-1,-1.0507594E0,-5.547024E-1,-5.418573E-2,-4.211341E-1,9.560183E-2,-4.7475155E-2,7.688508E-2,2.6604006E-2,3.930955E-2,-3.794219E-2,2.199583E-2,1.1476053E-1,-2.1369828E-2,3.5312872E-2,-3.5575625E-2,-1.006679E-2,8.597807E-2,-2.8504664E-2,1.309813E-2,1.0839393E-1,6.333348E-2,-7.932851E-3,5.842476E-2,-3.141846E-2,-5.2039575E-2,-1.1846549E-2,-2.6688159E-2,7.1043335E-2,6.8763986E-2,-1.3560724E-2,-9.276585E-3,-5.1879622E-2,-8.264582E-3,5.7795323E-2,-2.0384004E-2,7.905872E-2,6.1850514E-2,-2.7917905E-2,-3.762273E-2,2.1285351E-2,3.2856487E-2,-3.5370596E-2,-1.2387457E-2,-4.2199712E-2,-4.445659E-2,1.0674071E-2,-4.966132E-2,2.776515E-2,-2.8570846E-2,5.6889195E-2,8.2117505E-2,-1.0758965E-2,-4.7960464E-2,1.736836E-2,6.5316185E-2,-2.9462341E-2,-4.9887512E-2,-4.8478874E-3,-3.53172E-2,4.6506073E-2,2.0804053E-2,-3.8618114E-2,-3.8781326E-2,2.0596592E-2,-5.3159893E-2,-4.4649515E-2,3.9461296E-2,-3.640153E-2,-4.8443563E-2,-2.8095054E-3,-5.246014E-2,-3.9264258E-2,-3.6748536E-2,5.3931978E-2,-4.0828016E-2,3.9663557E-3,6.912283E-2,-1.1826807E-2,2.7792955E-2,9.857499E-2,-3.9468314E-2,5.3144254E-2,-5.2879598E-2,1.7679882E-3,6.3200556E-2,-4.5902234E-2,-3.6641743E-3,-2.7970115E-2],"categories":[],"categories_nodes":[],"categories_segments":[],"categories_sizes":[],"default_left":[0,0,0,0,0,0,0,0,0,0,0,0,0,0,0,0,0,0,0,0,0,0,0,0,0,0,0,0,0,0,0,0,0,0,0,0,0,0,0,0,0,0,0,0,0,0,0,0,0,0,0,0,0,0,0,0,0,0,0,0,0,0,0,0,0,0,0,0,0,0,0,0,0,0,0,0,0,0,0,0,0,0,0,0,0,0,0,0,0,0,0,0,0,0,0,0,0,0,0,0,0,0,0,0,0,0,0,0,0,0,0,0,0,0,0,0,0,0,0,0,0,0,0,0,0,0,0,0,0,0,0,0,0,0,0,0,0,0,0,0,0,0,0,0,0,0,0,0,0,0,0,0,0,0,0,0,0,0,0,0,0,0,0,0,0,0,0,0,0,0,0,0,0,0,0,0,0,0,0,0,0,0,0,0,0,0,0,0,0,0,0,0,0,0,0,0,0,0,0,0,0,0,0,0,0,0,0,0,0,0,0,0,0,0,0,0,0,0,0,0,0,0,0,0,0,0,0,0,0,0,0,0,0,0,0,0,0,0,0,0,0,0,0,0,0,0,0,0,0,0,0,0,0,0,0,0,0],"id":6,"left_children":[1,3,5,7,9,11,13,15,17,19,21,23,25,27,29,31,-1,33,35,-1,37,39,41,43,45,47,49,51,53,55,-1,57,-1,59,61,63,65,67,69,71,73,75,77,79,81,83,85,87,89,91,93,95,97,99,-1,101,103,105,107,109,111,-1,113,115,117,119,121,123,125,127,129,131,133,135,137,-1,139,-1,-1,141,143,145,147,149,151,153,-1,155,157,-1,-1,-1,159,-1,-1,161,163,165,-1,-1,167,169,171,-1,-1,173,-1,-1,175,-1,177,179,181,183,185,187,189,-1,-1,191,193,195,197,199,-1,-1,-1,-1,-1,201,-1,203,-1,-1,-1,205,-1,207,209,-1,-1,-1,211,213,215,217,219,221,223,225,227,229,-1,-1,-1,231,233,235,237,-1,-1,239,241,243,245,-1,247,-1,249,251,253,-1,255,-1,-1,-1,-1,-1,-1,-1,-1,-1,-1,-1,-1,-1,-1,-1,-1,-1,-1,-1,-1,-1,-1,-1,-1,-1,-1,-1,-1,-1,-1,-1,-1,-1,-1,-1,-1,-1,-1,-1,-1,-1,-1,-1,-1,-1,-1,-1,-1,-1,-1,-1,-1,-1,-1,-1,-1,-1,-1,-1,-1,-1,-1,-1,-1,-1,-1,-1,-1,-1,-1,-1,-1,-1,-1,-1,-1,-1,-1,-1,-1,-1,-1,-1,-1],"loss_changes":[2.3019375E3,3.9525497E2,1.241875E2,3.6523956E2,6.005876E1,3.4293823E1,1.003125E1,1.1723999E2,8.864657E1,1.4307098E0,4.7752106E1,4.940912E1,2.5703125E0,7.8894043E0,6.25E-1,5.7590332E1,0E0,1.0136761E1,5.9267075E1,0E0,1.5523529E0,2.9162273E1,9.913864E-1,6.438835E1,1.0246338E1,1.2250366E0,3.123437E0,6.055664E0,6.077357E0,1.3043213E0,0E0,5.3767273E1,0E0,1.2186073E1,5.393753E0,9.99852E0,2.1818153E1,5.814514E-1,3.0592856E0,1.4921181E1,1.4863572E1,1.1716843E-1,2.2448144E0,4.1135853E1,2.4985168E1,6.5688477E0,3.9834285E0,1.0827026E0,2.4866765E0,5.459657E-1,4.0292144E0,6.0532227E0,1.8011005E1,3.792491E0,0E0,5.102539E-2,1.2657603E0,3.601886E1,2.0724586E1,2.613081E0,1.3169458E1,0E0,5.087265E0,7.6176834E0,2.868664E0,4.7165213E0,1.2685869E1,5.860901E-1,1.5035971E0,6.214218E-1,3.7812753E0,1.6600876E1,4.2058015E-1,1.811174E1,3.4442396E0,0E0,1.0102433E-1,0E0,0E0,6.1829224E0,2.0794825E1,1.5504917E1,5.4621277E0,2.5576172E0,4.033844E0,1.4303098E0,0E0,7.2998047E-1,3.3576298E0,0E0,0E0,0E0,1.3081411E0,0E0,0E0,3.5651855E0,4.9754386E0,6.432111E0,0E0,0E0,5.586688E0,6.5489197E0,1.6973877E-1,0E0,0E0,3.543976E1,0E0,0E0,1.9707985E1,0E0,3.434464E0,7.4641724E0,7.438303E0,3.7093658E0,7.7983255E0,7.2892075E0,3.3458166E0,0E0,0E0,6.439551E0,3.8832674E0,9.889269E0,1.02764845E1,5.5381775E-1,0E0,0E0,0E0,0E0,0E0,1.7500231E0,0E0,1.3377007E1,0E0,0E0,0E0,1.6202177E1,0E0,2.933959E0,3.152897E0,0E0,0E0,0E0,2.889576E0,6.611741E0,1.7699638E1,1.4916843E1,4.002506E0,4.827606E0,3.647697E0,2.244873E0,3.1094904E0,1.6213126E0,0E0,0E0,0E0,1.6624305E0,5.26062E-1,3.531993E0,6.7785454E-1,0E0,0E0,1.7192383E0,6.525547E0,2.881011E0,2.5240397E0,0E0,4.935341E-1,0E0,7.1024094E0,3.190918E0,2.3174305E1,0E0,1.02461874E-1,0E0,0E0,0E0,0E0,0E0,0E0,0E0,0E0,0E0,0E0,0E0,0E0,0E0,0E0,0E0,0E0,0E0,0E0,0E0,0E0,0E0,0E0,0E0,0E0,0E0,0E0,0E0,0E0,0E0,0E0,0E0,0E0,0E0,0E0,0E0,0E0,0E0,0E0,0E0,0E0,0E0,0E0,0E0,0E0,0E0,0E0,0E0,0E0,0E0,0E0,0E0,0E0,0E0,0E0,0E0,0E0,0E0,0E0,0E0,0E0,0E0,0E0,0E0,0E0,0E0,0E0,0E0,0E0,0E0,0E0,0E0,0E0,0E0,0E0,0E0,0E0,0E0,0E0,0E0,0E0,0E0,0E0,0E0,0E0],"parents":[2147483647,0,0,1,1,2,2,3,3,4,4,5,5,6,6,7,7,8,8,9,9,10,10,11,11,12,12,13,13,14,14,15,15,17,17,18,18,20,20,21,21,22,22,23,23,24,24,25,25,26,26,27,27,28,28,29,29,31,31,33,33,34,34,35,35,36,36,37,37,38,38,39,39,40,40,41,41,42,42,43,43,44,44,45,45,46,46,47,47,48,48,49,49,50,50,51,51,52,52,53,53,55,55,56,56,57,57,58,58,59,59,60,60,62,62,63,63,64,64,65,65,66,66,67,67,68,68,69,69,70,70,71,71,72,72,73,73,74,74,76,76,79,79,80,80,81,81,82,82,83,83,84,84,85,85,87,87,88,88,92,92,95,95,96,96,97,97,100,100,101,101,102,102,105,105,108,108,110,110,111,111,112,112,113,113,114,114,115,115,116,116,119,119,120,120,121,121,122,122,123,123,129,129,131,131,135,135,137,137,138,138,142,142,143,143,144,144,145,145,146,146,147,147,148,148,149,149,150,150,151,151,155,155,156,156,157,157,158,158,161,161,162,162,163,163,164,164,166,166,168,168,169,169,170,170,172,172],"right_children":[2,4,6,8,10,12,14,16,18,20,22,24,26,28,30,32,-1,34,36,-1,38,40,42,44,46,48,50,52,54,56,-1,58,-1,60,62,64,66,68,70,72,74,76,78,80,82,84,86,88,90,92,94,96,98,100,-1,102,104,106,108,110,112,-1,114,116,118,120,122,124,126,128,130,132,134,136,138,-1,140,-1,-1,142,144,146,148,150,152,154,-1,156,158,-1,-1,-1,160,-1,-1,162,164,166,-1,-1,168,170,172,-1,-1,174,-1,-1,176,-1,178,180,182,184,186,188,190,-1,-1,192,194,196,198,200,-1,-1,-1,-1,-1,202,-1,204,-1,-1,-1,206,-1,208,210,-1,-1,-1,212,214,216,218,220,222,224,226,228,230,-1,-1,-1,232,234,236,238,-1,-1,240,242,244,246,-1,248,-1,250,252,254,-1,256,-1,-1,-1,-1,-1,-1,-1,-1,-1,-1,-1,-1,-1,-1,-1,-1,-1,-1,-1,-1,-1,-1,-1,-1,-1,-1,-1,-1,-1,-1,-1,-1,-1,-1,-1,-1,-1,-1,-1,-1,-1,-1,-1,-1,-1,-1,-1,-1,-1,-1,-1,-1,-1,-1,-1,-1,-1,-1,-1,-1,-1,-1,-1,-1,-1,-1,-1,-1,-1,-1,-1,-1,-1,-1,-1,-1,-1,-1,-1,-1,-1,-1,-1,-1],"split_conditions":[-2.30625E1,1E0,-1.8145834E1,1E0,-1.0414E1,1E0,-1.6625E1,1E0,-1.0453E1,-3.1836E1,-9.2770836E1,1E0,1E0,1E0,-1.675E1,1E0,-5.1940467E-2,-2.30625E1,-1.1133E1,-3.8010653E-3,1E0,-1.1555E1,-8.1125E1,-2.0291666E1,1E0,1E0,-6.31915E1,-7.05E1,-1.4916667E1,8E0,-5.480201E-2,-2.30625E1,-5.0437886E-2,-1.5375E1,-1.2357E2,3E0,2E0,7E0,-1.275E1,1E0,1E0,4E0,-8.18125E1,-1.04335E1,-9.3625E1,1E0,-1.61875E1,1E0,-1.7195E1,-1.40625E1,-1.6E1,1E0,-7.86875E1,-1.3148E1,4.9637645E-2,-1.45625E1,-1.7125E1,1E0,-1.89375E1,-1.07735E1,-9E1,4.6631966E-2,7E0,1E0,-2.30625E1,-7.0164E1,-2.30625E1,7E0,-9.107E1,-7.3E1,-9.36875E1,1E0,-9.59375E1,1E0,1E0,-5.367556E-2,-1.5E1,1.7451447E-2,-4.240874E-2,-1.9242E1,-6.7125E1,1E0,1E0,1E0,-8.3672E1,-1.5383E1,6.30815E-2,-1.29742E2,-1.5945E1,2.2360086E-2,-4.1880053E-2,-4.5883533E-2,-9.0875E1,6.936069E-2,-3.0083764E-2,1E0,-1.58125E1,-7.0664E1,-5.0886817E-2,-5.0082404E-2,-6.957E1,-1.3125E1,1E0,-3.288545E-2,2.1319985E-2,1E0,-5.0666787E-2,-4.910913E-2,1E0,-5.1243432E-2,-1.76875E1,-9.375E1,-7.6375E1,1E0,-2.30625E1,-1.675E1,-1.00791664E2,3.7644982E-2,-3.5592686E-2,-9.9875E1,-1.2875E1,-1.78125E1,-7.8375E1,-1.23562E2,-8.5689565E-3,1.772541E-2,-3.866176E-2,-3.840329E-3,-4.9188193E-2,-1.425E1,-3.8226977E-2,-8.28555E1,-4.1735794E-2,-2.618169E-3,-4.210466E-2,1E0,-4.813617E-2,5E0,-1.275E1,-2.7462468E-2,-3.244383E-3,4.4750378E-2,-1.036875E2,-1.0578E1,-1.9625E1,1E0,-1.65E1,1E0,-1.684375E1,1E0,-9.45625E1,-1.6656E1,6.641743E-2,-3.672582E-2,2.0122364E-2,4E0,1E0,-1.5125E1,-1.5625E1,2.1617506E-2,-3.3227663E-2,1E0,-1.4916667E1,5E0,-9.49375E1,-3.0180037E-2,-6.78125E1,-4.568393E-2,-6.31915E1,-1.3125E1,-1.6375E1,-5.418573E-2,-9.6125E1,9.560183E-2,-4.7475155E-2,7.688508E-2,2.6604006E-2,3.930955E-2,-3.794219E-2,2.199583E-2,1.1476053E-1,-2.1369828E-2,3.5312872E-2,-3.5575625E-2,-1.006679E-2,8.597807E-2,-2.8504664E-2,1.309813E-2,1.0839393E-1,6.333348E-2,-7.932851E-3,5.842476E-2,-3.141846E-2,-5.2039575E-2,-1.1846549E-2,-2.6688159E-2,7.1043335E-2,6.8763986E-2,-1.3560724E-2,-9.276585E-3,-5.1879622E-2,-8.264582E-3,