{"learner":{"attributes":{"best_iteration":"19","best_ntree_limit":"20","best_score":"0.5124862783847711"},"feature_names":[],"feature_types":[],"gradient_booster":{"model":{"gbtree_model_param":{"num_parallel_tree":"1","num_trees":"30","size_leaf_vector":"0"},"tree_info":[0,0,0,0,0,0,0,0,0,0,0,0,0,0,0,0,0,0,0,0,0,0,0,0,0,0,0,0,0,0],"trees":[{"base_weights":[-1.8811289E0,-4.347826E-2,-1.9177197E0,7.324955E-1,-5.816594E-1,-1.6092077E0,-1.9329727E0,-1.1935484E0,9.699399E-1,-1.8355945E0,-1.1373183E0,-1.8663495E0,-1.9762064E0,-1.6E0,3.2727274E-1,1.3040936E0,2.2360249E-1,-1.8507223E0,1.0909092E-1,-3.2E-1,-1.4419643E0,-1.876638E0,-7.194245E-1,-1.9788138E0,-1.054054E0,7.5E-2,-5.411765E-1,7.058824E-1,1.585903E0,-2.8282827E-1,1E0,-1.8735632E0,-6.875E-1,2.8125E-1,-6.6086954E-1,-5.483871E-1,-1.5641025E0,-1.88843E0,-1.2671233E0,1.5111111E0,-1.7346939E0,-1.9791676E0,-0E0,-5.5555556E-2,-5.285714E-1,2.4691358E-1,1.4761904E0,1.7075472E0,-0E0,-8.135593E-1,4.090909E-1,1.3928572E0,-7.1428573E-1,-0E0,-1.8797364E0,-4.1739133E-1,6.1538464E-1,-6.4285713E-1,9.5E-1,3.3333334E-1,-9.8876405E-1,3.2727274E-1,-8.727273E-1,-2.7586207E-1,-1.6438357E0,-1.9472787E0,-1.819682E0,-5.6565654E-1,-1.5837563E0,-7.5E-2,5.268293E-1,-0E0,-5.4255325E-1,-5.9390795E-1,-6.25E-1,4.4210526E-1,-4.571429E-1,2.7391306E-1,-1.5384617E-1,4.894737E-1,-0E0,5.271845E-1,-0E0,1.846154E-1,-3E-1,-1.875E-2,-4.2580646E-1,3E-1,-8.1818186E-2,-0E0,4.875E-1,-3E-1,-0E0,-0E0,-5.6578517E-1,2.6666668E-1,-0E0,1.0909092E-1,-3.4285718E-1,-8.0000006E-2,4.5517242E-1,-2.5E-1,3E-1,-3.7105265E-1,7.058824E-2,1.12500004E-1,-3.906977E-1,-3.157895E-1,2.1428573E-1,1.3333334E-1,-5.05E-1,-3.9750004E-1,-5.85773E-1,-4.5932645E-1,-5.56765E-1,7.272728E-2,-2.8285715E-1,-5.0645167E-1,-0E0,7.5E-2,-3.5E-1],"categories":[],"categories_nodes":[],"categories_segments":[],"categories_sizes":[],"default_left":[0,0,0,0,0,0,0,0,0,0,0,0,0,0,0,0,0,0,0,0,0,0,0,0,0,0,0,0,0,0,0,0,0,0,0,0,0,0,0,0,0,0,0,0,0,0,0,0,0,0,0,0,0,0,0,0,0,0,0,0,0,0,0,0,0,0,0,0,0,0,0,0,0,0,0,0,0,0,0,0,0,0,0,0,0,0,0,0,0,0,0,0,0,0,0,0,0,0,0,0,0,0,0,0,0,0,0,0,0,0,0,0,0,0,0,0,0,0,0,0,0],"id":0,"left_children":[1,3,5,7,-1,9,11,13,15,17,19,21,23,25,-1,27,29,31,-1,33,35,37,39,41,43,-1,-1,45,47,49,51,53,55,57,59,61,63,65,67,69,71,73,-1,75,-1,77,79,81,83,85,87,89,91,-1,93,-1,95,97,99,101,103,-1,105,107,109,111,113,115,117,-1,-1,-1,-1,-1,119,-1,-1,-1,-1,-1,-1,-1,-1,-1,-1,-1,-1,-1,-1,-1,-1,-1,-1,-1,-1,-1,-1,-1,-1,-1,-1,-1,-1,-1,-1,-1,-1,-1,-1,-1,-1,-1,-1,-1,-1,-1,-1,-1,-1,-1,-1],"loss_changes":[6.6783594E2,2.8955896E2,4.1015625E1,6.4728836E1,0E0,4.6315308E1,2.1144531E1,1.6392084E1,3.005613E1,1.1838135E1,3.7189224E1,4.074707E1,9.888672E0,6.4151955E0,0E0,1.2148376E1,1.6467375E1,5.7076416E0,0E0,9.342146E0,1.0309708E1,2.2217773E1,8.1427765E1,3.9160156E0,1.2068962E1,0E0,0E0,9.291991E0,1.1801743E1,9.623822E0,1.244643E1,3.5218506E0,8.579954E0,1.0652233E1,1.0029622E1,9.084165E0,8.60144E0,9.022461E0,1.42432785E1,6.045866E0,3.1372147E0,1.4394531E0,0E0,2.2478487E1,0E0,1.0916492E1,2.4085217E0,4.5009613E0,3.7307692E0,5.881441E0,5.0681825E0,4.526785E0,7.1428573E-1,0E0,3.545044E0,0E0,5.470085E-1,4.3279223E0,7.931322E0,6.75E0,7.548275E0,0E0,8.32233E0,6.497148E0,8.894104E0,2.0581055E0,1.2875977E1,8.122801E0,8.9885025E0,0E0,0E0,0E0,0E0,0E0,2.6458335E0,0E0,0E0,0E0,0E0,0E0,0E0,0E0,0E0,0E0,0E0,0E0,0E0,0E0,0E0,0E0,0E0,0E0,0E0,0E0,0E0,0E0,0E0,0E0,0E0,0E0,0E0,0E0,0E0,0E0,0E0,0E0,0E0,0E0,0E0,0E0,0E0,0E0,0E0,0E0,0E0,0E0,0E0,0E0,0E0,0E0,0E0],"parents":[2147483647,0,0,1,1,2,2,3,3,5,5,6,6,7,7,8,8,9,9,10,10,11,11,12,12,13,13,15,15,16,16,17,17,19,19,20,20,21,21,22,22,23,23,24,24,27,27,28,28,29,29,30,30,31,31,32,32,33,33,34,34,35,35,36,36,37,37,38,38,39,39,40,40,41,41,43,43,45,45,46,46,47,47,48,48,49,49,50,50,51,51,52,52,54,54,56,56,57,57,58,58,59,59,60,60,62,62,63,63,64,64,65,65,66,66,67,67,68,68,74,74],"right_children":[2,4,6,8,-1,10,12,14,16,18,20,22,24,26,-1,28,30,32,-1,34,36,38,40,42,44,-1,-1,46,48,50,52,54,56,58,60,62,64,66,68,70,72,74,-1,76,-1,78,80,82,84,86,88,90,92,-1,94,-1,96,98,100,102,104,-1,106,108,110,112,114,116,118,-1,-1,-1,-1,-1,120,-1,-1,-1,-1,-1,-1,-1,-1,-1,-1,-1,-1,-1,-1,-1,-1,-1,-1,-1,-1,-1,-1,-1,-1,-1,-1,-1,-1,-1,-1,-1,-1,-1,-1,-1,-1,-1,-1,-1,-1,-1,-1,-1,-1,-1,-1],"split_conditions":[-1.929514E1,-6.4951836E1,-1.58975E1,-1.71875E1,-5.816594E-1,-9.5645836E1,-1.1434834E1,-9.1902336E1,-2.14375E1,-7.1E1,-9.2179665E1,1E0,1E0,-1.0602604E2,3.2727274E-1,-9.2041145E1,-1.5642045E1,5E0,1.0909092E-1,-1.4826834E1,-2.0474167E1,-1.0605667E1,1E0,2E0,1E0,7.5E-2,-5.411765E-1,-8.84375E1,-6.571875E1,-8.81875E1,-7.31E1,-1.1191346E2,-1.5046875E1,-1.7832E1,-1.7228E1,-1.9441334E1,-1.049925E2,-9.27422E1,-1.8634167E1,-1.0505289E2,-1.0621875E2,9E0,-0E0,-6.425E1,-5.285714E-1,-9.2951836E1,-1.0739583E1,-7.3225E1,-1.4985833E1,-1.6640625E1,-7.98125E1,-1.70875E1,-1.1006857E1,-0E0,-2.8869E1,-4.1739133E-1,-1.4836E1,-1.6408833E1,-1.5739667E1,-1.65625E1,-1.08165E1,3.2727274E-1,-9.0419334E1,-7.49125E1,-3.4541832E1,-1.0554034E2,-9.9166664E1,-9E1,-6.3125E0,-7.5E-2,5.268293E-1,-0E0,-5.4255325E-1,-5.9390795E-1,-1.8049107E1,4.4210526E-1,-4.571429E-1,2.7391306E-1,-1.5384617E-1,4.894737E-1,-0E0,5.271845E-1,-0E0,1.846154E-1,-3E-1,-1.875E-2,-4.2580646E-1,3E-1,-8.1818186E-2,-0E0,4.875E-1,-3E-1,-0E0,-0E0,-5.6578517E-1,2.6666668E-1,-0E0,1.0909092E-1,-3.4285718E-1,-8.0000006E-2,4.5517242E-1,-2.5E-1,3E-1,-3.7105265E-1,7.058824E-2,1.12500004E-1,-3.906977E-1,-3.157895E-1,2.1428573E-1,1.3333334E-1,-5.05E-1,-3.9750004E-1,-5.85773E-1,-4.5932645E-1,-5.56765E-1,7.272728E-2,-2.8285715E-1,-5.0645167E-1,-0E0,7.5E-2,-3.5E-1],"split_indices":[313,12,313,315,0,296,317,300,313,232,108,304,309,200,0,220,297,199,0,13,15,285,306,289,306,0,0,72,232,266,136,312,299,303,205,287,254,318,127,26,58,295,0,300,0,60,249,280,319,203,266,299,13,0,239,0,303,13,127,169,317,0,268,202,143,156,90,8,57,0,0,0,0,0,297,0,0,0,0,0,0,0,0,0,0,0,0,0,0,0,0,0,0,0,0,0,0,0,0,0,0,0,0,0,0,0,0,0,0,0,0,0,0,0,0,0,0,0,0,0,0],"split_type":[0,0,0,0,0,0,0,0,0,0,0,0,0,0,0,0,0,0,0,0,0,0,0,0,0,0,0,0,0,0,0,0,0,0,0,0,0,0,0,0,0,0,0,0,0,0,0,0,0,0,0,0,0,0,0,0,0,0,0,0,0,0,0,0,0,0,0,0,0,0,0,0,0,0,0,0,0,0,0,0,0,0,0,0,0,0,0,0,0,0,0,0,0,0,0,0,0,0,0,0,0,0,0,0,0,0,0,0,0,0,0,0,0,0,0,0,0,0,0,0,0],"sum_hessian":[9.94675E3,1.945E2,9.75225E3,1.3825E2,5.625E1,4.66E2,9.28625E3,1.45E1,1.2375E2,3.1225E2,1.5375E2,3.6765E3,5.60975E3,1.275E1,1.75E0,8.45E1,3.925E1,3.105E2,1.75E0,4.275E1,1.11E2,3.64275E3,3.375E1,5.59225E3,1.75E1,1E0,1.175E1,2.875E1,5.575E1,2.375E1,1.55E1,3.035E2,7E0,1.5E1,2.775E1,1.45E1,9.65E1,3.57075E3,7.2E1,1.025E1,2.35E1,5.59125E3,1E0,8E0,9.5E0,1.925E1,9.5E0,5.2E1,3.75E0,1.375E1,1E1,1.3E1,2.5E0,1E0,3.025E2,4.75E0,2.25E0,6E0,9E0,6.5E0,2.125E1,1.75E0,1.275E1,6.25E0,9.025E1,1.90525E3,1.6655E3,2.375E1,4.825E1,1E0,9.25E0,1E0,2.25E1,5.58825E3,3E0,3.75E0,4.25E0,1.05E1,8.75E0,8.5E0,1E0,5.05E1,1.5E0,2.25E0,1.5E0,7E0,6.75E0,5.5E0,4.5E0,2E0,1.1E1,1.5E0,1E0,1E0,3.015E2,1.25E0,1E0,1.75E0,4.25E0,2.75E0,6.25E0,2E0,4.5E0,1.8E1,3.25E0,3E0,9.75E0,3.75E0,2.5E0,1.25E0,8.9E1,1.9E1,1.88625E3,1.92E2,1.4735E3,7.25E0,1.65E1,4.55E1,2.75E0,1E0,2E0],"tree_param":{"num_deleted":"0","num_feature":"320","num_nodes":"121","size_leaf_vector":"0"}},{"base_weights":[-1.4469213E0,1.3952202E-1,-1.4727457E0,7.4683076E-1,-4.5480543E-1,-1.0127542E0,-1.4840418E0,-7.81153E-1,9.2875713E-1,-1.334002E0,-3.7053517E-1,-1.4111329E0,-1.5248522E0,2.880489E-1,-4.029875E-1,1.0137619E0,-8.9908874E-1,-1.035907E0,-1.5207813E0,1.9833267E-1,-1.0365963E0,-1.1911465E0,-1.4490885E0,-1.1828107E0,-1.529659E0,-1.4182292E-1,3.1406423E-1,1.105262E0,-6.8664175E-1,-0E0,-4.0193775E-1,4.8889065E-1,-1.1292312E0,-4.6169263E-1,-0E0,5.410539E-1,-5.281106E-1,-1.2188767E0,1.9126028E-1,-1.3977284E0,-8.848397E-1,-1.5138233E0,-1.408833E0,-1.2419925E0,1.6965497E-1,-1.0859352E0,-1.532725E0,1.2038099E0,-0E0,-3.999081E-1,6.5668866E-2,3.275501E-1,-7.894684E-2,-1.3086816E0,-2.8345385E-1,8.292115E-1,-7.327423E-1,-8.8043255E-1,2.5222507E-1,4.9809407E-2,-1.34502E0,7.574381E-1,-2.0090066E-1,-1.4164033E0,1.9264428E-1,-9.775585E-1,-7.795919E-2,-5.1356995E-1,-1.5185045E0,-1.3645384E0,-4.5446876E-1,-1.2748929E0,9.485292E-2,2.6249754E-1,-1.8500522E-1,-1.257836E0,-0E0,-4.59897E-1,-2.5470102E-2,1.6846901E-1,4.318517E-1,-3.5901976E-1,1.7720988E-1,-0E0,-4.150195E-1,-2.3364325E-1,1.4709622E-1,-6.555785E-2,3.0875918E-1,2.7246112E-2,-3.4893385E-1,-3.3823788E-1,7.723659E-2,-4.290877E-1,-0E0,3.6555287E-1,-0E0,1.6228708E-3,-4.2765978E-1,3.5624695E-1,-2.0961715E-1,-7.086538E-2,-3.283327E-1,3.1821933E-1,-1.5017004E-1,-2.9743552E-1,1.7165986E-1,-4.5615822E-1,-0E0,-2.3744074E-1,-4.1520593E-1,-8.9045875E-2,-3.972667E-1,-3.6587887E-2,-4.2047492E-1,2.8457412E-1,-2.4149247E-1],"categories":[],"categories_nodes":[],"categories_segments":[],"categories_sizes":[],"default_left":[0,0,0,0,0,0,0,0,0,0,0,0,0,0,0,0,0,0,0,0,0,0,0,0,0,0,0,0,0,0,0,0,0,0,0,0,0,0,0,0,0,0,0,0,0,0,0,0,0,0,0,0,0,0,0,0,0,0,0,0,0,0,0,0,0,0,0,0,0,0,0,0,0,0,0,0,0,0,0,0,0,0,0,0,0,0,0,0,0,0,0,0,0,0,0,0,0,0,0,0,0,0,0,0,0,0,0,0,0,0,0,0,0,0,0,0,0],"id":1,"left_children":[1,3,5,7,-1,9,11,13,15,17,19,21,23,25,-1,27,29,31,33,35,37,39,41,43,45,-1,-1,47,49,-1,-1,51,53,-1,-1,55,57,59,61,63,65,67,69,71,73,75,77,79,81,-1,-1,-1,-1,83,85,87,89,91,-1,-1,93,95,-1,97,99,101,103,105,107,109,-1,111,-1,-1,-1,113,115,-1,-1,-1,-1,-1,-1,-1,-1,-1,-1,-1,-1,-1,-1,-1,-1,-1,-1,-1,-1,-1,-1,-1,-1,-1,-1,-1,-1,-1,-1,-1,-1,-1,-1,-1,-1,-1,-1,-1,-1],"loss_changes":[3.7627734E2,1.4892102E2,4.4103516E1,3.1019234E1,0E0,4.411029E1,2.2554688E1,8.0171795E0,1.6179314E1,5.2731934E0,2.9181858E1,2.3463379E1,6.080078E0,3.4312615E0,0E0,1.5636414E1,2.3982248E0,9.46637E0,1.9910126E0,1.0520936E1,8.643944E0,2.7662598E1,3.4448242E0,7.4532776E0,4.5634766E0,0E0,0E0,1.0274857E1,3.8643503E0,0E0,0E0,2.4574156E0,7.5634155E0,0E0,0E0,1.1255071E1,7.1300554E0,6.2656403E0,3.022788E0,9.225281E0,1.3978424E1,2.96875E0,4.4074707E0,5.0219727E0,2.9085183E0,8.226955E0,1.1708984E0,1.0764717E1,6.6364727E0,0E0,0E0,0E0,0E0,4.0859528E0,5.061465E0,5.7299385E0,2.604674E0,3.8969088E0,0E0,0E0,3.453022E0,1.7383544E0,0E0,4.326233E0,4.469422E0,1.4169464E1,1.0708745E1,4.278472E0,2.9467773E0,1.1233887E1,0E0,2.6365662E0,0E0,0E0,0E0,5.0973663E0,5.86666E0,0E0,0E0,0E0,0E0,0E0,0E0,0E0,0E0,0E0,0E0,0E0,0E0,0E0,0E0,0E0,0E0,0E0,0E0,0E0,0E0,0E0,0E0,0E0,0E0,0E0,0E0,0E0,0E0,0E0,0E0,0E0,0E0,0E0,0E0,0E0,0E0,0E0,0E0,0E0,0E0],"parents":[2147483647,0,0,1,1,2,2,3,3,5,5,6,6,7,7,8,8,9,9,10,10,11,11,12,12,13,13,15,15,16,16,17,17,18,18,19,19,20,20,21,21,22,22,23,23,24,24,27,27,28,28,31,31,32,32,35,35,36,36,37,37,38,38,39,39,40,40,41,41,42,42,43,43,44,44,45,45,46,46,47,47,48,48,53,53,54,54,55,55,56,56,57,57,60,60,61,61,63,63,64,64,65,65,66,66,67,67,68,68,69,69,71,71,75,75,76,76],"right_children":[2,4,6,8,-1,10,12,14,16,18,20,22,24,26,-1,28,30,32,34,36,38,40,42,44,46,-1,-1,48,50,-1,-1,52,54,-1,-1,56,58,60,62,64,66,68,70,72,74,76,78,80,82,-1,-1,-1,-1,84,86,88,90,92,-1,-1,94,96,-1,98,100,102,104,106,108,110,-1,112,-1,-1,-1,114,116,-1,-1,-1,-1,-1,-1,-1,-1,-1,-1,-1,-1,-1,-1,-1,-1,-1,-1,-1,-1,-1,-1,-1,-1,-1,-1,-1,-1,-1,-1,-1,-1,-1,-1,-1,-1,-1,-1,-1,-1],"split_conditions":[-2.0125E1,-6.483833E1,-1.718125E1,-1.68125E1,-4.5480543E-1,-9.33175E1,-9.174457E1,-8.6541664E1,1E0,-1.29115E1,-7.979417E1,-1.3303572E1,-1.7785166E1,-9.598967E1,-4.029875E-1,1E0,-1.8145834E1,-1.07895836E2,-7.4975E1,-1.3683666E1,-8.305E0,-9.066743E1,-9.53895E1,1E0,-1.7678572E1,-1.4182292E-1,3.1406423E-1,-6.225E1,-9.1421875E1,-0E0,-4.0193775E-1,-9.8869E1,-9.45E1,-4.6169263E-1,-0E0,-8.002E1,-1.25675E1,-1.05009E2,3E0,-1.0225E1,-8.140625E0,-1.8360577E1,-1.136325E1,1E0,1E0,6E0,1E0,-9.3953125E1,-1.778125E1,-3.999081E-1,6.5668866E-2,3.275501E-1,-7.894684E-2,-1.7896E1,-9.421414E1,-1.6354166E1,-9.309E1,7E0,2.5222507E-1,4.9809407E-2,-7.4979164E1,-8.254807E0,-2.0090066E-1,-2.2958857E1,-1.7009615E1,-1.00197914E2,-2.2325E1,-1.4431818E1,1E0,-1.0298317E2,-4.5446876E-1,-1.03390625E2,9.485292E-2,2.6249754E-1,-1.8500522E-1,-1.5094714E1,-1.2356143E1,-4.59897E-1,-2.5470102E-2,1.6846901E-1,4.318517E-1,-3.5901976E-1,1.7720988E-1,-0E0,-4.150195E-1,-2.3364325E-1,1.4709622E-1,-6.555785E-2,3.0875918E-1,2.7246112E-2,-3.4893385E-1,-3.3823788E-1,7.723659E-2,-4.290877E-1,-0E0,3.6555287E-1,-0E0,1.6228708E-3,-4.2765978E-1,3.5624695E-1,-2.0961715E-1,-7.086538E-2,-3.283327E-1,3.1821933E-1,-1.5017004E-1,-2.9743552E-1,1.7165986E-1,-4.5615822E-1,-0E0,-2.3744074E-1,-4.1520593E-1,-8.9045875E-2,-3.972667E-1,-3.6587887E-2,-4.2047492E-1,2.8457412E-1,-2.4149247E-1],"split_indices":[313,300,313,315,0,264,14,56,306,253,12,313,317,300,0,305,111,312,200,207,41,284,318,304,297,0,0,88,10,0,0,142,298,0,0,318,297,302,55,297,25,265,319,144,306,311,309,216,219,0,0,0,0,255,14,121,124,311,0,0,296,169,0,285,139,168,63,233,304,44,0,298,0,0,0,13,319,0,0,0,0,0,0,0,0,0,0,0,0,0,0,0,0,0,0,0,0,0,0,0,0,0,0,0,0,0,0,0,0,0,0,0,0,0,0,0,0],"split_type":[0,0,0,0,0,0,0,0,0,0,0,0,0,0,0,0,0,0,0,0,0,0,0,0,0,0,0,0,0,0,0,0,0,0,0,0,0,0,0,0,0,0,0,0,0,0,0,0,0,0,0,0,0,0,0,0,0,0,0,0,0,0,0,0,0,0,0,0,0,0,0,0,0,0,0,0,0,0,0,0,0,0,0,0,0,0,0,0,0,0,0,0,0,0,0,0,0,0,0,0,0,0,0,0,0,0,0,0,0,0,0,0,0,0,0,0,0],"sum_hessian":[9.16221E3,1.4637405E2,9.015836E3,1.0771238E2,3.8661682E1,2.1933122E2,8.796504E3,1.0817231E1,9.689514E1,1.4496284E2,7.436838E1,3.173958E3,5.6225464E3,3.588995E0,7.228236E0,9.327622E1,3.6189246E0,5.939424E1,8.55686E1,4.0084587E1,3.4283794E1,4.7374347E2,2.7002144E3,8.278675E1,5.53976E3,1.6514169E0,1.937578E0,8.9124405E1,4.1518116E0,1.2028626E0,2.416062E0,2.8720646E0,5.6522175E1,8.437447E1,1.1941249E0,2.7876503E1,1.2208083E1,3.0213068E1,4.0707283E0,2.798257E2,1.9391776E2,1.01651996E3,1.6836945E3,7.974846E1,3.0382879E0,4.1572334E1,5.4981875E3,8.206284E1,7.061562E0,2.469281E0,1.6825308E0,1.7122933E0,1.1597712E0,4.5689625E1,1.0832551E1,2.3338442E1,4.5380597E0,1.0283391E1,1.924692E0,2.1649096E0,2.8048159E1,2.8786206E0,1.1921077E0,2.769969E2,2.8288374E0,1.7318575E2,2.073201E1,5.7483983E0,1.0107716E3,1.2007919E3,4.8290268E2,7.8591705E1,1.1567606E0,1.8773996E0,1.1608883E0,3.5931114E1,5.6412225E0,5.4967773E3,1.4102122E0,2.3508528E1,5.8554317E1,2.2076454E0,4.8539166E0,2.7721667E0,4.2917458E1,6.994481E0,3.8380704E0,3.325109E0,2.0013334E1,1.4295795E0,3.1084805E0,8.817708E0,1.465683E0,2.6375692E1,1.6724658E0,1.6694903E0,1.2091302E0,1.4204057E0,2.7557648E2,1.4449126E0,1.3839247E0,2.4580645E1,1.486051E2,4.882721E0,1.584929E1,4.3716607E0,1.3767372E0,1.00935583E3,1.4157132E0,4.16909E1,1.159101E3,4.597055E0,7.3994644E1,4.6347218E0,3.1296392E1,2.6346018E0,3.006621E0],"tree_param":{"num_deleted":"0","num_feature":"320","num_nodes":"117","size_leaf_vector":"0"}},{"base_weights":[-1.2353355E0,-2.5239542E-2,-1.2615815E0,4.3016633E-1,-3.9248276E-1,-1.133616E0,-1.295433E0,-5.9851978E-2,7.756799E-1,-4.652677E-1,-1.1681886E0,-1.2265877E0,-1.327325E0,-6.2193835E-1,4.4785604E-1,8.6555403E-1,-3.038599E-1,4.628841E-1,-5.6064916E-1,-1.0013385E0,-1.2813641E0,-1.0070872E0,-1.2448132E0,-0E0,-1.3277977E0,4.460534E-1,-9.1742736E-1,7.6413333E-1,-8.251108E-1,9.809939E-1,-4.9095616E-2,-3.1992307E-1,2.895627E-1,-8.0197805E-1,-0E0,-1.1682754E0,-6.553146E-1,3.8958833E-2,-1.2857983E0,1.4012566E-1,-1.0236235E0,-1.2751147E0,-1.0712405E0,-7.1536446E-1,-3.9873958E-1,2.7542582E-1,-1.2324443E-1,1.8952198E-1,-1.1847777E0,-3.1138824E-2,1.0250815E0,-4.4029868E-1,-0E0,2.1037512E-1,1.0947744E0,-7.3754936E-1,2.3183644E-1,-6.578185E-2,2.352219E-1,2.3378177E-1,-9.6892726E-1,4.331749E-1,-8.829628E-1,-1.2205669E0,-4.385805E-1,-3.338617E-1,-9.892546E-1,-1.6446912E-1,2.0606016E-1,-1.3028927E0,-8.232224E-1,-1.0522629E0,-0E0,-2.2820306E-1,-1.2774373E0,-8.117371E-1,-1.2829869E0,-1.0531083E0,1.3980581E-1,-0E0,-3.869907E-1,1.8061948E-1,-3.6727673E-1,3.4716922E-1,-7.919423E-2,1.5621601E-1,-1.0558366E-1,2.231275E-1,-2.0922709E-1,3.6391672E-1,1.3490835E-1,-3.5648507E-1,2.4036022E-2,3.414924E-1,-1.1904429E-1,-3.1003684E-1,8.209659E-2,3.545487E-1,-7.147572E-2,1.492846E-1,-3.5884643E-1,-3.6808786E-1,9.8200224E-2,2.6509756E-1,-2.1272469E-1,-1.6900034E-1,2.6355943E-1,-3.1237692E-1,5.7235826E-2,-3.9149928E-1,-0E0,1.413385E-1,-3.331859E-1,-3.3212233E-1,-7.364382E-2,4.250676E-1,-2.5509396E-1,-2.59425E-1,2.1049403E-1,-2.8879339E-1,-3.85878E-1,-3.4544665E-1,-1.3695297E-1,-3.8842708E-1,-7.7239916E-2,-3.3815312E-1,-0E0,-1.5371387E-1,2.4483706E-1],"categories":[],"categories_nodes":[],"categories_segments":[],"categories_sizes":[],"default_left":[0,0,0,0,0,0,0,0,0,0,0,0,0,0,0,0,0,0,0,0,0,0,0,0,0,0,0,0,0,0,0,0,0,0,0,0,0,0,0,0,0,0,0,0,0,0,0,0,0,0,0,0,0,0,0,0,0,0,0,0,0,0,0,0,0,0,0,0,0,0,0,0,0,0,0,0,0,0,0,0,0,0,0,0,0,0,0,0,0,0,0,0,0,0,0,0,0,0,0,0,0,0,0,0,0,0,0,0,0,0,0,0,0,0,0,0,0,0,0,0,0,0,0,0,0,0,0,0,0],"id":2,"left_children":[1,3,5,7,-1,9,11,13,15,17,19,21,23,25,27,29,31,-1,33,35,37,39,41,-1,43,45,47,49,51,53,55,-1,57,59,61,63,65,67,69,-1,71,73,75,77,-1,-1,-1,-1,79,81,83,-1,85,87,89,91,-1,-1,-1,93,95,97,99,101,103,105,107,-1,-1,109,111,113,115,117,119,121,123,125,127,-1,-1,-1,-1,-1,-1,-1,-1,-1,-1,-1,-1,-1,-1,-1,-1,-1,-1,-1,-1,-1,-1,-1,-1,-1,-1,-1,-1,-1,-1,-1,-1,-1,-1,-1,-1,-1,-1,-1,-1,-1,-1,-1,-1,-1,-1,-1,-1,-1,-1],"loss_changes":[2.4571289E2,9.806206E1,3.0206055E1,2.123983E1,0E0,3.5597412E1,1.0256836E1,1.4982374E1,7.6112976E0,1.5897005E1,2.626709E1,5.284424E0,2.3325195E0,8.595624E0,1.1480745E1,7.686886E0,3.3719802E0,0E0,1.0327114E1,3.4162292E1,5.942505E0,4.515808E0,6.7316895E0,0E0,1.3583984E0,2.9630136E0,9.485617E0,5.1942396E0,3.4098232E0,4.4527283E0,5.1242313E0,0E0,1.3958509E0,9.990776E0,1.0095457E1,1.4518982E1,2.103231E1,1.8175945E0,4.960205E0,0E0,4.653488E0,2.5859375E0,1.2784729E1,4.0250163E0,0E0,0E0,0E0,0E0,1.9741535E0,5.6197977E0,3.7212296E0,0E0,8.254633E-1,5.2057667E0,2.6075745E0,2.580355E0,0E0,0E0,0E0,5.3474035E0,4.4640274E0,9.390362E0,4.755404E0,4.6832275E0,1.1282513E1,3.00535E1,6.720909E0,0E0,0E0,2.9869385E0,1.4137354E1,5.646881E0,7.341843E0,3.6471853E0,1.7727051E0,1.3805664E1,6.560669E-1,1.4988995E-1,2.253762E0,0E0,0E0,0E0,0E0,0E0,0E0,0E0,0E0,0E0,0E0,0E0,0E0,0E0,0E0,0E0,0E0,0E0,0E0,0E0,0E0,0E0,0E0,0E0,0E0,0E0,0E0,0E0,0E0,0E0,0E0,0E0,0E0,0E0,0E0,0E0,0E0,0E0,0E0,0E0,0E0,0E0,0E0,0E0,0E0,0E0,0E0,0E0,0E0,0E0,0E0],"parents":[2147483647,0,0,1,1,2,2,3,3,5,5,6,6,7,7,8,8,9,9,10,10,11,11,12,12,13,13,14,14,15,15,16,16,18,18,19,19,20,20,21,21,22,22,24,24,25,25,26,26,27,27,28,28,29,29,30,30,32,32,33,33,34,34,35,35,36,36,37,37,38,38,40,40,41,41,42,42,43,43,48,48,49,49,50,50,52,52,53,53,54,54,55,55,59,59,60,60,61,61,62,62,63,63,64,64,65,65,66,66,69,69,70,70,71,71,72,72,73,73,74,74,75,75,76,76,77,77,78,78],"right_children":[2,4,6,8,-1,10,12,14,16,18,20,22,24,26,28,30,32,-1,34,36,38,40,42,-1,44,46,48,50,52,54,56,-1,58,60,62,64,66,68,70,-1,72,74,76,78,-1,-1,-1,-1,80,82,84,-1,86,88,90,92,-1,-1,-1,94,96,98,100,102,104,106,108,-1,-1,110,112,114,116,118,120,122,124,126,128,-1,-1,-1,-1,-1,-1,-1,-1,-1,-1,-1,-1,-1,-1,-1,-1,-1,-1,-1,-1,-1,-1,-1,-1,-1,-1,-1,-1,-1,-1,-1,-1,-1,-1,-1,-1,-1,-1,-1,-1,-1,-1,-1,-1,-1,-1,-1,-1,-1,-1],"split_conditions":[-1.929514E1,-6.7981E1,-1.275E1,-1.584375E1,-3.9248276E-1,-1.7978E1,-9.411183E1,-9.22175E1,1E0,-1.056875E2,-8.9007835E1,-1.3375E1,-2.6509167E1,-1.8831429E1,-7.853125E1,-6.675E1,-1.6414E1,4.628841E-1,-1.13875E1,-8.702983E1,-1.08693E2,-1.066275E2,-7.030067E1,-0E0,-2.1010166E1,-1.25875E1,-1.0466827E2,-9.5110664E1,-8.76705E1,-9.896875E1,-1.0748834E1,-3.1992307E-1,-1.7119318E1,-2.1372334E1,1E0,-1.1645833E1,-8.616964E1,2E0,-6.675E1,1.4012566E-1,-6.2684834E1,-2.6203125E1,-7.2048E1,-1.3139334E1,-3.9873958E-1,2.7542582E-1,-1.2324443E-1,1.8952198E-1,-1.5623667E1,-8.2862E1,-1.2125E1,-4.4029868E-1,-1.2294642E1,-9.64125E1,-7.6965E1,5E0,2.3183644E-1,-6.578185E-2,2.352219E-1,-1.58975E1,-1.0825334E1,-8.39375E1,-1.59984E1,-6.05625E1,-1.575E1,-8.875E0,-6.6494286E1,-1.6446912E-1,2.0606016E-1,-5.65E1,-8.75E1,-1.0825666E1,-1.0594E1,-1.0641714E1,-1.33375E1,-7.4296875E0,-5.9E0,-7.220966E1,-8.45E1,-0E0,-3.869907E-1,1.8061948E-1,-3.6727673E-1,3.4716922E-1,-7.919423E-2,1.5621601E-1,-1.0558366E-1,2.231275E-1,-2.0922709E-1,3.6391672E-1,1.3490835E-1,-3.5648507E-1,2.4036022E-2,3.414924E-1,-1.1904429E-1,-3.1003684E-1,8.209659E-2,3.545487E-1,-7.147572E-2,1.492846E-1,-3.5884643E-1,-3.6808786E-1,9.8200224E-2,2.6509756E-1,-2.1272469E-1,-1.6900034E-1,2.6355943E-1,-3.1237692E-1,5.7235826E-2,-3.9149928E-1,-0E0,1.413385E-1,-3.331859E-1,-3.3212233E-1,-7.364382E-2,4.250676E-1,-2.5509396E-1,-2.59425E-1,2.1049403E-1,-2.8879339E-1,-3.85878E-1,-3.4544665E-1,-1.3695297E-1,-3.8842708E-1,-7.7239916E-2,-3.3815312E-1,-0E0,-1.5371387E-1,2.4483706E-1],"split_indices":[313,172,313,265,0,317,14,300,305,10,30,249,15,301,282,248,31,0,281,316,284,172,284,0,285,89,200,190,236,250,157,0,283,255,305,297,280,199,216,0,316,123,204,143,0,0,0,0,189,316,15,0,283,152,316,231,0,0,0,313,269,58,319,72,9,41,300,0,0,152,280,253,301,269,265,281,201,124,314,0,0,0,0,0,0,0,0,0,0,0,0,0,0,0,0,0,0,0,0,0,0,0,0,0,0,0,0,0,0,0,0,0,0,0,0,0,0,0,0,0,0,0,0,0,0,0,0,0,0],"split_type":[0,0,0,0,0,0,0,0,0,0,0,0,0,0,0,0,0,0,0,0,0,0,0,0,0,0,0,0,0,0,0,0,0,0,0,0,0,0,0,0,0,0,0,0,0,0,0,0,0,0,0,0,0,0,0,0,0,0,0,0,0,0,0,0,0,0,0,0,0,0,0,0,0,0,0,0,0,0,0,0,0,0,0,0,0,0,0,0,0,0,0,0,0,0,0,0,0,0,0,0,0,0,0,0,0,0,0,0,0,0,0,0,0,0,0,0,0,0,0,0,0,0,0,0,0,0,0,0,0],"sum_hessian":[7.75678E3,1.6511304E2,7.591667E3,1.2206267E2,4.3050373E1,1.598451E3,5.993216E3,5.0219467E1,7.18432E1,8.004092E1,1.5184102E3,1.9148193E3,4.0783965E3,2.419399E1,2.6025475E1,6.693231E1,4.9108896E0,2.7033968E0,7.733752E1,6.1944794E2,8.9896216E2,1.5321822E2,1.7616012E3,1.5809511E0,4.0768157E3,4.766106E0,1.9427885E1,2.1480904E1,4.5445714E0,5.985234E1,7.079971E0,2.1691034E0,2.7417862E0,5.3341484E1,2.3996035E1,4.1527835E2,2.041696E2,2.6055548E0,8.963566E2,1.0619807E0,1.5215623E2,1.4919219E3,2.6967926E2,1.0844862E1,4.0659707E3,3.403344E0,1.3627621E0,2.3834963E0,1.7044388E1,5.0512314E0,1.6429672E1,2.3354235E0,2.2091477E0,8.632053E0,5.1220287E1,4.2396135E0,2.8403575E0,1.1273072E0,1.6144791E0,6.933088E0,4.6408398E1,1.6182354E1,7.8136806E0,3.8624152E2,2.9036837E1,1.0581164E2,9.8357956E1,1.042702E0,1.5628529E0,8.616184E2,3.4738224E1,1.4813551E2,4.020717E0,3.9990194E0,1.4879229E3,1.2440764E2,1.4527164E2,8.027623E0,2.8172388E0,1.6365129E0,1.5407875E1,3.349774E0,1.7014574E0,1.5346558E1,1.083115E0,1.064686E0,1.1444616E0,5.898081E0,2.7339728E0,4.188476E1,9.3355255E0,2.8350503E0,1.4045632E0,2.8429432E0,4.0901446E0,4.4659843E1,1.7485529E0,7.643838E0,8.538516E0,1.04073E0,6.7729506E0,3.8518112E2,1.0603805E0,4.2325516E0,2.4804285E1,8.976866E1,1.6042982E1,9.472497E1,3.6329892E0,8.605918E2,1.0266111E0,5.879533E0,2.8858692E1,1.3778282E2,1.0352698E1,1.3266268E0,2.6940901E0,2.7346756E0,1.2643436E0,4.5111042E1,1.4428118E3,6.1723774E1,6.268387E1,1.4288168E2,2.3899558E0,6.99814E0,1.0294834E0,1.1812443E0,1.6359947E0],"tree_param":{"num_deleted":"0","num_feature":"320","num_nodes":"129","size_leaf_vector":"0"}},{"base_weights":[-1.102263E0,-1.03518546E-1,-1.1303557E0,2.5789288E-1,-3.6230966E-1,-1.0459294E0,-1.1987575E0,-5.0749505E-1,4.86768E-1,-7.892853E-1,-1.1020619E0,-1.1997176E0,4.0862016E-2,3.9068747E-1,-7.015266E-1,6.8148565E-1,-2.3718756E-1,-1.071806E0,-5.6206924E-1,-1.1736141E0,-1.044875E0,-1.2005697E0,6.444947E-3,-9.9974763E-1,3.7792808E-1,2.9039067E-1,9.607881E-1,-6.6627693E-1,3.0478215E-1,-1.1143982E0,-0E0,-1.8564958E-2,-6.5600765E-1,-2.0961751E-1,-1.1797851E0,-9.7870004E-1,-1.1935856E0,-1.1299428E0,-1.2274053E0,-1.1167339E0,6.5774046E-2,2.5474554E-1,-1.1233785E-1,5.178129E-1,-6.086807E-1,-9.950545E-2,1.0106294E0,1.17913835E-1,-1.1377964E0,2.8886712E-1,-4.57319E-1,-1.1316044E0,2.582831E-1,8.383002E-1,-6.7440563E-1,-4.2544422E-1,1.0488887E0,-0E0,-7.253657E-1,3.598134E-1,-8.4652346E-1,-1.1816138E0,-0E0,-1.0333946E0,-6.072556E-1,-1.2011521E0,-3.0480275E-1,-1.1368765E0,6.7403305E-1,-1.6516237E-1,-1.2281464E0,-0E0,-3.6337507E-1,2.885624E-1,3.795905E-3,-4.3021044E-1,8.838613E-2,-0E0,3.1419164E-1,-1.2858605E-1,1.9490512E-1,-4.2338157E-1,-0E0,-3.0546597E-1,1.1800832E-1,1.8060828E-2,-3.429799E-1,4.0225655E-1,-0E0,-2.859275E-1,-0E0,-1.9715549E-1,1.8767874E-1,4.9618155E-1,-5.2099615E-2,5.550828E-2,-2.850245E-1,-2.4898532E-1,-7.402925E-2,-2.8438538E-1,-0E0,-3.550903E-1,-0E0,-5.884835E-2,-3.156836E-1,-2.0219378E-2,-2.4297999E-1,-1.1690669E-2,-3.6108774E-1,-2.38689E-1,1.0685336E-1,-3.4363097E-1,-2.1215137E-3,4.5671827E-1,-1.3684535E-1,1.8799597E-2,-1.5240535E-1,-1.3673699E-1,-3.687963E-1],"categories":[],"categories_nodes":[],"categories_segments":[],"categories_sizes":[],"default_left":[0,0,0,0,0,0,0,0,0,0,0,0,0,0,0,0,0,0,0,0,0,0,0,0,0,0,0,0,0,0,0,0,0,0,0,0,0,0,0,0,0,0,0,0,0,0,0,0,0,0,0,0,0,0,0,0,0,0,0,0,0,0,0,0,0,0,0,0,0,0,0,0,0,0,0,0,0,0,0,0,0,0,0,0,0,0,0,0,0,0,0,0,0,0,0,0,0,0,0,0,0,0,0,0,0,0,0,0,0,0,0,0,0,0,0,0,0,0,0],"id":3,"left_children":[1,3,5,7,-1,9,11,13,15,17,19,21,-1,-1,23,25,27,29,31,33,35,37,-1,39,41,43,45,47,49,51,53,55,57,59,61,63,65,67,69,71,-1,-1,-1,73,75,-1,77,79,81,-1,83,85,-1,87,89,91,93,95,97,-1,99,101,-1,103,105,107,109,111,113,115,117,-1,-1,-1,-1,-1,-1,-1,-1,-1,-1,-1,-1,-1,-1,-1,-1,-1,-1,-1,-1,-1,-1,-1,-1,-1,-1,-1,-1,-1,-1,-1,-1,-1,-1,-1,-1,-1,-1,-1,-1,-1,-1,-1,-1,-1,-1,-1,-1],"loss_changes":[1.7706006E2,7.0603546E1,3.3213867E1,2.3411457E1,0E0,3.8080566E1,5.04541E0,1.1302345E1,1.4882624E1,3.0814423E1,6.946045E0,4.145508E0,0E0,0E0,9.828516E0,8.036739E0,5.499465E0,1.0356995E1,1.4017273E1,4.980591E0,1.0279907E1,3.8608398E0,0E0,3.9568539E0,2.8629062E0,7.688203E0,3.6748734E0,5.4902654E0,5.654186E0,8.3645935E0,5.8499765E0,1.8932787E1,1.0731323E1,8.075658E0,2.3348389E0,1.6619934E1,1.4724121E0,1.2896362E1,1.0214844E0,2.4276752E0,0E0,0E0,0E0,6.2170095E0,6.4648805E0,0E0,1.7973633E0,1.966917E0,2.7835732E0,0E0,3.0555367E0,3.5610046E0,0E0,2.0892267E0,1.520989E0,8.3155155E0,9.825491E0,4.5763845E0,1.0066956E1,0E0,2.3731995E-1,2.0587158E0,0E0,1.1384338E1,1.2389957E1,4.277954E-1,2.1741796E0,8.58667E0,5.0569763E0,5.143822E-1,8.0859375E-1,0E0,0E0,0E0,0E0,0E0,0E0,0E0,0E0,0E0,0E0,0E0,0E0,0E0,0E0,0E0,0E0,0E0,0E0,0E0,0E0,0E0,0E0,0E0,0E0,0E0,0E0,0E0,0E0,0E0,0E0,0E0,0E0,0E0,0E0,0E0,0E0,0E0,0E0,0E0,0E0,0E0,0E0,0E0,0E0,0E0,0E0,0E0,0E0],"parents":[2147483647,0,0,1,1,2,2,3,3,5,5,6,6,7,7,8,8,9,9,10,10,11,11,14,14,15,15,16,16,17,17,18,18,19,19,20,20,21,21,23,23,24,24,25,25,26,26,27,27,28,28,29,29,30,30,31,31,32,32,33,33,34,34,35,35,36,36,37,37,38,38,39,39,43,43,44,44,46,46,47,47,48,48,50,50,51,51,53,53,54,54,55,55,56,56,57,57,58,58,60,60,61,61,63,63,64,64,65,65,66,66,67,67,68,68,69,69,70,70],"right_children":[2,4,6,8,-1,10,12,14,16,18,20,22,-1,-1,24,26,28,30,32,34,36,38,-1,40,42,44,46,48,50,52,54,56,58,60,62,64,66,68,70,72,-1,-1,-1,74,76,-1,78,80,82,-1,84,86,-1,88,90,92,94,96,98,-1,100,102,-1,104,106,108,110,112,114,116,118,-1,-1,-1,-1,-1,-1,-1,-1,-1,-1,-1,-1,-1,-1,-1,-1,-1,-1,-1,-1,-1,-1,-1,-1,-1,-1,-1,-1,-1,-1,-1,-1,-1,-1,-1,-1,-1,-1,-1,-1,-1,-1,-1,-1,-1,-1,-1,-1],"split_conditions":[-1.8515625E1,-6.483833E1,-8.768757E1,-1.575E1,-3.6230966E-1,-1.3303572E1,9E0,-1.0509375E2,-7.9625E1,-9.68125E1,-9.2613716E1,2E0,4.0862016E-2,3.9068747E-1,-8.9281166E1,-9.189475E1,-8.50625E1,-1.16875E1,-1.000125E2,-1.066275E2,-1.136325E1,-1.1235286E1,6.444947E-3,-9.3E0,-8.71405E1,4E0,-1.8623667E1,-1.60125E1,-7.2354164E1,1E0,-1.3800834E1,-8.113728E1,-1.718125E1,-1.1791667E1,8E0,-1.0605667E1,1E0,-5.932033E1,-1.08693E2,-1.07895836E2,6.5774046E-2,2.5474554E-1,-1.1233785E-1,-1.6088E1,4E0,-9.950545E-2,-2.2875E1,-1.7365385E1,5E0,2.8886712E-1,-1.3830833E1,-1.8454144E1,2.582831E-1,-1.6618055E1,-1.0748667E1,-1.1888286E1,-1.5097667E1,-7.478767E1,-8.927083E0,3.598134E-1,-1.4495536E1,1E0,-0E0,-9.792067E1,-8.99E1,-2.6203125E1,-7.215366E1,1E0,-1.16965E1,-1.4902333E1,-2.2462334E1,-0E0,-3.6337507E-1,2.885624E-1,3.795905E-3,-4.3021044E-1,8.838613E-2,-0E0,3.1419164E-1,-1.2858605E-1,1.9490512E-1,-4.2338157E-1,-0E0,-3.0546597E-1,1.1800832E-1,1.8060828E-2,-3.429799E-1,4.0225655E-1,-0E0,-2.859275E-1,-0E0,-1.9715549E-1,1.8767874E-1,4.9618155E-1,-5.2099615E-2,5.550828E-2,-2.850245E-1,-2.4898532E-1,-7.402925E-2,-2.8438538E-1,-0E0,-3.550903E-1,-0E0,-5.884835E-2,-3.156836E-1,-2.0219378E-2,-2.4297999E-1,-1.1690669E-2,-3.6108774E-1,-2.38689E-1,1.0685336E-1,-3.4363097E-1,-2.1215137E-3,4.5671827E-1,-1.3684535E-1,1.8799597E-2,-1.5240535E-1,-1.3673699E-1,-3.687963E-1],"split_indices":[313,300,14,315,0,313,311,216,282,314,318,273,0,0,318,220,56,297,56,172,319,301,0,73,30,55,77,57,136,256,269,236,313,201,295,269,309,316,268,312,0,0,0,221,311,0,201,235,295,0,61,253,0,27,13,287,29,188,73,0,203,304,0,284,40,155,316,304,29,15,15,0,0,0,0,0,0,0,0,0,0,0,0,0,0,0,0,0,0,0,0,0,0,0,0,0,0,0,0,0,0,0,0,0,0,0,0,0,0,0,0,0,0,0,0,0,0,0,0],"split_type":[0,0,0,0,0,0,0,0,0,0,0,0,0,0,0,0,0,0,0,0,0,0,0,0,0,0,0,0,0,0,0,0,0,0,0,0,0,0,0,0,0,0,0,0,0,0,0,0,0,0,0,0,0,0,0,0,0,0,0,0,0,0,0,0,0,0,0,0,0,0,0,0,0,0,0,0,0,0,0,0,0,0,0,0,0,0,0,0,0,0,0,0,0,0,0,0,0,0,0,0,0,0,0,0,0,0,0,0,0,0,0,0,0,0,0,0,0,0,0],"sum_hessian":[6.335764E3,1.7395264E2,6.1618115E3,1.312926E2,4.2660027E1,2.768425E3,3.3933862E3,2.9439884E1,1.01852715E2,5.011371E2,2.267288E3,3.391423E3,1.9631718E0,2.0480928E0,2.7391792E1,8.085499E1,2.0997732E1,2.2074492E2,2.8039215E2,9.945902E2,1.2726979E3,3.3894841E3,1.9388015E0,2.1883165E1,5.508627E0,3.528159E1,4.55734E1,1.2106192E1,8.89154E0,2.1245839E2,8.286532E0,4.2281593E1,2.3811055E2,7.064189E0,9.87526E2,8.8833813E2,3.8435977E2,9.50268E2,2.439216E3,2.0417746E1,1.4654185E0,3.7167509E0,1.7918762E0,2.8941065E1,6.3405232E0,1.1097232E0,4.4463676E1,4.429295E0,7.6768966E0,4.9819865E0,3.9095533E0,2.1129814E2,1.1602553E0,3.7249315E0,4.561601E0,3.1387518E1,1.0894076E1,2.3144691E1,2.1496587E2,1.679823E0,5.384366E0,9.861411E2,1.3849059E0,7.715941E2,1.1674401E2,3.8020892E2,4.150824E0,9.472741E2,2.9939468E0,2.3269017E0,2.4368892E3,1.5574085E0,1.8860338E1,1.4394058E1,1.4547007E1,3.2954338E0,3.0450895E0,1.4898072E0,4.297387E1,1.8162925E0,2.6130025E0,6.0375056E0,1.6393907E0,2.5915904E0,1.317963E0,1.5917175E0,2.0970642E2,2.0088894E0,1.716042E0,3.4590547E0,1.1025466E0,2.6414017E1,4.973502E0,7.3250074E0,3.5690684E0,1.9866173E1,3.2785187E0,1.749553E2,4.001055E1,4.35534E0,1.0290262E0,9.842432E2,1.8978533E0,1.7854929E1,7.537392E2,3.2902786E1,8.3841225E1,1.2724736E0,3.7893646E2,2.6992047E0,1.4516196E0,9.3969794E2,7.5761504E0,1.764681E0,1.2292658E0,1.0127879E0,1.3141136E0,4.937227E0,2.4319521E3],"tree_param":{"num_deleted":"0","num_feature":"320","num_nodes":"119","size_leaf_vector":"0"}},{"base_weights":[-1.0042944E0,-1.9292976E-1,-1.0374389E0,1.0691665E-1,-1.1081759E0,-9.311008E-1,-1.1168461E0,-5.864888E-1,3.0109176E-1,1.4195667E-2,-3.429604E-1,-9.454974E-1,1.14572994E-1,-8.438214E-1,-1.1335759E0,-0E0,-9.533923E-1,8.9248E-1,1.6841155E-1,-9.63646E-1,-2.4698853E-1,6.0915625E-1,-7.81429E-1,-9.384003E-1,2.5270954E-1,-9.6290135E-1,-1.1527579E0,-6.323183E-1,4.5807573E-1,-1.064257E0,-0E0,-0E0,1.0488123E0,-6.237335E-1,2.5726408E-1,-1.0438323E0,-8.3360434E-1,3.8842767E-1,-5.4338413E-1,1.2779035E-1,1.344789E0,2.7125293E-2,-9.7732973E-1,5.851316E-2,-1.0734458E0,-5.004266E-1,1.318641E0,-4.8613736E-1,-1.0329181E0,-4.6724167E-1,-1.1542685E0,5.729115E-2,-2.7831718E-1,1.1536212E0,-1.9325915E-1,-0E0,-3.3444244E-1,1.705575E-1,-1.9837552E-1,-0E0,3.3661166E-1,5.462713E-2,-9.826318E-1,3.20608E-1,-7.17492E-1,-4.9951613E-1,-1.0587455E0,-4.9392268E-1,-9.368973E-1,8.8845736E-1,-4.6175936E-1,3.7167975E-1,-7.260818E-1,5.926933E-1,-5.947186E-1,4.9130246E-1,-0E0,-0E0,-3.1708503E-1,-6.252067E-1,7.669883E-1,-1.0873342E0,4.4819172E-3,-2.79054E-1,3.4130284E-1,2.2384913E0,-1.2338579E-1,-1.0248711E0,1.9794002E-1,-4.5149478E-1,-1.08543E0,1.9368991E-1,-2.6305085E-1,-1.1546763E0,-0E0,-0E0,4.1075522E-1,-1.7074722E-1,1.0468333E-1,-1.1463422E-1,1.6929024E-1,-0E0,-3.6268702E-1,2.3325691E-2,1.7049922E-1,-2.84285E-1,-0E0,1.4047737E-1,-2.5546527E-1,-3.1930742E-1,7.288978E-3,-2.1340519E-1,6.454646E-2,-2.9716757E-1,-1.6955753E-1,-1.5027218E-1,4.209894E-1,9.158708E-2,-2.8165945E-1,-1.22061454E-1,4.9249208E-1,-2.548678E-1,1.8856813E-1,3.044426E-1,-3.1074991E-2,1.2085558E-2,-2.6253837E-1,-2.5819874E-1,1.2078563E-1,-0E0,4.480912E-1,-0E0,-3.3026412E-1,3.192274E-1,-1.05529785E-1,-0E0,8.5489374E-1,-0E0,-3.1960088E-1,-9.575837E-2,4.444004E-1,-2.1366598E-1,2.5395542E-1,-3.9976805E-2,-3.279559E-1,3.1856015E-1,-1.3401997E-1,-2.509612E-1,-3.4735784E-1],"categories":[],"categories_nodes":[],"categories_segments":[],"categories_sizes":[],"default_left":[0,0,0,0,0,0,0,0,0,0,0,0,0,0,0,0,0,0,0,0,0,0,0,0,0,0,0,0,0,0,0,0,0,0,0,0,0,0,0,0,0,0,0,0,0,0,0,0,0,0,0,0,0,0,0,0,0,0,0,0,0,0,0,0,0,0,0,0,0,0,0,0,0,0,0,0,0,0,0,0,0,0,0,0,0,0,0,0,0,0,0,0,0,0,0,0,0,0,0,0,0,0,0,0,0,0,0,0,0,0,0,0,0,0,0,0,0,0,0,0,0,0,0,0,0,0,0,0,0,0,0,0,0,0,0,0,0,0,0,0,0,0,0,0,0,0,0,0,0],"id":4,"left_children":[1,3,5,7,9,11,13,15,17,-1,-1,19,21,23,25,27,29,31,33,35,37,39,41,43,45,47,49,51,53,55,-1,57,59,61,63,65,67,69,71,73,75,-1,77,79,81,83,85,87,89,91,93,-1,-1,95,97,-1,-1,-1,-1,-1,-1,99,101,103,105,107,109,111,113,115,117,119,121,123,125,-1,-1,-1,-1,127,129,131,-1,-1,133,135,-1,137,139,141,143,145,-1,147,-1,-1,-1,-1,-1,-1,-1,-1,-1,-1,-1,-1,-1,-1,-1,-1,-1,-1,-1,-1,-1,-1,-1,-1,-1,-1,-1,-1,-1,-1,-1,-1,-1,-1,-1,-1,-1,-1,-1,-1,-1,-1,-1,-1,-1,-1,-1,-1,-1,-1,-1,-1,-1,-1,-1],"loss_changes":[1.3608057E2,5.5947186E1,3.922705E1,2.0547737E1,2.6357307E0,3.2125122E1,1.08063965E1,6.8946915E0,8.754822E0,0E0,0E0,2.5413696E1,1.3209564E1,1.7881447E1,6.429199E0,4.384782E0,2.3506298E0,2.6647224E0,7.0254354E0,1.9231323E1,1.0551701E1,6.018671E0,2.3025336E0,2.133171E1,1.1998862E1,7.885254E0,1.0869141E0,2.131113E0,4.542101E0,6.9828033E-1,0E0,2.0060737E0,1.5056915E0,2.9094455E0,5.669838E0,8.772217E0,2.6083008E1,8.012333E0,6.8189535E0,4.8323154E0,3.0938368E0,0E0,2.6690292E-1,9.707745E0,2.612854E0,3.6606264E0,1.1679191E1,1.4580714E1,5.981186E0,2.5638595E0,6.435547E-1,0E0,0E0,5.6354666E-1,1.2995145E0,0E0,0E0,0E0,0E0,0E0,0E0,1.1669295E0,1.2372684E0,4.8617153E0,9.478257E-1,1.282201E1,7.881836E0,2.8833286E1,1.0501343E1,9.491781E0,3.0642369E0,7.7606544E0,6.0915337E0,3.217357E0,1.3965778E0,0E0,0E0,0E0,0E0,2.9501452E0,5.8785634E0,2.5039673E0,0E0,0E0,2.3269486E0,4.9208946E0,0E0,5.7450294E-1,1.2418302E1,8.029438E0,8.361206E-1,2.5905082E0,0E0,4.086914E-1,0E0,0E0,0E0,0E0,0E0,0E0,0E0,0E0,0E0,0E0,0E0,0E0,0E0,0E0,0E0,0E0,0E0,0E0,0E0,0E0,0E0,0E0,0E0,0E0,0E0,0E0,0E0,0E0,0E0,0E0,0E0,0E0,0E0,0E0,0E0,0E0,0E0,0E0,0E0,0E0,0E0,0E0,0E0,0E0,0E0,0E0,0E0,0E0,0E0,0E0,0E0,0E0,0E0,0E0,0E0],"parents":[2147483647,0,0,1,1,2,2,3,3,4,4,5,5,6,6,7,7,8,8,11,11,12,12,13,13,14,14,15,15,16,16,17,17,18,18,19,19,20,20,21,21,22,22,23,23,24,24,25,25,26,26,27,27,28,28,29,29,31,31,32,32,33,33,34,34,35,35,36,36,37,37,38,38,39,39,40,40,42,42,43,43,44,44,45,45,46,46,47,47,48,48,49,49,50,50,53,53,54,54,61,61,62,62,63,63,64,64,65,65,66,66,67,67,68,68,69,69,70,70,71,71,72,72,73,73,74,74,79,79,80,80,81,81,84,84,85,85,87,87,88,88,89,89,90,90,91,91,93,93],"right_children":[2,4,6,8,10,12,14,16,18,-1,-1,20,22,24,26,28,30,32,34,36,38,40,42,44,46,48,50,52,54,56,-1,58,60,62,64,66,68,70,72,74,76,-1,78,80,82,84,86,88,90,92,94,-1,-1,96,98,-1,-1,-1,-1,-1,-1,100,102,104,106,108,110,112,114,116,118,120,122,124,126,-1,-1,-1,-1,128,130,132,-1,-1,134,136,-1,138,140,142,144,146,-1,148,-1,-1,-1,-1,-1,-1,-1,-1,-1,-1,-1,-1,-1,-1,-1,-1,-1,-1,-1,-1,-1,-1,-1,-1,-1,-1,-1,-1,-1,-1,-1,-1,-1,-1,-1,-1,-1,-1,-1,-1,-1,-1,-1,-1,-1,-1,-1,-1,-1,-1,-1,-1,-1,-1,-1],"split_conditions":[-1.7703125E1,-6.895757E1,-1.1374833E1,-1.6208334E1,-9.821083E1,1E0,-1.4500167E1,-9.50845E1,-2.4739584E1,1.4195667E-2,-3.429604E-1,-1.0605667E1,-1.4745167E1,-6.4870834E1,-9.160057E1,-1.4150572E1,-1.5833333E1,-1.6250166E1,2E0,-8.498817E1,-1.9379572E1,-1.3478714E1,-1.6709833E1,-1.503125E1,-7.975E1,-1.99845E1,-1.9303572E1,-1.07354164E2,-1.2745286E1,-1.01947914E2,-0E0,-8.195536E1,-2.190625E1,-1.5377143E1,-6.54375E1,-1.04194E2,-9.1552086E1,-1.60375E1,-8.9E1,-8.5302086E1,-6.53125E0,2.7125293E-2,1E0,-1.2166667E1,-1.1267858E1,-8.612829E1,-7.5569E1,-1.0630333E1,-1.33625E1,-1.50625E1,9E0,5.729115E-2,-2.7831718E-1,-1.3849E1,-1.6375E1,-0E0,-3.3444244E-1,1.705575E-1,-1.9837552E-1,-0E0,3.3661166E-1,-1.5744286E1,-1.79375E1,-1.5E1,-1.1023334E1,-1.5881667E1,1E0,-1.1359333E1,5E0,-8.002E1,-8.27125E1,-9.062117E1,-6.3645835E0,4E0,-8.6018166E1,4.9130246E-1,-0E0,-0E0,-3.1708503E-1,-7.811157E1,-1.5925E1,-1.07697914E2,4.4819172E-3,-2.79054E-1,-9.03125E0,-9.0458336E1,-1.2338579E-1,-3.1959667E1,-2.0886667E1,-8.7375E1,-1.397615E2,-1.0699166E1,-2.6305085E-1,-1.5759E1,-0E0,-0E0,4.1075522E-1,-1.7074722E-1,1.0468333E-1,-1.1463422E-1,1.6929024E-1,-0E0,-3.6268702E-1,2.3325691E-2,1.7049922E-1,-2.84285E-1,-0E0,1.4047737E-1,-2.5546527E-1,-3.1930742E-1,7.288978E-3,-2.1340519E-1,6.454646E-2,-2.9716757E-1,-1.6955753E-1,-1.5027218E-1,4.209894E-1,9.158708E-2,-2.8165945E-1,-1.22061454E-1,4.9249208E-1,-2.548678E-1,1.8856813E-1,3.044426E-1,-3.1074991E-2,1.2085558E-2,-2.6253837E-1,-2.5819874E-1,1.2078563E-1,-0E0,4.480912E-1,-0E0,-3.3026412E-1,3.192274E-1,-1.05529785E-1,-0E0,8.5489374E-1,-0E0,-3.1960088E-1,-9.575837E-2,4.444004E-1,-2.1366598E-1,2.5395542E-1,-3.9976805E-2,-3.279559E-1,3.1856015E-1,-1.3401997E-1,-2.509612E-1,-3.4735784E-1],"split_indices":[313,44,317,315,174,304,237,14,313,0,0,285,317,316,12,205,299,29,311,220,143,301,141,313,42,159,269,286,125,72,0,170,91,223,264,156,106,251,296,282,249,0,263,299,221,62,76,189,297,267,279,0,0,189,155,0,0,0,0,0,0,79,187,281,157,285,256,29,279,318,282,316,73,135,252,0,0,0,0,204,155,154,0,0,73,94,0,239,159,8,302,189,0,221,0,0,0,0,0,0,0,0,0,0,0,0,0,0,0,0,0,0,0,0,0,0,0,0,0,0,0,0,0,0,0,0,0,0,0,0,0,0,0,0,0,0,0,0,0,0,0,0,0,0,0,0,0,0,0],"split_type":[0,0,0,0,0,0,0,0,0,0,0,0,0,0,0,0,0,0,0,0,0,0,0,0,0,0,0,0,0,0,0,0,0,0,0,0,0,0,0,0,0,0,0,0,0,0,0,0,0,0,0,0,0,0,0,0,0,0,0,0,0,0,0,0,0,0,0,0,0,0,0,0,0,0,0,0,0,0,0,0,0,0,0,0,0,0,0,0,0,0,0,0,0,0,0,0,0,0,0,0,0,0,0,0,0,0,0,0,0,0,0,0,0,0,0,0,0,0,0,0,0,0,0,0,0,0,0,0,0,0,0,0,0,0,0,0,0,0,0,0,0,0,0,0,0,0,0,0,0],"sum_hessian":[5.089528E3,2.0060847E2,4.8889194E3,1.513584E2,4.9250076E1,2.098173E3,2.7907463E3,3.2107193E1,1.19251205E2,1.0186353E0,4.823144E1,2.0702444E3,2.792871E1,1.6582745E2,2.624919E3,1.2993432E1,1.9113758E1,2.0112011E1,9.913919E1,2.0167501E3,5.349429E1,1.8561268E1,9.367442E0,1.5321263E2,1.2614834E1,2.7301242E2,2.3519065E3,5.519497E0,7.4739356E0,1.7216835E1,1.8969245E0,3.402241E0,1.670977E1,8.823959E0,9.031523E1,1.240785E3,7.7596515E2,1.6380388E1,3.7113903E1,1.2339948E1,6.22132E0,1.349169E0,8.018273E0,1.7904533E1,1.3530809E2,7.42801E0,5.186824E0,3.6891556E1,2.3612088E2,6.581625E0,2.3453247E3,1.1038984E0,4.4155984E0,3.6126065E0,3.861329E0,1.0527675E0,1.6164066E1,2.122571E0,1.27967E0,1.0401546E0,1.5669616E1,2.8644485E0,5.959511E0,8.591607E1,4.3991637E0,3.4902477E1,1.2058826E3,1.8341673E2,5.925484E2,1.0656158E1,5.72423E0,5.549147E0,3.1564754E1,8.038944E0,4.301004E0,5.022899E0,1.1984212E0,1.068608E0,6.9496646E0,8.812117E0,9.092417E0,1.3405782E2,1.2502805E0,5.241065E0,2.1869447E0,3.3830245E0,1.8037992E0,2.0768446E1,1.6123112E1,2.1142841E1,2.1497803E2,2.2528195E0,4.3288054E0,2.3441506E3,1.174152E0,1.0374628E0,2.5751438E0,2.7956297E0,1.0656993E0,1.1490664E0,1.7153821E0,1.5152996E0,4.444211E0,4.5066875E1,4.0849194E1,3.1507585E0,1.2484053E0,8.842692E0,2.6059786E1,1.2001422E3,5.740383E0,1.4091057E2,4.2506172E1,5.1516644E2,7.738195E1,2.625849E0,8.03031E0,1.9313321E0,3.792898E0,3.6174E0,1.9317472E0,2.9607908E1,1.9568466E0,5.167059E0,2.8718853E0,1.033594E0,3.2674098E0,7.6977963E0,1.11432E0,4.7961855E0,4.2962317E0,1.2372247E0,1.3282059E2,1.1616147E0,1.0253302E0,1.0724392E0,2.3105855E0,1.1160793E0,1.9652367E1,1.1750164E1,4.372947E0,1.830293E1,2.8399107E0,2.4047666E0,2.1257327E2,1.0084274E0,1.2443923E0,2.7391209E1,2.3167595E3],"tree_param":{"num_deleted":"0","num_feature":"320","num_nodes":"149","size_leaf_vector":"0"}},{"base_weights":[-9.225378E-1,-3.781239E-1,-9.7308373E-1,-1.1887003E-1,-1.0695623E0,-8.52665E-1,-1.0647248E0,-6.5511847E-1,1.4107637E-1,-0E0,-1.095116E0,-9.973419E-1,-7.116533E-1,-1.0693635E0,-6.199523E-2,-7.6976234E-1,4.7735742E-1,-3.478977E-1,2.6298773E-1,8.729954E-2,-7.4304365E-2,-0E0,-1.1054767E0,-5.3726393E-1,-1.0208806E0,-4.0751833E-1,-8.0337286E-1,-9.6154195E-1,-1.1022363E0,6.136616E-1,-2.6931477E-1,7.446628E-2,-8.6597675E-1,-1.7368042E-1,1.0172797E0,-5.472582E-1,5.3289104E-1,3.2977876E-1,-6.7181295E-1,-4.706986E-3,-3.3396122E-1,-6.447535E-1,3.2913432E-1,1.0882938E-1,-1.0256176E0,-6.7242414E-1,-0E0,-1.9011056E-1,-8.499344E-1,-1.0169301E0,-6.5654993E-1,-0E0,-1.1033763E0,4.238701E-1,-1.857971E-1,9.2362076E-1,-4.1864395E-1,-9.219859E-1,3.5427475E-1,1.3867222E0,-3.852688E-2,2.5144237E-1,-7.49301E-1,9.692895E-1,-9.519576E-2,1.0301256E0,2.1092698E-1,-0E0,-1.0732632E0,-7.449264E-1,3.1868863E-1,-1.5209125E-1,3.2824057E-1,-0E0,-1.030851E0,-7.3636866E-1,-1.0287522E-2,6.235227E-1,-4.7943595E-1,-7.0431995E-1,5.796618E-1,-8.672154E-1,2.5741133E-1,-4.4159713E-1,-1.0461867E0,-8.5336685E-1,1.9022503E-1,-1.1042643E0,-0E0,-0E0,4.4680494E-1,-2.3471792E-1,8.027142E-2,-2.9971233E-1,-0E0,2.3241392E-1,-1.7338714E-2,-0E0,5.1134163E-1,3.0448627E-1,-8.871952E-2,6.383984E-2,-2.9157683E-1,3.8843668E-1,-0E0,3.8809657E-1,-1.2235615E-2,9.64464E-2,-1.3042736E-1,-1.5529886E-1,2.1253033E-1,-3.6797294E-1,-0E0,-0E0,-2.762787E-1,2.5177717E-1,-1.9278447E-1,-2.1125428E-1,-3.1439143E-1,-2.4645796E-1,-6.43625E-2,2.859931E-1,-2.1268444E-1,2.6902235E-1,-2.3023248E-1,4.5219406E-2,-2.2076334E-1,-2.5973883E-1,4.211156E-2,3.7083942E-1,-1.119306E-1,-2.876241E-1,-2.0160112E-1,-1.9644983E-1,3.0893087E-1,-2.6006448E-1,4.122163E-2,1.9201828E-2,-3.1524158E-1,-2.916127E-1,1.8999274E-1,-1.2300738E-1,3.26239E-1,-6.562886E-3,-3.3145162E-1],"categories":[],"categories_nodes":[],"categories_segments":[],"categories_sizes":[],"default_left":[0,0,0,0,0,0,0,0,0,0,0,0,0,0,0,0,0,0,0,0,0,0,0,0,0,0,0,0,0,0,0,0,0,0,0,0,0,0,0,0,0,0,0,0,0,0,0,0,0,0,0,0,0,0,0,0,0,0,0,0,0,0,0,0,0,0,0,0,0,0,0,0,0,0,0,0,0,0,0,0,0,0,0,0,0,0,0,0,0,0,0,0,0,0,0,0,0,0,0,0,0,0,0,0,0,0,0,0,0,0,0,0,0,0,0,0,0,0,0,0,0,0,0,0,0,0,0,0,0,0,0,0,0,0,0,0,0,0,0,0,0,0,0,0,0],"id":5,"left_children":[1,3,5,7,9,11,13,15,17,19,21,23,25,27,29,31,33,35,37,-1,-1,-1,39,41,43,45,47,49,51,53,-1,55,57,-1,59,61,63,65,67,-1,-1,69,-1,71,73,75,77,79,81,83,85,-1,87,-1,-1,89,91,93,95,97,-1,99,101,103,-1,105,107,109,111,113,-1,-1,-1,115,117,119,121,123,125,127,129,131,133,135,137,139,141,143,-1,-1,-1,-1,-1,-1,-1,-1,-1,-1,-1,-1,-1,-1,-1,-1,-1,-1,-1,-1,-1,-1,-1,-1,-1,-1,-1,-1,-1,-1,-1,-1,-1,-1,-1,-1,-1,-1,-1,-1,-1,-1,-1,-1,-1,-1,-1,-1,-1,-1,-1,-1,-1,-1,-1,-1,-1],"loss_changes":[1.1092822E2,6.1690968E1,3.9205566E1,3.5877975E1,2.6520157E0,3.1399536E1,9.169189E0,1.1421871E1,1.0293678E1,3.011997E-1,6.325073E-1,7.263489E0,2.2038727E1,5.340332E0,7.051385E0,6.7210884E0,5.3363333E0,6.2529783E0,8.725946E0,0E0,0E0,0E0,1.8402863E-1,7.8168087E0,4.597168E0,2.0778381E1,1.7319153E1,6.9641724E0,2.3485107E0,7.66718E0,0E0,4.104062E0,5.381241E0,0E0,3.317286E0,5.053606E0,2.9718602E0,1.0054014E1,2.6432962E0,0E0,0E0,7.489073E0,0E0,3.0359776E0,4.020752E0,4.583206E0,2.353476E1,1.8888754E1,1.1720215E1,5.881378E0,1.4036205E1,0E0,1.5491943E0,0E0,0E0,1.7743199E0,1.852221E0,4.6533623E0,9.912451E-1,1.8363342E0,0E0,3.176664E0,5.6372604E0,1.541853E0,0E0,5.792013E0,8.2024555E0,1.9544263E0,5.270319E-1,4.916134E0,0E0,0E0,0E0,3.133329E0,2.558838E0,4.025692E0,8.651407E0,1.368925E1,7.645378E0,4.4039316E0,1.2647583E1,8.842224E0,7.4239616E0,6.130768E0,2.6071472E0,1.2534264E1,9.22038E0,4.0344238E-1,0E0,0E0,0E0,0E0,0E0,0E0,0E0,0E0,0E0,0E0,0E0,0E0,0E0,0E0,0E0,0E0,0E0,0E0,0E0,0E0,0E0,0E0,0E0,0E0,0E0,0E0,0E0,0E0,0E0,0E0,0E0,0E0,0E0,0E0,0E0,0E0,0E0,0E0,0E0,0E0,0E0,0E0,0E0,0E0,0E0,0E0,0E0,0E0,0E0,0E0,0E0,0E0,0E0,0E0,0E0,0E0,0E0],"parents":[2147483647,0,0,1,1,2,2,3,3,4,4,5,5,6,6,7,7,8,8,9,9,10,10,11,11,12,12,13,13,14,14,15,15,16,16,17,17,18,18,22,22,23,23,24,24,25,25,26,26,27,27,28,28,29,29,31,31,32,32,34,34,35,35,36,36,37,37,38,38,41,41,43,43,44,44,45,45,46,46,47,47,48,48,49,49,50,50,52,52,55,55,56,56,57,57,58,58,59,59,61,61,62,62,63,63,65,65,66,66,67,67,68,68,69,69,73,73,74,74,75,75,76,76,77,77,78,78,79,79,80,80,81,81,82,82,83,83,84,84,85,85,86,86,87,87],"right_children":[2,4,6,8,10,12,14,16,18,20,22,24,26,28,30,32,34,36,38,-1,-1,-1,40,42,44,46,48,50,52,54,-1,56,58,-1,60,62,64,66,68,-1,-1,70,-1,72,74,76,78,80,82,84,86,-1,88,-1,-1,90,92,94,96,98,-1,100,102,104,-1,106,108,110,112,114,-1,-1,-1,116,118,120,122,124,126,128,130,132,134,136,138,140,142,144,-1,-1,-1,-1,-1,-1,-1,-1,-1,-1,-1,-1,-1,-1,-1,-1,-1,-1,-1,-1,-1,-1,-1,-1,-1,-1,-1,-1,-1,-1,-1,-1,-1,-1,-1,-1,-1,-1,-1,-1,-1,-1,-1,-1,-1,-1,-1,-1,-1,-1,-1,-1,-1,-1,-1,-1,-1],"split_conditions":[-1.58975E1,-6.6888E1,-1.1374833E1,-1.575E1,-1.01126335E2,-9.27422E1,1E0,6E0,-1.0047656E2,-1.9049334E1,-1.5561334E1,-1.7625E1,-1.00569E2,-1.1334666E1,1E0,-1.05104164E2,-1.4864583E1,-9.0119835E1,1E0,8.729954E-2,-7.4304365E-2,-0E0,-1.9496E1,-6.9975E1,-2.1010166E1,-1.49895E1,-9.977679E1,-6.844666E1,-2.2958857E1,-6.425E1,-2.6931477E-1,-1.75E1,-7.8916664E1,-1.7368042E-1,-8.6918E1,-1.7049334E1,-9.321467E1,-1.00682335E2,-1.38875E1,-4.706986E-3,-3.3396122E-1,-1.29408E1,3.2913432E-1,-9.082143E1,-1.06573715E2,-1.38125E1,-9.23375E1,-1.12421665E1,-6.483833E1,-1.35625E1,-1.0977834E1,-0E0,9E0,4.238701E-1,-1.857971E-1,-1.0215E2,-1.48875E1,-1.0885E1,-7.9625E1,-1.6677084E1,-3.852688E-2,-1.4796875E1,-1.07895836E2,-1.01802086E2,-9.519576E-2,-9.1125E0,1E0,-1.1875E1,-7.8359375E1,-1.024E2,3.1868863E-1,-1.5209125E-1,3.2824057E-1,-1.6531166E1,-2.8E1,5E0,-1.7495192E1,-1.1509334E1,-1.3180833E1,5E0,-1.4980769E1,-1.13125E1,-6.8645835E0,-1.29875E1,-2.6203125E1,-6.125E0,-7.586979E1,-2.2875E1,-0E0,-0E0,4.4680494E-1,-2.3471792E-1,8.027142E-2,-2.9971233E-1,-0E0,2.3241392E-1,-1.7338714E-2,-0E0,5.1134163E-1,3.0448627E-1,-8.871952E-2,6.383984E-2,-2.9157683E-1,3.8843668E-1,-0E0,3.8809657E-1,-1.2235615E-2,9.64464E-2,-1.3042736E-1,-1.5529886E-1,2.1253033E-1,-3.6797294E-1,-0E0,-0E0,-2.762787E-1,2.5177717E-1,-1.9278447E-1,-2.1125428E-1,-3.1439143E-1,-2.4645796E-1,-6.43625E-2,2.859931E-1,-2.1268444E-1,2.6902235E-1,-2.3023248E-1,4.5219406E-2,-2.2076334E-1,-2.5973883E-1,4.211156E-2,3.7083942E-1,-1.119306E-1,-2.876241E-1,-2.0160112E-1,-1.9644983E-1,3.0893087E-1,-2.6006448E-1,4.122163E-2,1.9201828E-2,-3.1524158E-1,-2.916127E-1,1.8999274E-1,-1.2300738E-1,3.26239E-1,-6.562886E-3,-3.3145162E-1],"split_indices":[313,174,317,315,44,318,309,295,234,271,77,317,14,93,306,232,249,302,306,0,0,0,95,120,285,271,88,316,269,300,0,267,314,0,14,285,108,142,283,0,0,319,0,286,124,287,106,253,300,313,13,0,295,0,0,104,169,269,282,27,0,137,312,74,0,137,305,217,298,298,0,0,0,173,15,279,123,319,221,295,137,45,281,299,155,233,106,297,0,0,0,0,0,0,0,0,0,0,0,0,0,0,0,0,0,0,0,0,0,0,0,0,0,0,0,0,0,0,0,0,0,0,0,0,0,0,0,0,0,0,0,0,0,0,0,0,0,0,0,0,0,0,0,0,0],"split_type":[0,0,0,0,0,0,0,0,0,0,0,0,0,0,0,0,0,0,0,0,0,0,0,0,0,0,0,0,0,0,0,0,0,0,0,0,0,0,0,0,0,0,0,0,0,0,0,0,0,0,0,0,0,0,0,0,0,0,0,0,0,0,0,0,0,0,0,0,0,0,0,0,0,0,0,0,0,0,0,0,0,0,0,0,0,0,0,0,0,0,0,0,0,0,0,0,0,0,0,0,0,0,0,0,0,0,0,0,0,0,0,0,0,0,0,0,0,0,0,0,0,0,0,0,0,0,0,0,0,0,0,0,0,0,0,0,0,0,0,0,0,0,0,0,0],"sum_hessian":[4.068059E3,3.471702E2,3.720889E3,2.5387512E2,9.329508E1,1.614783E3,2.106106E3,8.301832E1,1.7085681E2,2.1379282E0,9.115715E1,7.9228577E2,8.2249725E2,2.0958452E3,1.0260689E1,7.607846E1,6.9398537E0,3.2908623E1,1.3794818E2,1.029408E0,1.1085202E0,1.2017717E0,8.9955376E1,4.075589E1,7.5152985E2,1.9309698E2,6.2940027E2,5.0030945E2,1.5955358E3,5.489779E0,4.77091E0,7.2748604E0,6.8803604E1,2.0097356E0,4.930118E0,2.760644E1,5.302182E0,1.2985239E2,8.095797E0,1.1102563E0,8.884512E1,3.9096058E1,1.6598332E0,2.6055965E0,7.4892426E2,1.1624384E2,7.6853134E1,4.5531155E1,5.838691E2,4.2005222E2,8.025724E1,1.3684775E0,1.5941672E3,3.4882483E0,2.0015306E0,2.724349E0,4.5505114E0,6.64096E1,2.3940005E0,3.8989198E0,1.0311981E0,5.024548E0,2.258189E1,3.7998269E0,1.5023551E0,1.7116627E1,1.1273576E2,3.237161E0,4.8586354E0,3.7738037E1,1.3580194E0,1.5899287E0,1.0156679E0,3.811357E0,7.451129E2,1.0521561E2,1.1028235E1,3.3039845E1,4.3813293E1,2.7737213E1,1.7793941E1,5.755555E2,8.313597E0,2.1932493E1,3.9811972E2,6.559387E1,1.4663371E1,1.5928732E3,1.2940868E0,1.4921095E0,1.2322395E0,3.3586404E0,1.1918708E0,6.107444E1,5.335161E0,1.3499609E0,1.0440396E0,1.0241935E0,2.8747263E0,2.1221886E0,2.9023597E0,3.829625E0,1.8752266E1,2.6095886E0,1.1902384E0,1.394415E1,3.1724765E0,9.734396E1,1.53918E1,1.8815017E0,1.3556592E0,3.8358972E0,1.0227383E0,7.5953093E0,3.0142727E1,1.5171894E0,2.2941678E0,4.0658237E1,7.0445465E2,8.913673E1,1.607888E1,4.1812654E0,6.8469696E0,2.8212927E1,4.8269167E0,1.222779E1,3.1585503E1,2.3761732E1,3.9754808E0,1.0669711E1,7.1242304E0,3.874255E2,1.8813E2,3.5845852E0,4.729012E0,1.2855976E1,9.076516E0,1.1475757E0,3.9697214E2,6.137688E1,4.2169895E0,8.777201E0,5.886171E0,1.3272775E0,1.5915459E3],"tree_param":{"num_deleted":"0","num_feature":"320","num_nodes":"145","size_leaf_vector":"0"}},{"base_weights":[-8.4799033E-1,-3.1677943E-1,-9.032675E-1,-9.610256E-2,-1.0178726E0,-7.5856066E-1,-1.014952E0,-5.507359E-1,9.950921E-2,-0E0,-1.0482782E0,-9.261231E-1,-6.068862E-1,-8.0244035E-1,-1.0495951E0,-6.561943E-1,3.484981E-1,6.8636906E-1,-0E0,5.814838E-2,-4.8545953E-2,-0E0,-3.1832805E-1,-4.3771058E-1,-9.5466405E-1,-3.8487095E-1,-7.5691724E-1,-8.401439E-2,-8.497889E-1,-7.660313E-1,-1.0731398E0,2.399326E-1,-7.709136E-1,7.771097E-1,-1.5295471E-1,8.181716E-1,-3.1985015E-1,4.582469E-1,-1.142023E-1,-4.148552E-2,-3.0124652E-1,-9.607735E-1,5.2848432E-2,-9.092191E-2,-6.391171E-1,-8.1636196E-1,-3.567296E-1,-6.984545E-1,4.075611E-1,-8.9017224E-1,-0E0,-8.8660944E-1,-0E0,-2.5610042E-1,-1.0754291E0,-1.8436706E-1,7.8610444E-1,-9.1320324E-1,-6.685267E-2,-7.738964E-2,1.1684614E0,-0E0,1.0073912E0,-1.939271E-1,-0E0,7.2655785E-1,-2.0309666E-1,-4.2586112E-1,8.004055E-2,-4.6189144E-1,1.3262935E0,-9.860051E-1,-5.805307E-1,2.701462E-1,-1.4894591E-1,-5.09361E-1,3.176304E-1,-7.61465E-1,6.723328E-2,-8.356213E-1,2.88509E-1,4.1389748E-1,-6.358302E-1,-2.7834973E-1,-0E0,8.3996093E-1,-1.8892111E-1,1.3697313E-1,-9.026837E-1,9.473211E-1,-7.266395E-1,-9.430958E-1,2.9064173E-1,4.7068462E-1,-2.5345072E-1,1.2515432E-1,-2.1718176E-1,-8.104824E-4,-1.0760617E0,3.6837235E-1,-2.277259E-2,-3.0740446E-1,-3.720551E-2,-1.6910905E-1,2.2709192E-1,4.164022E-1,-0E0,1.0210661E-1,-2.125509E-1,3.365758E-1,-3.7695537E-3,2.9203627E-1,-0E0,-3.6049685E-1,4.9054068E-2,1.1411751E-1,-1.9548063E-1,1.8943833E-1,-2.2182155E-2,-1.9909918E-1,3.4472176E-1,6.418814E-1,-1.3175358E-1,-7.393709E-2,-2.9983866E-1,4.2278057E-1,-2.1497427E-1,1.9853832E-1,-1.9270311E-1,-1.5758619E-1,2.4380256E-1,1.9383006E-1,-2.4614063E-1,1.786612E-1,-1.9683029E-1,-0E0,-2.556864E-1,4.7532403E-1,-8.185071E-2,-2.4131598E-1,2.984746E-1,1.22463234E-1,-2.2998318E-1,4.282889E-1,-6.442444E-3,-8.16723E-2,-2.780524E-1,4.6728477E-1,-1.2236387E-1,-2.508692E-1,-0E0,-0E0,-2.9116097E-1,-1.5496188E-1,2.9079413E-1,-3.2326478E-1,-1.1764338E-1],"categories":[],"categories_nodes":[],"categories_segments":[],"categories_sizes":[],"default_left":[0,0,0,0,0,0,0,0,0,0,0,0,0,0,0,0,0,0,0,0,0,0,0,0,0,0,0,0,0,0,0,0,0,0,0,0,0,0,0,0,0,0,0,0,0,0,0,0,0,0,0,0,0,0,0,0,0,0,0,0,0,0,0,0,0,0,0,0,0,0,0,0,0,0,0,0,0,0,0,0,0,0,0,0,0,0,0,0,0,0,0,0,0,0,0,0,0,0,0,0,0,0,0,0,0,0,0,0,0,0,0,0,0,0,0,0,0,0,0,0,0,0,0,0,0,0,0,0,0,0,0,0,0,0,0,0,0,0,0,0,0,0,0,0,0,0,0,0,0,0,0,0,0,0,0,0,0],"id":6,"left_children":[1,3,5,7,9,11,13,15,17,19,21,23,25,27,29,31,33,35,37,-1,-1,-1,-1,39,41,43,45,47,49,51,53,55,57,59,-1,61,63,65,67,69,-1,71,73,75,77,79,81,83,85,87,89,91,93,95,97,-1,99,101,103,-1,105,107,109,-1,-1,111,113,115,117,119,121,123,125,-1,-1,127,129,131,133,135,137,139,141,-1,-1,143,-1,-1,145,147,149,151,-1,153,-1,-1,-1,-1,155,-1,-1,-1,-1,-1,-1,-1,-1,-1,-1,-1,-1,-1,-1,-1,-1,-1,-1,-1,-1,-1,-1,-1,-1,-1,-1,-1,-1,-1,-1,-1,-1,-1,-1,-1,-1,-1,-1,-1,-1,-1,-1,-1,-1,-1,-1,-1,-1,-1,-1,-1,-1,-1,-1,-1,-1,-1,-1],"loss_changes":[9.478955E1,4.7232746E1,4.602124E1,2.1363144E1,2.3378372E0,3.1481506E1,1.0453613E1,7.233013E0,9.87373E0,1.296846E-1,5.925827E-1,7.3877563E0,2.1857315E1,7.590439E0,7.753296E0,7.184078E0,3.3766348E0,3.7527142E0,7.408622E0,0E0,0E0,0E0,0E0,7.6244774E0,4.0404663E0,2.0385712E1,8.748398E0,5.425337E0,7.8375854E0,1.0635315E1,1.5073242E0,4.163162E0,5.339409E0,3.1651082E0,0E0,3.8004856E0,5.594237E-1,5.39943E0,7.184676E0,1.3423948E1,0E0,4.1272583E0,2.472866E0,2.2688892E1,1.3207672E1,7.971878E0,1.2246107E1,1.614227E0,4.835455E0,4.2327576E0,8.248255E0,1.124984E1,6.883976E0,2.2131054E0,3.428955E-1,0E0,2.7615957E0,3.5428925E0,5.0597086E0,0E0,5.765066E-1,1.5377051E0,2.7270947E0,0E0,0E0,3.4624996E0,3.7760441E0,8.646807E0,6.3420763E0,6.5781255E0,9.534158E0,4.437866E0,1.1282844E1,0E0,0E0,1.0664898E1,2.8278782E1,1.1166718E1,8.843481E0,5.076706E0,5.6729617E0,1.1375344E1,6.143818E0,0E0,0E0,4.469711E0,0E0,0E0,2.3806E0,5.584564E0,4.196508E-1,2.5675888E0,0E0,6.269025E0,0E0,0E0,0E0,0E0,1.6821289E-1,0E0,0E0,0E0,0E0,0E0,0E0,0E0,0E0,0E0,0E0,0E0,0E0,0E0,0E0,0E0,0E0,0E0,0E0,0E0,0E0,0E0,0E0,0E0,0E0,0E0,0E0,0E0,0E0,0E0,0E0,0E0,0E0,0E0,0E0,0E0,0E0,0E0,0E0,0E0,0E0,0E0,0E0,0E0,0E0,0E0,0E0,0E0,0E0,0E0,0E0,0E0,0E0,0E0,0E0,0E0,0E0,0E0,0E0],"parents":[2147483647,0,0,1,1,2,2,3,3,4,4,5,5,6,6,7,7,8,8,9,9,10,10,11,11,12,12,13,13,14,14,15,15,16,16,17,17,18,18,23,23,24,24,25,25,26,26,27,27,28,28,29,29,30,30,31,31,32,32,33,33,35,35,36,36,37,37,38,38,39,39,41,41,42,42,43,43,44,44,45,45,46,46,47,47,48,48,49,49,50,50,51,51,52,52,53,53,54,54,56,56,57,57,58,58,60,60,61,61,62,62,65,65,66,66,67,67,68,68,69,69,70,70,71,71,72,72,75,75,76,76,77,77,78,78,79,79,80,80,81,81,82,82,85,85,88,88,89,89,90,90,91,91,93,93,98,98],"right_children":[2,4,6,8,10,12,14,16,18,20,22,24,26,28,30,32,34,36,38,-1,-1,-1,-1,40,42,44,46,48,50,52,54,56,58,60,-1,62,64,66,68,70,-1,72,74,76,78,80,82,84,86,88,90,92,94,96,98,-1,100,102,104,-1,106,108,110,-1,-1,112,114,116,118,120,122,124,126,-1,-1,128,130,132,134,136,138,140,142,-1,-1,144,-1,-1,146,148,150,152,-1,154,-1,-1,-1,-1,156,-1,-1,-1,-1,-1,-1,-1,-1,-1,-1,-1,-1,-1,-1,-1,-1,-1,-1,-1,-1,-1,-1,-1,-1,-1,-1,-1,-1,-1,-1,-1,-1,-1,-1,-1,-1,-1,-1,-1,-1,-1,-1,-1,-1,-1,-1,-1,-1,-1,-1,-1,-1,-1,-1,-1,-1,-1,-1],"split_conditions":[-1.58975E1,-6.6888E1,-1.1454286E1,-1.575E1,-1.01126335E2,-9.27422E1,-9.081243E1,6E0,-1.8503834E1,-1.6308035E1,-2.0676E1,-1.7625E1,-9.532833E1,-1.48375E1,-1.2363857E1,-1.0466827E2,-8.6918E1,1E0,-2.2901041E1,5.814838E-2,-4.8545953E-2,-0E0,-3.1832805E-1,-1.1730857E1,7E0,-8.125E1,5E0,-1.6484375E1,-6.125E0,-6.55585E1,-2.00875E1,-1.67915E1,-8.11265E1,-1.68125E1,-1.5295471E-1,-1.64285E1,4E0,-1.2183143E1,-1.6317E1,-7.45E1,-3.0124652E-1,-7.9576836E1,-1.3743055E1,-8.5798E1,-7.097786E1,-1.0677167E1,-8.992857E1,-9.07484E1,-1.49625E1,-3.8634E1,-2.0319E1,0E0,-7.5569E1,-1.1895143E1,-1.8603E1,-1.8436706E-1,-1.03546875E2,-1.4108143E1,-1.278125E1,-7.738964E-2,-1.2776786E1,-8.902333E1,-1.09375E1,-1.939271E-1,-0E0,-8.9734375E1,-1.6129465E1,-1.6328E1,-1.84625E1,-1.29408E1,-6.60625E1,-1.04789E2,-1.5074166E1,2.701462E-1,-1.4894591E-1,-1.6335228E1,-9.266133E1,-9.7E1,-1.634375E1,-1.0257143E2,-1.61535E1,-8.3873665E1,-8.8625E1,-2.7834973E-1,-0E0,-8.428125E1,-1.8892111E-1,1.3697313E-1,-2.48635E1,-1.0225E1,-8.32265E1,-2.28125E1,2.9064173E-1,-1.1380333E1,-2.5345072E-1,1.2515432E-1,-2.1718176E-1,-8.104824E-4,1E0,3.6837235E-1,-2.277259E-2,-3.0740446E-1,-3.720551E-2,-1.6910905E-1,2.2709192E-1,4.164022E-1,-0E0,1.0210661E-1,-2.125509E-1,3.365758E-1,-3.7695537E-3,2.9203627E-1,-0E0,-3.6049685E-1,4.9054068E-2,1.1411751E-1,-1.9548063E-1,1.8943833E-1,-2.2182155E-2,-1.9909918E-1,3.4472176E-1,6.418814E-1,-1.3175358E-1,-7.393709E-2,-2.9983866E-1,4.2278057E-1,-2.1497427E-1,1.9853832E-1,-1.9270311E-1,-1.5758619E-1,2.4380256E-1,1.9383006E-1,-2.4614063E-1,1.786612E-1,-1.9683029E-1,-0E0,-2.556864E-1,4.7532403E-1,-8.185071E-2,-2.4131598E-1,2.984746E-1,1.22463234E-1,-2.2998318E-1,4.282889E-1,-6.442444E-3,-8.16723E-2,-2.780524E-1,4.6728477E-1,-1.2236387E-1,-2.508692E-1,-0E0,-0E0,-2.9116097E-1,-1.5496188E-1,2.9079413E-1,-3.2326478E-1,-1.1764338E-1],"split_indices":[313,174,317,315,44,318,12,295,317,11,15,317,62,297,237,200,14,306,313,0,0,0,0,77,279,312,279,123,233,300,297,127,284,233,0,269,263,319,63,104,0,236,265,236,300,301,248,30,59,191,159,317,76,93,13,0,250,319,41,0,153,14,283,0,0,312,283,253,59,319,40,140,317,0,0,41,190,218,251,120,221,172,312,0,0,312,0,0,175,25,92,43,0,141,0,0,0,0,226,0,0,0,0,0,0,0,0,0,0,0,0,0,0,0,0,0,0,0,0,0,0,0,0,0,0,0,0,0,0,0,0,0,0,0,0,0,0,0,0,0,0,0,0,0,0,0,0,0,0,0,0,0,0,0,0,0,0],"split_type":[0,0,0,0,0,0,0,0,0,0,0,0,0,0,0,0,0,0,0,0,0,0,0,0,0,0,0,0,0,0,0,0,0,0,0,0,0,0,0,0,0,0,0,0,0,0,0,0,0,0,0,0,0,0,0,0,0,0,0,0,0,0,0,0,0,0,0,0,0,0,0,0,0,0,0,0,0,0,0,0,0,0,0,0,0,0,0,0,0,0,0,0,0,0,0,0,0,0,0,0,0,0,0,0,0,0,0,0,0,0,0,0,0,0,0,0,0,0,0,0,0,0,0,0,0,0,0,0,0,0,0,0,0,0,0,0,0,0,0,0,0,0,0,0,0,0,0,0,0,0,0,0,0,0,0,0,0],"sum_hessian":[3.2576182E3,3.0852106E2,2.9490972E3,2.360667E2,7.245438E1,1.289976E3,1.6591212E3,7.123821E1,1.6482848E2,2.0718768E0,7.03825E1,6.0889575E2,6.8108014E2,2.3796521E2,1.421156E3,6.45002E1,6.7380137E0,2.3444313E1,1.4138417E2,1.0257037E0,1.0461731E0,1.1874969E0,6.9195E1,3.5486244E1,5.734095E2,2.774334E2,4.0364673E2,1.5538094E1,2.2242711E2,1.1315336E2,1.3080027E3,6.7015166E0,5.7798683E1,4.945607E0,1.7924066E0,2.1333656E1,2.110657E0,2.7122047E1,1.14262115E2,2.2031357E1,1.3454887E1,5.7049274E2,2.9167507E0,1.3021193E2,1.4722148E2,3.4944943E2,5.4197292E1,7.171026E0,8.367067E0,2.1250595E2,9.921168E0,9.774481E1,1.5408543E1,4.580268E0,1.3034224E3,2.2073822E0,4.4941344E0,4.7243603E1,1.05550785E1,1.099852E0,3.8457553E0,3.8570533E0,1.7476603E1,1.1003429E0,1.0103142E0,1.9761938E1,7.3601084E0,4.440187E1,6.9860245E1,1.7637949E1,4.393408E0,5.3226544E2,3.822735E1,1.2535098E0,1.6632408E0,6.481032E1,6.540161E1,1.2602276E2,2.1198729E1,3.4414676E2,5.3026934E0,1.3805202E1,4.039209E1,5.5054545E0,1.665572E0,6.379869E0,1.9871984E0,1.2614921E0,2.1124445E2,4.2889924E0,5.6321764E0,9.559568E1,2.1491344E0,1.02582035E1,5.150339E0,1.4840546E0,3.0962133E0,1.2371339E0,1.3021853E3,3.0741353E0,1.4199991E0,4.0579483E1,6.6641192E0,7.1597557E0,3.3953226E0,2.7332916E0,1.1124638E0,2.631888E0,1.2251655E0,1.6063164E1,1.413439E0,1.421976E1,5.542179E0,1.7310998E0,5.6290083E0,9.078225E0,3.5323647E1,1.5281613E1,5.4578632E1,1.6473106E1,1.1648426E0,3.056599E0,1.3368088E0,1.0521335E1,5.217441E2,1.6123521E0,3.6614994E1,5.819812E0,5.8990505E1,2.3802225E1,4.1599384E1,4.3289566E0,1.216938E2,1.2752537E1,8.446193E0,6.3779254E0,3.3776883E2,1.3210775E0,3.981616E0,4.0558505E0,9.749351E0,3.8346772E0,3.655741E1,3.746903E0,2.632966E0,9.012449E0,2.0223201E2,3.1086464E0,1.1803459E0,4.6078587E0,1.0243179E0,2.6591818E0,9.29365E1,3.0939314E0,7.164272E0,1.2980553E3,4.129964E0],"tree_param":{"num_deleted":"0","num_feature":"320","num_nodes":"157","size_leaf_vector":"0"}},{"base_weights":[-7.7579784E-1,-6.6230685E-1,-1.0410076E0,-3.790405E-1,-7.583382E-1,-1.0447285E0,-0E0,-5.4798543E-1,-1.1345484E-2,-7.7227557E-1,3.1849042E-1,-0E0,-1.0470448E0,2.1044E-1,-1.6214204E-1,-6.4903355E-1,2.9071012E-1,-5.843455E-1,1.7400026E-1,-5.589907E-1,-8.413658E-1,1.3018981E0,-3.0028293E-1,-1.051512E0,-3.0962703E-1,3.9755854E-1,-7.115488E-1,-1.0038843E-1,7.5869864E-1,-6.9420457E-1,1.9796981E-1,2.8865598E-2,1.2662023E0,-9.0449625E-1,-4.010309E-1,-8.640262E-1,-3.3435863E-1,4.747951E-1,-1.04863055E-1,-0E0,-3.15772E-1,1.294143E-1,-2.231649E-1,-5.8728665E-1,8.152726E-1,-8.2353026E-1,-4.3033767E-1,2.2647339E-1,-4.5069996E-1,1.8316437E-2,1.1361507E0,1.34665845E-2,-8.541895E-1,1.0439484E0,-4.563936E-2,-0E0,1.9736668E0,-9.290468E-1,2.5180766E-2,-2.2392219E-2,-6.1629105E-1,-5.437992E-1,-8.9223784E-1,-7.507952E-1,4.04842E-1,-0E0,-2.1236818E-1,2.9905453E-1,-1.0105661E-1,-2.609698E-1,-0E0,-5.9223033E-2,-2.6102343E-1,3.517515E-1,-0E0,2.3433827E-2,-2.3314354E-1,2.1501361E-1,-1.9886826E-1,-6.567809E-3,4.0044418E-1,2.9090986E-1,-2.1855804E-1,8.981201E-2,-2.784256E-1,5.018592E-1,-0E0,2.5490454E-1,-4.0684305E-2,1.8686366E-1,-1.6414726E-1,7.15182E-1,-2.6725147E-2,-2.8412494E-1,2.3463214E-2,1.4122446E-1,-1.1371789E-1,-1.310959E-1,-2.9213992E-1,9.6079476E-2,-2.230315E-1,-6.5800905E-2,-2.7070838E-1,1.6768928E-1,-2.7458113E-1,2.7672955E-1,-2.5091618E-1],"categories":[],"categories_nodes":[],"categories_segments":[],"categories_sizes":[],"default_left":[0,0,0,0,0,0,0,0,0,0,0,0,0,0,0,0,0,0,0,0,0,0,0,0,0,0,0,0,0,0,0,0,0,0,0,0,0,0,0,0,0,0,0,0,0,0,0,0,0,0,0,0,0,0,0,0,0,0,0,0,0,0,0,0,0,0,0,0,0,0,0,0,0,0,0,0,0,0,0,0,0,0,0,0,0,0,0,0,0,0,0,0,0,0,0,0,0,0,0,0,0,0,0,0,0,0,0],"id":7,"left_children":[1,3,5,7,9,11,13,15,17,19,21,-1,23,-1,-1,25,27,29,31,33,35,37,-1,39,41,43,45,47,49,51,-1,53,55,57,59,61,63,-1,-1,-1,-1,-1,-1,65,67,69,71,73,75,77,79,81,83,85,87,89,91,93,-1,95,97,99,101,103,105,-1,-1,-1,-1,-1,-1,-1,-1,-1,-1,-1,-1,-1,-1,-1,-1,-1,-1,-1,-1,-1,-1,-1,-1,-1,-1,-1,-1,-1,-1,-1,-1,-1,-1,-1,-1,-1,-1,-1,-1,-1,-1],"loss_changes":[7.752893E1,4.9299805E1,2.824768E0,2.891896E1,2.1104065E1,1.9076538E0,1.8582793E0,2.7586853E1,1.6233124E1,1.8838684E1,2.456873E1,0E0,1.5617676E0,0E0,0E0,1.9249153E1,6.7552643E0,5.606703E0,1.7294876E1,1.7375679E1,1.0852173E1,6.2043896E0,0E0,4.970703E-1,2.6605043E0,7.3372974E0,7.5867615E0,2.4127052E0,4.0110884E0,4.4342194E0,0E0,8.226431E0,1.1928055E1,3.0227356E0,1.8742947E1,7.6193237E0,1.4727329E1,0E0,0E0,0E0,0E0,0E0,0E0,2.9499078E-1,3.2362509E0,7.098404E0,7.5764036E0,2.6678312E0,2.1953E0,3.8478935E0,3.0921812E0,5.7415476E0,3.100462E0,5.1022444E0,7.41909E0,2.20513E0,8.436329E0,2.3614578E0,0E0,1.538378E1,8.377827E0,1.4778452E1,5.334717E0,7.2373695E0,1.1671143E1,0E0,0E0,0E0,0E0,0E0,0E0,0E0,0E0,0E0,0E0,0E0,0E0,0E0,0E0,0E0,0E0,0E0,0E0,0E0,0E0,0E0,0E0,0E0,0E0,0E0,0E0,0E0,0E0,0E0,0E0,0E0,0E0,0E0,0E0,0E0,0E0,0E0,0E0,0E0,0E0,0E0,0E0],"parents":[2147483647,0,0,1,1,2,2,3,3,4,4,5,5,6,6,7,7,8,8,9,9,10,10,12,12,15,15,16,16,17,17,18,18,19,19,20,20,21,21,23,23,24,24,25,25,26,26,27,27,28,28,29,29,31,31,32,32,33,33,34,34,35,35,36,36,43,43,44,44,45,45,46,46,47,47,48,48,49,49,50,50,51,51,52,52,53,53,54,54,55,55,56,56,57,57,59,59,60,60,61,61,62,62,63,63,64,64],"right_children":[2,4,6,8,10,12,14,16,18,20,22,-1,24,-1,-1,26,28,30,32,34,36,38,-1,40,42,44,46,48,50,52,-1,54,56,58,60,62,64,-1,-1,-1,-1,-1,-1,66,68,70,72,74,76,78,80,82,84,86,88,90,92,94,-1,96,98,100,102,104,106,-1,-1,-1,-1,-1,-1,-1,-1,-1,-1,-1,-1,-1,-1,-1,-1,-1,-1,-1,-1,-1,-1,-1,-1,-1,-1,-1,-1,-1,-1,-1,-1,-1,-1,-1,-1,-1,-1,-1,-1,-1,-1],"split_conditions":[-6.977983E1,-1.3302083E1,-5.65E1,-8.458466E1,1E0,-1.9185429E1,-8.270433E1,6E0,-1.6651785E1,-1.0162325E2,1E0,-0E0,1E0,2.1044E-1,-1.6214204E-1,-1.071875E2,-8.007486E1,-5.932033E1,-7.634883E1,-9.810157E1,-6.4296875E0,-6.939183E1,-3.0028293E-1,-3.8671833E1,-1.595E1,-1.0625E2,-1.42125E1,-1.6820168E1,-1.5734375E1,-1.0034883E2,1.9796981E-1,-2.330875E1,-8.5907425E1,6E0,-1.24155E1,-1.434375E1,-6.81965E1,4.747951E-1,-1.04863055E-1,-0E0,-3.15772E-1,1.294143E-1,-2.231649E-1,-1.745E1,1E0,-1.0933E1,-9.061467E1,-1.01987E2,-1.859043E1,3E0,-1.6354166E1,3E0,-1.00833336E2,-8.15625E1,-1.7321428E1,-7.80065E1,-8.3675E1,-1.0496333E1,2.5180766E-2,-8.8359375E1,-1.1753667E1,-1.0103125E2,-1.24568E2,-1.007875E2,-1.2085834E1,-0E0,-2.1236818E-1,2.9905453E-1,-1.0105661E-1,-2.609698E-1,-0E0,-5.9223033E-2,-2.6102343E-1,3.517515E-1,-0E0,2.3433827E-2,-2.3314354E-1,2.1501361E-1,-1.9886826E-1,-6.567809E-3,4.0044418E-1,2.9090986E-1,-2.1855804E-1,8.981201E-2,-2.784256E-1,5.018592E-1,-0E0,2.5490454E-1,-4.0684305E-2,1.8686366E-1,-1.6414726E-1,7.15182E-1,-2.6725147E-2,-2.8412494E-1,2.3463214E-2,1.4122446E-1,-1.1371789E-1,-1.310959E-1,-2.9213992E-1,9.6079476E-2,-2.230315E-1,-6.5800905E-2,-2.7070838E-1,1.6768928E-1,-2.7458113E-1,2.7672955E-1,-2.5091618E-1],"split_indices":[76,297,168,316,304,221,284,311,315,14,306,0,289,0,0,312,252,316,28,318,265,316,0,319,283,314,315,63,315,46,0,255,222,295,253,217,284,0,0,0,0,0,0,59,306,269,46,142,175,119,121,39,184,56,301,76,280,301,0,184,319,90,30,42,319,0,0,0,0,0,0,0,0,0,0,0,0,0,0,0,0,0,0,0,0,0,0,0,0,0,0,0,0,0,0,0,0,0,0,0,0,0,0,0,0,0,0],"split_type":[0,0,0,0,0,0,0,0,0,0,0,0,0,0,0,0,0,0,0,0,0,0,0,0,0,0,0,0,0,0,0,0,0,0,0,0,0,0,0,0,0,0,0,0,0,0,0,0,0,0,0,0,0,0,0,0,0,0,0,0,0,0,0,0,0,0,0,0,0,0,0,0,0,0,0,0,0,0,0,0,0,0,0,0,0,0,0,0,0,0,0,0,0,0,0,0,0,0,0,0,0,0,0,0,0,0,0],"sum_hessian":[2.6260042E3,1.8427991E3,7.83205E2,4.6913434E2,1.3736647E3,7.80217E2,2.9880276E0,3.2017383E2,1.4896053E2,1.3568501E3,1.6814558E1,1.7123969E0,7.785046E2,1.0066581E0,1.9813696E0,2.864803E2,3.369353E1,3.6540325E1,1.124202E2,3.359828E2,1.0208674E3,9.858789E0,6.955769E0,7.727195E2,5.7850957E0,1.5394681E1,2.710856E2,1.8200468E1,1.5493065E1,3.4351242E1,2.1890821E0,1.00543884E2,1.1876314E1,1.02937065E2,2.3304573E2,9.755743E2,4.5293053E1,8.720661E0,1.1381286E0,1.1108642E0,7.7160864E2,1.7145827E0,4.0705132E0,4.1074934E0,1.1287188E1,1.9122939E2,7.985622E1,8.859877E0,9.340591E0,6.0327883E0,9.460277E0,5.9265423E0,2.8424698E1,6.4442487E0,9.409963E1,4.51451E0,7.3618045E0,1.009945E2,1.9425602E0,8.571007E1,1.4733566E2,8.206487E1,8.935094E2,2.9394224E1,1.58988285E1,1.0034475E0,3.1040456E0,1.0241828E1,1.0453595E0,1.8066287E2,1.0566515E1,5.3894573E1,2.5961643E1,1.3084229E0,7.551453E0,3.2709703E0,6.0696216E0,3.31551E0,2.7172785E0,1.147027E0,8.31325E0,2.7497802E0,3.176762E0,1.1201907E0,2.7304508E1,3.7222865E0,2.7219622E0,7.314457E0,8.678518E1,1.8760364E0,2.6384737E0,6.2127895E0,1.1490147E0,9.976423E1,1.2302755E0,3.5250214E1,5.0459854E1,1.0053452E2,4.6801144E1,1.4818731E1,6.724615E1,1.4311099E1,8.791983E2,2.6726637E0,2.6721561E1,1.1685619E1,4.2132096E0],"tree_param":{"num_deleted":"0","num_feature":"320","num_nodes":"107","size_leaf_vector":"0"}},{"base_weights":[-6.981311E-1,-3.7299743E-1,-8.3140177E-1,-2.2540796E-1,-3.1016475E-1,-6.363933E-1,-9.477675E-1,-5.7226557E-1,-5.386891E-2,-3.0526054E-1,-7.0918524E-1,-7.5803655E-1,-1.0067595E0,1.4460404E-1,-6.86012E-1,1.0205045E-2,-6.385579E-1,-7.651467E-1,-2.4020484E-2,-8.050759E-1,-3.5736698E-1,-8.209294E-1,5.137016E-1,-2.555394E-1,-1.0132282E0,-1.4177835E-1,1.1005566E0,-8.106361E-1,-8.065875E-2,1.4530078E-1,-2.9253197E-1,-8.9419913E-1,-0E0,-8.588382E-1,3.236819E-1,5.635794E-1,-4.4415623E-1,-3.4189284E-1,-8.5832685E-1,7.488822E-2,-7.858949E-1,-9.5559275E-1,-4.747408E-1,-2.6898494E-1,1.3363974E0,4.2131472E-1,-2.3603794E-1,-0E0,-1.0158923E0,3.6410743E-1,-6.742886E-1,-0E0,1.9595917E0,-8.4760267E-1,9.270647E-2,6.253694E-1,-5.524874E-1,3.294968E-1,-9.84114E-2,-5.2067536E-1,6.586637E-2,-9.6438813E-1,3.836801E-2,7.019044E-1,-5.9211236E-1,7.164143E-2,-9.254915E-1,-4.1405445E-1,1.0811138E0,-7.7359766E-1,-0E0,2.534445E-1,-6.3440984E-1,7.9759315E-2,-8.6604726E-1,-7.495671E-1,4.4923428E-1,-0E0,-8.985174E-1,-9.888737E-1,-2.968223E-1,-8.370407E-1,8.418724E-2,2.5361744E-1,-2.3723072E-1,-6.1030842E-2,2.4884167E0,3.3272856E-1,-2.2281792E-2,-6.5257475E-2,-1.0185294E0,-1.0876565E-1,2.856228E-1,-2.6671585E-1,8.038086E-2,1.1779984E-1,-1.018991E-1,8.035352E-1,1.611549E-2,-0E0,-2.6751065E-1,4.4462734E-1,-1.4916736E-1,-6.316559E-2,3.692633E-1,1.1969993E-1,-2.4931931E-1,-1.4156106E-2,1.8776467E-1,1.3396427E-1,-8.6716905E-2,-2.2766934E-1,-0E0,2.2977969E-1,-4.1238647E-2,-0E0,-3.084569E-1,3.6758074E-1,-1.0909066E-2,-2.3501152E-1,-0E0,-2.9234672E-1,2.8612971E-2,-2.6381811E-1,1.1518737E-1,4.4220182E-1,-9.91632E-2,-4.218962E-3,-2.9917288E-1,-2.136563E-1,2.0548244E-1,2.1270278E-1,-2.1576095E-1,1.3746396E-1,-2.2828485E-1,2.6138345E-2,-2.6287016E-1,-2.7096748E-1,4.297874E-2,-1.4544824E-1,2.2552222E-1,3.089169E-1,-1.12530924E-1,-2.8724048E-1,8.9171804E-2,-3.0030042E-1,1.3489814E-2,4.9389505E-1,-2.637553E-1,8.7013826E-2,-2.7096796E-1,4.0992063E-1,-9.051232E-2,5.295663E-2,-1.3144915E-1,1.0890201E0,9.536562E-2,6.1189607E-2,-1.3379344E-1,-3.0666244E-1,-1.4379613E-1],"categories":[],"categories_nodes":[],"categories_segments":[],"categories_sizes":[],"default_left":[0,0,0,0,0,0,0,0,0,0,0,0,0,0,0,0,0,0,0,0,0,0,0,0,0,0,0,0,0,0,0,0,0,0,0,0,0,0,0,0,0,0,0,0,0,0,0,0,0,0,0,0,0,0,0,0,0,0,0,0,0,0,0,0,0,0,0,0,0,0,0,0,0,0,0,0,0,0,0,0,0,0,0,0,0,0,0,0,0,0,0,0,0,0,0,0,0,0,0,0,0,0,0,0,0,0,0,0,0,0,0,0,0,0,0,0,0,0,0,0,0,0,0,0,0,0,0,0,0,0,0,0,0,0,0,0,0,0,0,0,0,0,0,0,0,0,0,0,0,0,0,0,0,0,0,0,0,0,0,0,0],"id":8,"left_children":[1,3,5,7,-1,9,11,13,15,17,19,21,23,25,27,29,31,33,35,37,39,41,43,45,47,49,51,53,55,57,59,61,63,65,-1,67,69,71,73,75,77,79,81,83,85,87,-1,-1,89,91,93,95,97,99,101,103,105,107,109,111,113,115,-1,117,119,-1,121,123,125,127,129,131,133,-1,135,137,139,141,143,145,147,149,151,-1,-1,153,155,-1,-1,157,159,-1,-1,-1,-1,-1,-1,-1,-1,-1,-1,-1,-1,-1,-1,-1,-1,-1,-1,-1,-1,-1,-1,-1,-1,-1,-1,-1,-1,-1,-1,-1,-1,-1,-1,-1,-1,-1,-1,-1,-1,-1,-1,-1,-1,-1,-1,-1,-1,-1,-1,-1,-1,-1,-1,-1,-1,-1,-1,-1,-1,-1,-1,-1,-1,-1,-1,-1,-1,-1,-1],"loss_changes":[9.220703E1,6.036165E1,3.3150146E1,3.029828E1,0E0,1.3101624E1,8.984863E0,1.4178604E1,1.3307427E1,1.33432665E1,1.4926849E1,1.9077347E1,2.6027222E0,7.0455794E0,1.0573692E1,1.2754937E1,6.065337E0,7.667719E0,1.6905043E1,8.134247E0,1.9530067E1,9.142441E0,8.067212E0,3.440991E0,1.9251709E0,5.3844285E0,4.9595523E0,4.4983444E0,9.263461E0,9.933073E0,8.082906E0,2.3670464E0,4.8543234E0,3.3848076E0,0E0,1.5034805E1,5.908817E0,7.381806E0,3.365387E0,1.614519E1,4.4701233E0,2.5104675E0,1.3603207E1,4.2639995E0,1.08812E1,1.9006946E0,0E0,0E0,1.1726074E0,4.765172E0,2.5410056E0,6.5156317E-1,2.8152857E0,4.716728E0,5.4329667E0,6.242015E0,5.0716596E0,1.43351755E1,9.757186E0,7.1349735E0,5.720516E0,1.6954556E0,0E0,2.8021173E0,7.7648735E-1,0E0,2.3821697E0,4.3507795E0,1.161445E1,3.4271584E0,9.414713E0,6.465622E0,4.36014E0,0E0,3.6274414E0,2.7187252E0,1.0840574E1,3.2697983E0,3.8356743E0,2.384964E0,1.2053833E1,3.5563698E0,1.3768364E1,0E0,0E0,5.1732635E-1,5.445822E0,0E0,0E0,5.76692E-1,1.6345215E-1,0E0,0E0,0E0,0E0,0E0,0E0,0E0,0E0,0E0,0E0,0E0,0E0,0E0,0E0,0E0,0E0,0E0,0E0,0E0,0E0,0E0,0E0,0E0,0E0,0E0,0E0,0E0,0E0,0E0,0E0,0E0,0E0,0E0,0E0,0E0,0E0,0E0,0E0,0E0,0E0,0E0,0E0,0E0,0E0,0E0,0E0,0E0,0E0,0E0,0E0,0E0,0E0,0E0,0E0,0E0,0E0,0E0,0E0,0E0,0E0,0E0,0E0,0E0,0E0,0E0,0E0,0E0,0E0,0E0,0E0],"parents":[2147483647,0,0,1,1,2,2,3,3,5,5,6,6,7,7,8,8,9,9,10,10,11,11,12,12,13,13,14,14,15,15,16,16,17,17,18,18,19,19,20,20,21,21,22,22,23,23,24,24,25,25,26,26,27,27,28,28,29,29,30,30,31,31,32,32,33,33,35,35,36,36,37,37,38,38,39,39,40,40,41,41,42,42,43,43,44,44,45,45,48,48,49,49,50,50,51,51,52,52,53,53,54,54,55,55,56,56,57,57,58,58,59,59,60,60,61,61,63,63,64,64,66,66,67,67,68,68,69,69,70,70,71,71,72,72,74,74,75,75,76,76,77,77,78,78,79,79,80,80,81,81,82,82,85,85,86,86,89,89,90,90],"right_children":[2,4,6,8,-1,10,12,14,16,18,20,22,24,26,28,30,32,34,36,38,40,42,44,46,48,50,52,54,56,58,60,62,64,66,-1,68,70,72,74,76,78,80,82,84,86,88,-1,-1,90,92,94,96,98,100,102,104,106,108,110,112,114,116,-1,118,120,-1,122,124,126,128,130,132,134,-1,136,138,140,142,144,146,148,150,152,-1,-1,154,156,-1,-1,158,160,-1,-1,-1,-1,-1,-1,-1,-1,-1,-1,-1,-1,-1,-1,-1,-1,-1,-1,-1,-1,-1,-1,-1,-1,-1,-1,-1,-1,-1,-1,-1,-1,-1,-1,-1,-1,-1,-1,-1,-1,-1,-1,-1,-1,-1,-1,-1,-1,-1,-1,-1,-1,-1,-1,-1,-1,-1,-1,-1,-1,-1,-1,-1,-1,-1,-1,-1,-1,-1,-1],"split_conditions":[-1.275E1,-1.0586E1,-9.411183E1,-9.68125E1,-3.1016475E-1,-1.18225E1,-1.2120429E1,-1.061375E2,-8.03E1,-9.29875E1,-7.114333E1,-7.3781166E1,-1.5767858E1,-9.4251E1,-1.1925E1,-1.45625E1,-7.259917E1,-7.22175E1,-9.1375E1,-1.29296875E1,-7.302067E1,-7.995067E1,-9.4875E0,-1.5236428E1,-1.0868886E2,-9.865366E1,-1.559375E1,-9.803572E0,-1.4178333E1,-9.233583E1,-8.127216E1,1E0,-8.07625E1,-1.7833334E1,3.236819E-1,-9.28625E1,-1.0732142E1,-1.4620193E1,-2.6203125E1,-8.05E0,-1.6408833E1,1E0,-8.9375E0,-9.246094E1,-2.0487167E1,-1.61875E1,-2.3603794E-1,-0E0,-1.397385E2,-1.0394231E2,-1.15266E1,-1.8072916E1,-1.03625E1,-1.03762146E2,-1.0467514E2,-1.47395E1,-1.6711E1,-9.56495E1,-1.7678572E1,-1.2188571E1,-8.9775E1,-2.4008E1,3.836801E-2,-8.36655E1,-1.0602858E1,7.164143E-2,-1.0655E1,-1.36875E1,-9.190625E1,-9.834883E1,3E0,-9.203229E1,-1.401E1,7.9759315E-2,-2.4875E1,-6.8875E1,-7.2856834E1,-2.31055E1,7E0,7E0,-9.73344E1,-9.1375E1,-8.7214836E1,2.5361744E-1,-2.3723072E-1,-8.075E0,-1.425E1,3.3272856E-1,-2.2281792E-2,-8.76E1,-5.9E0,-1.0876565E-1,2.856228E-1,-2.6671585E-1,8.038086E-2,1.1779984E-1,-1.018991E-1,8.035352E-1,1.611549E-2,-0E0,-2.6751065E-1,4.4462734E-1,-1.4916736E-1,-6.316559E-2,3.692633E-1,1.1969993E-1,-2.4931931E-1,-1.4156106E-2,1.8776467E-1,1.3396427E-1,-8.6716905E-2,-2.2766934E-1,-0E0,2.2977969E-1,-4.1238647E-2,-0E0,-3.084569E-1,3.6758074E-1,-1.0909066E-2,-2.3501152E-1,-0E0,-2.9234672E-1,2.8612971E-2,-2.6381811E-1,1.1518737E-1,4.4220182E-1,-9.91632E-2,-4.218962E-3,-2.9917288E-1,-2.136563E-1,2.0548244E-1,2.1270278E-1,-2.1576095E-1,1.3746396E-1,-2.2828485E-1,2.6138345E-2,-2.6287016E-1,-2.7096748E-1,4.297874E-2,-1.4544824E-1,2.2552222E-1,3.089169E-1,-1.12530924E-1,-2.8724048E-1,8.9171804E-2,-3.0030042E-1,1.3489814E-2,4.9389505E-1,-2.637553E-1,8.7013826E-2,-2.7096796E-1,4.0992063E-1,-9.051232E-2,5.295663E-2,-1.3144915E-1,1.0890201E0,9.536562E-2,6.1189607E-2,-1.3379344E-1,-3.0666244E-1,-1.4379613E-1],"split_indices":[313,301,14,314,0,265,317,312,312,266,300,316,297,238,249,91,236,92,186,169,220,236,73,303,188,46,107,201,253,30,220,145,250,73,0,250,185,121,123,265,13,273,41,248,127,105,0,0,46,88,31,313,153,60,78,271,317,190,297,317,248,319,0,124,269,0,141,27,42,12,71,108,249,0,235,152,268,175,87,295,62,232,316,0,0,153,219,0,0,298,265,0,0,0,0,0,0,0,0,0,0,0,0,0,0,0,0,0,0,0,0,0,0,0,0,0,0,0,0,0,0,0,0,0,0,0,0,0,0,0,0,0,0,0,0,0,0,0,0,0,0,0,0,0,0,0,0,0,0,0,0,0,0,0,0,0,0,0,0,0,0],"split_type":[0,0,0,0,0,0,0,0,0,0,0,0,0,0,0,0,0,0,0,0,0,0,0,0,0,0,0,0,0,0,0,0,0,0,0,0,0,0,0,0,0,0,0,0,0,0,0,0,0,0,0,0,0,0,0,0,0,0,0,0,0,0,0,0,0,0,0,0,0,0,0,0,0,0,0,0,0,0,0,0,0,0,0,0,0,0,0,0,0,0,0,0,0,0,0,0,0,0,0,0,0,0,0,0,0,0,0,0,0,0,0,0,0,0,0,0,0,0,0,0,0,0,0,0,0,0,0,0,0,0,0,0,0,0,0,0,0,0,0,0,0,0,0,0,0,0,0,0,0,0,0,0,0,0,0,0,0,0,0,0,0],"sum_hessian":[2.1480303E3,6.266865E2,1.5213438E3,5.1399774E2,1.12688835E2,5.725749E2,9.487689E2,1.6834589E2,3.4565182E2,1.0535844E2,4.6721646E2,2.3032372E2,7.184452E2,2.2414553E1,1.4593134E2,3.1162894E2,3.40229E1,3.865348E1,6.6704956E1,3.650185E2,1.0219796E2,2.201824E2,1.01413145E1,7.1393676E0,7.1130585E2,1.7500452E1,4.9141E0,1.2005131E2,2.5880033E1,2.1697566E2,9.465327E1,2.4445648E1,9.5772505E0,3.7551056E1,1.102425E0,2.7171505E1,3.953345E1,3.9371433E1,3.2564706E2,5.0707684E1,5.1490276E1,1.5621283E2,6.396958E1,5.2304845E0,4.91083E0,2.8165984E0,4.322769E0,1.8655713E0,7.0944025E2,8.655246E0,8.845206E0,2.7571058E0,2.1569943E0,1.1592272E2,4.128588E0,9.812228E0,1.6067806E1,1.24545E2,9.2430664E1,5.8412376E1,3.624089E1,2.3385382E1,1.0602673E0,4.5983524E0,4.9788976E0,1.5724105E0,3.5978645E1,9.139889E0,1.8031616E1,2.2234968E1,1.7298483E1,1.2452366E1,2.691907E1,1.5513412E0,3.240957E2,1.5104255E1,3.560343E1,6.79697E0,4.4693306E1,1.47501E2,8.71181E0,3.905253E1,2.4917053E1,1.1646636E0,4.0658207E0,2.4508681E0,2.459962E0,1.0836551E0,1.7329433E0,2.5583045E0,7.0688196E2,3.6621983E0,4.993047E0,7.6814427E0,1.1637635E0,1.6466191E0,1.1104866E0,1.0813985E0,1.075596E0,5.3469276E0,1.1057579E2,1.0323881E0,3.0962E0,4.0489945E0,5.763234E0,3.1345499E0,1.2933255E1,5.447065E1,7.007435E1,2.292747E1,6.95032E1,3.935561E1,1.9056765E1,8.087501E0,2.815339E1,1.3286852E0,2.2056696E1,2.7011154E0,1.8972372E0,3.6811242E0,1.2977736E0,3.48416E1,1.137045E0,6.1046844E0,3.035204E0,1.4348244E1,3.683373E0,5.808148E0,1.642682E1,8.481585E0,8.816898E0,9.015047E0,3.4373183E0,2.111823E0,2.4807245E1,2.8280945E0,3.212676E2,1.3354322E1,1.7499324E0,8.158017E0,2.7445414E1,1.2096393E0,5.5873303E0,4.318186E1,1.5114442E0,1.463002E2,1.2008059E0,1.3896141E0,7.322196E0,1.5594617E0,3.7493065E1,5.476173E0,1.944088E1,1.0166395E0,1.4342285E0,1.0204418E0,1.4395201E0,1.0012481E0,1.5570565E0,7.002813E2,6.6006436E0],"tree_param":{"num_deleted":"0","num_feature":"320","num_nodes":"161","size_leaf_vector":"0"}},{"base_weights":[-6.24345E-1,-4.9399325E-1,-9.9957216E-1,-1.7980419E-1,-6.661958E-1,-0E0,-1.013193E0,-4.0218583E-1,3.217305E-2,-8.5379004E-1,-4.932197E-1,3.820085E-1,-5.3485227E-1,-0E0,-1.0184203E0,-6.145283E-1,-1.235981E-1,-1.1265636E-1,4.6402782E-1,-8.857398E-1,-2.3902349E-1,-3.8573954E-1,-8.558408E-1,-0E0,-2.1756844E-1,1.0634161E-1,-1.18492916E-1,-1.0221306E0,1.6673949E-2,-6.923009E-1,2.62668E-1,3.9362428E-1,-2.703102E-1,5.2041876E-1,-1.9319929E-1,-4.092473E-2,7.857946E-1,7.730112E-2,-8.9833415E-1,-8.561777E-1,3.2853135E-1,-4.237341E-2,-5.296914E-1,-9.3380076E-1,-3.6170232E-1,-0E0,-1.0248344E0,-3.853516E-2,-7.981954E-1,9.0063953E-1,-2.0799406E-1,7.012119E-1,-3.738526E-1,-0E0,-6.429258E-1,-5.260629E-1,7.597552E-1,-4.275235E-1,1.3466143E-2,6.614616E-1,-4.2952913E-1,1.4840486E0,3.1987017E-1,4.685478E-1,-2.0267525E-1,7.88057E-2,-9.0529E-1,-0E0,-2.750785E-1,1.6146357E0,-3.919198E-1,1.8643123E0,-1.761141E-1,-6.351527E-1,2.5985816E-1,-1.2633042E-1,-9.63941E-1,1.6172202E-1,-7.4444777E-1,-2.6610738E-1,-3.0854657E-1,-1.7826295E-1,2.1008113E-1,-1.4602867E-1,-2.8685457E-1,3.8146302E-1,-0E0,2.770568E-1,-2.1624696E-1,-8.0879524E-2,3.0216077E-1,-2.3085518E-1,1.12679444E-1,1.2291101E-1,-1.15641944E-1,-2.7669924E-1,-2.2033839E-2,-0E0,-2.0413625E-1,4.379857E-2,4.309943E-1,-1.4250961E-1,2.765345E-1,1.2086462E-1,-6.272926E-2,3.8171977E-1,-0E0,-2.8008422E-1,1.0754767E-2,-0E0,5.130078E-1,-1.2264111E-1,1.9238456E-1,6.2119197E-2,-2.737341E-1,6.778493E-1,-0E0,-2.3166083E-1,4.9239304E-2,-0E0,7.6672924E-1,1.2660295E-1,-1.200364E-1,2.8399563E-1,-2.012559E-1,3.484695E-1,-6.848735E-2,-1.9378893E-1,2.0354491E-1,-9.345272E-2,-2.9895976E-1,2.462033E-1,-1.8329452E-1,-2.6604936E-1,-0E0,2.0777501E-2,-1.6628818E-1],"categories":[],"categories_nodes":[],"categories_segments":[],"categories_sizes":[],"default_left":[0,0,0,0,0,0,0,0,0,0,0,0,0,0,0,0,0,0,0,0,0,0,0,0,0,0,0,0,0,0,0,0,0,0,0,0,0,0,0,0,0,0,0,0,0,0,0,0,0,0,0,0,0,0,0,0,0,0,0,0,0,0,0,0,0,0,0,0,0,0,0,0,0,0,0,0,0,0,0,0,0,0,0,0,0,0,0,0,0,0,0,0,0,0,0,0,0,0,0,0,0,0,0,0,0,0,0,0,0,0,0,0,0,0,0,0,0,0,0,0,0,0,0,0,0,0,0,0,0,0,0,0,0,0,0,0,0],"id":9,"left_children":[1,3,5,7,9,11,13,15,17,19,21,-1,23,25,27,29,31,33,35,37,39,41,43,-1,-1,-1,-1,45,-1,47,49,51,53,55,57,59,61,63,65,67,69,71,73,75,77,-1,79,81,83,85,87,89,91,93,95,97,99,101,103,105,107,109,111,-1,-1,-1,113,-1,-1,115,117,119,121,123,125,127,129,131,133,135,-1,-1,-1,-1,-1,-1,-1,-1,-1,-1,-1,-1,-1,-1,-1,-1,-1,-1,-1,-1,-1,-1,-1,-1,-1,-1,-1,-1,-1,-1,-1,-1,-1,-1,-1,-1,-1,-1,-1,-1,-1,-1,-1,-1,-1,-1,-1,-1,-1,-1,-1,-1,-1,-1,-1,-1,-1],"loss_changes":[8.579474E1,7.107068E1,6.2569275E0,2.240147E1,2.66044E1,5.547164E0,2.2677612E0,1.3225395E1,1.5296556E1,7.2150574E0,1.6504303E1,0E0,8.083229E-1,6.247695E-1,2.3264465E0,9.2564125E0,7.8018007E0,9.133178E0,1.0408005E1,5.155731E0,8.3341055E0,1.6909847E1,2.8864899E0,0E0,0E0,0E0,0E0,7.797241E-1,0E0,7.86467E0,3.7698627E0,5.6766353E0,7.978963E0,5.5071964E0,8.030256E0,6.803193E0,1.1070465E1,7.5167003E0,3.6369934E0,3.7577915E-1,1.2256277E1,2.6263042E1,2.0697815E1,1.4092636E0,3.6578195E0,0E0,3.145752E-1,7.937045E0,3.8632126E0,2.1095586E0,4.3729777E0,5.598793E0,2.428595E0,7.7892528E0,4.783496E0,2.5246E-1,6.0678062E0,5.1386995E0,7.6011543E0,3.7689233E0,4.403436E0,5.051594E0,6.1519256E0,0E0,0E0,0E0,3.5628662E0,0E0,0E0,5.5673876E0,2.1590219E0,8.952452E0,1.346117E1,1.2717133E1,1.3471018E1,2.4367127E0,7.683563E-1,4.228301E0,1.4403472E0,6.811142E-1,0E0,0E0,0E0,0E0,0E0,0E0,0E0,0E0,0E0,0E0,0E0,0E0,0E0,0E0,0E0,0E0,0E0,0E0,0E0,0E0,0E0,0E0,0E0,0E0,0E0,0E0,0E0,0E0,0E0,0E0,0E0,0E0,0E0,0E0,0E0,0E0,0E0,0E0,0E0,0E0,0E0,0E0,0E0,0E0,0E0,0E0,0E0,0E0,0E0,0E0,0E0,0E0,0E0,0E0,0E0,0E0,0E0],"parents":[2147483647,0,0,1,1,2,2,3,3,4,4,5,5,6,6,7,7,8,8,9,9,10,10,12,12,13,13,14,14,15,15,16,16,17,17,18,18,19,19,20,20,21,21,22,22,27,27,29,29,30,30,31,31,32,32,33,33,34,34,35,35,36,36,37,37,38,38,39,39,40,40,41,41,42,42,43,43,44,44,46,46,47,47,48,48,49,49,50,50,51,51,52,52,53,53,54,54,55,55,56,56,57,57,58,58,59,59,60,60,61,61,62,62,66,66,69,69,70,70,71,71,72,72,73,73,74,74,75,75,76,76,77,77,78,78,79,79],"right_children":[2,4,6,8,10,12,14,16,18,20,22,-1,24,26,28,30,32,34,36,38,40,42,44,-1,-1,-1,-1,46,-1,48,50,52,54,56,58,60,62,64,66,68,70,72,74,76,78,-1,80,82,84,86,88,90,92,94,96,98,100,102,104,106,108,110,112,-1,-1,-1,114,-1,-1,116,118,120,122,124,126,128,130,132,134,136,-1,-1,-1,-1,-1,-1,-1,-1,-1,-1,-1,-1,-1,-1,-1,-1,-1,-1,-1,-1,-1,-1,-1,-1,-1,-1,-1,-1,-1,-1,-1,-1,-1,-1,-1,-1,-1,-1,-1,-1,-1,-1,-1,-1,-1,-1,-1,-1,-1,-1,-1,-1,-1,-1,-1,-1,-1],"split_conditions":[-6.9399666E1,-1.275E1,-8.036157E1,-9.274479E1,-9.08555E1,-2.9214144E1,-7.588167E1,-1.415625E1,-9.1875E0,1E0,-1.0987E1,3.820085E-1,-1.90705E1,-1.8092571E1,1E0,-8.0224E1,-1.515625E1,-1.0144711E2,-9.02175E1,-1.8360577E1,-9.572667E1,-1.00589E2,-6.4870834E1,-0E0,-2.1756844E-1,1.0634161E-1,-1.18492916E-1,-1.9821667E1,1.6673949E-2,-1.7703125E1,-8.2005165E1,-1.3121166E1,-1.53905E1,-1.821875E1,4E0,-9.7152855E1,-8.4527336E1,-9.8221E1,-1.0868886E2,-1.235E1,-9.493083E1,-9.90875E1,-7.371616E1,-1.03762146E2,-6.425E1,-0E0,-1.03350426E2,-1.6791666E1,-1.42838335E1,-1.48875E1,-2.20025E1,-1.6864584E1,-1.3797167E1,-1.3971167E1,-8.915625E1,-1.4875E1,-9.5357834E1,-6.346875E1,-1.7926136E1,-8.625E0,3E0,-8.54415E1,-1.7578E1,4.685478E-1,-2.0267525E-1,7.88057E-2,-2.6203125E1,-0E0,-2.750785E-1,-1.0677083E1,-1.4895833E1,-1.0254018E2,-9.631233E1,-1.01935E2,-1.1359333E1,-7.7291665E0,-1.1642858E1,-1.10025E1,-7.334634E1,-1.81875E1,-3.0854657E-1,-1.7826295E-1,2.1008113E-1,-1.4602867E-1,-2.8685457E-1,3.8146302E-1,-0E0,2.770568E-1,-2.1624696E-1,-8.0879524E-2,3.0216077E-1,-2.3085518E-1,1.12679444E-1,1.2291101E-1,-1.15641944E-1,-2.7669924E-1,-2.2033839E-2,-0E0,-2.0413625E-1,4.379857E-2,4.309943E-1,-1.4250961E-1,2.765345E-1,1.2086462E-1,-6.272926E-2,3.8171977E-1,-0E0,-2.8008422E-1,1.0754767E-2,-0E0,5.130078E-1,-1.2264111E-1,1.9238456E-1,6.2119197E-2,-2.737341E-1,6.778493E-1,-0E0,-2.3166083E-1,4.9239304E-2,-0E0,7.6672924E-1,1.2660295E-1,-1.200364E-1,2.8399563E-1,-2.012559E-1,3.484695E-1,-6.848735E-2,-1.9378893E-1,2.0354491E-1,-9.345272E-2,-2.9895976E-1,2.462033E-1,-1.8329452E-1,-2.6604936E-1,-0E0,2.0777501E-2,-1.6628818E-1],"split_indices":[204,313,236,218,318,207,220,315,57,180,319,0,319,47,18,204,73,120,300,265,286,30,316,0,0,0,0,189,0,313,76,61,159,121,311,206,252,108,188,297,206,234,318,44,300,0,12,123,157,123,175,265,207,269,298,57,142,56,139,25,167,124,191,0,0,0,123,0,0,9,127,74,28,168,141,185,313,237,140,299,0,0,0,0,0,0,0,0,0,0,0,0,0,0,0,0,0,0,0,0,0,0,0,0,0,0,0,0,0,0,0,0,0,0,0,0,0,0,0,0,0,0,0,0,0,0,0,0,0,0,0,0,0,0,0,0,0],"split_type":[0,0,0,0,0,0,0,0,0,0,0,0,0,0,0,0,0,0,0,0,0,0,0,0,0,0,0,0,0,0,0,0,0,0,0,0,0,0,0,0,0,0,0,0,0,0,0,0,0,0,0,0,0,0,0,0,0,0,0,0,0,0,0,0,0,0,0,0,0,0,0,0,0,0,0,0,0,0,0,0,0,0,0,0,0,0,0,0,0,0,0,0,0,0,0,0,0,0,0,0,0,0,0,0,0,0,0,0,0,0,0,0,0,0,0,0,0,0,0,0,0,0,0,0,0,0,0,0,0,0,0,0,0,0,0,0,0],"sum_hessian":[1.7784437E3,1.3226217E3,4.5582202E2,4.7001398E2,8.526077E2,6.105033E0,4.4971698E2,2.3009097E2,2.39923E2,4.0574597E2,4.468618E2,1.4177204E0,4.6873126E0,2.4284747E0,4.472885E2,1.2886676E2,1.0122422E2,1.7935483E2,6.0568176E1,3.8450876E2,2.1237207E1,3.473504E2,9.951137E1,1.0571232E0,3.6301894E0,1.1775184E0,1.2509563E0,4.4626068E2,1.0278136E0,1.1908904E2,9.77771E0,2.1242916E1,7.99813E1,1.8925932E1,1.604289E2,2.3308601E1,3.7259575E1,4.3847723E0,3.80124E2,1.0352464E1,1.0884744E1,1.0401434E2,2.4333607E2,8.430845E1,1.5202913E1,1.614535E0,4.4464615E2,1.7448996E1,1.01640045E2,4.214215E0,5.5634956E0,1.5691814E1,5.5511026E0,4.736342E1,3.2617886E1,2.910939E0,1.6014994E1,7.581641E1,8.461249E1,7.593985E0,1.5714615E1,1.3607901E1,2.3651676E1,1.33739E0,3.0473824E0,1.6167692E0,3.7850723E2,1.0075169E0,9.344947E0,3.7117047E0,7.1730394E0,5.7244782E0,9.828986E1,2.1539435E2,2.7941723E1,3.8174613E0,8.049099E1,6.1134996E0,9.089414E0,3.1408768E0,4.4150528E2,1.0456716E1,6.9922805E0,3.664631E1,6.4993744E1,2.9207006E0,1.293514E0,1.1812776E0,4.382218E0,3.3975067E0,1.2294308E1,4.052178E0,1.4989245E0,2.2582193E1,2.4781225E1,2.0877243E1,1.1740643E1,1.0281522E0,1.8827868E0,9.424161E0,6.5908318E0,7.4221596E1,1.5948087E0,3.1294096E1,5.3318394E1,3.6504402E0,3.9435449E0,7.576363E0,8.138252E0,1.8782045E0,1.1729695E1,6.679963E0,1.6971712E1,1.7945675E0,3.7671265E2,2.496548E0,1.2151567E0,4.5629263E0,2.6101127E0,1.7757945E0,3.9486837E0,2.5932161E1,7.2357704E1,3.881709E0,2.1151265E2,9.689001E0,1.8252722E1,2.8171737E0,1.0002877E0,5.061762E0,7.542923E1,3.6153505E0,2.4981494E0,7.9411297E0,1.148284E0,1.0008569E0,2.14002E0],"tree_param":{"num_deleted":"0","num_feature":"320","num_nodes":"137","size_leaf_vector":"0"}},{"base_weights":[-5.471635E-1,-4.2271376E-1,-9.9899024E-1,-1.4255361E-1,-5.9054965E-1,1.0484308E-2,-1.0078301E0,3.4569782E-1,-2.1309724E-1,-7.828225E-1,-4.5171085E-1,1.9445239E-1,-1.069043E-1,-0E0,-1.0128908E0,5.384854E-1,-2.6930436E-1,-4.144725E-1,1.4855447E-3,-8.203957E-1,-1.6753466E-1,-2.708059E-1,-7.132994E-1,-3.0552003E-1,-0E0,7.162597E-1,-6.7085826E-1,7.3307014E-1,-7.3077184E-1,-4.4979948E-1,8.995931E-1,-1.4148726E-1,5.496337E-1,1.0423583E-1,-8.355658E-1,5.5168784E-1,-5.674381E-1,8.614244E-2,-4.1044515E-1,-8.719598E-1,-3.5323164E-1,4.6170168E-2,-1.0159458E-1,1.0024769E0,-0E0,-2.5930274E-1,-0E0,3.9385965E-1,-5.575721E-2,-3.1171107E-1,-0E0,-0E0,-5.5225134E-1,-2.9903779E-2,6.106016E-1,7.232593E-2,-3.6321077E-1,1.4455823E0,1.3190852E-1,3.7238064E-1,-1.8138507E-1,-6.022257E-1,-9.083056E-1,1.1583556E0,-1.6476531E-1,-8.1907284E-1,2.4063908E-1,3.8384396E-1,-4.0598398E-1,-5.211118E-1,2.3917689E-3,3.0850127E-2,-9.3063176E-1,3.8567984E-1,-6.774869E-1,3.8869762E-1,1.06038265E-1,1.0135622E-1,-2.1076757E-1,1.7582609E-1,-9.242002E-2,-1.3042098E-1,9.8272435E-2,-1.8731642E-1,-0E0,1.0706213E-1,-1.539448E-1,7.1422875E-2,-1.3863981E-1,9.914018E-3,-1.8765394E-1,-0E0,5.685598E-1,1.6709848E-1,-7.461559E-2,2.2018114E-1,-2.0315526E-1,8.5170776E-2,-2.7626052E-1,5.177813E-1,-0E0,-0E0,-2.686174E-1,-1.2933128E-1,3.607391E-1,4.4098245E-3,4.4206426E-1,3.4889796E-1,-1.7421794E-1,-1.944332E-1,-0E0,4.5198497E-1,-5.226426E-2,-1.2770869E-1,2.860416E-1,-0E0,-2.8382438E-1,4.2778853E-1,-1.5688229E-1,5.11604E-2,-2.706151E-1],"categories":[],"categories_nodes":[],"categories_segments":[],"categories_sizes":[],"default_left":[0,0,0,0,0,0,0,0,0,0,0,0,0,0,0,0,0,0,0,0,0,0,0,0,0,0,0,0,0,0,0,0,0,0,0,0,0,0,0,0,0,0,0,0,0,0,0,0,0,0,0,0,0,0,0,0,0,0,0,0,0,0,0,0,0,0,0,0,0,0,0,0,0,0,0,0,0,0,0,0,0,0,0,0,0,0,0,0,0,0,0,0,0,0,0,0,0,0,0,0,0,0,0,0,0,0,0,0,0,0,0,0,0,0,0,0,0,0,0,0,0],"id":10,"left_children":[1,3,5,7,9,11,13,15,17,19,21,-1,-1,-1,23,25,27,29,31,33,35,37,39,-1,41,43,45,47,49,51,53,55,57,59,61,63,65,67,69,71,73,-1,-1,75,77,-1,-1,-1,-1,-1,79,81,83,85,-1,87,89,91,93,-1,-1,95,97,99,-1,101,103,105,107,109,111,113,115,117,119,-1,-1,-1,-1,-1,-1,-1,-1,-1,-1,-1,-1,-1,-1,-1,-1,-1,-1,-1,-1,-1,-1,-1,-1,-1,-1,-1,-1,-1,-1,-1,-1,-1,-1,-1,-1,-1,-1,-1,-1,-1,-1,-1,-1,-1,-1],"loss_changes":[8.320392E1,5.4966415E1,3.385376E0,1.529897E1,1.8665833E1,1.1480432E0,1.6502991E0,6.864001E0,1.7035192E1,6.4328156E0,1.971212E1,0E0,0E0,0E0,1.3623657E0,9.797822E0,6.6873226E0,9.561863E0,1.5041204E1,4.4779053E0,5.960703E0,1.3034912E1,9.046898E0,0E0,2.9004982E-1,8.305389E0,9.1837E-1,3.1255999E0,2.6822057E0,9.167908E0,6.609967E0,7.25631E0,1.3949023E1,5.090006E0,3.5006409E0,5.6607347E0,3.2398314E0,1.0728794E1,8.77256E0,6.806587E0,1.3827089E1,0E0,0E0,4.0333023E0,3.1380036E0,0E0,0E0,0E0,0E0,0E0,9.383439E-1,5.4785957E0,6.4072227E0,9.4025135E-1,0E0,6.7096214E0,8.078814E0,8.750536E0,4.9339323E0,0E0,0E0,7.664816E0,3.7569885E0,4.2541065E0,0E0,6.138787E-1,3.1761265E0,1.7802454E1,7.809394E0,1.0070766E1,1.1402221E1,3.9291255E0,1.5333252E0,1.7501896E1,8.091448E0,0E0,0E0,0E0,0E0,0E0,0E0,0E0,0E0,0E0,0E0,0E0,0E0,0E0,0E0,0E0,0E0,0E0,0E0,0E0,0E0,0E0,0E0,0E0,0E0,0E0,0E0,0E0,0E0,0E0,0E0,0E0,0E0,0E0,0E0,0E0,0E0,0E0,0E0,0E0,0E0,0E0,0E0,0E0,0E0,0E0,0E0],"parents":[2147483647,0,0,1,1,2,2,3,3,4,4,5,5,6,6,7,7,8,8,9,9,10,10,14,14,15,15,16,16,17,17,18,18,19,19,20,20,21,21,22,22,24,24,25,25,26,26,27,27,28,28,29,29,30,30,31,31,32,32,33,33,34,34,35,35,36,36,37,37,38,38,39,39,40,40,43,43,44,44,50,50,51,51,52,52,53,53,55,55,56,56,57,57,58,58,61,61,62,62,63,63,65,65,66,66,67,67,68,68,69,69,70,70,71,71,72,72,73,73,74,74],"right_children":[2,4,6,8,10,12,14,16,18,20,22,-1,-1,-1,24,26,28,30,32,34,36,38,40,-1,42,44,46,48,50,52,54,56,58,60,62,64,66,68,70,72,74,-1,-1,76,78,-1,-1,-1,-1,-1,80,82,84,86,-1,88,90,92,94,-1,-1,96,98,100,-1,102,104,106,108,110,112,114,116,118,120,-1,-1,-1,-1,-1,-1,-1,-1,-1,-1,-1,-1,-1,-1,-1,-1,-1,-1,-1,-1,-1,-1,-1,-1,-1,-1,-1,-1,-1,-1,-1,-1,-1,-1,-1,-1,-1,-1,-1,-1,-1,-1,-1,-1,-1,-1],"split_conditions":[-6.848214E1,-1.275E1,-1.5418E1,-1.7978E1,-9.13844E1,-8.616964E1,-1.00889336E2,1E0,-8.824983E1,1E0,-1.1374833E1,1.9445239E-1,-1.069043E-1,-0E0,1E0,1E0,-1.59984E1,-1.03125E1,-9.2E0,-1.8360577E1,-1.4553625E1,-1.0200533E2,-7.0520835E0,-3.0552003E-1,-8.36125E1,1E0,-1.47511425E1,-1.63375E1,-8.3875E1,-1.7703125E1,-1.5706E1,-1.4186334E1,-9.4375E1,-9.8221E1,-1.9411333E1,-8.979167E0,-7.9E0,-7.43125E1,-1.0787833E1,-1.5767858E1,-1.0225E1,4.6170168E-2,-1.0159458E-1,-9.02562E1,-1.519E1,-2.5930274E-1,-0E0,3.9385965E-1,-5.575721E-2,-3.1171107E-1,-1.0932292E1,-1.728125E1,-7.75E1,2E0,6.106016E-1,-7.79375E1,-1.68985E1,-1.6781E1,-8.5125E1,3.7238064E-1,-1.8138507E-1,-1.6540142E1,-1.0868886E2,-1.5451834E1,-1.6476531E-1,-1.0547283E2,-8.12875E1,-7.568125E1,-8.8422E1,5E0,-1.6052E1,0E0,-1.9303572E1,-1.9691334E1,-1.27865E1,3.8869762E-1,1.06038265E-1,1.0135622E-1,-2.1076757E-1,1.7582609E-1,-9.242002E-2,-1.3042098E-1,9.8272435E-2,-1.8731642E-1,-0E0,1.0706213E-1,-1.539448E-1,7.1422875E-2,-1.3863981E-1,9.914018E-3,-1.8765394E-1,-0E0,5.685598E-1,1.6709848E-1,-7.461559E-2,2.2018114E-1,-2.0315526E-1,8.5170776E-2,-2.7626052E-1,5.177813E-1,-0E0,-0E0,-2.686174E-1,-1.2933128E-1,3.607391E-1,4.4098245E-3,4.4206426E-1,3.4889796E-1,-1.7421794E-1,-1.944332E-1,-0E0,4.5198497E-1,-5.226426E-2,-1.2770869E-1,2.860416E-1,-0E0,-2.8382438E-1,4.2778853E-1,-1.5688229E-1,5.11604E-2,-2.706151E-1],"split_indices":[76,313,205,317,318,280,300,305,300,180,317,0,0,0,257,306,319,297,41,265,77,14,297,0,218,308,95,235,90,313,47,61,282,108,15,313,265,312,269,297,25,0,0,14,15,0,0,0,0,0,185,123,200,119,0,282,159,255,264,0,0,317,188,141,0,254,42,72,252,279,141,317,269,159,221,0,0,0,0,0,0,0,0,0,0,0,0,0,0,0,0,0,0,0,0,0,0,0,0,0,0,0,0,0,0,0,0,0,0,0,0,0,0,0,0,0,0,0,0,0,0],"split_type":[0,0,0,0,0,0,0,0,0,0,0,0,0,0,0,0,0,0,0,0,0,0,0,0,0,0,0,0,0,0,0,0,0,0,0,0,0,0,0,0,0,0,0,0,0,0,0,0,0,0,0,0,0,0,0,0,0,0,0,0,0,0,0,0,0,0,0,0,0,0,0,0,0,0,0,0,0,0,0,0,0,0,0,0,0,0,0,0,0,0,0,0,0,0,0,0,0,0,0,0,0,0,0,0,0,0,0,0,0,0,0,0,0,0,0,0,0,0,0,0,0],"sum_hessian":[1.4988662E3,1.177564E3,3.2130228E2,4.4296796E2,7.34596E2,2.2965846E0,3.190057E2,5.4534153E1,3.884338E2,3.0456927E2,4.300267E2,1.0563409E0,1.2402436E0,1.5811405E0,3.1742456E2,4.22327E1,1.2301456E1,2.0110518E2,1.8732863E2,2.8596082E2,1.8608467E1,2.565517E2,1.73475E2,3.1530228E2,2.122291E0,3.753605E1,4.696649E0,3.3508532E0,8.950603E0,1.9685129E2,4.2538924E0,1.4844073E2,3.888789E1,3.9891353E0,2.8197168E2,6.0670614E0,1.2541406E1,7.1242584E1,1.8530913E2,1.1846448E2,5.501053E1,1.0078175E0,1.1144736E0,2.6936897E1,1.0599152E1,3.6609676E0,1.0356816E0,2.1253116E0,1.2255416E0,6.4065566E0,2.5440464E0,3.653956E1,1.6031174E2,2.6327083E0,1.6211842E0,7.476339E1,7.3677345E1,1.1202624E1,2.7685266E1,1.5143372E0,2.4747982E0,7.084922E1,2.1112245E2,4.1707206E0,1.8963406E0,1.0024827E1,2.5165794E0,4.516001E1,2.608257E1,1.4688377E2,3.8425358E1,6.7378945E0,1.11726585E2,1.6249594E1,3.8760933E1,1.7338009E1,9.598888E0,7.1192484E0,3.4799035E0,1.0398446E0,1.5042017E0,1.5441283E1,2.1098274E1,1.416262E2,1.8685524E1,1.0328648E0,1.5998434E0,5.8203083E1,1.6560305E1,2.893434E1,4.4743E1,2.6668375E0,8.535788E0,1.3480469E1,1.4204799E1,2.94218E0,6.790704E1,1.5612543E0,2.0956119E2,2.7571795E0,1.4135412E0,1.0336043E0,8.991222E0,1.5005366E0,1.0160428E0,3.483257E1,1.0327443E1,1.7603072E0,2.4322262E1,1.1858106E2,2.8302708E1,3.5435674E0,3.488179E1,4.5052214E0,2.2326736E0,1.9384965E0,1.09788086E2,7.5670156E0,8.682578E0,7.699451E0,3.1061483E1],"tree_param":{"num_deleted":"0","num_feature":"320","num_nodes":"121","size_leaf_vector":"0"}},{"base_weights":[-4.721388E-1,-3.5581574E-1,-1.0047138E0,-1.5752436E-1,-5.757911E-1,-0E0,-3.0412966E-1,-3.1451148E-1,6.6999644E-2,-7.591188E-1,-3.551766E-1,8.27448E-2,-8.887383E-2,1.1695208E-1,-4.254347E-1,-1.5824339E-1,3.7285304E-1,-2.2822455E-1,-8.249671E-1,-1.6118465E-1,-7.85052E-1,-0E0,1.2576097E0,-1.5330896E-1,-5.916735E-1,9.147845E-2,-4.2677897E-1,6.2703985E-1,-2.6706916E-1,-7.9606724E-1,3.963997E-1,-8.472699E-1,8.86929E-2,4.3697733E-1,-2.82588E-1,-6.2015418E-2,-8.803453E-1,9.5348966E-1,-1.5616457E-1,-0E0,2.1485453E0,-4.6681008E-1,8.675295E-2,-7.220213E-1,-9.558869E-2,2.4502604E-1,-5.3433055E-1,1.3731939E-1,-5.652334E-1,3.201544E-1,1.2660437E0,3.526697E-1,-5.88243E-1,-8.94469E-1,3.1433392E-2,1.7748036E0,-3.7539724E-2,1.6567212E-1,-8.6081743E-1,3.5646313E-1,-3.9253107E-1,-1.830928E-1,1.3206246E0,5.3296995E-1,-3.9088285E-1,-6.603692E-1,8.012982E-1,-0E0,-9.210419E-1,-0E0,3.3322686E-1,3.7411742E-2,-1.2749119E-1,1.4044563E-1,-1.1279412E-1,2.0090532E-2,8.2643735E-1,-1.7913097E-1,5.467326E-2,1.342922E-1,-9.35854E-2,-2.3258702E-1,5.3189132E-2,-8.132748E-2,3.00397E-1,3.3318754E-2,2.8519446E-1,-2.7765185E-1,1.8001521E-2,-2.6372535E-2,4.389508E-1,-1.9953762E-1,3.8029417E-2,1.542184E-1,-1.3958302E-1,-2.0986613E-2,5.035854E-1,2.5976327E-1,-7.793997E-2,1.9716603E-1,-2.4624412E-1,-2.8444532E-1,-0E0,7.157786E-1,-0E0,-2.0015572E-1,1.425206E-1,2.867349E-1,-1.17193595E-1,-0E0,-2.614849E-1,-1.9348457E-1,-0E0,-1.7914943E-1,1.6414233E-1,-1.00542374E-1,5.652708E-1,5.2661395E-1,-7.5002117E-3,-2.0089605E-1,2.503788E-2,-0E0,-2.3065872E-1,3.7136942E-1,-0E0,1.7872979E-1,-1.2153726E-1,-2.8400525E-1,-3.7092222E-3],"categories":[],"categories_nodes":[],"categories_segments":[],"categories_sizes":[],"default_left":[0,0,0,0,0,0,0,0,0,0,0,0,0,0,0,0,0,0,0,0,0,0,0,0,0,0,0,0,0,0,0,0,0,0,0,0,0,0,0,0,0,0,0,0,0,0,0,0,0,0,0,0,0,0,0,0,0,0,0,0,0,0,0,0,0,0,0,0,0,0,0,0,0,0,0,0,0,0,0,0,0,0,0,0,0,0,0,0,0,0,0,0,0,0,0,0,0,0,0,0,0,0,0,0,0,0,0,0,0,0,0,0,0,0,0,0,0,0,0,0,0,0,0,0,0,0,0,0,0],"id":11,"left_children":[1,3,5,7,9,11,-1,13,15,17,19,-1,-1,21,23,25,27,29,31,33,35,37,39,41,43,45,47,49,51,53,55,57,59,61,63,65,67,69,71,73,75,77,79,81,83,85,87,89,91,93,95,97,99,101,-1,103,105,107,109,-1,111,113,115,117,119,121,123,125,127,-1,-1,-1,-1,-1,-1,-1,-1,-1,-1,-1,-1,-1,-1,-1,-1,-1,-1,-1,-1,-1,-1,-1,-1,-1,-1,-1,-1,-1,-1,-1,-1,-1,-1,-1,-1,-1,-1,-1,-1,-1,-1,-1,-1,-1,-1,-1,-1,-1,-1,-1,-1,-1,-1,-1,-1,-1,-1,-1,-1],"loss_changes":[7.84259E1,4.556401E1,2.0180206E0,1.9793709E1,1.9339584E1,3.363061E-1,0E0,1.597633E1,1.5935552E1,8.731018E0,1.8531517E1,0E0,0E0,9.230055E0,1.1447758E1,9.030479E0,1.6339863E1,1.1878277E1,5.327957E0,1.1675163E1,4.316265E0,9.194076E0,6.982914E0,7.932516E0,9.994919E0,6.5241528E0,5.3325834E0,1.2768892E1,5.916986E0,2.042738E0,1.0208683E1,3.7026825E0,4.076007E0,1.5448647E1,1.2009375E1,5.55736E0,2.4183388E0,1.4908519E0,4.293907E0,8.3727705E-1,3.0882816E0,4.1590652E0,8.538274E0,6.5351486E0,6.7695117E0,4.6533766E0,3.5286906E0,4.642377E0,3.9985447E0,7.8761396E0,1.3181137E1,3.5716376E0,6.2434845E0,6.3350296E-1,0E0,3.6477785E0,4.445908E0,2.1684873E0,2.1411133E0,0E0,7.126634E-1,5.2637105E0,1.211054E1,1.1575773E1,1.6188005E1,4.4802356E-1,2.0038805E0,1.120653E0,8.8232803E-1,0E0,0E0,0E0,0E0,0E0,0E0,0E0,0E0,0E0,0E0,0E0,0E0,0E0,0E0,0E0,0E0,0E0,0E0,0E0,0E0,0E0,0E0,0E0,0E0,0E0,0E0,0E0,0E0,0E0,0E0,0E0,0E0,0E0,0E0,0E0,0E0,0E0,0E0,0E0,0E0,0E0,0E0,0E0,0E0,0E0,0E0,0E0,0E0,0E0,0E0,0E0,0E0,0E0,0E0,0E0,0E0,0E0,0E0,0E0,0E0],"parents":[2147483647,0,0,1,1,2,2,3,3,4,4,5,5,7,7,8,8,9,9,10,10,13,13,14,14,15,15,16,16,17,17,18,18,19,19,20,20,21,21,22,22,23,23,24,24,25,25,26,26,27,27,28,28,29,29,30,30,31,31,32,32,33,33,34,34,35,35,36,36,37,37,38,38,39,39,40,40,41,41,42,42,43,43,44,44,45,45,46,46,47,47,48,48,49,49,50,50,51,51,52,52,53,53,55,55,56,56,57,57,58,58,60,60,61,61,62,62,63,63,64,64,65,65,66,66,67,67,68,68],"right_children":[2,4,6,8,10,12,-1,14,16,18,20,-1,-1,22,24,26,28,30,32,34,36,38,40,42,44,46,48,50,52,54,56,58,60,62,64,66,68,70,72,74,76,78,80,82,84,86,88,90,92,94,96,98,100,102,-1,104,106,108,110,-1,112,114,116,118,120,122,124,126,128,-1,-1,-1,-1,-1,-1,-1,-1,-1,-1,-1,-1,-1,-1,-1,-1,-1,-1,-1,-1,-1,-1,-1,-1,-1,-1,-1,-1,-1,-1,-1,-1,-1,-1,-1,-1,-1,-1,-1,-1,-1,-1,-1,-1,-1,-1,-1,-1,-1,-1,-1,-1,-1,-1,-1,-1,-1,-1,-1,-1],"split_conditions":[-6.6123665E1,-1.0927885E1,-1.08295E1,-8.57655E1,-8.606571E1,-7.655E1,-3.0412966E-1,-1.7321667E1,-1.1416667E1,-9.9098145E1,-1.136325E1,8.27448E-2,-8.887383E-2,-7.071875E1,-1.4859375E1,-1.43125E1,-1.1094857E1,-1.4678166E1,-6.125E0,1E0,-1.4839833E1,-1.02656334E2,-1.245E1,-1.68625E1,-8.7384E1,-7.53085E1,-1.5059E1,-1.4008E1,-1.4252833E1,-7.888167E1,-1.2825E1,-2.12675E1,-1.90875E1,-1.5447917E1,-9.11875E1,-6.42655E1,-1.5267045E1,-1.9761667E1,-1.5666667E1,-7.4425E1,-7.496733E1,-8.5675E1,3E0,-1.07605E1,-1.236525E1,-1.1783654E1,-8.359375E1,-1.01E1,-1.11875E1,-7.32655E1,-9.03E1,-1.6740385E1,-8.773033E1,-1.3761286E1,3.1433392E-2,-1.5492286E1,-9.571085E1,-9.248214E1,-1.8630333E1,3.5646313E-1,-9.78125E0,-1.4078E1,-9.4515335E1,-9.486833E1,-1.0683833E1,-1.5515572E1,-8.637233E1,-1.8525E1,1E0,-0E0,3.3322686E-1,3.7411742E-2,-1.2749119E-1,1.4044563E-1,-1.1279412E-1,2.0090532E-2,8.2643735E-1,-1.7913097E-1,5.467326E-2,1.342922E-1,-9.35854E-2,-2.3258702E-1,5.3189132E-2,-8.132748E-2,3.00397E-1,3.3318754E-2,2.8519446E-1,-2.7765185E-1,1.8001521E-2,-2.6372535E-2,4.389508E-1,-1.9953762E-1,3.8029417E-2,1.542184E-1,-1.3958302E-1,-2.0986613E-2,5.035854E-1,2.5976327E-1,-7.793997E-2,1.9716603E-1,-2.4624412E-1,-2.8444532E-1,-0E0,7.157786E-1,-0E0,-2.0015572E-1,1.425206E-1,2.867349E-1,-1.17193595E-1,-0E0,-2.614849E-1,-1.9348457E-1,-0E0,-1.7914943E-1,1.6414233E-1,-1.00542374E-1,5.652708E-1,5.2661395E-1,-7.5002117E-3,-2.0089605E-1,2.503788E-2,-0E0,-2.3065872E-1,3.7136942E-1,-0E0,1.7872979E-1,-1.2153726E-1,-2.8400525E-1,-3.7092222E-3],"split_indices":[140,313,141,300,318,8,0,317,25,76,319,0,0,104,313,169,205,287,281,135,253,140,281,139,316,300,285,255,61,270,185,201,11,91,216,316,89,157,313,8,28,298,7,269,287,297,72,281,41,12,216,155,316,303,0,239,318,156,109,0,235,207,222,222,269,173,142,171,244,0,0,0,0,0,0,0,0,0,0,0,0,0,0,0,0,0,0,0,0,0,0,0,0,0,0,0,0,0,0,0,0,0,0,0,0,0,0,0,0,0,0,0,0,0,0,0,0,0,0,0,0,0,0,0,0,0,0,0,0],"split_type":[0,0,0,0,0,0,0,0,0,0,0,0,0,0,0,0,0,0,0,0,0,0,0,0,0,0,0,0,0,0,0,0,0,0,0,0,0,0,0,0,0,0,0,0,0,0,0,0,0,0,0,0,0,0,0,0,0,0,0,0,0,0,0,0,0,0,0,0,0,0,0,0,0,0,0,0,0,0,0,0,0,0,0,0,0,0,0,0,0,0,0,0,0,0,0,0,0,0,0,0,0,0,0,0,0,0,0,0,0,0,0,0,0,0,0,0,0,0,0,0,0,0,0,0,0,0,0,0,0],"sum_hessian":[1.2816906E3,1.0540712E3,2.2761942E2,5.564564E2,4.9761478E2,2.1007972E0,2.2551862E2,3.2855615E2,2.2790024E2,2.692032E2,2.2841156E2,1.0181816E0,1.0826155E0,6.6259865E1,2.622963E2,1.3058208E2,9.731817E1,3.1036245E1,2.3816696E2,1.5913571E2,6.9275856E1,6.0842228E1,5.4176383E0,1.0133887E2,1.6095741E2,6.703809E1,6.354398E1,7.022514E1,2.709302E1,1.6532574E1,1.4503671E1,2.330969E2,5.070066E0,2.571557E1,1.3342014E2,8.870301E0,6.0405552E1,7.659479E0,5.318275E1,2.7061954E0,2.7114427E0,4.4440926E1,5.689794E1,1.2630663E2,3.4650784E1,5.4960495E1,1.2077597E1,1.1812751E1,5.173123E1,4.898384E1,2.1241304E1,8.683136E0,1.8409883E1,1.5411271E1,1.1213031E0,3.0087292E0,1.1494942E1,2.4411056E0,2.3065578E2,1.4125338E0,3.657532E0,1.5244918E1,1.0470653E1,1.463874E1,1.18781395E2,5.7200403E0,3.1502614E0,2.45584E0,5.794971E1,1.0701535E0,6.5893254E0,2.5360273E1,2.7822477E1,1.2106938E0,1.4955015E0,1.0480655E0,1.6633772E0,3.7719406E1,6.7215176E0,3.0459139E1,2.6438803E1,1.1989864E2,6.4079885E0,3.0913408E1,3.7373767E0,4.7759304E1,7.201192E0,7.4549894E0,4.6226077E0,1.0573214E1,1.2395372E0,4.5870995E1,5.860235E0,4.0072784E1,8.9110565E0,4.9218616E0,1.6319443E1,4.9434667E0,3.7396696E0,2.2712274E0,1.6138657E1,1.4310227E1,1.1010437E0,1.8589444E0,1.1497848E0,5.460978E0,6.033963E0,1.0832839E0,1.3578217E0,2.8863204E0,2.2776947E2,2.4385607E0,1.2189713E0,1.02817135E1,4.963204E0,2.5366793E0,7.933973E0,4.196057E0,1.0442682E1,7.5218124E1,4.356328E1,1.0048192E0,4.715221E0,2.0466597E0,1.1036017E0,1.0404199E0,1.4154202E0,5.578347E1,2.166242E0],"tree_param":{"num_deleted":"0","num_feature":"320","num_nodes":"129","size_leaf_vector":"0"}},{"base_weights":[-4.00264E-1,-2.9231256E-1,-9.9449974E-1,-1.383281E-1,-5.2749527E-1,-0E0,-1.0017347E0,-4.5536393E-1,-5.8603868E-2,-7.327779E-1,-3.1114542E-1,-3.019044E-1,-0E0,3.0869722E-1,-5.5884504E-1,7.378222E-2,-2.119307E-1,-0E0,-7.7622074E-1,-1.2990893E-1,-7.5135595E-1,-5.324484E-1,7.583236E-1,-6.8744594E-1,-8.703046E-2,4.3489315E-2,1.3230712E0,-2.6804852E-1,7.5498074E-1,-5.985282E-1,9.914349E-1,-8.0499434E-1,2.3363362E-1,3.865776E-1,-2.5775138E-1,-1.1119287E-2,-8.559192E-1,-1.9674046E-1,-0E0,-0E0,9.658831E-1,9.194083E-2,-7.540937E-1,-5.421117E-1,6.726632E-1,-1.4147231E-1,1.8944018E-1,1.756982E0,-1.1567378E-2,4.739462E-2,-4.7957635E-1,-4.7104448E-1,1.4109211E0,-2.4536024E-1,5.1307313E-2,-9.783189E-2,1.6472486E0,-9.101239E-1,-5.438076E-1,9.918192E-1,-1.5951201E-1,-1.8829045E-1,1.154867E0,-6.827245E-1,-3.936398E-2,6.342155E-1,-5.373406E-1,-0E0,-9.092288E-1,-0E0,3.4789816E-1,2.4307299E-1,-1.8576607E-1,-2.4523915E-1,1.5247605E-2,2.1432184E-2,-2.4024798E-1,3.5072315E-1,-9.99339E-2,3.16869E-2,-1.7683159E-1,-0E0,1.8783893E-1,6.678802E-1,1.2981914E-1,-1.7938545E-2,3.025329E-1,-2.1539137E-1,-3.4565154E-2,-1.9701435E-1,-0E0,7.489378E-1,4.3113705E-2,6.302633E-1,-0E0,-2.790839E-1,2.3719203E-2,1.02739386E-1,-1.9194128E-1,4.6757945E-1,-0E0,-1.3249463E-1,4.197899E-1,4.806498E-1,-9.087269E-2,-2.9582548E-1,-3.4168318E-2,1.5702927E-1,-9.9843696E-2,3.3208856E-1,-1.6698712E-2,